function [Y,Xf,Af] = myNeuralNetworkFunction_test18(X,~,~)
%MYNEURALNETWORKFUNCTION neural network simulation function.
%
% Auto-generated by MATLAB, 20-Jan-2019 18:39:53.
%
% [Y] = myNeuralNetworkFunction(X,~,~) takes these arguments:
%
%   X = 1xTS cell, 1 inputs over TS timesteps
%   Each X{1,ts} = 100xQ matrix, input #1 at timestep ts.
%
% and returns:
%   Y = 1xTS cell of 1 outputs over TS timesteps.
%   Each Y{1,ts} = 4xQ matrix, output #1 at timestep ts.
%
% where Q is number of samples (or series) and TS is the number of timesteps.

%#ok<*RPMT0>

% ===== NEURAL NETWORK CONSTANTS =====

% Input 1
x1_step1.keep = [2 3 4 5 6 7 8 9 10 11 12 13 14 15 16 17 18 19 20 21 22 23 24 25 26 27 28 29 30 31 32 33 34 35 36 37 38 39 40 41 42 43 44 45 46 47 48 49 50 52 53 54 55 56 57 58 59 60 61 62 63 64 65 66 67 68 69 70 71 72 73 74 75 76 77 78 79 80 81 82 83 84 85 86 87 88 89 90 91 92 93 94 95 96 97 98 99 100];
x1_step2.xoffset = [1.62783868762373e-06;3.29235743488176e-06;4.95687618141471e-06;6.62139492722259e-06;8.28591367230538e-06;9.9504324166631e-06;1.16149511602957e-05;1.32794699032033e-05;1.49439886453858e-05;1.66085073868432e-05;1.82730261275755e-05;1.99375448675828e-05;2.1602063606865e-05;2.3266582345422e-05;2.49311010832541e-05;2.6595619820361e-05;2.82601385567429e-05;2.99246572923997e-05;3.15891760273314e-05;3.3253694761538e-05;3.49182134950195e-05;3.6582732227776e-05;3.82472509598074e-05;3.99117696911137e-05;4.1576288421695e-05;4.32408071515511e-05;4.49053258806822e-05;4.65698446090882e-05;4.82343633367691e-05;4.9898882063725e-05;5.15634007899558e-05;5.32279195154615e-05;5.48924382402421e-05;5.65569569642976e-05;5.82214756876281e-05;5.98859944102335e-05;6.15505131321138e-05;6.3215031853269e-05;6.48795505736992e-05;6.65440692934042e-05;6.82085880123842e-05;6.98731067306392e-05;7.1537625448169e-05;7.32021441649738e-05;7.48666628810534e-05;7.65311815964081e-05;7.81957003110376e-05;7.98602190249421e-05;8.15247377381214e-05;-3.13961369814159;-6.2002706583281;-7.06563778472613;-6.05846885036222;-6.43573549433734;-6.05758737982989;-6.35156948812191;-6.69488126412169;-7.25054633244247;-6.03649476048704;-4.40516245389388;-5.93875141158541;-6.83547826975759;-6.84590623692261;-6.2637204318963;-5.75985276652472;-6.26951562245211;-6.76776440772388;-7.31277163798952;-7.6673720871171;-7.61992209379298;-7.20157906139928;-6.45948492661752;-6.1982116404512;-6.64551141553138;-6.98576647882772;-7.26551145997155;-7.51694413603452;-7.56779025659336;-7.42687795752067;-7.10738493986084;-6.62629002516772;-6.13666911559127;-6.14401360158823;-6.23443723543235;-6.24207111741777;-6.29613287868122;-6.40986495507242;-6.48488704265076;-6.46971254969274;-6.48449185629907;-6.5418563966064;-6.52063550416879;-6.42369811040102;-6.49214497125158;-6.54821976277786;-6.53845955930302;-6.46624990899143;-6.33540821174902];
x1_step2.gain = [0.168737508752019;0.121932421313307;0.100242286487221;0.0870581844749853;0.0722965064151759;0.0634972882971205;0.0577771846771588;0.0538387719687379;0.0510166096658193;0.0481607248860804;0.0457189202265288;0.0437297187662752;0.0420868116580258;0.0407144484908449;0.0395571841695137;0.0385734966124933;0.0377316712510153;0.037007065472558;0.0363802416832275;0.0358356632980143;0.0353607650226513;0.0349452777258513;0.0339833505882295;0.0329227995804708;0.0319601420471107;0.0310829555215941;0.0302808278640846;0.0295449668423111;0.0288678971221363;0.0282432227143503;0.0276654389893695;0.0271297826202673;0.0266321108300093;0.0261688034850999;0.0257366831519877;0.0253329493886457;0.0249551244013109;0.0246010078385093;0.0242686389796099;0.0239562649446988;0.0236623138363203;0.0233853719431288;0.0231241643064978;0.0228775380852478;0.0226444482595092;0.0224239452987902;0.0222151644864536;0.0220173166467115;0.0218296800637643;0.0376546254852118;0.0356033346814491;0.035063475385478;0.0356940334861464;0.0354556047009421;0.0356951926044489;0.035509177659804;0.0352943398680007;0.0349518938173059;0.0357098313072188;0.0367814846736315;0.0357728611844322;0.0352084398160671;0.0352022681461548;0.035567021642042;0.0358889047787406;0.0355639496610263;0.0352519170243147;0.0349167854027222;0.0347022365090868;0.0347311135963832;0.0349855601870426;0.0354459855521283;0.0356111806726561;0.0353300913923908;0.0351192935343565;0.0349479093722771;0.0347953204318619;0.0347648509327287;0.0348504977137084;0.035045893150478;0.0353441417563008;0.0356529282652053;0.035648558908138;0.0355914922721304;0.0355869547028518;0.0355530511790106;0.0354816115710979;0.0354347443667191;0.0354445681538283;0.035435581200928;0.0353998957751968;0.0354134912736559;0.0354746761330259;0.0354319540859786;0.0353970839297606;0.0354034933437805;0.0354490998876199;0.0355317972994551];
x1_step2.ymin = -1;

% Layer 1
b1 = [-1.209284128527674973;-21.863043506731926868;4.6610642267957214102;-14.972391378119917604;8.419644684213562158;-2.2180154497622313059;3.8950499254634136648;0.68643538846517082597;-1.2405423889628868217;-3.8151758380503042467;-6.1237069797667178506;2.5681575647949670405;3.8812533965310804795;-0.71258482722794813657;2.3100705415633644435;5.2623874923779156987;-1.9836690334729296659;-3.8794307925990820785;21.881930876822355714;-8.5155442941147470037;-2.3629246987924519274;-18.886596416895134354;-3.7248899449073138435;-4.0449938123454494132;-5.1132356451569913602];
IW1_1 = [-2.1805599963187898283 0.71000469169584312645 -1.6896001552887149888 -2.0175393489869075658 -1.16938001756787191 -0.42907925665977203478 0.42592684623275067768 0.31724506702591759311 0.90308427521689738082 0.83956756015153000128 0.49886631027336492128 0.90020581682082090325 0.67566957035123453856 0.49057241059082512535 0.47587703181852925027 0.27738529050927812625 0.45391918927802954453 0.49287937333317405342 0.052606562899065782701 0.11238672136915119071 0.26834835071261281536 0.1508383950264729767 -0.24512795704302792199 -0.36477663328288123523 -0.28839810357553080644 -0.34479577481669620997 -0.022464534922800163952 0.1098693030321831049 -0.14290039775444648984 -0.14493148944356726293 -0.041364476934670199593 -0.10094047887730633883 0.1887703964471792728 0.19367981977546103178 0.18401222571612624312 0.043212108861825207495 -0.22526009040370106873 -0.072148019962325019017 0.010760387730969940556 -0.092853048543206306853 -0.24216346613181533032 -0.37120188648181640101 -0.093526934476767339954 -0.27970673127546585857 -0.060380645376247571443 -0.17190563087689006427 -0.13903602016269586694 0.15868047521644956799 0.6838125135228110274 0.46727637126368887222 0.37180318735589618084 -0.88740000317066702884 0.1463181897736782755 1.1912515781438153262 0.73318099826422911125 0.3275874696265128061 0.41907301958461512514 0.24697267508581774442 -0.15043448275539403336 0.086399492373222711028 0.19474492205641441567 0.22488290600202021086 0.45741124989665471468 0.38017057075332011395 0.32890092643701429598 -0.023468645360112797005 -0.043790500442927683677 -0.38097762400300833052 -0.43032858222051056929 -0.39604414946807409148 -0.81776826834331362015 -0.49956810968413162266 -0.65878809672887672644 -0.64209277883394466624 -0.57556805932070875809 -0.28557074750030297938 -0.1939116911449505487 -0.07299555862802326045 0.25049593799436853381 0.48685516309270432389 0.31114677282839459105 0.41663358230725339171 0.40697238874415075927 0.3884068050846164466 0.23269179992413049907 0.43481050612748262107 0.15854647636231650187 0.13456241488335535239 0.12133612299301732573 0.056201047106598886471 0.032429023709804424835 0.32660675748639844684 -0.039037286509311895644 0.045529310930593244744 -0.348152175955974863 -0.54701881735066126833 -1.1972819116236730341 -1.2484193858873764427;4.5110150042824548322 2.7042645979956336788 1.3519688107683123235 0.63971644351038270404 1.4417076558266908037 1.6184733857209694374 1.7219498590684394479 1.4264457427332692951 1.297301034414057197 0.95078225962153506412 0.98539966185037519697 1.0010902021148093688 0.63751603511498577959 0.63613401345591980007 0.6200345089264742704 0.474990412926928951 0.11347341670657475066 0.33436468073669078915 0.091735341628683186865 0.44357557231717786861 0.096714510672883988174 0.091531746774571279279 0.21435451278100969841 0.2854595846003624704 0.65272564032609936557 0.50720374168222592814 0.3091730947192711243 0.48777951082736970001 0.52287676860999510176 0.52560414352486373168 0.47198998617406145994 0.38958534756142465527 0.46021932566284579069 -0.020090910024153425806 -0.61177002828498971976 -0.9245421676275377143 -1.5264397511697525012 -2.1084548467859631771 -2.6626269861449385346 -2.8478737657305406294 -2.962714886194253161 -3.0859703310437103241 -3.3535564388922138868 -3.4940250555375405028 -3.8154503215963044838 -3.7898609073279949655 -4.65136377649612065 -5.8208085450833193519 -6.7811527139678284826 -0.2806109145324311438 0.20751568798626154888 -0.06388973511734119537 0.053262559067472167729 -0.29088194906179565269 -0.081467336098562076474 -0.20440240824485794713 -0.63212359671598250532 -0.73840369359849788999 -0.26917911505007585671 0.26059933070179241987 -0.35566232427065347377 -0.10609439888138201546 -0.39425340978649620061 0.20034908881440519068 0.39616221801212558873 0.26493701949013825914 0.32143738587354270253 0.046531217969863120087 0.3778830593963101725 0.040428870403182576299 0.70120520346010217771 0.51385680006286049704 0.91555496016371107348 0.42612825515899066531 0.27348151032710088515 0.2047317068914816518 0.43440664990197896955 0.26494809259349028085 0.52115764339277115269 0.41538841086712197104 0.56172208803045742265 0.36767615130657993472 0.48201564197290908131 0.047270047580535344556 -0.010456647912843093987 -0.20607568529795097789 0.15531630955086475621 -0.20328444561620589992 -0.024818834929110855647 0.32864852557444540482 0.27555044592994465402 0.027399069737686458648 -0.38399474703864461267 -0.47486336656975192128 -1.0639674392807654257 -1.0837354438994042383 -1.3491866391446782902 -1.8693872204951369476;-0.46270649491506077311 0.43646756160538346947 -0.25194899575614837506 -0.60689866522723667774 -0.69411272757634090436 -0.46798551937916160748 -0.07231818890009589218 -0.10169156113388964913 -0.23006483556010740021 -0.028870263062637863821 0.28719921442697005087 0.56778115767616044174 0.6945651311950418183 0.93067901925765850191 0.78588324143046606185 0.93578967364327614309 0.73104157502345412656 0.7775416541309525531 0.7482548871593598383 0.97012454478396781266 0.73442725044625412067 0.93732265222833455187 0.67416490576030119186 0.29702681973334649213 0.34149694320818257953 -0.065400175025639051274 0.20369531567521070858 0.19656298137098177081 -0.13693352835181193949 0.20812137276135825315 0.23250656650881071363 -0.035310166808730489296 0.31378266577640345769 0.1988976031543657208 -0.093043890100798262721 0.22960074402317068309 -0.056463012678155344304 -0.17509261908256951168 -0.48145076019544857937 -0.57191795445352444638 -0.18365093503401536124 -0.51235695896509603209 -0.52822520358304947408 -0.45626508087656569845 -0.25247883179904628825 -0.18679576847615336765 -0.37482730712888723268 -0.4526247409883563666 -0.81384257290261985407 -0.88262855396750783399 0.113916679956124825 1.0323340961701994445 0.27017802297082410545 0.54267965831998687953 0.52483072225663351951 -0.011481044007750060287 0.019709841948827820646 -0.52042270172573201759 -0.33743788071051017408 -0.63707998146470701251 -0.44159155890907114683 -0.39068396352543194316 -0.51069385500145358936 -0.356900134738298902 -0.18783592947742372425 -0.057508884335406518229 -0.048402643713176055074 -0.084502695875610170373 0.39090293962067085287 0.34843327221714015529 0.46879270996758920509 0.24932756677940401402 0.25512358525860878711 -0.029463986990589746684 -0.019351403175444970711 0.41145219311359826353 0.41822523841863112892 0.41492287226146040702 -0.0091691922463100414276 -0.017585273972797552805 -0.032778246664741911287 -0.23272589380186822772 -0.004404879543581211726 -0.38973062510055095364 -0.20161147688055938709 -0.5586885798220797561 -0.30595133454323519828 -0.54817859256422585279 -0.21703076049609981713 -0.33139308723431920578 -0.35795180926156205947 -0.33893784533473070297 0.13852052555791205535 -0.065822954606260877797 0.28689788817251887787 0.45710110024360156578 0.8815848611134248225 1.1805500293152688673;0.11390089864061266056 -0.11158295577641438867 -0.3353889662592563492 -0.32877879977959284519 0.68350430289894092972 0.99093584693471248315 1.2126771210039044568 1.0590585226435813571 0.39841462825571416495 0.27378952768177905464 -0.096072257069527308704 -0.35127789756247074227 -0.36869356049531293307 -0.69637629265956957347 -0.83248162268356662441 -0.89931050621434160952 -0.99337516532955127957 -0.9081445760238130438 -0.79427712565503305608 -1.0238200965524639763 -0.71221353035340473348 -0.81372597620362263626 -1.1131082393675120201 -1.0683317954874214095 -1.1159478829424516189 -1.1401136428944318446 -0.81099007094044484045 -0.78505004717844173445 -0.90964903668942775905 -0.70774730384595918586 -0.28752177223160102493 -0.26870264515384606474 -0.32204329708449225267 0.087363847340122396945 -0.20238840731715213028 -0.055856252399075663473 0.081632979165342706152 -0.24274737289127523709 -0.12310449446046126121 0.059445333814696660335 -0.31528007163102511612 -0.15084665624621712565 0.060567543115786291741 0.34074914562335240076 0.26135653175835460438 0.015643412897982444248 0.24721039440795278264 0.17513565304658965105 0.31143108320185119986 1.445913123656359156 -1.9292974279422596684 -1.2473124993249788961 -0.12282999352182029373 -0.0029832519190285903404 -0.0089778317890712444616 0.15202555504614542747 0.10599817937883423968 -0.5245889448539745592 -0.11609155152627180507 0.54099486697532528368 0.16422551977647545374 -0.038723321089758934443 0.20111465122644486825 0.11159152893163867826 0.73173835551466548388 0.45252323748745959531 0.32740219658913843892 0.38505114402629353476 -0.22493177805167086092 0.02757771664900547301 -0.10764713578208215394 0.063820975904559734682 -0.26273599060436214625 -0.17988030480554284551 -0.33738075185467769623 -0.47054097639809178144 -0.80403384828291357689 -0.65461262619371685112 -0.8162599573336312142 -0.45066467977245694421 -0.19688239403958993079 -0.50007573142589378801 -0.11275276512008078345 -0.45591121963405822903 -0.19143969521335238437 -0.23845833572691896296 -0.54841531799386833423 -0.10748463543832809108 -0.33301647330626538146 -0.072497670297729605027 0.17921027447438975244 -0.026110200896268316584 0.017826870999161390646 0.44721889890701144177 0.36773777266624507742 0.45856239124435371757 0.9096845705116156644 1.1595763436810628821;-1.5930709081366436486 -0.056371919005209061848 1.1984063021338158261 0.99199945018642310401 0.6717725647597255767 0.57133278825603206474 0.66630806749173199233 0.75168854836471499237 0.55691998718995516793 0.75761484643432130959 0.4718118751096680441 0.62815059623574232006 0.5924432353594560885 0.33997118282822380575 0.293397761153573855 0.50159619548186640259 0.72890203375189699386 0.57018365091133949019 0.81740360922460075788 0.584406066658862966 0.77465021814321943783 1.0888031808487101948 0.96861439248652458911 0.49539816054592167305 0.35578779220738088185 0.065283869263858027021 0.1293720296265120917 0.23876952856705835337 0.18431260980969302321 -0.087401602991987542568 0.064380444057957397774 -0.22765306237744989404 0.015247214267935016441 -0.40031093326567523949 -0.46798342951972615733 -0.38578569856698957663 -0.47854705538796526998 -0.13347472730872783631 -0.26592465339766258037 -0.41651553193893109395 -0.59485379095401769156 -0.28634269663431877184 -0.24313793375865774826 -0.52555562350780493652 -0.46296269203227946587 -0.62535121343648047976 -0.48380617787884777625 -0.19492432639889925583 -0.54702156273119040275 -1.367725494013031895 -0.46387816525289676806 1.9637751863471717417 2.7000145920409686084 3.772081766912927403 3.8113155462449643807 3.8157054507628132001 3.652856039141679112 3.4713148253497529971 3.348231387197829978 2.4781865141861976198 2.6811143475178362827 2.7668511623757847673 2.2206346109274766043 2.3078589486164657885 1.8837984342209079802 1.6845584788894669703 1.8098572791011862115 1.4649581209286366423 1.6787910956651712624 1.2921217743543169654 1.1136601829012382492 0.78805784273996892786 0.65109912521901414095 0.42339414639420303033 0.030611313633515178922 -0.22248396813914181336 -0.18377277625036217423 -0.36326916670702280587 -0.43682513372556081022 -0.58164964482526582135 -1.1070230242093588302 -1.5688648061313690274 -1.6092977711274014663 -1.6593791785961189422 -2.0880355141970148303 -2.2001205587847385559 -1.9719089741193440712 -2.3316882047658404886 -2.4699425971425821302 -2.9467920649274939038 -2.9746530593597579895 -2.9580310456992844337 -3.2954106151517263967 -3.3401550583242509695 -3.5228701015972010424 -3.6365451223629863264 -3.7738521254994643606 -3.9198534150215498251;1.8708589776578155028 0.77937885344072255212 1.2882486866774780498 1.7627357378467654048 1.6265121744322610375 1.0276783193888214818 0.47065767522052415206 0.16160960763916820682 -0.66214939559727925555 -0.89709843239467645937 -0.613272171721908399 -0.89974422655886066025 -0.51360806503481692964 -0.47519239169197136086 -0.49600752724632346524 -0.69189395692863409071 -0.45624803184637463538 -0.55855584193779705959 -0.79767356568409575335 -0.38337951521365304375 -0.34081314409383450803 -0.76985243218558696565 -0.72004967899492899885 -0.21986222910339944803 -0.10978241883172709659 -0.17428641969164063164 -0.29848514425398320338 0.22300726434959394773 -0.032920224722442319176 0.38947486164919170593 0.10353443821843935635 0.38147650916203496019 0.56783508460437448484 0.36903253600976720916 0.36034584948228270962 0.45698048871583091257 0.14987156733134207598 0.34344728558358611492 0.046090880946778059468 -0.051867781265287411785 0.054652298145211219982 -0.31289707362557511727 -0.274063741378741621 -0.67520301796360804314 -0.53874212992964709557 -0.77920999871690477256 -0.51336520438795540944 -0.8269542420066828825 -0.90109916384076726992 -0.25263131563038820904 -0.12791514989515129219 -0.18082414197397439493 0.13222362307297444439 -0.32159806168017407435 0.074637841993834039278 -0.038748276552184296451 0.071100537299040214578 0.09168008842865960073 0.3890801904712001269 0.14042261946309625431 0.26130129552729280951 0.081567332786724719429 0.024354032909972272297 -0.20116244680267703071 0.10365383920338971935 0.025454966089071655311 -0.16582656939030027132 -0.2766782475080871162 -0.29914907412220237415 -0.20071419351807234799 -0.37328327264262489704 -0.19386932432773462676 0.1119203024857480383 0.030347413127284186829 -0.025509558157392371591 0.39569941926218399342 0.49833763412138154525 0.10845506564531964822 0.22362592768577521651 0.40526954780823376545 0.32185218656037345442 0.428075945117039669 0.31718186423698452314 0.19701008988191689997 0.07765814578349905517 0.40280502177523580531 0.31424705504826283553 0.023740941712543789377 0.21463232435780307816 0.27280633274286819612 0.23620179542481606338 0.35396655688355221914 0.29568975153176996207 0.099535253660109665463 -0.44495523609224058026 -0.81981607804839118359 -1.1152490245967709992 -1.8159712775085155023;-0.73845636849433315962 -0.87229051484284114704 -0.083870711668898284552 0.5833579594168522009 0.24365014262375797593 0.080651060769523982841 0.087395595787329458104 0.077726547419424918406 0.0007652576308065511812 -0.0029694163034086513975 -0.26550991898596904006 0.15529956789174492737 0.032497756177004399891 -0.021105817611539047507 0.31688591098234164534 -0.00092124519222601571056 0.085148893036027961667 0.14282555788477882541 0.43157162319694897246 0.20181222016354621873 0.30111428018507840898 0.38869076389308604424 0.26734837145193990349 -0.14320086327104245005 0.099016039389959828454 -0.24817073374786222106 0.052949433807262462348 -0.099805254713453708804 -0.30724148876875845282 -0.31698169749154719854 -0.1283650300214080886 -0.52774125768312607487 -0.48233527149472582574 -0.51631122038836196886 -0.27047623330891873428 -0.14109776673781249112 -0.098250846132825891965 0.077710606546230617808 0.09835255140323487244 0.22332589759723128764 -0.14759991158720295323 0.20253419805253017327 -0.063658568097349946258 0.082393350809994977957 -0.022221122063428775523 -0.0011464393433187666099 -0.15421841397750171709 -0.1048833356534236011 -0.12172108732999563363 -1.1234117381849224593 -0.87160765943098594821 0.69818815216245588839 1.5262398509207122377 1.639441142044563815 0.97279479871252483303 1.0816037271242961992 0.94692777454714860408 0.44504041222842050107 0.28080701073706398896 0.53383428572207369811 0.55110426580627758231 0.36741323635049577545 0.27752045780430339983 0.5194552029077755817 0.42026911913951303656 0.04786607790224307879 0.37712135943107788494 0.14744777284751470203 -0.1383529526731931969 -0.044428753872828970206 0.12053943173039094461 -0.17751670269717303996 0.023557483721542545052 -0.15764806254683733089 -0.083297778644975145612 -0.18578355958809422699 -0.12247110589809639958 0.32817260722304886222 0.013935221117536169405 -0.0027574729572517053811 0.057114652768380777537 -0.089407315840655185446 0.11556983029746545344 0.025120813203740131186 0.28990269731917195362 0.048074960078329204149 -0.081088753967800242251 -0.085442276634160721493 0.10568436784766989389 0.078026427036568327122 -0.090053739374685998209 0.16709839853070726501 -0.17980547650586428676 -0.12154405012283826804 0.11805485739330909278 0.067389772862153904387 -0.18420237135710790244 -0.33158294630847656714;0.90799589041783768106 -1.2846632753510045521 -0.14718839906320135835 -0.044075416605409339921 -0.013157246534290865936 -0.27233021367505011456 -0.30665202529861668168 0.26277493574257498876 0.11911068504226532405 -0.10282286178520519404 0.048248061777413156492 -0.031437416569007205214 -0.11368960827631162391 -0.25308744877799405071 -0.25625656664600043877 0.10281383847060725223 0.11935254192462876888 -0.32383903427524296514 0.010452239419371621085 0.032545249255353410345 -0.06732527306533780953 0.029656677130880750026 0.064098106788786302079 0.009203800723602403519 -0.12912511512399610369 0.024855714024743055801 -0.17525597527690134347 0.10258834479511680371 -0.023132633430043868239 -0.10222222662589158793 0.17044044303236460802 0.31845481341422798849 0.35768630309878074458 -0.0083030911834289858331 0.00036392208691381038033 0.15505875507399627389 0.11420834788853317932 0.18078350497523690277 0.25242327098885686265 0.030584779471637187076 0.048022951465429591922 0.068326584794600214723 0.22588812358004159431 0.12431097191980805539 -0.1035101067927258478 -0.090796863783233081047 0.085877029541235327947 0.098202669547668000605 -0.36548816341823259224 -0.95406206626691225647 0.076285771161716420252 0.68750890605359449292 0.10102790013741513864 0.89657890932007500151 0.16667501073235635456 0.52143838165777567362 0.0092104342047218817902 -0.087255545756791230705 0.17017296463851827593 -0.1426968643215110466 -0.0087805703871988022291 -0.18057428271146985788 -0.084033863717597662157 -0.16154656852246074283 0.1509985245706282897 -0.096910618394499645212 0.10150007205340676186 0.1106062458977813967 0.05383456360042586375 -0.051479239330322390522 -0.19750562188326417634 -0.19863727172487796735 -0.32246035383279036957 -0.14995284073260195523 -0.25232303290654573003 0.069263502025733017509 0.15392426950105236871 0.15453334926997561172 -0.15399977428343075703 -0.078126612619090610168 -0.07272212444674740206 0.07087083109113342938 -0.19272274998831775972 0.1239680450665139877 -0.092000607248032176266 0.097153915593619452618 -0.011975171105116935721 -0.081844035372757306668 -0.17498862689629587908 0.099988196119267999662 -0.017287848557021593537 -0.076139666373864739457 -0.083219401951585933452 0.072214184113298537926 0.40284758399466535916 0.38878547105728578082 0.57270126975729240826 0.89971472348275993713;-1.6143979711384124354 -1.1262115258511000704 -1.496669357881073692 -1.047062473375176328 -0.56969571309395528047 -0.22545166590918086502 0.047697399573114696025 0.27973861486346784933 0.46819209187308369335 0.66555393951333496894 0.37426016177657250861 0.57506673413391906635 0.18403802511541250686 0.22178174411979695302 0.56660885051238407684 0.45086012562643390522 0.21123984189683867041 0.41998112825049993546 0.068694224877074924751 0.36528600447517206584 0.23800720873654360177 0.14047520755497150402 0.26231979634504548615 0.2077691687386560293 0.10198539843782511438 0.21398066568063137116 0.30720622747707770905 0.28603829119227530686 -0.13760861920496378352 -0.0077170033630613423317 0.23380604774602278817 0.21279191365518757006 -0.19014452783192498098 -0.046501563659633621262 -0.041359856014987976536 0.075064561801439860789 -0.023650797622286494348 -0.091393485067214008666 -0.36763967739928671286 -0.29199267311454041307 -0.21586659117928749807 -0.28798647849153968803 0.031839062080940984389 -0.13793804316698268786 0.095298782545024635082 -0.10040891346261462957 -0.20940974583395169373 0.25459468198922130533 -0.037192011916861306142 0.65766105437361377373 -0.13659511781937111463 0.45641430842995378558 0.3479244835071615416 0.15435062088650125522 0.088485139986664629319 0.38726650463233636135 0.34638483951920256976 0.22714576623994137128 0.077649412168156128899 -0.24605721586164069903 -0.17433738815517768606 -0.03078048401127106426 -0.32534503988453106205 -0.39911138250354821766 -0.26707476436837912503 -0.042607033719990507203 -0.060185033618548169909 0.043687611035515119817 -0.13566994816886876474 -0.077677130723351639485 -0.17103092994122970349 -0.1513753459469383833 -0.078153936950116048576 -0.1310600001843156559 0.060561403551630116349 -0.23635000018348184536 0.19791872900637053068 -0.018192763801362428489 -0.031161950820528958039 0.15240023261583582337 0.13010975227545248933 -0.015029925789848092715 0.030140704442948872827 0.30203581956076935855 -0.071942624919393988181 0.28885303513914478701 0.16516421731026814657 0.12786360401395013842 -0.34762212225901029106 -0.15745935375269037859 -0.33004780311516462854 -0.032045953104006597023 -0.41328042147018750896 -0.15817630522491238354 -0.24991830972439299519 0.1034862055573539108 -0.0098069300772551451506 0.60157694274987494332;0.77249708308087383646 -1.5934325752988598435 -1.848930268042744407 -0.062505681752708944221 0.073563010607648707251 0.10925860180745955441 0.07256703472234574126 0.019417509862160245437 -0.34216531468087901802 -0.0094818684457177986741 0.040182113608466428489 -0.037050178288847449015 0.088254707920940297927 -0.19836385668139877581 0.10965535617975769034 -0.0073699733079030105287 -0.40095124100777518317 -0.40893760017844232868 -0.00074985413151346450022 -0.20311783611935921301 -0.26376281897712133828 -0.26726549939278715362 -0.14254049111454153431 -0.08971952253165983715 0.077042704766719316556 -0.16470118939262065605 -0.1957056278072793476 0.056057087307951850019 0.10619942501318349604 -0.3596269731778892198 0.01103232435827091254 -0.42600321186480710756 -0.058496485165636810666 -0.16761686982213722108 -0.099207604522353762255 -0.24541214108155920415 -0.15147754318732598033 0.07819738436006333504 -0.050371007506626791494 -0.034330471535846562858 0.072739830010756081902 0.26464941118754731209 0.007551156632873827837 -0.017293483739423652634 0.3405959073411595206 0.33864286745300437032 0.27323454797312124454 0.1511114051098225719 -0.10872167497119955559 -3.7638577830088295606 0.0066217456645611683097 2.1483298050641956856 1.3324565013192297691 -0.034111889867122317799 -0.98749958185073027916 -0.80885392342759965256 -0.51880211017946453733 -0.51834436319878007815 0.002951551461669782439 0.3836794157273809569 0.14030643060920020004 -0.091502771874801061558 -0.16301667442697198585 -0.0500178072210453184 0.086690742516994573341 -0.11928416531048008364 0.14327333928353871983 0.096089061166881109544 0.072084784963012321635 0.22285042884825953524 0.063143823627232142925 0.20774929019443927336 0.19006850617983339635 0.17309491086023212625 0.010872053673894445033 0.21945472598153348276 0.11718620969305953983 0.0042703085734682941221 0.44430143070081895562 0.21324000090081898784 0.38920817818681885392 0.61632175584362036691 0.36117624938341980068 0.68500569074172368289 0.60383658613676260973 0.61109288923065496757 0.2292874247435724433 0.05909648866207872081 0.19523668212300221425 0.16262683862225402187 -0.1343196246545165784 -0.21035072130845564042 -0.23505475170345224711 -0.1038922834619550456 -0.30552292742415576576 -0.14010042844985171051 -0.17312659857780918204 -0.38649105014030016303;1.572161067817197555 0.019372926986475309807 -1.0963148390414543254 -1.9666015801210523506 -1.5821354612280380536 -0.99865509075033864761 -0.46902140162075078855 -0.33831329880027827262 -0.11213371236167103684 0.33277209795121437397 0.25209207321095933318 0.22001145413799821915 0.033437537392053587326 0.19498151914768205306 0.029819223869012735639 -0.30963774478332217743 -0.1783555550286962943 -0.33474352274661206552 -0.44572780031698117087 -0.36798587155774303836 -0.2307767206113577052 -0.71107483302517926482 -0.62073441813265373135 -0.79447482878345809798 -0.84902241651653420629 -0.79835689513607888124 -0.32430269851318005436 -0.62876635235130706736 -0.7129915171908801641 -0.55194732077000152604 -0.30182976775722336615 -0.42218446429085798588 -0.39058334889633378184 -0.081084682732945626005 -0.46126742960362387969 -0.37007654546923018923 -0.05037265699493565646 0.1653059197311466666 0.18060375752605434263 0.11934853624290950314 0.29632441695648970015 0.46378865767924604135 0.83355816327338250193 0.92190794518857333006 0.94078092333939355996 0.89641749312211593814 1.0079545391180746439 1.242688745994833921 1.3235165511581228337 1.1016957928345572082 0.39175463043220243309 -0.22059985175666574353 -1.5528591511277372028 -2.6109727193639926668 -3.9125788724276198138 -4.9307327659615776128 -5.6950753199661727777 -6.0812770578585118031 -6.5807455837778929819 -6.3618943979666600086 -6.0919747621084390232 -5.9513220062949940825 -5.5817066650240239056 -5.0483279236370934839 -4.1056048736908579144 -3.7164630575201567098 -3.0204266925834888369 -2.4242507480013362198 -2.1532084520489624957 -1.4268466293831714164 -1.2463593131907002576 -0.29719872992543128198 0.012268556330504044177 0.27366532865360554405 0.33063232768525169236 0.62221275362617500804 0.65306344113553782549 1.188720324615212931 1.2627934166222920531 1.5352444323062113263 2.0133175746439766485 2.5220564508692868699 2.5642556473097832814 2.8506831440393312072 2.9577434014683809949 3.3206760837478608295 3.5319119037102759684 3.8691517190184154806 4.1133007602422155813 4.3029522779959137324 4.1695758147759347523 4.1948129468152366428 4.7366716342039731913 4.8557260824548214018 4.8752197967258661393 5.0632741654148221144 5.4732624087555530323 5.9315840496577472152;-1.5025402175658619797 -1.6477572529505148946 -0.87983796815250525647 -0.54683217918508686406 0.019429150262487426826 -0.37513114897382549007 -0.084905250723310385363 -0.064779341797817122095 -0.27827360084731617151 -0.33769174992703365756 -0.29086207717929574157 -0.12583710751577664722 -0.063278239799587340797 0.1419968714161194967 -0.11830039296163585849 0.26942493258066618766 0.46666969163616156546 0.3631403908123188029 0.083972940088834255312 0.41131771037672276714 0.27145530043722010394 0.58084266194498612723 0.27685095926576192005 0.49291861162562411458 0.24488258803967530297 0.53405970015632120429 0.46600045453746441471 0.32098781943945531303 0.32453796116608124578 0.4854483709109796985 0.20687367789912616822 0.42831204686624402278 0.30997483669603109746 0.19886176372947883539 0.5015760362009870077 0.22563160401843729286 0.25843409126378769081 0.18365414428152126991 0.50784815754152501377 0.3942777641268833122 0.05123332284746896087 0.2155661130882378651 0.094841801506825279544 0.1088774394756995556 0.066717457140483618638 -0.012882270860818875735 -0.15095410283790861028 -0.04307227466249275577 0.18271579980085603245 -0.08212217314198778928 0.35265878080564161401 -0.71707013763639659842 -0.0450614281619389212 0.2359577803575031163 0.29694738382563490298 0.31722956533625779052 0.14383243576927101648 0.15517221878037429361 0.13758566435280120133 0.054941867712539213531 0.18629744048580998417 0.048630794216021795695 0.15595138183064166659 -0.43367010981005627013 -0.20514118209766774026 -0.43344605244658546139 -0.46341062853063219595 -0.63423429328259517401 -0.25369433561924348286 -0.30135451059077467129 -0.40821891633931350896 -0.66684630330813821075 -0.15836529922605244169 -0.57572164042236861903 -0.21712595781743562751 -0.23690059489291187544 0.24341729543894924381 -0.018734927535725840603 -0.1660600086545070686 -0.15533216073127506518 0.083041186831843138982 0.079462607159220433051 -0.11240357895041164227 -0.0038472616329645117905 0.30150735973225972764 0.013128271938002211011 0.035408022736984484657 0.29421976242711511684 0.51718441101129986048 0.78920146265007073971 0.7216937311310696046 0.7515271467984317999 0.60524706943549777538 0.57548602624051692356 0.35006190277290205604 0.11661942394328971007 -0.31792981800272918091 -1.158943618560895894;0.37204235417554815113 4.7992578257436289135 3.6542820613731774593 1.8648817034391096392 0.31671836624345905964 -0.4087653338391106228 -0.31039228126539381014 -0.85109772716672016379 -0.67194344324709354144 -0.48865933463349570109 -0.42319864925767319841 -0.86662270562761978265 -0.98019502065160191151 -0.99284370397156629373 -0.73305392533753221951 -0.77099691854471297248 -0.75874985268446637487 -0.79137058471734900156 -0.76762523007991401158 -0.56985285605585234148 -0.10324782618869379758 0.059402161785014805095 -0.23593068160087793395 0.097502035039771339786 -0.15245230944491980352 0.18363208671656255921 -0.04475664547741427246 0.29059233944186568799 0.29341568039772936149 0.28073862999195603463 0.19164174242625814371 0.11754302531128915654 0.017118303387242919666 -0.039435392277619940593 0.23425383800222066011 0.027863013581604076374 -0.076334610396465815696 -0.10692790172312052754 -0.1113969684851695563 -0.15299053638785389819 -0.12418385510623895784 -0.004441545341055127584 0.14963477459526752789 0.0040623271169500131672 0.26575568096630858284 0.067292239352933089225 0.22451997684230962093 0.45220422294277673458 0.31956017325905222703 3.9122138328290567699 -1.1732528120688241469 -2.5549687081076415396 -2.0156904770873871335 -0.80463825962015356197 -0.1711411421693806445 0.30101538234185043486 0.12140692089581234248 0.10291512298640384526 0.0028901484229329754694 0.034632954409611893531 0.061689098143647896899 0.055669086862835434615 -0.23055957105065505441 -0.20456622848660271918 -0.026138911021836838677 -0.43374927283755704277 -0.168158146977886086 -0.27852970404816818073 0.085614261869066107802 0.10559564943302779394 -0.15284548897496663677 -0.26117287190071275527 -0.078982584102875633136 0.047872606499783622314 -0.20580167401319243714 0.088621637512951101368 0.16552296549163739159 0.2609576171836665015 0.35079109689243365144 0.31209191009069059408 0.31871860160771048331 0.39538285881726137339 0.39367634816344820869 0.024064122102836212058 0.30633117195007197875 0.15175631901407690694 0.12137406604741121652 0.14586873403191957799 0.33910350773691916304 0.2401378507375716842 0.20168271489519090656 0.42936017804198406411 0.14097669532644160895 0.010791030798620437209 0.048710975861290042865 0.13265962730117089596 0.03225520320417962078 -0.17815488059225420558;3.0234670810750170489 0.08614637327450463955 -0.063580753604380493837 -0.08437677965481123199 -0.085194053828300683739 0.017693303221365197508 0.091390544492593220327 0.33271040421165704037 0.2222042996809676374 -0.021789886575057065832 -0.046850700909501608038 0.1946758328641133573 0.23461623578567092352 -0.06955068331760273781 -0.064044853412445854057 -0.19822434902412139346 0.10661185713375176398 0.20295220809621539182 0.19134112806092409831 -0.024258287641079408214 0.0030361658791998469981 0.063811159054337540653 -0.19946234912017893337 -0.11510087018877347698 -0.21824977210804227812 -0.082041949748197923187 0.025768941555212074301 -0.14141698725078344356 -0.18698075238060124503 -0.30289401702599255684 0.0027396623550258155169 0.17236965656875916086 -0.16086357468072323695 -0.099594820137222289658 0.054194631016023654679 0.15286959855492646132 -0.070986950743513715922 0.23366894747289332357 0.074763952722036758347 0.21637770065074418691 -0.23540309500243217222 0.096115808163315649693 -0.15014373395374708275 0.024652607442337912819 -0.16794969548527616254 -0.10157869529232393946 -0.20672073467303911376 -0.11378591560385258041 0.063136269072021342086 5.6434271831213269621 -2.6968501048929471864 -2.0151427692648620216 -0.58428661581995755547 -0.15632826002762545414 0.19018470409959825629 0.086155181761128352136 0.18367095726167212422 -0.024169631847707456762 0.087212105769368830632 -0.12036665542488862723 -0.20316852745116709134 0.015337706622454479882 -0.14863599609014374603 -0.1917184567366912451 -0.15303812294529217652 0.025268386667578135452 -0.12130263842431046606 -0.14102939208420339767 -0.24819226571783584157 -0.43293839675139533796 -0.35150841751930289591 -0.064672620306020292547 -0.088233366612471636481 0.10242526990673736509 -0.010139352436770238813 -0.038564068506884097154 -0.12324746448394795217 0.10150880309073868901 0.11906974122195268517 0.10874611495336694578 -0.020616914575934730536 0.038604647381044542021 -0.30100108753648874282 -0.35689435566112992504 -0.12956984093713805328 -0.33986107751504363028 -0.33970740234533136626 -0.31224258093032103423 -0.22433454748612191576 -0.20949914015165302383 -0.50231585864451033796 -0.29854787365648294273 -0.25774059484907613227 -0.23424766049584674898 -0.196179513329013816 -0.295719501989446798 -0.17440637899855418458 -0.29004412668057155678;-5.8045349121788767377 -0.043692713277837254282 -0.27623565207470185401 -0.90506307143177144869 -0.5543360773603737135 -0.47188248846802532954 -0.080504714309285921314 0.14233677217896745226 0.19843889121961819089 0.25375540580359245979 0.14835764555583402791 -0.15620204257894962363 -0.34913915567116837746 -0.15044039166696279719 -0.45251742395554878096 0.0072771727089311101511 -0.042754821195419956403 0.072004974778943409142 -0.10477243714644320083 0.35987600303438727067 0.45726106446763314928 0.37120667674431323535 0.20606101221725506289 0.18506566645794328418 0.2592521055606492042 0.35791333446010170638 0.52298979016452395996 0.4563451447314946785 0.56428672731232898396 0.13870780759007042549 0.35531388120895268656 0.17707581489940329988 0.48100398967362073543 0.14843434444109879222 0.40861864488822169372 0.41256967450151399435 -0.049342554605063183859 0.0069870907892470605557 0.033607388294721471378 0.0037523383969497621504 0.020915543478135165123 0.19648245738909070335 0.10155532956996622673 -0.18304233098242905786 -0.1748293092651952152 0.046140504434606509354 0.1088876557052673999 -0.17307248605707908906 -0.19227951512596189176 -8.0288474178464284137 4.2044705905778858579 2.1836803202455499218 1.1468995325690698461 1.1135823963158113514 1.2140022724830563661 1.3013434573225091118 1.0636919619044908902 1.0351903558706287978 0.9667151280413553982 0.25810824168374457699 0.32770502157985459402 0.26151433065409745993 -0.021041383471515455461 -0.22961343917166743278 -0.16451944076718544308 -0.38349728234411678551 -0.13718839275379871023 -0.13324005644863401443 -0.40517937383879903956 -0.26736321066156504278 -0.39420375488758074844 -0.58036612841788737249 -0.58151315840865158702 -0.3933019627275501362 -0.66487201022493991331 -0.37173731779507046546 -0.48169557604628199243 -0.63204828509089705513 -0.49347061393999158696 -0.506974187316711844 -0.053328898545073707971 -0.3288117690849028385 -0.067273277473864800946 0.13871296672144914353 -0.027089018686608613146 0.38445651447038658999 0.16948412967688711306 0.62789345775733940158 0.33702190461119191367 0.72048007980644757087 0.54523305384799947149 0.82139780736845757758 0.48196144132378004876 1.0107726703934822865 0.71605449749312011232 0.74646525078910441753 0.83783044528220040892 0.75187686398644704155;-4.5616946564421274601 -2.2946441186533386158 -1.5078710982841323496 -1.0491970322038115526 -1.2796541337348918965 -1.8351999270528647212 -1.5976102533432399166 -1.1308263150042066059 -0.6808847890232345712 -0.34050694103813233804 0.27025368762058937788 0.45610732264878939279 0.79302664289809154941 0.76046242940379915609 0.94128610838533477434 1.3404647226142856198 1.1998957330857136228 1.1442786225028738212 1.279796045576808261 1.7172002063023619201 1.6407394485647999183 1.5002480423124320286 1.4210581417987993014 1.5616179159102463458 1.3551913340365939753 0.87505213253383662408 0.62419595190515142491 0.51981044479211890863 0.30021985805940321068 -0.066549828911592487368 -0.041261174091101630867 0.083698529166967614024 -0.32756664258802931089 -0.42094921526411360757 -0.55858027831285272935 -0.24633516946433153816 -0.47355445172671772891 -0.20762193010726345821 -0.16147974062335329615 -0.37612896603879514279 -0.088432690743521294441 -0.18278450569097601242 0.099768719590619683868 0.52186573216975595813 0.4409131844187560989 0.19782897417137904061 0.22812319278407827694 0.22619935537123736502 -0.20479574745630452215 0.43265779168820700518 -0.55436731506301151207 0.21319548146088079799 0.26457227066510219382 -0.2777140132172376541 0.052367991640864919312 0.42433262398168553053 0.21890462053669562659 0.48746211301915109981 0.42243879914238940954 0.35173606519846201124 0.43427601073175564617 0.53750581530815577658 0.74559839753844436849 0.39275756366998482161 0.52261253668754747981 0.2833503916731895389 0.29407926682633012128 0.13129038673291071326 0.052175385205902771735 -0.11014648275506641606 -0.076875450183153212769 -0.21199536355994033632 -0.36892940254417477819 -0.75661173350442878505 -0.52066157171462368325 -0.80115475267855851271 -0.57398745604381506968 -0.6428317380745510734 -0.51084763997141602321 -0.44341438417054773735 -0.46523553267300166159 -0.26602900319199024315 -0.25762695926273021518 -0.20737826594908068123 -0.040131928078698295148 0.28791877559077011517 0.68052782072552542303 0.41984261750319651352 0.76012481104180540381 0.82327378196678735467 0.55785715111498945795 0.42929305237831993924 0.19811465174947820445 0.27129350525001355576 0.21589341668840802968 -0.22580158083466342345 -0.2824687844629149569 -0.49784306819637769159;-1.4060243484627192867 0.53748506062425094321 1.0499232771754269944 1.2017441645550239748 0.86593881544358075608 0.03448596684628891379 0.15919496924404907823 -0.35815327193353724278 -0.30885663287344400363 -0.46585191559470029432 -0.4128658308870597482 0.049298536004191872983 -0.062021817599905423868 -0.39567484600874835987 -0.63337761871178110962 -0.50107525148601161913 -0.86045510061797825241 -0.6788865120090519234 -0.86397649137436205447 -0.6364765389052645661 -0.89262429420821487458 -0.78551147145153588092 -0.47720295286169556181 -0.33782500602342974139 -0.2637538843730569682 -0.31759028357063406878 -0.41012546126960480741 0.049447960544098529256 0.22832187668976677841 0.03234041948184664117 0.16322366300319204879 0.12721625969471747619 -0.090831140699244750092 -0.16381673812679570235 -0.026057047132339777873 0.07392302421319167649 -0.080758132582721797732 0.026674395944814490583 0.11048382661883909828 -0.0072941768810061372724 0.036732740355919335506 0.27405921875257005516 0.020179988373807893759 0.44233134663447837287 0.34181720416910460481 0.23321679656078317389 0.12862600330014831163 0.13529311560519532986 0.17681982235688126215 1.2952962405893950759 -3.536165726169376633 -1.5427763335204229822 -0.63381727382229613443 -0.47935714502907456058 -0.23752693248265790982 -0.21124757644778682786 0.34629570183350710799 0.36141887154220669887 0.12532766926169230937 0.29422834568235051167 0.021524539115819106561 0.14272956757919086357 0.32204731775236222768 -0.1815210941318455562 0.13167387518786022316 0.011327539964432116817 0.26339520772357022382 0.15034867249654929044 0.33992828577843942073 0.46713325641922393006 0.53136591255434495462 0.42110474129229313878 0.46375213182348384855 0.50267971934665989231 0.34832348571413768168 0.17140939613177372247 0.097587179874524504486 -0.059263851225215741225 -0.051022923252322077703 -0.082968277608700999326 0.42862104082967827923 0.33613263649353258833 0.17298499409754811151 0.41691521696739469727 0.37297190306477473465 0.049309746996974004873 0.13265982449537042087 0.30393360130046087608 0.28601208347117496045 0.26178802733295575278 0.070222582289301588299 -0.016580086864844197081 -0.021576001234646983301 0.049325473392386798288 -0.25046522624439454541 -0.15246869659918363404 0.19218501102550245019 -0.16267067563692644283;1.6147723814554371113 -0.99926943749788266214 -0.39396598429147366982 -0.23223580937735988083 -0.38434558555502074118 -0.084561694056348155057 0.73745714428893616166 -0.35375868873911003876 0.068791874315862033828 -0.32074837727254862374 -0.16816992178522510715 -0.41850393440212818597 -0.55838028761776659081 -0.29803311370007617986 -0.26267255931358252097 -0.25154135821562395581 -0.086198094014729026435 -0.2099617002701453794 -0.1371617732338732687 -0.24339320642787798388 -0.35867997715911187351 -0.22968503462140743565 -0.33746997750033247421 -0.5343834371601901001 -0.30069173136539406599 -0.48790852564076353515 -0.38371987703775239931 -0.080212366198670240203 -0.063623491470133936021 -0.20262239680145957554 -0.26468355602266396831 0.053627163645786971036 0.21718873378625030979 0.21501116621181801114 -0.070751865295417978863 0.19827200846078840701 -0.08583279725312084607 -0.063619898315074877027 0.23574825310788224964 -0.18098786008383946355 0.08689475975485971837 0.17756647926883381561 -0.047201069083233238022 0.19520874675423136035 0.085465036380792919202 0.2644622446420369366 0.42620572282793495189 0.6418236135907097184 0.49190891815160819878 -1.7736777414863038604 0.17218066204406246023 1.2169682960313308318 0.45673054880556740454 -0.219643390337917771 0.25315530038881595143 -0.74472370274491306308 -0.50148999611783795505 -0.8053557217264613044 -0.70289771200875550416 -0.25913065940145757482 -0.73596602696700252899 -0.43079601647730902947 0.050462036795502783482 0.18855706130803562282 -0.014503954888908189569 0.49351515846320703762 0.40303545699041343209 0.094342826246028743675 0.26626955560835685599 0.16553474281491295517 0.27541296509204482579 0.16150059999662091936 0.25892609326805615666 0.55218604233700174788 0.073924748664067799209 0.08685488500941090928 0.18399802498918413352 -0.019622528658641936322 0.22445161657596290894 0.27656613251196882075 0.22329009020045326173 0.063803095504975218533 0.054161348454567444233 0.11011279441366353393 0.40862969291063644395 0.31722385572554417932 0.3062497212334094332 0.16822361577028482893 0.064281421134068122969 0.37529735227374111384 -0.039884685825269695914 0.23644176078335671365 0.1170609368615135315 -0.26041548767195643599 -0.12386965196017013513 -0.21241660636970879916 -0.36146914416973313644 -0.68847834443615574251;-5.1568176995360914816 -2.7968691023053775524 -1.9073685573761585133 -1.0584721957812492921 -2.0668880780770697569 -2.1524658633784201633 -2.1785815439284474948 -1.7885316448639430043 -1.4661565023733060809 -1.6857963713629120495 -1.5135024091920903366 -1.2095838842011150671 -1.3752068212212960052 -0.82255090341309156088 -0.53328381966588078722 -0.34159481422235965509 0.16336032615642789856 0.46288877383918924924 0.75456986446252838352 0.81595320374741009406 1.0505319115727198565 1.060531229102974704 0.99477902177544152984 0.59498698777998437759 0.6906633659610474929 0.38790376459035186274 0.67807527101281617199 0.51517525421805054897 0.46419626447707201811 0.96610878925331700184 0.79318651021064845441 1.0252316879152538753 1.4532313328257484564 1.3612171222074846977 1.7823460243306816775 1.546283686106387778 1.6091821124957061961 1.9576582965367514966 1.8995289079401775911 1.7666673084758064416 1.946728381537504271 2.3615351562324939927 2.1503460921178083609 2.4169498194830572046 2.8385378930181799362 2.6423370718320144945 3.2183002887439826623 2.9204371897037399997 3.4509663212578738367 0.040055357863807421193 0.24603521314071796766 0.0029578510011429200166 -0.24060089165303422121 0.12933115313278290004 0.72694611733558411881 0.63657900247531928883 1.0960196587064228169 0.93216060320682136986 0.31237935292515645047 -0.7809523314756631196 -0.09591155609339276078 0.054887466559938757893 -0.040643334304947084656 -0.32059592978224937809 -0.58207068459728639187 -0.33954924114009127356 -0.3382316865007510831 -0.38425048365175240583 -0.11739624539401977144 -0.18738872440485968007 -0.40889404362152825811 -1.0605944656959944705 -1.1324272395020960058 -0.84012248055768734556 -0.34186387042383115098 -0.45171458863056340727 0.066953246076252359575 0.10924701486097816716 0.22384340078766473692 -0.074040604613848273741 -0.26795021269183472157 -0.52170867807913756664 -0.32721550539703470051 -0.28727737047294360506 -0.43730263214995990229 -0.38859470253225913972 -0.16349091138852797633 -0.20630707621737998103 0.10532605448798934566 0.27348664631864849639 0.50915414477693166084 0.563090980361924065 0.69238723889966524716 0.68741101833066409199 1.1419695250715220514 1.2401361904609968789 1.1227820579646403676 1.1429992214052628885;-8.7487642684794266756 1.7872290599455127325 1.3629653307419793418 -0.6394959549252080544 -0.83617847132017930623 -0.63233957814849517387 -0.1802686626586806895 -0.16148769041788862966 0.23010547238378406543 0.29198193420013063282 -0.036283773308436538529 0.012850112142750797634 0.030350785577492302159 -0.019133590498571998589 0.027668841878796830019 -0.1891848232163087784 -0.17005196572102521113 0.19312224348830836496 0.085950657697195814722 -0.098956775601286392496 -0.21095849202581193338 -0.57160487432019146947 -0.64165979204360112931 -0.34807554265531709392 -0.24696726467897461843 -0.22513989105801923696 -0.30917627121203966611 -0.18344017282317279238 -0.22330735553596503529 -0.010204390615171338164 -0.28188823206767216201 0.10371811186960484819 -0.14695760528157045255 0.056996916537750998144 0.19959933104822252803 0.16700815735025376085 0.12008711532861920945 0.029664202559375553447 -0.031255858860845309177 0.035885189600383178565 0.29625351785409037575 0.011903986715509407013 -0.002499452311749323502 0.1463025921602675028 0.1603388544612640576 0.30088983992299001002 0.38224992823443976198 -0.051212858868211572072 0.00030771460326370261157 -4.8476262466866124612 5.5480140981170542602 -1.1589771511921129754 -1.4093395427021964128 -0.74570196054820714338 0.30191332711483587214 0.65677762242761994482 0.24400649005002522651 -0.010756649176816672486 -0.095494030851882960587 0.12858175579719707815 -0.43985913660941489134 -0.24389016278502684276 -0.46432136663868117665 0.090370409132750906256 0.09281085743093360485 -0.057678243615899939256 -0.12108816463426694265 0.06295483559395463613 0.31538672459134237114 0.25871836011518067888 0.12948879858514877883 0.42247864931718764891 0.34576794276577232923 0.46401959526704772419 -0.048650154549105859014 -0.035962055251546498624 0.30028080073572599451 -0.13840656898092645877 0.16469384018328669939 0.29793922120988969304 0.32025980934100772846 0.48639246825294574217 0.49670687417128550623 0.040122388478291637348 0.27410993053275856113 0.35109071664170282689 0.15126736663852385911 0.12831281954310946869 0.27831659497531718861 0.18947892210160377502 -0.051808967550003928726 0.18467616693277838502 0.008610458708492023383 0.045908431656268483545 -0.076130642902922984749 -0.34058166085878777141 -0.45019535411052363783 -0.6511441558010596653;-4.441636223888339785 -0.85866192540749508577 -1.0190978769373144619 -0.2997754618053050657 0.67743699463355089296 0.64604322958214155381 0.42998865886928439028 0.43613016621616418345 0.18613397393552461034 0.20003564776320681418 0.17667875150974599041 0.076742329945814355407 0.36902145931042618088 0.21737828639325329494 0.39483992018844565886 0.20626274528914012585 0.1771200087829735148 -0.14186018502623232163 -0.2410941130229455609 -0.050505727985764345411 0.21083652489134274699 0.26338311953841869739 0.21782867282338347348 -0.014848012393745977505 0.34674868725514512713 -0.025154326123749272404 0.30281894670129005931 0.21114942870781777673 -0.081404466110478121421 -0.21954973430751695274 0.13921044211880934105 0.18158263620610934352 -0.083052983091687862527 -0.30985802717317084687 -0.17853240567346118084 -0.10781055340155455691 0.035987220452574117391 -0.07059301323244790427 -0.39413317871874725684 -0.11892592269193212606 0.010760385291489441006 0.02904452821380176103 0.077336529216684754551 -0.27850780203846958738 0.22926720659425484095 0.050574123429055151124 0.057144377964217313304 -0.11366153754152244493 0.23828765667377180271 3.1110587849250639358 -2.5705920178610921489 -1.4480270076123575862 0.62607289473070015795 1.1699455461778596188 0.43812538294781788739 0.48082575333113053428 0.093178928422629037076 0.11758774954802364565 0.16136230181363914182 0.36717401794085346989 0.1888305535332691909 -0.0086292938399641864328 -0.46102797937588607669 -0.51082299726120583561 -0.24929909815878281698 -0.49885521321539549877 -0.30968593360129925696 -0.3859392520764161616 0.029334125380565918145 0.087207074631008379972 0.096255575296710818578 0.22283497869313276252 -0.023915281772929515569 -0.12634570029618444331 -0.42052786890988752555 -0.49389037449736583607 -0.18379219259613813198 -0.40168986414818619313 -0.13861838411369226121 -0.47773254000715820178 -0.29339327168414269797 -0.24165790774904394311 0.064851000354254131897 0.11047472683010994832 -0.23039370857250346392 0.1681866564869562708 0.2011227744836829312 0.30552255781624915176 0.11352272111064914961 0.037848167931742983383 0.044990737999660031232 0.24007763916487229183 0.20230483363329485047 -0.11445279816715908661 0.18430095922432762623 -0.14894002308558768055 0.092825869792714787998 0.14551765590366952385;5.1715075769976195375 2.2152744373182264859 1.9546141925595468258 1.3914687648392500829 1.7359315749125989736 1.3088996833797941211 1.5169686434538436348 0.87887353238915588705 0.59212647956820874118 0.14699440069637273454 -0.29500909785679102493 -0.88794048543101411486 -1.250829059556198386 -1.8711359525871431586 -1.8623701794646820851 -2.3070385833354212224 -2.2155107769155968356 -2.3871363365485125385 -2.3924628517484936019 -2.4778865021510005917 -2.4686994796292567322 -2.7553314074563290959 -2.4487839249320435542 -2.2058926194502341822 -1.6462824884912194978 -1.0640126950070907252 -0.83122635959051094368 -0.094471028549735241997 0.058464340178017479288 0.57905158687485425162 0.92657013308014746222 1.2709078215393807554 1.0453536325256913564 1.3743866700303015715 1.4343195124750096614 1.6420293542426298572 1.4658178492745563837 1.6652889427464452332 1.1921124116479733246 1.275417398317479023 0.88709534642406673299 0.93560383079326747691 0.47421522041397429215 0.31289366223197540018 0.19184470819784302242 -0.030349662667375893604 0.043456349139074361421 0.60280823048080878213 0.91368756136871087659 -0.28671286381773702923 -0.19175156211710758791 0.16976759363649315815 0.47598527078426994263 -0.44303241949107685649 -0.24419262988697185146 -0.13752805060288461614 -0.16897965156763006256 -0.48070712880478988493 -0.78265710926345166687 -0.20849538377727003247 -1.1463103056457069062 -1.5735055737476995041 -1.4220922394669783806 -1.2717511472712159648 -0.85142214294311568956 -1.1622523309105248224 -1.2845897607769585225 -1.3304616536480502464 -1.5084669977429228105 -1.334306334436375252 -1.3986300338527042353 -1.0211778022899669072 -0.49154869564813447047 -0.77311229342181397861 -0.34842876657410648544 -0.66105548682543813221 -0.84490737453937481138 -0.70695439286240091548 -0.48216451093005330275 -0.56155470797205053746 -0.72936357953845398772 -0.59275394384896329392 -0.39628123490691813391 -0.20453515309438841108 -0.63613194390356941899 -0.21294223206432366657 -0.25493253106292212973 -0.56571216593717366106 -0.67755322730066203096 -0.26884764457708576479 -0.54629274704912467175 -0.63558229587258974203 -0.27534072872423975831 -0.35751656855308849847 -0.0088440400390748935555 -0.035912604608753007085 0.3928795444130013248 0.3118414662595953013;0.10347495213346293019 0.022595109432796987858 0.17064465267611000909 -0.22768607371125232364 0.28753440738758229145 -0.037021919460301241922 0.17468023191725504106 0.48282211219206067065 0.4195534404623273983 0.13346381476890500917 0.1631701581344758567 0.070416266953942110995 0.15750745139183716659 0.036220841544697887637 0.046659020535003967178 -0.027748067400761213669 0.17396189921419988322 -0.23769664785226299331 -0.20918967380913244813 -0.26373571311280891161 -0.20333815292824583554 0.080986275630962209493 0.22657844529624190932 0.21026046387578661845 -0.13502939954148285295 0.1825223186401993547 -0.078656833294174194338 -0.2232446694761636985 0.12601372271372537903 -0.24909467544760735547 -0.12128651766197262596 -0.089730184925813749608 -0.16894363323635439023 0.0058727087781840422998 -0.017587484783673251743 -0.039165024704814588308 -0.12437614994508067179 -0.069253087295169768467 0.15394103489622687486 -0.2024123556396154322 -0.38510588512703686215 -0.07221398986556494537 -0.1713401773369761516 -0.35005365688488043752 -0.22149742404146000041 -0.61813128775623149558 -0.41089261538472565682 -0.79110196102339946922 -0.92214113227875582623 0.19495827247080227407 0.41208610495608127833 0.014707517847153170343 0.49550458171106270822 -0.30951223578259240421 -0.12296785218628018821 -0.33688990294950915683 0.014994289366642165467 0.049718020279698599273 -0.16014296242264661196 0.34026621907527293542 0.26146874741085279759 0.19210336754624612876 0.02565247334258573958 0.12248908897481505798 0.2743451401196377315 0.22950028591598853334 0.00018289854042053028949 0.092339431458787424312 -0.012909399843587972267 0.055699017848583505519 0.41103354000337627427 0.3154005432182613311 0.16263156787196278441 -0.067171212390265688796 0.059958278970707087896 0.043148063388734975154 -0.16890609384704330376 -0.13747735068723360152 -0.17176788399471204505 -0.10476986196508568383 0.12423959741018368585 0.071367418141944999332 0.13222053111861220565 -0.29489964291498260707 -0.32606889401492739067 -0.010743316989239078824 -0.31446604028223129612 -0.32511667030507507281 0.064163522495398028767 -0.21180666386099916698 0.097402018099617904134 0.029273955963058199969 0.034702560479915864344 -0.12448536021355488534 -0.016470219611077446809 -0.3467420718681540337 -0.20536427263295933821 -0.26710716773826492787;2.3537023606573539425 4.7088131484595434628 0.66494888002595498033 -1.3850024571651167182 -1.1244498597038949939 -0.16563640240040947149 0.23429179886634288188 0.091685744748510003554 -0.26697567214485323772 -0.2997250935830472196 -0.51452571876776687088 -0.61543275785202145034 -0.63467404266319149553 -0.56683663643244541763 -0.50364865820998505619 -0.25293465299612127861 0.029439119254841040335 -0.014352908936040846555 0.31262214419431261225 0.12992595408500437482 0.29660440265872878296 0.039651260133882829106 0.14421387528550619339 0.1255261030563891711 0.46203933986924849986 0.29695458119536988217 0.53292477844423202793 0.27150629189929126328 0.16236085982649647863 0.16972485161515335483 0.54175956921058676663 0.28774303725843614066 0.28590788373056341687 -0.020895556236401713335 -0.1166286040766706944 -0.057619433289468550974 -0.07415912061322769977 -0.16418753733365776259 0.11819476503453407723 -0.39355831125417045646 -0.29000070209784500896 -0.479070555180657498 -0.10491656421227213425 -0.1614656821160457556 -0.4130148434274008018 -0.42957394549799782224 -0.667285059187399332 -0.64783599884035780736 -0.61112650829966508326 -3.5763277125999373141 3.7789011180790099687 0.22962874908745123381 -0.73735619495397419776 -0.51907085079897796742 -0.51128456661851262588 -0.82770921553038934171 -0.87516612196993504025 -0.62418926293374077385 -0.45234186765979872424 -0.19832515728092653395 0.011173084146070266787 -0.079288236261493491575 0.41033348672687880443 0.087329506050952604435 0.14404508637563809281 0.0028245662052160235705 0.23956046371239561599 -0.113237840976042059 0.19963888725252884604 0.063906566211596474436 0.23353013587113957694 0.20026739511983462916 -0.14224000417664814377 -0.10371768420649714326 -0.22691640456429446049 -0.32702210329375902553 0.063142969419939215525 -0.19164678811643506839 -0.36221653348015336871 -0.077486269277856067994 0.27378741494970132431 0.01109881566923404117 0.064889131704807381795 0.26513267054212691365 0.1939183840451673968 0.16779169660620185667 0.18198329611334601585 0.16889092368989092052 -0.061951850775229584667 0.028534397189292889929 0.064920204467798531267 0.0600287504068558464 0.10396912914526358629 -0.14168388894504030384 -0.53582074341891194891 -0.84607681334003459472 -0.89855145117046542058 -1.2322859321299781676;1.3108120974829498007 -1.3560412842356208696 -1.8673635082709476585 -1.4697812152049634093 -0.33632221752028929052 -0.038582824145095236112 -0.057754143792294987403 0.44792044920923917983 0.23174252329257818972 0.31882808914601590278 0.11528799012526701195 -0.047827506559688884313 -0.0012272001569188419751 0.26044155413346697925 -0.046389152776442635351 -0.4459010519917954718 -0.35422282650062952847 -0.41022283129346820418 -0.30218666785844555678 -0.66403664971993314747 -0.79500298142491343523 -0.81000911058196389813 -0.66285610633117486579 -0.63713851036137314487 -0.43831256598434120697 -0.31379322577884888323 -0.39920357845672160835 -0.088863881559335722304 -0.25420533191268573914 -0.18849953924281415141 -0.23301993168617163299 0.0030904587113327434966 0.22204386583104229747 0.019220316456671503874 0.060946125698573078155 -0.10488741131110189408 -0.11132238274251528287 0.11952013447951269354 0.15205568011639999937 -0.017803161924774848351 -0.0029019371393250049246 0.1303688433817736525 0.14252902802973962948 0.10538658069885670221 0.44801604861188581985 0.28475215884681043255 0.38092605733064105467 0.96180440164757996513 1.03006581682723386 2.0487992243514971946 -1.7256609698831535393 -0.55424847568101254236 0.13508327211351078834 -0.0076588791287478114045 -0.27256675286306142336 -0.14982677357854126687 -0.20249383229947956475 -0.19674670088273740753 -0.24699081583978527155 0.0072478879778701509051 -0.23722562398007843165 -0.44917622526142619854 -0.40246964234530302473 -0.46646468289030690313 -0.250365985433640581 -0.23717059575514504166 -0.12221930673316447336 -0.17724798606622627073 -0.20549819385818751671 -0.058884181788247592915 -0.14704902490599416898 -0.057168736979526305064 0.19411088685757410532 0.44472866942128108647 0.47930691522735224819 0.21727182676761599978 0.22832613436348492275 0.51303223500794392642 0.30586231054464818602 0.16105982012410155479 0.5496909638233171691 0.56799861275017782258 0.40868124245278075746 0.23282876386371303967 0.57613867057246681558 0.21886814471304991137 0.54041225713108331785 0.59602337519281167744 0.20989885845098954498 0.28235880272116720136 0.17750557478255762911 0.22059508244575701252 0.097055232014796335993 0.0038402767746898540391 -0.26861463597033319317 -0.33605891918969060805 -0.65037671580595302068 -1.2635723080410159458];

% Layer 2
b2 = [1.0983551470421670793;-0.59795411516947660768;-3.2184956049790551802;3.9801928269356348089];
LW2_1 = [-0.26647717099172463229 0.017822344612864957081 0.061327791804654113728 2.3091391203203150972 0.15916983381188873348 0.010735452560400562255 -0.305193140942403629 -0.14417909714905288721 -0.062279070002181607935 0.38786728707066159272 0.13296604320397176213 -0.079831082021289620498 -0.042728427034650039162 -0.07139107272481977351 0.11832463664005582471 5.4580993439262428524 0.023271519080286282022 -0.13864361785732406962 0.025158818444112641954 -0.32960134964212944864 0.15829333976462495182 4.9362000949507294223 -0.19392993819745785178 0.15106580858631216135 -0.10320382696540369993;2.622376201285326669 0.18395412107953759695 3.0354770758832705368 -1.6504145241364702734 0.18822887100859814202 -0.40315218896252458247 -0.26304206895791615306 -1.2983330867479356829 -1.1737088180196439957 -7.2177992892378108891 0.14956135240060539071 -0.29461867516049999871 2.9552325438289224202 -1.0963394483617892039 2.9171092782503218466 -1.1238378704921070383 0.83508210142791983177 4.7607822885008266312 0.023420547761782588292 9.991093038331197107 5.0918029228602117442 -1.1337239299157311212 0.32430522522562688081 5.5416359714073628595 -3.9434406667555443882;1.8110321861711797808 -12.508156799035926809 -1.3114082593373024288 -6.8437500882630191157 -3.9423824188125409229 1.2971623548467290377 -0.047912653745082030288 -0.17166787360956611841 -0.76112334942610715416 -0.42570210703699129517 -3.885380811240245702 1.5192220499045616666 -0.018061288924867788253 -0.04875054941914636758 -0.070732433542313538632 -4.6277985144811513152 -0.012949156043022269635 0.48784162919703194516 -5.5694190392518496679 0.34479830120300053453 0.16800923880873244731 2.7008889099710744475 1.2486941832246434281 0.82222839254614588089 0.36574001077834561446;2.7938815078037482209 6.504131061839236061 -1.4020431194057743074 -0.052502676167070633229 -5.867780410212409592 3.2644888433598473476 0.19063199959518836724 0.11558841649640029525 -1.2944383022815941775 -0.36207380585113346783 -5.833585438030991277 3.1591651850660875667 -0.28208908305657354187 0.0098682935174256997124 -0.1838989714029987399 1.7340007302135658218 -0.098138350851478040049 0.049129775283210150305 2.7340842383716119635 -0.13017825758832052285 -0.75660764530294033481 -1.753652365586059414 3.0408114169628239765 0.12733957773980858486 1.3997678289621755532];

% Output 1
y1_step1.ymin = -1;
y1_step1.gain = [2.00116149159447;2.00019545936237;2.00019904272145;2.00015814045854];
y1_step1.xoffset = [7.20288250100065e-05;4.8344557509572e-05;7.02606509638271e-05;4.93941852206525e-05];

% ===== SIMULATION ========

% Format Input Arguments
isCellX = iscell(X);
if ~isCellX
    X = {X};
end

% Dimensions
TS = size(X,2); % timesteps
if ~isempty(X)
    Q = size(X{1},2); % samples/series
else
    Q = 0;
end

% Allocate Outputs
Y = cell(1,TS);

% Time loop
for ts=1:TS
    
    % Input 1
    temp = removeconstantrows_apply(X{1,ts},x1_step1);
    Xp1 = mapminmax_apply(temp,x1_step2);
    
    % Layer 1
    a1 = tansig_apply(repmat(b1,1,Q) + IW1_1*Xp1);
    
    % Layer 2
    a2 = repmat(b2,1,Q) + LW2_1*a1;
    
    % Output 1
    Y{1,ts} = mapminmax_reverse(a2,y1_step1);
end

% Final Delay States
Xf = cell(1,0);
Af = cell(2,0);

% Format Output Arguments
if ~isCellX
    Y = cell2mat(Y);
end
end

% ===== MODULE FUNCTIONS ========

% Map Minimum and Maximum Input Processing Function
function y = mapminmax_apply(x,settings)
y = bsxfun(@minus,x,settings.xoffset);
y = bsxfun(@times,y,settings.gain);
y = bsxfun(@plus,y,settings.ymin);
end

% Remove Constants Input Processing Function
function y = removeconstantrows_apply(x,settings)
y = x(settings.keep,:);
end

% Sigmoid Symmetric Transfer Function
function a = tansig_apply(n,~)
a = 2 ./ (1 + exp(-2*n)) - 1;
end

% Map Minimum and Maximum Output Reverse-Processing Function
function x = mapminmax_reverse(y,settings)
x = bsxfun(@minus,y,settings.ymin);
x = bsxfun(@rdivide,x,settings.gain);
x = bsxfun(@plus,x,settings.xoffset);
end
