function [Y,Xf,Af] = myNeuralNetworkFunction_test7(X,~,~)
%MYNEURALNETWORKFUNCTION neural network simulation function.
%
% Generated by Neural Network Toolbox function genFunction, 20-Jan-2019 15:39:24.
%
% [Y] = myNeuralNetworkFunction(X,~,~) takes these arguments:
%
%   X = 1xTS cell, 1 inputs over TS timesteps
%   Each X{1,ts} = 100xQ matrix, input #1 at timestep ts.
%
% and returns:
%   Y = 1xTS cell of 1 outputs over TS timesteps.
%   Each Y{1,ts} = 4xQ matrix, output #1 at timestep ts.
%
% where Q is number of samples (or series) and TS is the number of timesteps.

%#ok<*RPMT0>

% ===== NEURAL NETWORK CONSTANTS =====

% Input 1
x1_step1.keep = [2 3 4 5 6 7 8 9 10 11 12 13 14 15 16 17 18 19 20 21 22 23 24 25 26 27 28 29 30 31 32 33 34 35 36 37 38 39 40 41 42 43 44 45 46 47 48 49 50 52 53 54 55 56 57 58 59 60 61 62 63 64 65 66 67 68 69 70 71 72 73 74 75 76 77 78 79 80 81 82 83 84 85 86 87 88 89 90 91 92 93 94 95 96 97 98 99 100];
x1_step2.xoffset = [0.000792119509447198;0.00158500453920186;0.00237780597478173;0.00317052703560039;0.00396316759456685;0.00475572774379314;0.00554820740621455;0.00634060667518754;0.00713292547369274;0.00792516389506842;0.00871732186231085;0.00950939946873935;0.0103013966373658;0.0110933134614907;0.0118851498641414;0.0126769059385995;0.0134685816079081;0.0142601769653297;0.015051691933923;0.0158431266069317;0.0166344809074302;0.0174257549286431;0.0182169485936604;0.0190080619956878;0.019799095057831;0.0205900478732767;0.0213809203651463;0.0221717126266076;0.0229624245807973;0.0237530563208646;0.0245436077699618;0.0253340790212191;0.0261244699978044;0.0269147807928289;0.0277050113294763;0.0284951617008388;0.0292852318301157;0.0300752218103802;0.0308651315648473;0.0316549611865715;0.032444710598783;0.0332343798945175;0.0340239689970211;0.0348134779993103;0.0356029068246467;0.0363922555660283;0.0371815241467321;0.037970712659737;0.0387598210283358;-1.11909237183259;-6.75503970183397;-5.95079947809646;-7.69075784969228;-7.0216510863854;-6.77685060468246;-6.22337859126694;-5.5922244524504;-5.64042468498546;-6.83460114734233;-7.57717248100847;-7.04348726568631;-7.74513209323025;-7.85111424658966;-7.80444473085847;-7.03187789614599;-5.70460411966514;-4.27410792732011;-4.88592490784006;-5.39901334475678;-6.5038704180769;-7.28735820908603;-7.7490551368339;-7.89986919154365;-7.76070119486632;-7.36086865302996;-6.73636804455306;-6.70094290337669;-6.71466856198772;-6.55710781117575;-6.24022460072773;-5.77947590183562;-5.3806079835;-4.87550177684073;-4.28116369051775;-4.76269691437206;-5.40899594292357;-5.95529498358742;-6.40184205830531;-6.74996759396801;-7.00200202599614;-7.16118752368207;-7.23158523237045;-7.21797928878451;-7.12577890339777;-6.96091968295409;-6.72976534310452;-6.52625902943737;-6.45305791308824];
x1_step2.gain = [0.176738585225335;0.156929245542784;0.164444403681595;0.147434542201489;0.150086509519561;0.139052400264107;0.140343431897471;0.140390882476141;0.141048815030403;0.140684036063446;0.147328048162957;0.151851230733527;0.148486450024114;0.147869377311087;0.146943342543762;0.148764617024211;0.14861609422317;0.149165181523808;0.151791601783486;0.156546187361481;0.159003584888087;0.161846830918471;0.165005708045183;0.165221484844801;0.17445160339972;0.171895758729074;0.166947295427477;0.162853340205247;0.159530080857239;0.156910332923228;0.154940739932347;0.153579614709617;0.152795273031531;0.152564750265939;0.152872818469886;0.15371124180932;0.155078221541759;0.156977992163296;0.159420536134502;0.162421388721205;0.166001504999461;0.170187160044358;0.171477801254473;0.170539920023471;0.169902436823658;0.169553622879773;0.169483672981075;0.169684492014066;0.170149507793253;0.0514399717707509;0.0413216323564369;0.0426638316534557;0.0440382572587683;0.047421750698249;0.0501337094419871;0.0530483762216845;0.0565530182603978;0.0587711261024107;0.057952221227524;0.0583511011051459;0.0614023077554475;0.0625514417645017;0.0648433892943291;0.065193534062465;0.0674810015459884;0.0716576678401847;0.0770359576947871;0.0770647242968933;0.0776572335396171;0.0767119550582826;0.0769122974048795;0.078241607509955;0.0807488551401879;0.0845529729926379;0.0865598724253937;0.0894444521536303;0.090230974700357;0.0909802159122581;0.0926171312597788;0.0951754749138022;0.0987217021582401;0.102366853837885;0.107045780861188;0.112891597805119;0.112345174067358;0.110907638387607;0.110219655638891;0.110240337242322;0.110950380440262;0.112350091482942;0.114458772440812;0.117315354385517;0.120980314616509;0.1255390721904;0.131107247665755;0.137838438949596;0.145012376633507;0.151453591274925];
x1_step2.ymin = -1;

% Layer 1
b1 = [1.7057141690341866003;1.2631776069821638586;1.1103514062152968211;-1.0215681138755956514;-0.87696007541450882172;-0.87100543614334047238;0.88676695239745595423;0.72276010085158215457;0.82276390320588499439;0.44277856040907520585;-0.39245415993674687138;0.32037394335347002539;-0.13016007458805881059;0.1725308852670384141;0.094940895087039914313;0.074341530222987395327;0.11187476815296751309;-0.4218774968563201444;0.89876433531132404742;0.48042547116681488806;-0.48499893180667985604;0.69812898314370375186;-0.53448300243779489627;-0.74399715517497166939;-1.421880903279256092;0.97998527824605341507;-1.0674969950890849102;1.2539406630850959967;1.3104908631833187549;-1.3868167866850460435];
IW1_1 = [0.12529460881625800739 0.20044740551970957609 0.51618581609108238339 0.42408313286780524587 0.15339729766911266995 -0.030805295849731007679 0.016580279187762218818 0.15662814303134328653 0.092932667662019255439 -0.18689957946894736329 0.2912856740321026483 -0.027439354917673731277 0.18650734773767993491 0.033034987119190055427 -0.17157774785029411557 -0.14834137353103438173 0.29773046061576757815 0.0021442419590413769846 -0.029002033375104811774 0.21075648159377408097 0.033470053193272092384 0.095208890950730276637 0.090929376866610456265 0.06960110112374820468 -0.16577210841557712961 0.0028900199983440317576 0.021322950143540072426 -0.045700046893542144166 -0.0383293891396535788 0.19952419688785161256 -0.03490865054224365216 0.119815678477223575 0.014401599497575478387 -0.25814185820682400418 -0.17703663404013023075 0.20303271115373400235 -0.25524545688559624468 0.10707707982161214499 -0.16728751818328613243 0.14545952959004379568 -0.053339040921768554604 0.22107401121516964682 0.023919284453116425315 -0.14844850439580961621 0.18875500062235145426 -0.079370381431726269583 -0.010672864230889258022 -0.23682267843803639362 -0.22983635287793641178 0.55091794392955517612 -0.05199359334639331448 0.11980041293864428231 -0.2126411412202149076 0.025047168749492212947 0.21245073544488210504 -0.1344086659365607006 -0.23422123515888554346 0.026243135853638958899 0.11551346976317794502 -0.11178495696297191531 0.22058548504091554654 0.2004436750940156442 -0.002523971188445018124 -0.12732721259217025245 0.061237600866090993734 0.16161039018336301187 0.020343126055563740678 -0.18724784132565158723 -0.21271408326607441075 -0.13930909052528459013 -0.12619380298080135061 -0.1159278821169455187 0.25447121026209346129 0.0023886053374173694605 0.17730264538983647737 0.020067049666684780296 -0.15973369718547175689 0.15118692698459448853 0.006964961785821436116 -0.12671546934306043841 -0.053515633150967509279 -0.15747766392636761146 -0.24862367545097510679 0.0076017758032020064929 -0.12548965525005748023 0.17861765420181657804 -0.23041338118349580233 -0.17145562403357381132 0.19179117370365997286 0.11499192124413160077 0.2102658243558244433 0.20455022003078487947 0.090318165862402932653 0.14535518722260698521 0.13124414363132805295 0.034227733719536496126 0.18563412377474647341 -0.089227002892551990354;-0.24289128290734449123 0.01501594819236715464 -0.44068728656845734815 -0.39420605311260414894 -0.0067652865906710352162 -0.1104378782644576118 -0.37008147947428410296 -0.1126442695179676462 -0.24343764035245257782 -0.32634786996678133431 -0.27817280172447489406 -0.08123708512359897882 -0.032313457748545895698 -0.1290476091049098939 -0.05434242830513825312 -0.088301673803488980874 0.11130060588176879377 -0.030282514878736292024 -0.28637495793335948635 -0.049833309827260467706 -0.26458201792108065886 0.045741201272209756901 -0.099079726382403185414 -0.25405081673573964851 -0.043407169715916515962 0.19770991833261988835 -0.21710552345656047857 0.022996724654136744409 -0.046487878112043655443 0.15677088464550675839 -0.11099539247099730888 0.16820956305810852438 -0.040396885753487252191 0.18969098904971432029 -0.22915358936518437361 0.14800758722503626341 0.0056083336324463505668 -0.11592972898195340326 0.046565883726100133766 0.0071942805094515173761 -0.02428751282423606897 -0.14562085239987118679 -0.24355598198671299381 -0.27009157496482227856 -0.21506949195866253977 -0.13439332266407874594 -0.075501719079793708223 0.14282867042821389969 -0.19371356510114542959 -0.18113368436546198326 0.083728327299159771568 -0.12275526357804524002 -0.25736411075999959808 0.038101079351762705272 -0.022987836354486989449 -0.1012459368707809837 0.20031923831968628802 0.10184827786929295801 0.25111668771161804736 0.20957808930255564239 0.24321312929643432166 -0.19582593087327368475 0.02244261007201767133 -0.088663455331803281423 0.20069346110917363202 0.16502317450162148904 0.21287284079861432118 -0.0053612249558012943854 0.25072574420242871307 0.12123167903130661893 0.041956084431717548255 -0.12919783439382648282 -0.049956325767566894802 -0.023051076915341407042 -0.18926744026879080418 -0.024155189108818753141 -0.11840270319148508971 -0.2183095225176117371 -0.12610896642712338123 0.25514448449190973989 0.033684998219786398133 0.083502310376100633005 0.13671861393595796663 0.21719150798861372453 -0.03880946068158926815 -0.2021873446394645002 -0.023779622930132762737 0.10011177356740846855 0.24811873319630556312 -0.12003947915993859463 0.071694779342545311707 0.21326272069594831571 0.1883501495580779117 -0.10694937604110253682 0.12049167736962587694 0.11088989354828845957 -0.1608758510221308391 -0.041284085853550471501;-0.18393872028486779602 -0.23147973130301782718 0.056178952001535609195 -0.26004402929860093163 0.03359315953392456866 -0.27214352617957893177 -0.22363986921172049338 -0.0089172101991892242095 -0.31014602583159822657 -0.16932592306084195966 -0.29231983453226101366 -0.25495593708382313647 0.11588502476270896857 0.096549192727646865331 -0.10738603883701745845 0.10178580865897747521 -0.23735712908317266323 0.099245149022209169787 -0.043166300293209815264 -0.0697492291104234996 0.09801360824325067167 -0.24558670427493958788 0.03083931288009674615 0.21310721113228722756 -0.12913640788947156057 0.14547386575379347984 0.23216479544133689084 -0.18778531626011227273 -0.014773410963049822889 -0.092258552452795600241 0.17001774793823684617 -0.28426544168476142183 -0.0052031621308766332068 -0.23475829122956967665 -0.07439845084850818524 -0.20018411021493381918 0.012572298514570258779 -0.16888126095406846838 -0.23289444234576406334 -0.14699202878305328568 -0.012224249525721663651 0.010556573121663099385 -0.234355219329585307 -0.047865152131414567815 0.05908765547909636956 -0.022495475891007032931 -0.29902477912536806759 -0.22725451806076019112 -0.074509527365987648917 -0.3405298770964839683 0.03354596236024363215 -0.17521881808419106918 -0.10207413765424318275 -0.0075363515401096004345 -0.071764764630844454785 0.22326958448215133979 0.23871553424582980796 0.12884201431982530983 0.21272159849213434502 0.15518364904288567407 -0.094038077931035038426 -0.014330275681529978243 0.28670656791352244763 0.21344396791768427413 0.066375641032414445242 0.12880094787972584669 0.15049253903800041687 0.2210482432850311707 0.17737376086843908984 -0.10332867498594590361 0.033488304727455536769 0.1450200210895873365 -0.076525552530485457803 0.15659500422861885593 -0.15792364137873513008 -0.040381746416904042152 -0.18056416235603089948 -0.0029825011371012837003 0.085311971598437993936 0.052438119422523972457 0.14128320090878929149 0.21785724841201889457 0.043476526197224564518 -0.17382866587539380632 -0.15055670162118611755 -0.23988828748796955925 -0.13372426245160870528 -0.0074015745745761281696 -0.24547205837054586475 0.16433748662614022784 -0.11076252432848381069 0.27833617467438848125 0.20923357944991730073 0.043116204995872223216 -0.20550950834192843741 0.23797842506935873441 -0.096277400520788272709 0.18501667674214844483;0.55889523232155557952 0.42049261214302663392 -0.053895495292509427998 0.0891038029180838409 0.12366176005098790391 -0.030763853266945220127 0.00024833503358172222828 -0.2425053666035679456 -0.19683380275135958781 0.1297231916005068264 -0.17696785392583444518 0.24721512364156084107 -0.14599607036318987263 0.083397374736522478234 -0.11003532762098405806 0.12511948231201300286 0.14059876036054824722 -0.096048581081128861503 0.13254485838317642266 0.050420673368740079323 -0.19504089242664826576 0.046790056452846229273 0.14475776417398869556 0.14334671587093736345 0.22523609218703566359 -0.23490743017920007185 0.23679736745854768065 -0.016139914118659413889 -0.091608684414551624919 -0.25217798613406439134 0.12010520679315703219 -0.0027821582550328666401 -0.19499967975748958016 0.097841776210307720985 -0.069874751927112399574 -0.0070673274100137711828 -0.075412232347491253703 0.24893965047400948287 -0.017655420900257959987 -0.03683674218690613511 0.071563957886836199185 0.0039432734015193123336 0.27762207402867455919 -0.22255859043665010555 0.23533127841273096537 -0.049540232060167374573 0.023957725238150432562 -0.015433289422790838138 0.058894555796064756992 -0.061415133321092059415 0.13864315678201361015 0.109792762957936052 -0.22822889623650485791 0.079120723150595567708 -0.12048282969414671195 0.13769964829811778828 0.11302144955673346094 -0.16117771463914304375 0.026817452976073918175 -0.088728822305580476448 -0.23749307111091882971 0.063724176545099667224 -0.059085023024089897148 -0.076280366011169969953 -0.17078289333273929951 -0.30333834056427694259 -0.28388655298064957577 0.012977602890864244761 -0.16290279601761187278 -0.23888887921761495226 -0.25484822374404647594 -0.034750094908015630168 -0.070419083266325163684 0.077244649368337831019 -0.17875957130780431581 -0.18836226752823054253 0.066166484675852149655 -0.36914686534504947968 0.044656180688196440987 0.020482550527290442621 0.044778874866293942592 -0.18072656725231409092 -0.31952120037730891156 -0.24564319075773591305 0.0341356540584718815 -0.065035161711904723725 0.024392950242617342932 -0.22745897332252348888 -0.017276875576847240679 -0.092900254057130093877 -0.015665813659883176534 0.037526515214442099366 -0.30138987159601832166 0.021676042043408103033 -0.27658785310887318287 -0.038727680055039723217 0.11153954829017616313 0.027126770569728227839;0.008789609937181240909 -0.31110095784651342621 0.031463364399432224017 -0.015479371027475865782 0.073780226763453485295 0.16335852068057513109 0.0059160554332354405027 -0.23150180120628821578 -0.19484921688215131597 -0.20416122967731339943 -0.11946821115633517174 0.19930781101429689839 -0.16708749377763662536 0.13151353215349143033 0.10384310391661759343 -0.19494762071293067485 -0.006137077900729052439 -0.17181302359967659532 -0.10540028348061866725 0.14287321908817715577 -0.11573257326141916934 0.19336992929161470056 -0.18797472097377232458 -0.042258340560793326846 -0.12332190868562399599 -0.12165080216107704292 0.17456026402637583872 0.10479641069323808455 0.19169498522761785342 0.11556563109559757352 -0.20769426915004585155 -0.19515455862980296553 0.041681135293931789731 -0.22292009114041000384 0.22271012433948106368 0.2366947898987510901 -0.24376998882798042723 -0.023965267559432519573 0.22182358493489195972 0.17342355594042738187 0.024859252298585474139 0.14646192147030231978 0.082243376056447950462 0.090044459594183806628 0.24547296576697247295 0.16244224094489859156 0.026534365886853740479 -0.16099264838313240289 0.131732478898340305 0.29600717954205757465 0.24534946673121516003 0.079786879996284310046 0.25294365585459444024 0.20498800636839134559 0.22740331854085996111 0.13463054187323461597 0.055734064710043752788 0.18614638955081005967 0.086498616262020294743 -0.015013032220395959235 -0.016063827223915964904 -0.11149765763893187964 0.20652231632705769782 0.083985139234494909921 -0.055976347146560384571 0.16397286244851055903 0.080475756543263471388 0.016106265136801235088 -0.13035254019441222528 -0.066423626809213542899 0.17472809028538971443 0.017691236751831755647 0.095659520911869952431 0.15948727419048400189 -0.077179708715502337579 -0.066013583005449946728 0.1094927921984546193 0.20294878026329912779 0.019625188907366211688 0.11825840984475340101 -0.04694790975742083039 -0.14913593870310848377 -0.1463286102622950724 -0.076740992733556279148 0.16633029905274301918 -0.19073212289189198088 -0.035759320076529862997 0.096561609819731553106 0.25598057213417257927 -0.036234752735748283758 -0.033731446162804004651 -0.049473543198312951163 0.26282165762427922573 0.15525907391104593058 -0.10107678662351149423 -0.16293046489321522108 -0.0080011141823217862834 0.078879669143989250557;0.19523323878589624036 -0.14720918853808184767 0.23864498170189835102 0.033831249270212027103 0.19824055933487888526 -0.10320145118426954367 -0.050208547817461590679 0.062322145392089814409 0.017668167473012464513 0.068287136850039689695 -0.032232101242571156718 -0.1565028799018249317 -0.19927723319213594411 -0.017930802521560592483 0.10239432703730153018 0.18505788636923481416 0.054964089665802566553 -0.09038333307816938389 0.12288328989488504772 -0.0017147358192036988005 0.22250970925694335545 0.17140611487024762227 0.066194597576711117215 -0.059877632436255615045 0.2401120378813697831 -0.0063395040838406455097 0.039565775727665640493 0.11418371764028291404 -0.13153724186286411268 0.025310937064359800841 -0.096496343819535798647 0.14476914676030205875 -0.17141504266990015282 -0.12763444335125970208 0.15557051929557105807 -0.059582079307201378515 0.2304175848298040119 0.23144842673861071303 0.029309663022243727382 -0.24518717693320232764 -0.019150756253238025717 0.15839379166905787066 0.13048709093296101402 0.045373653319444533227 0.22259680003916954005 0.022801787310164176037 -0.20226178185227478012 -0.064066085010453160953 -0.15944573077286755547 -0.27640744201283862225 0.1908236289264062524 -0.24313460034272663113 0.28124863742313044312 -0.13829583860198305101 0.20951571829939205638 -0.014040907999932553465 -0.045225577280004765346 -0.10986342115805372566 0.073840949802003397195 0.14445103279293472487 -0.17213009912144394686 0.21670216409824769044 -0.02941303833988272165 0.035290756490584274108 0.098424571759844675656 0.2334159736915875083 0.081967005564442821375 -0.14369965460503233978 0.061046067298644257626 -7.3424942190242160553e-05 -0.026873688889884936315 -0.0081436530927590615458 -0.13505359965247204501 0.10176529081736596094 -0.24832434000071682001 -0.033316115645227926956 -0.011056810290838351915 0.076563890092747374783 0.2143969811530463121 -0.19531532657717146084 0.20650025835671045882 0.12861338688463355706 -0.13117404183279401941 -0.16302611025851104776 0.19805204080954305623 -0.29086797714529299963 -0.25287876441400181093 -0.27835991160048273452 0.1721051371272897812 -0.16017926671724702636 -0.028402517986069727995 0.15790269586498506538 0.19580814530943058127 -0.042134761698660469498 -0.0041722887488715417262 -0.0038045543302549942807 -0.074341168084145620165 -0.084955470338970315303;-0.192698920771309401 0.029108337410802168077 -0.3002863715428227831 0.20819187532220972958 0.15393342711508434251 -0.22729497606161919165 -0.24175093764366081817 -0.13929647044548335022 -0.15704745342444517697 0.036492357195355561161 -0.061314424692155151952 0.11554761291993609351 -0.33980064961118394695 0.12996436957259038802 0.15709047225599184761 0.17231913059050810166 -0.24557901217203756405 0.11154971449255543514 -0.24122500009081562777 0.13489593760925316923 0.034145735435513573097 0.045564796065528892499 0.025066609165979077817 0.18393053111078128126 -0.21442265633445306561 -0.0095021601607427740727 0.15389492024867820752 -0.16973180815174296332 -0.0090475600085837305786 0.20678877501840239872 -0.025367673015993161961 -0.22141656388341485195 0.17601550220275108405 -0.094848301645322957709 -0.12746017437807857786 0.19489379273479606747 -0.25625473725993469509 0.018784822339774753103 0.0597560998184452144 0.094679534894384798083 -0.20766654617785967885 0.034832036738249666508 -0.1538317817998615944 -0.036971706515950032712 -0.029891823206379331684 0.18790082464947929775 -0.015556099503761942199 -0.13175787233170591084 -0.2984011877301749327 0.08605689918435723007 0.22894420536206913641 0.31568896948223923449 -0.086365501976449585153 0.18734692865412125307 -0.030592243672175209457 0.098308156302672936033 -0.022004182855411481834 0.053895016159917263909 -0.076903549262504783401 0.03704762248598422042 0.20091052908860534965 0.092614854949519501148 -0.11300046314338253739 -0.054267624043727050176 0.12523055838453903132 0.21489495358863500152 0.12962312189272653939 -0.062570940224099383387 -0.16655316996513352956 -0.058243534416035927515 0.15847103148241628578 -0.21563476163767850147 0.017380320338025407462 -0.26329573234804581894 -0.083493070605139219076 -0.18577279809069427441 -0.17644433771986337001 -0.168415130196258922 0.07323405813678082743 0.10332483252629226511 0.12413176785897851728 -0.12318254518029803091 0.16397788422884443382 -0.058560911688253294849 -0.029548702415303787494 -0.090311898583488522951 0.10170378716314518175 -0.017861341739807395229 0.24039743088336504306 -0.032150016166550485219 0.055211784994541268645 -0.10104489990913727293 0.17652524805537841979 -0.22285147265034715991 0.11342050796698406601 -0.16681976130974421335 0.054296987194310614155 -0.011899649537395817073;-0.31479611733365597814 0.17928275366780371813 -0.0058474527381490786979 0.06723842562691549618 -0.12279639614370720102 -0.26805838811224858009 -0.0091378115253911897792 0.023413019425399157064 0.15181666978634772436 0.29168012141150745364 0.10202333359101443955 -0.14383039549960366377 0.067845263619950454959 0.27203635695377748061 -0.074364728673343802323 -0.021595120368210634493 -0.09077357600900178014 0.20137449949395791471 -0.16015663519865022679 -0.22548734023440597518 0.012401439841235368036 -0.16425217592305382808 0.12442221890443451449 -0.1474878732687375793 -0.036070845303039889007 0.10077543268209838978 0.07055950141857389446 -0.2173816879500275745 -0.10210518690044180501 -0.10363950028931831482 0.16370859446228025469 -0.11624906470823068161 -0.049709268454470545429 0.066440854774427196561 0.070365255438861004644 0.048181602161106805438 0.24845745539628077969 -0.08852364540452613284 0.17445179349112704958 0.20479564623753818142 -0.067976364103624828394 0.28757468675849490181 0.20416181759516963123 0.37042766916874236838 0.17567436555114210317 0.2316742534369407025 0.014171502980971353511 -0.074611375574714325354 0.33676712107891054737 -0.096520030542401158424 0.056976492764090509724 -0.021276647693893504382 0.12371646677924455493 0.15163688563739835535 -0.32625921143930836088 -0.13050666190598431138 -0.086428177462567742917 0.0032658439889478047685 0.16232445714901455602 -0.32032401822931977353 -0.074963399215672368858 0.13069535936704487766 0.081168086975117945125 -0.0050015961490832176392 -0.18392220081855259473 -0.18343468501714338403 0.0096984258161575461615 -0.32015744442959481741 0.18162473657704253371 0.13494066950561703355 -0.072203230447629690447 0.024509186783603507248 -0.046114220071919766186 -0.078179965760221972748 0.00064057958575151918192 -0.10356523497135763923 -0.29736800055440654189 0.041032389151123255244 -0.22135096502419998599 0.16268608140261758832 0.16949630438533466736 -0.099039759539709268377 -0.021962110522196317403 -0.067169743781911830927 0.001033846412707070065 0.17524676285072884885 -0.055862829087948859264 -0.2528633147851696017 -0.20797630912587075636 -0.032487139315037640019 -0.28136187434452453182 -0.011917818442928145711 0.053660921439570706537 -0.044230017733975598992 0.11526229729832866699 0.17410729705062757966 -0.19995984718204698471 -0.16257999165176567624;-0.13146449480348609828 0.14043858749780332995 0.026616330586208578751 0.14301271945659352336 -0.20538163048170821057 -0.044387482637515178474 -0.10696098447088173145 0.27074268305514403998 0.030523365686763993115 0.039753934760105233415 -0.15226457638756540902 0.20043304706552164673 -0.051385347167087855325 -0.22669971579934611317 -0.011158587818880572051 0.013479497927530283488 -0.2891014678564809981 0.10845383557800510055 0.071927697607410898128 0.13170443305818516078 -0.19527465799555077108 -0.29415545174852314458 -0.029191831917278594777 -0.1218058329030630299 -0.29839912712829674835 0.17826266826678344168 -0.027574315723601479367 0.049453179946320043048 -0.26184792435430281898 0.19182081025370656402 -0.016276576000036565434 -0.2217274851950263026 0.027347306781810978848 -0.027279359546262236386 0.13786150892896795184 0.16930478114222458075 -0.038314025447621760656 -0.21242619173101567887 0.14342784734636671029 0.034219519608833751101 0.018752292609151993003 -0.14019904136212082979 0.25829036204086092132 0.01055196960745641635 -0.21543551840202854186 0.17931488162566563971 -0.11706563392636626375 0.028050931332581633543 -0.20052235471681206791 0.13811509877988928374 0.046870271888107023495 0.10391234925342981987 -0.29293051779544659885 0.14763791574055193379 -0.01776649505663894027 -0.12857978759570701244 0.065778394027721870385 0.14841496051134775436 0.1889395912189888449 -0.17332786118842358203 -0.070542179468271945519 0.13116760387987994041 0.077203344659003830808 0.0065868155673623838414 -0.19053792579377731853 -0.09362338595945574049 -0.12540253239865706281 0.17063854715574153231 -0.24894918986604597233 0.081480467689159508105 -0.09750467462503910332 0.18334675021576787857 -0.16315955598612746913 -0.27136256108718392888 0.04323611368272294031 0.12622970334041819229 0.004872590947749244096 -0.0070389375235166392122 0.15701756108977260595 0.048560222114281952066 0.14650413709764215087 -0.069748588935640357112 -0.320158697032682793 0.025850835876077594977 -0.13813396265046579137 0.020539420959213957468 0.0078483083015055271625 -0.08595047668668566454 -0.031756087594037141209 0.073674486457290841446 0.07785724689770702478 0.13876366796549907678 0.18613529408282664113 0.17237880535391755799 -0.20506487615673046898 -0.22172414054801811711 -0.0020343648416908349623 0.024730816600137973255;-0.23657315651281177193 0.10982632063526645561 -0.19158524027984608074 -0.18617586690207280076 -0.22197385715781417503 -0.22826808254966265976 -0.085488166302420953713 -0.23134865875175536498 -0.070459959487645135168 0.11156640248305180196 -0.049520340544534163785 -0.17410533967926297705 0.19704477858397284606 -0.010905301647666704179 0.17694892252441304925 -0.20057539029071685954 0.071936140447232815864 -0.22933245763622331359 -0.26323678070324868505 -0.14342460328651446266 0.0028909144603777910815 -0.11310975650596510889 -0.14303297315379662202 0.14664505306188208023 0.035781610773466261677 0.13037986703948117873 0.16884539225135472562 -0.10633226582196868282 -0.015092405553864195536 -0.020661736346022079036 -0.056131253219009059896 -0.19338338923077960652 -0.22875589373698190787 0.04785458659044310864 -0.20301184732040039593 -0.083395989590825586601 -0.13233647814535778875 0.14066811483707097885 -0.059418619702142488892 -0.13451194351829187656 0.13295864301427695597 -0.090860288248502479869 -0.031946308342385126844 -0.18772949880521311306 -0.10992680734495409445 0.13107149038711787825 0.040912668788978083512 0.058926602153273777152 -0.22408383649059179787 -0.39108171376343520143 0.1087941395728127536 -0.22700380591159816102 -0.15628848108277387796 -0.15426447588234204478 0.05465969650435235222 0.25874433935962670716 0.2726285400663531755 -0.14744539413268553663 0.11346780203212546156 -0.046154411182760209098 -0.13927356848509556131 -0.17094735350956039022 -0.053932908839912419019 -0.020378563589659500627 -0.13850188390475198785 0.06103488237924389187 -0.068724094917564079732 -0.091296406855824796533 0.028252965237300250306 0.24963867631723341001 0.14220826674169537163 -0.053180746972097237002 0.10854606464113858433 -0.0094308078752763924157 -0.022495708805014603265 -0.025470186460862048738 -0.024650113418543818933 -0.10167274414398369542 0.20208838336808443437 0.15993108883525544717 0.19108179201995731389 0.26764303684727996924 -0.081180245020082267282 0.1498887866664471713 0.089053759389912182098 -0.16845183996378190749 0.019174305228554702069 0.22953099572410906593 0.14221996335331113515 0.14919161438539779718 0.14817135765805503067 -0.21081321766432703502 -0.20652608458350651954 0.11075409733303037685 -0.20517764044344041774 -0.13746805435489189984 0.15356270092004131733 -0.17174940050850398543;0.32021952390922636678 0.023445593654258439775 0.072872405689022173858 0.13626895557581567009 0.15665063076679011655 -0.072200010337533260252 -0.16404831148787435424 0.23496052428522881672 0.073979162240605716994 -0.0011640102076871268726 -0.1599985104757295773 -0.1816908889611120459 0.14120473150552143027 -0.16349259622947939774 0.29480699833335216598 0.10657272354920112323 -0.18471123949012543952 -0.16217342579138138703 0.088884724022144340205 -0.064174343743683887054 -0.069085326128077481633 -0.13158832289651642422 0.05175187184291291792 0.11914314306452959691 0.016964352810320701415 0.15211451029859041073 0.20342677002123588093 0.051314744903441317225 0.27148281819674113802 0.15867755654837059631 -0.093337104659060185496 -0.044199927720414838861 0.11401086920426281579 0.1012202043580328753 0.014891840060036878185 0.23742654787218614443 0.25142254588540102755 -0.13674756501205348469 0.13171777519625743613 0.093566838108606983915 0.20874594017910994004 -0.16440136248591499801 -0.1966025573450916053 0.17109694635877251145 -0.014785056120983949834 0.23682464244849879553 0.15621571551295415636 0.21932324841269340565 0.0653680421500138914 -0.19216175362665907644 0.18757891531040965516 -0.2714020583650479379 -0.011770813223950118628 0.043975137000914092666 0.097026798590493637531 0.068532340704526420461 -0.17672117568254389064 0.19085427364057591659 0.002338615040062753947 0.20338009317011790378 -0.069107310559104920267 0.15618231659943054845 0.18938831141539635983 0.13104420436359401347 0.076572121705165363537 0.11517370021573089534 0.068010145249737641304 -0.15184961714610584194 -0.063720598771521905213 -0.14849915988093756458 -0.1347619831554912051 -0.053636136701679285044 -0.15308571146886593151 -0.062142612417398414293 -0.1298063842613789709 0.18589257994393224016 0.06161238119623837356 -0.086976482863462351025 -0.040776070063084257633 -0.072295725216384387757 -0.15091316131674453738 -0.18180956018628963156 -0.018277023620411472077 -0.017855736203928291445 0.20279693443344942727 0.2462334056725118403 -0.14225384813890099012 -0.12992528248901766275 0.13216552240905560245 -0.13405217557011270268 -0.22572914580350558755 0.18749682336997983145 0.04865731705619821823 -0.16266705089958935493 -0.11792415632434402606 -0.037340962769326649373 -0.20035401081673762103 -0.076288884782127711071;-0.11281392408962043206 -0.17502969256031797318 -0.21913554100180271389 0.23341189749257859609 -0.045033192097666811804 -0.051715960596721330389 -0.20379369100531352643 0.027480448084189982444 -0.097021498736436256882 -0.0086326710295635163128 -0.09435897286236309689 -0.2298392393368045572 -0.055401961299332953825 -0.00087953914455684070999 -0.22539757561451082002 -0.19537568915800943015 0.14082170627587431433 0.079571361360826153852 0.21047262306288205824 -0.26983958264441409991 0.20949115802330256497 -0.034355201115237099518 -0.26295062946969893769 -0.24750383160099190261 -0.21093111556877983115 0.082477651196067397477 -0.18412804565922252786 0.12004833510976153921 -0.2456342446143152114 -0.049237997870127558908 0.17981664410629139006 0.051532219688218583453 -0.087779702942907864016 0.076634375012312461184 -0.24105250687666746057 0.18174040132374222334 -0.23671916941590687156 0.10735580913780698453 -0.26378740293648772486 -0.010358943781525173367 -0.20827541854517425679 0.14319182947425515562 0.13291942432959510945 -0.040237290422393053035 -0.15048566768163471052 -0.0063627748405698618395 0.024878191648990952145 -0.21993938086279168909 -0.31691403537660572942 0.1875972906291249187 -0.22008868962260288993 -0.28492581185287751966 -0.039229825876977687804 0.008376628161680053572 0.12460771719402419233 -0.086704414025424322854 0.087264197651467090289 0.035468897075566989396 0.122944532471464682 0.14254733352261042545 0.064050545082771109806 -0.14277247228891934427 -0.16254601048175973399 -0.0017175317333809510256 0.13817087949624384802 -0.06474112506859110161 0.14287743166918245863 0.1004088831317624525 -0.04632283056938080873 -0.037214329040043445107 -0.031219871843900830893 -0.086084837668374908359 -0.10915327386178556857 0.18543033817499371407 -0.035766298862405628001 -0.2476478980919384898 0.20037548177476285916 0.013791621490432139779 -0.072207117076298815705 -0.24764383272604315045 -0.0047258099210722749606 -0.088710193478352142304 -0.075578449740476116858 0.080139168258392831645 0.021634650070664059734 0.085684497805650169933 -0.0010548685737372849331 0.071843620338544147974 -0.13197810093690720556 0.17725254611152080342 -0.074503529935736209633 -0.091259952286684389855 0.071365701923676916341 -0.014580021258442085741 0.18299894482752196434 -0.19866786047603554599 -0.033534744710198356732 -0.21138925572252550977;0.22828848849232261098 0.40263386352308094818 0.18471817763431747084 -0.05890861442022640726 -0.035743000227537548297 0.020538844237265051901 -0.017316501701534765811 0.21891343054139292268 0.13836695679944560622 0.21013443945912996247 -0.072366891979398495494 0.052856694696040144865 -0.082291833449277235202 0.12973843153581157694 -0.24864975334965516707 0.12349494840099016491 -0.032202025617281013203 -0.27488876612011486911 -0.088012700092589504774 -0.25576303284181006736 -0.23444746622267842451 -0.16481908038254025617 -0.02574897702267241531 -0.21782964557122894145 0.028075773132645510943 0.19663261927510677918 -0.27174837602958856753 -0.017292229915680877583 0.088787948184587711653 -0.18519437419840623082 -0.13326304867114532882 -0.01957876575486057133 0.018005118035853199393 0.084337697211815096376 0.081745894348591835454 -0.19317039612271799665 -0.090589697880496700133 -0.30142876213011138287 0.14829986428322977643 0.14352812398018222062 -0.26581213676675990998 -0.090258247266726501778 0.0018158189369187145625 -0.13180794103556922603 0.077800136312542733652 -0.20042290053739436617 0.10250559360170266587 -0.18453030178812016016 0.024125449299901974981 -0.57653792614392307403 -0.18449595613596905808 -0.086282284107443707466 -0.11611295187080533653 0.060001350185681340266 0.25922544437330125033 0.00061302329580788727462 0.17799595808698373545 -0.0084782329408891691364 0.19347814454957895647 0.22145579429698489249 0.21291968216158202454 -0.027151858584873601876 -0.14383244420292654042 0.1737797558300906986 0.15590352263916679165 0.24328907714650174765 0.12803673740527712899 0.074587794647858987607 0.039108504392777077019 0.22294722517391385441 0.056362945932943359084 -0.042518677185864169055 0.1605964699546012231 -0.090181066548853952569 -0.17690237834044775234 -0.18348948239544976557 -0.24576321326872446749 0.21042634437256227398 0.11712306922984090651 0.097538532453602486139 0.20457898819644304567 -0.041989118009015356792 -0.056736511469491081316 0.0058807442690072949873 -0.15138274198727527664 0.014865039489436271056 0.14949050740093658418 0.1405518796643717705 0.03838659229511268145 0.21151046712246807102 0.190788681399191834 0.12999478719985704811 -0.2410982249161834623 -0.13593753781788917023 -0.29281114305132660558 0.1300704364486899578 0.035578619980377555743 -0.17078354980408536057;0.1320499293117974593 0.25239889198538112414 0.11115130908742937299 -0.20775495020370435273 0.13565006656139386165 -0.15518849747042354204 -0.29747246869174204242 -0.36548893186210179573 0.047690631048151278792 -0.034846767651306571889 -0.0038433737979596291172 -0.33913133232570474851 -0.23825806343781050223 0.055356281627438760906 -0.13349113715754348797 -0.12093965279251270295 -0.019215905239425914997 -0.14664198820676874191 -0.26107555227716366941 -0.15375435712091792273 -0.10148795469136555336 -0.22173642288235684283 0.052479163535348247183 0.086578531418236265305 0.027661260944696074854 -0.10158714847963844219 -0.11246038179225816001 0.013843960578791166677 -0.08642972921211219961 -0.21420398820500027859 0.08824334657899834955 -0.30853860545641370594 0.13287288870703853338 -0.065368344903491457099 0.13255346774465517901 -0.19420684644388655493 0.021497049490533551991 -0.13872698648787437636 -0.26824289368369852449 -0.16573080824732494554 0.094609934689859814805 -0.027757383092528585544 0.14361094524971748654 0.01601058241139829974 -0.085083905192059328115 -0.05437413491167074342 0.0061181479802022006517 -0.20182056581707166765 0.23801305312388537638 -0.1383912455537446573 0.19793509736286316048 -0.19605970379774664836 -0.034313528175531814168 -0.022689509530178640639 0.20625983183653293085 -0.2073279763842985346 -0.15572222868928825568 0.016383349256646428244 -0.0036865222615237360632 0.1867234376552157904 0.1783034108220691305 0.090036187870083467244 -0.023641857730769780255 -0.10449259614478238756 -0.13039892210683409757 -0.01533885603484550636 -0.088749217789164100423 0.23615551867139078501 0.077060604240437369228 -0.10270329305133908682 -0.061992481807264694649 -0.11572661708769514666 -0.089898625412005397917 0.19798791614215491275 0.16974967482861999524 -0.19020852880623281833 0.10489382557151723241 0.29943247028802871812 0.14560192530460996929 -0.16690188479657799836 -0.13859164372242932517 -0.2363912914044223601 -0.075493691530906695264 0.095150218767966282529 -0.068385665260284722589 0.15421675781623084278 0.16895109738108010644 0.049466882888420042608 0.17301939742815308776 -0.17972837043317230199 -0.19343764009329270093 0.1831809856953030835 -0.13103381266734992483 -0.19449896632514540595 0.046173178798228971254 -0.20100700346458949541 0.13677991542179923634 0.11715664617462454022;-0.057741990629397610402 -0.0090376683001107196991 -0.070377025756044486737 -0.013150912653209525377 0.089640545833436544032 -0.07725455771991511511 -0.089464544042188481887 -0.1109109692524689883 0.013802423483030240234 -0.017567212917570313585 -0.14297542853470349145 -0.17908098344049491746 0.24863928144689487199 -0.018141430742848144164 0.069540567987505005898 0.13067455035641320493 0.17832240830009607468 -0.18166097965110813983 -0.022826428020072932201 0.091243633285312125691 -0.16856554707736318144 0.05167575954585320458 -0.11968737761821367227 -0.062981682500159924532 0.10494771500967928213 -0.023838839588832361899 0.2388530035260555684 0.1741498057271363975 0.15384866398199417703 0.19195342035818829807 -0.20291263448675594949 -0.21917868422586708754 -0.2114732234508376052 -0.11605467775287711674 0.20008996411601256971 0.085807475451778844611 -0.009244800923059365988 -0.040913151094992120105 0.011095223444789135622 0.10081305165791158707 -0.11164946712113768545 0.051275116380233173863 0.14077934516212806115 0.0012751004329542526758 0.041615464061655539629 -0.25727067460665864473 0.088838189152447483155 -0.24329387770898197596 -0.22378028663350282845 0.30365580973951972199 0.12157261481595758867 0.073273849283819622591 0.2192448495057940927 -0.15545468106391227558 0.233372361537362627 -0.17318880599126046382 0.20711121860091410984 0.040844125157769972656 -0.2773151602792888748 -0.24574119865001706198 -0.048604005979833671269 0.032207377843179063603 0.12743961055064056964 0.10541263876780720965 0.23921099345338228681 -0.16333827254552418795 0.17253517461411033151 -0.16410114056820360173 -0.050909904480488862855 -0.13060793079977162101 -0.15430795782778530811 0.1138759940804318499 -0.1622054591979466831 0.24435068196201156776 0.24151551333479129302 0.26322165593705626474 0.23603153131184778646 -0.071043290790821805869 -0.057947028639536636574 -0.066898486302147688876 0.11885891005418559863 -0.20444204726514850212 -0.056367043355338090904 0.12173837735535415761 0.15630943336566985313 -0.18539287972699292073 -0.039465902904447222599 -0.077145830436465209767 -0.055363489449772686213 -0.17111843363942405571 0.005757260129939617381 0.23282098112734128659 -0.055365457867512450629 0.045652024528572456019 0.087038480340248483569 -0.013753303844815751786 -0.20648013801105821741 -0.036397082025809254779;0.089446967133830324048 0.20135540814911340179 0.097052631556288307402 0.055110311143100172704 0.043334265112900068051 0.15737708758287694 0.37551739985190452087 -0.12322905636682791874 0.13856276239182685472 0.17530800596635556787 0.13934412791684908095 0.13041690175622125403 0.17668857568352330789 -0.058109682769116509371 -0.16568405099167471395 0.072849760789561873731 0.27595157827428068442 -0.11176283340933550192 -0.1764660328705298098 0.14244687249246371086 -0.065184039280275038464 -0.16986566455330287528 -0.18718143642724319187 -0.22279495790858086512 -0.11784292070772189875 -0.017199968347295754162 -0.039082467625192129912 -0.0047564929060275743314 0.12838230877649636774 0.064059292540362355872 0.076938782512811387804 -0.036113895434653243977 0.22508798233110816067 -0.21463895093783549872 -0.19487580669970791525 -0.071358995472944886096 -0.23412647486802687369 -0.0061289565504745128349 -0.014821968123306702991 -0.34794706163100835861 0.076606110375865704709 -0.091815791563400306341 -0.38803210316749608966 -0.063073842812822938919 -0.40076602019365326068 0.028150922632032299858 -0.19409833912101037701 -0.28793821807583636074 -0.34737471653551160733 -0.17538209744597349493 0.046078730594704263301 0.069061005615898285459 -0.23462337076344960685 -0.081650573467697551422 -0.12682348228378440003 -0.19324422098227928002 0.28877296089118892342 -0.015939907938143340477 0.25486277954167813053 0.021974178897679604722 -0.011590399254603419438 -0.088589941149509965346 0.038436855819148019187 0.1590868729442880547 -0.20308902892207655877 -0.14719940612506030031 0.06893050468113567919 0.052858528574551651158 0.095497317267953990561 0.19400436315236899154 0.050901055354164066735 -0.13833612838261533096 0.029554609509729459077 0.04493741241100632916 0.088671922530594457501 0.011296432342415112238 0.26901537499071165316 -0.019424219487318247768 -0.046827018437281257845 0.19897025419423630677 0.11035469224540267463 -0.23627812174031104231 0.22701517562830209052 0.05123685815078925232 0.1503300166229090129 0.20799299815683197634 -0.26617523781786256443 -0.061470549534820652371 0.10346279707413905125 -0.13991495306243684205 0.0061768027225379993836 -0.2541558469792062902 0.09224819051873803244 0.011919007761485923488 -0.19357940104150125893 0.17005035057238210294 0.20311592928051719342 0.010448938930096612204;-0.030098702627962652112 0.23121539280020556029 0.25089536771457776609 0.20420465698626830142 0.082857194044191409543 -0.31126496552635024573 -0.029502676752172884989 0.080111518765851486013 -0.0010517260335973954884 0.22188553414339159953 0.13685521392298879984 0.15059564710033063184 -0.072769049477482736221 0.17636478470396060869 -0.16151653196084087005 -0.0536854788754143053 0.074138354188667029976 0.25217875576867021525 0.2130146403336775629 -0.18898848241578858342 -0.065567959716540280546 -0.13808079867907485649 -0.14861510920973897143 0.26175833325770925253 0.091829940259505138389 0.076403647364553725629 0.13970735827325017619 0.089556409511757167907 0.2094231616674057106 0.085145174698502329447 -0.11904178926033959218 -0.26459063555655837341 -0.096643948762402412389 0.2122165162907226621 0.11842359943923232157 -0.24687282520122852403 0.092357661423606809969 0.21725651900397061067 -0.11940668755000576062 0.15592561475413108107 0.10381327908634246926 0.0063044360236494912872 -0.1785393612635302607 0.1558162290390808502 0.057556862011782450317 -0.10762252717003387148 -0.20877779292085921203 -0.2706907257028912106 0.036790358003959439115 0.45341366342195604799 -0.095618941068136259487 0.2036938846499823097 0.0095695302059319985871 -0.03779872732812693259 0.22190963002154392991 0.042164851702482616935 -0.079573463676849115478 -0.04149046854686066349 -0.086059092714481699726 0.016356170746795420379 0.18393007524690349608 0.23101689920879681095 -0.11305374352699290585 -0.23161932444308949708 -0.076001134585367197127 -0.14512489132617295562 -0.21600230357746308396 0.20945945726799033992 0.14850908814752630804 0.10038926718839302765 0.13517412808931730805 -0.066362036289536519007 0.09750940695271838321 -0.047636049403102155575 -0.072204432862905509882 0.040376612295809272135 0.12873660885254645247 -0.096772715617504501129 0.18295381297204474369 -0.15373418369273028627 -0.2210449362967867315 -0.051383960746875283199 0.062458236925881219226 0.12240581940851483211 0.18421662006942610135 0.15915628798782255338 0.08899511127036377478 0.051997535002978254037 0.26031682749551843248 -0.19851363695749205118 -0.044904588741673003016 0.23727279208803558896 0.13864730583499562666 -0.16231508607923358922 0.048722474314035743581 0.2162892277481384129 0.063053320239299284755 -0.034975356401118089245;-0.076666220359442302512 0.30095705928465976697 -0.0053584321976325862899 0.015892984590641520692 -0.052832249148841207986 0.2977781601266577538 -0.046256223618598643621 0.046877036090947704627 0.2709318102481087509 0.17698525333866757525 0.25248637731144008001 -0.19993500401505939768 -0.065167223349210934291 -0.006701876239644999865 0.24875551735939202547 -0.04045153341995313262 0.22592181804303379522 -0.14026361964629965873 -0.11070954672567676069 0.14197783401293723182 0.12267088188471125809 0.13418118747548019032 0.059756761609846942296 0.064983874003523123264 -0.019568178641518156613 -0.0057368419913876155664 -0.2068903378430539397 0.0055244661263765650408 0.0062306505003585782587 -0.17160052788667723433 0.15254494541403157415 -0.080844835618414517819 -0.11792163598254717938 0.082905331604629386999 -0.25797296223764160095 0.080458518900873188251 0.14489761668160772157 -0.27044097554010915196 -0.24746368518809477854 -0.18671635631251315424 -0.2495649438893214056 -0.074617224488439215513 -0.20022008130272411774 -0.25682711972158589475 -0.14593301235990085996 -0.28227937254721136018 0.012106190471758456265 0.0024171339153646197347 0.13727317903110689001 0.1287400607519165463 0.24923097016578019125 -0.034930849926954818385 -0.017622958805741630733 0.19978184869358786568 0.2243960432609958533 -0.12095896420717931752 -0.10480288167833076707 0.017738476352322712221 0.075984493003442690751 -0.089045334172106443971 0.17032935338340160492 0.23691241911628829753 -0.03185415553658705462 0.13886428437298234395 0.038687198540793242552 0.16069161288387254216 0.23200644684723320532 -0.20657690864032648981 -0.20752669584851146656 0.19329593598235977892 -0.084345423235573091514 0.068984493563659016191 -0.11902889135433239454 0.023012341737588648538 0.0049030845996990510965 -0.089070386577492624558 0.0013680331589645861219 -0.10581126761119388768 -0.21278677288610534091 0.03922483028445102049 0.075410991009851560674 0.14991961374885248715 0.25406877267234984075 0.15585392506379669442 -0.07747193559333659385 -0.0035241728168611120668 0.11615042716518954313 0.17575515161761859351 0.16461687019911394603 0.013001081482345123314 -0.11064872324733100728 -0.14892782578078625488 0.0173484501930376879 0.19781102354719126701 -0.26484246370247110924 0.11605217558923247578 -0.015515697854151438984 0.029152260775545637411;0.17551545092310544272 -0.21679560957609458893 -0.16075061781786195714 -0.12871761154310795705 -0.062083133635569678899 -0.27363251881776784469 0.022141180780646391169 0.17245011748089383863 -0.0080126653667651794033 -0.15745860854080809266 -0.0041234547520178624 0.29473783863769803526 0.091901216501630814126 0.057175691077135867846 -0.053813550973621497586 -0.18861068922024384897 -0.14998115467904352127 0.010090652268614115628 0.18534889526444933705 -0.1569000251493036513 0.20670662237385262205 -0.25834422410786467283 0.15804183648302941312 0.0088553680383584958136 0.004112089795090837982 -0.062182378898328553862 -0.10416924752522957465 0.068585977568552045081 -0.13662074403853288751 0.1487627001522857928 -0.068993270580645763013 -0.085496269001668317999 -0.16577323424464213142 -0.079830780614950830332 -0.17727796288979930095 0.24654707368353412367 0.10944375082208497585 0.083466720025418023043 -0.1017602757026881688 -0.18733012788528083381 -0.15955249873874072231 0.12075903158034001494 -0.14304125386121355201 0.27842808281604752851 -0.086656014079603979616 -0.033179321740004957819 0.17880725296886981757 0.12446684651721118264 0.20841905497186180574 0.5696232937796359419 0.269830119598120588 0.077618519353188294985 0.41709366047102647279 -0.040158075773566309641 0.22758005836769409913 0.24880233512561505949 -0.24202764766983228539 -0.22846635031554410333 -0.03853379298427336147 0.028622379386042149513 0.11440163608753335656 -0.072961780542232096414 -0.021696310071798681485 -0.097324833765234389227 0.0043484779903414589111 -0.10910437129105134135 0.0045116818812310204717 0.077213003787428541314 -0.18640188189877474056 0.094200678751393165933 -0.041746106152703618686 0.2889442031666810129 0.054453250194634504611 0.19950489838521093255 -0.0067657715687464972318 -0.16647779524872641232 0.083216505613345911896 -0.063258406365974448327 -0.14746395940949280634 0.19271877549318230938 -0.14448473133816314151 0.14277320720967853762 0.11644629738087255988 0.16253596895338898176 -0.14846093908344529244 0.12353130160382422287 -0.18403367601421685706 -0.23598995125422808639 0.12498818967578328998 0.2702978122246840198 -0.078814248459465191532 -0.020184544158429830463 0.30933513981362870116 -0.1534222116115651624 0.18427741169117942133 0.19990847835107655728 0.067422235131152627452 0.2371553258741689596;0.15358967681485682921 0.012527453450652877021 -0.034110506046048705286 -0.020440985576662056705 -0.078103633579849854329 0.031354343318489304171 -0.025515070976663264957 -0.10894792462501373675 0.1668655894493407954 0.079812896102997771264 0.11948591488162725593 0.039100412484460271567 0.040240649123646748953 -0.14519893251538773526 -0.15003690563629654142 -0.25192456091416776109 -0.18754076361902694003 -0.17217364225550843559 -0.28166536619927678986 0.0017105702735345613367 -0.12151939352214623236 0.16252356563561287661 -0.13675540553125919985 0.22249769990150441989 -0.1155895101424582877 -0.083775353258895235431 -0.18582812825547148639 -0.17426854687369341956 -0.041567214316316512812 0.029636021984967137605 0.10820487568316926319 -0.22006251456369421704 0.17592095796745207958 -0.13166264710189123921 -0.045143170887366405875 0.05855242332640547831 -0.087097382442148513215 -0.112457099386765208 0.10254289816596319496 -0.21124363795698058999 -0.12602603109543086823 0.22994455948084296937 0.17704851982853672676 0.13262117579401938583 0.13555926136471524446 0.2152583369160629978 0.042881210472105454889 -0.070446758425219482835 -0.14312222486961007073 0.48569304494924780968 0.056623035333801897961 0.060499994636718124053 -0.04612759787845778503 -0.068285028851474000033 -0.088846899645926569189 -0.078781083314761135572 0.019925685500657406429 0.14094732084732727873 0.037275083528105101838 -0.073314783158950735942 -0.20120681848462410035 -0.0990748540620692425 0.1738244403124978299 0.18210516041211349814 0.15325587433599810461 -0.1395455531029035634 0.18574043724851513337 0.22956767237337649679 -0.11462810790524087523 0.13737668266041028198 0.13482950760531045575 0.23719713828429336844 0.037140082043808995971 0.16500269000391104557 0.1982138295660298144 0.19294112759707013338 0.20305730237523042514 0.19764694363596913007 0.18612136344524163323 -0.12399221729675449777 -0.15713382555024596465 -0.14027629358764603928 0.14832749920412618971 -0.17302570149752355411 0.25852854387281437587 0.05489374059195476635 0.038531534424369177916 0.095124292839147778222 -0.11498274986288944954 -0.099071318946064468314 -0.0033808283965853082147 0.27872449722536923877 0.058145000689652746872 0.2480293552310275651 0.2401157120542253276 0.08407005394833318157 0.10363820697603602639 -0.18576230323490788843;0.19257949913669855646 0.58564895077472600704 0.63124184245484804556 0.071411799541088769039 0.26394439691235838108 0.09686078786497626103 0.058465580013870192821 -0.13994421595127293223 -0.1458684595871410361 0.11913116288315366009 0.17677066919558717673 0.05273656243113967329 0.16336009135696674677 0.25439917303591452757 0.13924166373686316933 0.1058033243757020847 0.16752820329603160254 0.061114716071005589781 0.30063406225795968885 -0.17435483459130884931 -0.032461334071406666713 0.32517508855964849523 0.0044693314056837973175 0.036048536374901303525 0.21068899644010516403 0.19005549397958715341 0.053461652448157842565 -0.052455208769265869451 -0.017043132874386635045 0.046108788760342078739 -0.058772363018857715078 0.10186558417294325207 0.2061158194056791626 -0.052596103762327976738 -0.20952081270225822451 -0.060381413958872143244 -0.047272216144310874597 0.20176851873803594573 -0.08239353641621997848 0.083112811996172403228 0.013724238363358386497 -0.028746030223490360439 -0.021750942206183416366 0.17962342976650533255 -0.066127126710647993191 -0.034491973295739511429 0.27830918410745181246 0.081882558018832166113 -0.025208723795194343253 0.294986009675717753 -0.13994757431281984461 0.014680406626270669015 -0.035584177369200720165 -0.064946763457077866244 -0.19844601585156826373 -0.14737516028482647301 -0.051547714756028213678 -0.12985388750222059961 0.1930142958552331367 -0.010427893074813629828 0.14877947576955080633 0.11356852460824942708 0.0043773065295420760662 -0.11743229142627661932 0.060922400439974919162 0.058327831992547748974 -0.12115686804733756532 0.063040776421363062254 0.19914607045917223638 0.17774619056682045004 0.23124676602575022777 0.2419059884589281062 -0.20840901439206124812 0.24177845083247040403 0.13245186706663925058 0.049144845023942292095 -0.01566721937749403909 -0.24687423027397001341 -0.12035196161836386741 0.23497610408465705034 -0.096012829016259043646 -0.11645409498379862001 -0.019210269753224963607 0.028523123915370904996 0.19306321743747570374 -0.12126666665147635416 -0.20401056119010843592 -0.20022806511621890624 -0.22966081553509454238 -0.19310741793111518838 0.021417314587976320206 0.22596168509323183438 0.17379114492350811183 -0.17103612302761514452 -0.021339655305702944638 0.22323098042303246569 -0.10388732470917397266 -0.068302142038937072033;1.033718506770310297 0.082702463346549390244 0.44013321694167412135 0.34397666908209073577 -0.15276598611199801447 -0.15426217035859782212 0.13661517485701596408 0.14624379556381017498 -0.17991612062593845267 -0.060041593215527246097 -0.011491740000810050232 0.17927931830553378578 -0.18656208804104706944 0.084898308973036518132 -0.16587816035466931841 -0.076965958986021723587 0.070979197065914739762 -0.19986749714646082077 -0.063347142711224255218 0.20704135459190792234 -0.25145465380253739784 -0.019907442888638490069 -0.2424666515068354955 0.21146701578578444569 -0.071407979154545192513 -0.16477607874272504063 -0.271001421916494456 -0.028287158392821209335 0.14961249963533937435 -0.16322016022946223002 0.15700360147963923763 -0.0076930965852495822657 -0.063548786555197619985 -0.13129795216353798426 -0.19868834710184885006 0.20460553600256603524 -0.14041565704862712938 0.047212850965972996686 -0.15660859396445409031 -0.10062423604092891882 0.1418023150934995813 0.17984450579367528 -0.041051994923243746716 -0.0677591578318600396 -0.10421548001383752757 -0.096118788651539610601 0.058376875089766896987 0.12999695276065834082 0.11640251477046174855 0.24466979474924399618 -0.1625927881868194369 0.079590042941675709365 0.06454615412813245745 -0.24633803574221282973 0.20862679599717312562 0.091533828634791397638 0.033562689976768755873 -0.042037023764710697293 0.19633531579684868063 -0.17316940137257566534 -0.19838733096733615624 0.14386491937346321257 -0.04599085777779830797 -0.097290370446260487913 0.15016452057356111105 -0.071787425951835279192 0.020309749366136668064 -0.085651182900845654333 -0.24317642902946698391 0.031109741254466756477 -0.19879971049269046235 -0.14811413912629919909 -0.063386418074649814036 0.098658097544811793056 -0.17757723691346477546 0.023245169648665166273 0.19546793659842121027 -0.21110175785457085951 0.017955425906604576686 -0.013323143023745953953 0.064850009936037247837 -0.17603018613997176156 0.058725152774688774149 -0.1062620222094943917 -0.22404640374668821634 -0.11120596312130673344 -0.23511405730895701405 -0.23533572967017310495 -0.12285528558199416971 -0.23040632799259405661 0.0010071351712884967725 -0.0086226164155112968585 0.14023926632780595036 -0.058162060593740627645 -0.18809735647806510861 -0.22269437501170849525 -0.19661011511020415332 -0.070561877562067179537;-0.064946455335395572583 0.069642579422126968391 -0.043283750368667550656 -0.013643715840700973083 0.25836644283680082479 -0.13573722072960231477 0.3505205673264605859 0.12625152971818634495 -0.047299832037517468286 0.12226725498784815627 0.25871159560811785028 0.23774292861510967767 0.10880553368024434291 0.15091375521462838116 0.15882516307288821467 0.20808698806541200965 0.19471434040956381306 -0.067262159023002532354 0.24351663035223075626 0.22292906318660044018 0.24008044096019495739 0.16864264209663687444 -0.12524268778910588318 0.22189197863334356176 0.090344151254107954441 0.12783132442793548877 0.056003683553661046113 -0.16112680301914783509 0.23359161056473304319 -0.074357898354430157495 0.27824359706094559108 0.16106053020120253416 0.062681356939393931271 -0.052627180947177547299 0.16184867322146903601 -0.018408896470436291598 0.21629018142900904853 -0.17070192528907685015 -0.17415291199261814792 0.18350333652542080709 0.16293508116323277002 0.2369712770169821181 -0.18317377471720214244 0.2735167664152932665 0.14365342848746434634 -0.0037641687185491585696 0.0025123656448172429143 0.18209014531602601972 0.0047188722440372832603 0.29997837511334640714 0.27522564493325318846 -0.024547748981947697944 -0.062444299267681760424 0.26866402572804687354 -0.018182426136336506117 -0.11254244866561062544 -0.1953652042083020568 -0.24530950291154776655 -0.23910422167802183879 -0.16917808314016710702 -0.1132266922326598535 0.024783868956300188907 -0.08500012567599325719 0.17303545768159966922 -0.10707618206392478799 -0.22649104182015258879 0.11486049059817000917 0.068732721619308032035 0.033180871046009328962 0.016236852995128149557 -0.078999641092056191449 0.042759037263312392463 0.18389567875871448699 0.023615846968291141078 -0.24263082538074881578 -0.22611429257591553199 0.052179420366242131035 -0.19034132601545900032 0.087145495039013018412 0.13507623869452647924 -0.27465912148903959267 0.028223339094458399501 0.070211540821887977182 -0.15849012988566726912 -0.039451475537534502758 0.081805484791009991374 0.1365783013658368461 0.025145478180803284424 0.014528660782851360658 -0.094355420982296780985 -0.18820767347822667248 -0.083884087362513834463 0.021140281600089360498 -0.12818194284170189579 -0.097202663329064520337 0.26017081590472751484 -0.014690510769300340818 -0.10706409961561265398;-0.11499235386330623754 0.15890601980821469907 0.18048775450684034771 -0.16528025555741412966 -0.12434895538778185931 0.25257471464500347302 0.032997258054221906276 -0.092003252192122339514 -0.15797044797978107566 -0.11933270575523328982 -0.021858316950108095528 -0.16065451440369726832 -0.11241502274460957178 -0.023333450078328474286 0.13946190358508969709 -0.18742965639136835443 -0.13972632744333482457 -0.1289751262607250204 -0.085983061594129467364 -0.061086194322312617477 0.18822087024990311055 0.094122564431447938715 0.018140002890453321011 -0.14924675711267479383 -0.16452553501148017845 -0.19605206958354334801 -0.02271650678271358581 0.060517955663694597557 -0.040726307072079068194 -0.22628471336166991468 -0.086472058781972463426 0.11653213644291572637 0.14430550571484654365 0.017579665593054055045 0.1610928207156432368 -0.29209959690695114221 0.1283696027700486908 0.015599384705664902373 -0.017798793405455398675 -0.31192839583328257902 -0.10504630608940444814 -0.13801705870640670892 -0.3188296372637630105 0.0073832108246521203215 -0.34616595938829253232 -0.23158287657254705838 -0.0918508685140609904 0.0084933134906698976724 0.036848144318879998138 0.052417752919635830777 -0.022670864830671058621 0.024461841097568663012 0.21205849474712115676 0.090559079108080378639 -0.16161329906306706738 -0.074032111042849763072 0.12504944711742174701 0.047644669258846361615 -0.11151561506012588887 0.22289404236569138051 0.20149652108348867219 0.28058544173041788383 0.29391937900075237877 0.13588748856457191772 0.26471948159521663246 0.30537830999843518232 -0.12623642344453689379 0.13957094421767321513 -0.17839187340591597386 0.10418669254130616397 0.23194149656845486351 0.24383974710982872502 -0.0029639185288428712521 0.18828233069941460731 -0.13598322690309830318 -0.14589487170498904867 0.29064351854189968138 0.17859917895682028699 0.11622272260362107033 0.098186284151102767859 -0.021358530083316697862 0.27239140109552545388 0.072164000117173374149 0.21578781860434168016 0.0046981979438080181607 0.19956020113008038352 0.056413179108541273987 -0.12903693618534314846 0.1588843162450197799 -0.079781724186465244331 -0.064087137960198117814 0.1047946247707113171 -0.18716538003953980818 0.13711441816380412484 0.16111333662028698432 0.00012303497896715837046 -0.034795187428305694721 -0.0794916608363495647;0.47097414738985127203 0.4771207466197865954 0.14468246062150813547 0.18033144055761721192 0.11585897619292466476 0.20514125264150376293 0.066081431675186125263 0.28191631758439950062 -0.16844340048837241897 0.24904141201090440605 0.0016006331694797888872 -0.010905413362769995553 0.0072786380081189504254 0.15446753731289500355 0.1421846967400158257 -0.12442702586847333157 0.14174918641909053929 -0.069137491690457630877 -0.24413131133569618281 0.088094341235731024597 -0.2297882317078348835 -0.10198156209211445278 0.083638143348631011076 -0.19516895509452722446 -0.16968064526667300806 0.032252092182884779803 0.041903466867435755494 -0.090331022681535255714 -0.26136101048129611879 -0.2592986422892403775 -0.2346964532681421467 0.20622746790842505504 0.27655030002882874385 -0.14910354094022504334 -0.1832017376089780103 -0.14766817337334894877 -0.06674331980080218385 -0.10103468744640654864 -0.14952206943144197293 -0.094099172736323441479 0.15108992319258027215 0.037804597415698040774 0.28507748700020552057 0.28895323246266435557 0.035147960669407771195 0.28406572164140631021 -0.022758406148250098083 -0.074057411068097864226 0.29748548706895777682 -0.019982531661922986466 0.06938071764103875827 -0.16839330911583244577 0.0088653643023707071752 0.024017301220737870271 -0.019970688191025858654 -0.10941645624251582214 -0.19545102645507736461 0.20265099666051389349 -0.25770020313188618521 -0.22601877543528769987 0.035256474155834202633 -0.1446418989287367729 -0.13709062034746186121 -0.282022303157785037 -0.30764849314828307536 0.10487084022085002566 -0.014432721181669699168 0.027441431977762838212 0.03705970815807386326 -0.39063155247145947557 0.011895225359300230783 -0.016496791496044761055 -0.10111605525139603923 -0.13185155753622315733 -0.38531276283624232848 -0.30743501167467679469 -0.14294034127934873712 -0.2209900574488257996 0.06607674595126919459 -0.18316583051731391563 -0.29863103779615057798 -0.11679215596391133436 0.03233830366659041361 -0.31675315962824002192 -0.14727514160104723806 -0.24345419757476730038 -0.35279627244230465921 -0.39121661339854546524 -0.1079327829025235469 -0.2597550715962650969 -0.2490563940473917437 -0.33263098900870968766 -0.51429894418877475371 -0.22953837238544133603 -0.19358492620848230525 -0.23831570138347837884 -0.50969120893918362647 -0.36332617802035122034;0.25361874766443265328 0.22101287716691986329 0.17373086862058248481 0.0022097970962596429415 -0.11720701045020011366 -0.21818930141390913136 -0.11640509097667162131 0.18269165253936292537 -0.084455577669190720624 -0.21494278864934171502 -0.14117113701984082552 0.039603371317934774054 -0.16924586859315465803 0.029920438262759752046 -0.13769439246283385336 -0.14938119210595277031 -0.11141433043384821322 0.21841996480677314252 -0.013967627083427575432 0.22943199243722578462 -0.20033734400160124745 -0.20774828138197720673 0.15223720806031504349 -0.19483764058551722442 -0.20929890600914008436 -0.084336618760432718878 0.23798770689357734431 0.021188907732060387884 0.034738592615950129872 0.063302817276666548119 -0.012002380862708994513 -0.0856199998541592594 0.07707737733461358931 -0.1461853348317070922 -0.17582330158824396871 0.013430861203698973155 -0.22365880191326709125 0.07270773174701046504 -0.11053179839468739443 -0.095875275090083755813 -0.069417192671235833368 0.15117171447112082161 -0.14206154848295762805 -0.24637789340086724277 -0.24754611121853237199 -0.15540622174205653838 -0.075063459379804103877 -0.12134592226892235156 0.079688152102740453242 0.096320588195488915373 -0.078150825483828526008 0.10975913515693111466 0.18708332630095841909 0.028070229223978730021 -0.19447176469169757951 -0.20254980502079719673 -0.022812216118604448922 0.13034871785308063674 0.11432456511363479901 -0.025064197360208297083 0.20860691821813884261 -0.18311829221805819845 -0.089072499697307849775 0.10703950439267150008 0.099473471284879488863 0.1472610945227005308 0.19904678151484991866 0.1399544289663260388 -0.13133890420669300236 -0.2003168668751450221 0.16863306408717093632 0.2382631290421532988 -0.23454817142248415851 0.20868332782481477383 0.10597119050778122662 -0.0074522843184492929686 0.081420426874469764567 0.11119743858992554852 -0.086007356187881453535 -0.022120957408800781541 -0.053295913373082683118 0.16722181838950300747 -0.21585364019384747913 -0.03121796469714107139 0.1039052454694517208 -0.17487178429073971242 -0.13378798748967068999 -0.0020206432531648028418 -0.22036145514496124909 -0.079690051330598990487 0.17686691658683131867 0.065501905925519909868 0.14129513558261103112 0.13098439059218522362 -0.18194696793418674297 -0.18887912540872586753 -0.05914765343231746797 -0.17190760044161959574;-0.061357277478733797393 -0.026207080264083068566 0.016664916706018363668 0.17782090944504158614 0.23011861488231541428 0.12688972434301443171 0.11719584426514682851 0.10930213683610547071 -0.21569234613383009291 0.16550647023079761988 0.032975707423859815237 -0.16210382632916281453 0.072760238195230531044 0.077588972061323105422 -0.073558123277868758816 0.028640086628090817567 0.22816631619006372267 0.10632781468523888613 0.1647058428781665862 -0.23358865129725597809 -0.0056302518978658365467 0.12524249064238934803 0.18361150615723625945 -0.22950335461513424185 -0.16308012683636541329 -0.23868966036677008447 -0.001732014255841925806 0.13451951618556737267 -0.11330627747011387529 0.23807269740643716149 0.056765276184915239299 -0.15693471518368579121 0.062542713529526866578 0.17625955769794141026 -0.085555810973449206158 -0.050793938025834865779 0.27554374398034847671 0.11387397957996786557 -0.089576563417879825901 0.22971896161673677206 7.8666286260872233735e-05 0.16079333174234533566 0.076441001356542651046 -0.24011103977406650367 -0.046242476920265687679 0.24883584592620971998 -0.13946551987814864715 -0.027244984401745293151 0.16061017682635614356 0.1366205493456174036 -0.039761345479972946826 -0.16653407510540044201 -0.056895406102238955948 0.2069950669946906685 0.082560323756246917215 0.040613242723925989386 -0.21148247968254968443 0.1552649929265940143 0.20350484440512511819 -0.10386900936659849981 0.06418822583103682422 -0.16383177014166053209 -0.023623213911142571658 0.052390917648512537463 0.025808723953408978929 -0.01742354147523123703 -0.19902035728517783464 -0.096190508278632194661 -0.022850182596950846525 0.2168447590448523421 -0.11681153871986552084 -0.13976096979495461481 0.15647578772514250667 -0.23102939476140960107 -0.21046970763010500183 -0.11233406287594963069 -0.068231190411058600942 -0.15442931635997125817 0.015085637689704613565 -0.048983016716159004378 0.0028030215512281791458 0.10016399440412118715 -0.17994926819460035916 0.056598914324220692129 0.1652140228973259517 0.16268470217023897617 -0.23108286315146953083 -0.069526993524336208607 -0.0099560502715822594283 0.023374688340658776597 0.03442123880310810069 -0.074825771533964524629 -0.01413224549687315014 0.25625945776812764088 0.089209814550674615408 -0.060315633507644635103 0.25890201466689660714 0.081285331686839296106;0.30207189381048210608 0.15364603718927796749 -0.0030362393588564207461 0.20753559230615811759 -0.11223281213059028982 0.24932258796177064752 0.23679330177751428677 0.2027819199785410309 -0.10543184235132105342 0.030671923900437908506 -0.096773421335971693269 0.20030775902802538946 -0.15040559629726002466 0.1290254471941395531 -0.12275311274844902254 0.18347213837165718409 -0.012534797865456389146 -0.21866208179697158021 0.17440734486741607534 0.18943001795109795649 -0.22747921664643969142 0.21174318636931155346 0.086194039651599080321 0.12459645885914646946 -0.13391233122612916651 0.12298799713878783013 -0.22237509326600149451 0.21118687956751325263 -0.050606633624674740579 -0.20725055140130274611 -0.0036679944521313470607 -0.15281982616794584362 0.16483022308764069819 -0.095713035310534905209 -0.17785087684667050256 0.15944811813792217348 0.060673568027669363967 -0.046596012125750388422 -0.22830294120797231527 -0.18470252078957249964 -0.043865342935119074064 0.1425327274964035551 -0.027252862261658357401 0.071825942326726094356 -0.13758833528926203704 -0.25441782248881189554 -0.035001431289313780781 -0.14429626524993338643 -0.051400058997963106455 0.051307593766112893907 0.024383770802927608873 -0.11202023025742081919 -0.026914585963012667424 -0.17990504942851348602 -0.057418641557597273339 -0.10833811605235976749 0.0026048754480018148846 -0.08675977640012332015 0.20924926495542389704 0.18819747770231748385 0.21394249078835941846 -0.20732852390354844507 0.052464890990818698058 -0.14707871995546237254 -0.14142394175936212619 -0.17488369054601904384 -0.097513148567511170883 0.23106982441140602735 0.20068111217586487305 -0.043477870497682341577 0.2249925580728977248 0.13773885272106073385 -0.1169790733607271177 0.15468630837204042083 0.024084666560982941758 -0.019448342618676436877 0.057814540006971899821 0.070552741281506611837 0.23801732413831264146 -0.023837310988175878373 0.14562493459075445679 0.17474810745446470173 0.020928460402003641605 -0.032649202152701020663 -0.19358750260588261649 -0.18797689334665085292 -0.18693417061153075331 -0.20329097688623459783 -0.13337752591819460046 0.13497596910167147799 0.15884898763227731089 -0.18549891486694441989 0.17588979354211256578 -0.0060687803973977823974 -0.148635037201603315 0.072368995370452562921 -0.025073281854926163931 0.23814918682800292893;-0.091919813292776458846 -0.48032412819687103633 -0.019422697042125170591 -0.34716489623382296159 -0.28164389425689861923 -0.18625156408236914762 -0.13026509359576499136 -0.26208236973411569437 -0.22913680489430215959 0.11211910159707598467 -0.22311695242471463185 -0.028015636947376305887 -0.23860055196994994775 0.11045487285887471696 -0.10289989650285194522 -0.18863116767121279604 0.039594589391521529953 -0.14949179048317659535 0.014657773453186825549 -0.0043357795966670435728 0.045690519520793622388 -0.17938646793504325894 0.064344422203453335851 -0.21236009304228717354 -0.20107230568033390705 -0.21959379235814074915 -0.20884133778485500232 -0.1739073523160740431 0.029507826752491896072 0.136907435553911494 0.088914652695309015495 -0.24277670620472338592 -0.15143591331894551422 0.012376234791941331803 -0.10507007191182075878 -0.23192703806097841879 0.15296566621496318628 0.064110968789224037634 0.1837242231048994423 -0.0076541861458343535968 -0.24579107021885723827 0.10699946955451408726 -0.2345968977657520993 -0.22207136655907194767 -0.20685891246912591068 -0.03038235173947669357 0.024112805670095951993 -0.17884935629760281839 0.11234781458499494555 -0.074139733551141284718 0.17940957250304570558 0.25246906210665381876 0.0061100331595770451115 0.018132703545808762785 0.098147239915088918538 0.19693566605933846003 0.19053957899365614459 0.12178660376326798376 -0.058337773147034782673 0.15689482227865397812 -0.16737405426851348356 -0.16229709063490582732 -0.12284400429566810775 -0.19748878658763907579 -0.1173707039052941381 -0.13958248138297585372 -0.063066412378523950544 0.13555313547120348416 0.25656078374398966213 -0.057137090309992706605 0.086792451275679097233 -0.13669681460047830579 0.1896051831402185972 -0.14912672064374229985 -0.0085502955496436754829 0.059540135009614678085 -0.19275154177448722281 -0.13964785672382534765 -0.044551500752505648895 -0.071183459150752040334 0.20442260172819670672 0.21259119325428182945 -0.10840721638990238884 0.064392000211647870689 0.19456253484771540707 -0.16269181031881027599 -0.0046671917741925687817 -0.1667911895555492241 -0.10743030805141984274 -0.12313781377639043679 -0.13725192001977579159 0.042381176031937507764 -0.090509643118253324534 -0.15800841164439674569 -0.21409057666489048066 -0.14983802486294806044 0.21313459346007407325 0.19644038228351098918;-0.049691009741100737596 -0.011844390296024706263 0.30974510924591608374 0.011577112635583941894 0.30158586793631492196 0.068266320343884370758 0.11105462419826482579 0.072117528930793109443 -0.19709999069410383266 0.031095264327771557356 -0.16167758696236161908 -0.045617467542877057629 0.091243044358311264919 0.031720086546449227649 0.23509141118900919731 0.0074375162810808130576 0.054947969628368044381 -0.068874551646076656586 -0.10284253371648129083 -0.23706934715128669122 -0.19121409308472231414 -0.13720136627972714938 0.20535378052256095249 -0.1113822040599062313 -0.10816490232968693774 0.066760807989646786531 -0.064946313972780125856 0.091771199219672305869 -0.16991729515653644644 0.080804353437797266091 0.092053220143041056267 -0.1355142513905294166 -0.2298753368938748487 -0.13860239737032964413 0.2065555983094018444 0.13876951190945663317 -0.031124658429012096172 -0.0721431764264322678 -0.12806221280877363999 -0.093709784737929194276 0.28379729788317709094 0.13750543141440305095 -0.02276897786187804737 0.1567883387571264997 0.069478322761594699108 0.16456528517309901294 0.20677993800464961049 0.082508585489991667639 -0.17243213563221679308 -0.065811366941131890784 -0.019376339730742167533 -0.19711410137608639803 -0.12442289078446631956 -0.15147994524250621429 0.1713655915076223446 0.10905532525399401489 -0.19177759443295194774 -0.071343517191587838 0.14940118723275030987 -0.063890343373104410696 -0.13843376959786707348 0.032533655019899868077 0.0095419590669119577764 -0.02185243970904886604 0.20824539070985345623 0.20048341690512494484 0.08617921613514943624 0.15824153741398197526 -0.13835464806691377682 -0.11658443327636974773 -0.096725280106242830791 -0.10965914618169517181 0.028960566198029561585 0.243793332232620924 -0.081342137632297653593 0.19674232984072528851 -0.20860325197281034959 0.050629285336062389289 -0.19916820862515083324 0.17344564688285540877 -0.1160465124087102784 0.28175204351874083564 -0.098518616167613953793 0.23400511370119961296 -0.21612756931232660063 0.063248744276957799548 -0.15250972705703721988 0.08856219661321400316 -0.17118611569666625227 -0.20108427801597392182 0.11755717898550785416 -0.015433488171850842999 -0.10237012588256128032 -0.056399319685891471932 -0.25854638339931534929 0.12456543940047760943 -0.19390962357704186192 -0.098468958766464900756];

% Layer 2
b2 = [-0.2035407251368924475;0.52393087413415095899;-0.78671880059185195222;0.14921231636893855788];
LW2_1 = [0.15254866016217372149 0.54604096503452947964 0.74387420852085617273 -0.21363550595680977362 -0.47152965499149884776 -0.53788027360325807447 -0.29505604120287387548 0.29560105017983684395 -0.47205527763644311579 -0.47531701258288916456 -0.61329077568468381987 0.11679052158773803316 0.7065897267980802976 -0.5895896423994158031 0.47768750888814764943 -0.049561004863409495458 0.45595863735139102735 1.1498897588826468841 -0.92101289448741097132 0.16177260836287191137 -0.098499472992358047541 -0.04107932590647686566 -0.599671852634555691 -0.27948112476741282517 1.3414478132974236857 -0.10708310634673573469 -0.76177108531363146859 -0.79503994833320612567 0.10985109699246300985 -0.54258149860483484428;-1.3290835917672796374 -0.25533041073314038938 -0.069849581664498783251 -0.79488940382873196633 0.28432822364903498347 -1.0368135397002933296 0.35181297211629164456 -0.053000331037516605626 1.0597036579705729764 -0.69248668121639522788 -0.51523279699466340009 -0.16483559784528492576 1.1042982523380748816 -0.53125085670388438874 -0.38506663828984227793 -0.30145516879339928629 0.54919728146841040317 0.44659009686899098224 -0.953111383992944039 -1.1310031461736702596 0.70702280429411079599 -1.2549945528475934253 0.48925566678335030701 -0.46200620633390293568 -0.43551498116305858987 0.001302276659008154468 -0.90560892587438568402 -0.29638436769129994364 -0.69033793749138461227 -0.4115955759489859922;0.13387901452618872211 0.085606317818175847734 -0.91264013216663364414 0.77246087335904378701 0.15847472228232373226 -0.94933656233897700805 0.87689263081000190514 -1.03739883544039313 -0.12659529372258870872 0.35795577538680095619 0.61475149863863953748 0.63018023949791324156 0.68245918581392583935 -0.80046298237954727206 -0.48924030253617278863 -0.5399614405833581543 0.91306895105758856257 -0.62753419677365729346 -0.74706929535100097262 0.44645652927293466572 -0.72219314056006311819 -0.14133376251006063429 -0.51574038315685377665 -0.82972234888658935592 -0.47572636130918949382 0.22999946017593950187 -0.20735922047981314442 0.27461461203471726478 -0.49386767113198937196 -0.32076303590505400587;0.2532883496003914825 -0.35182002620663060943 -0.90074414001952729514 -0.86924332497196432623 -0.59052106711196339361 -0.215079740042716544 0.41062115170995050484 -0.99612665735939065481 -0.23985916989871300387 0.52002147360169681534 0.47882498958765118413 -0.20455040008690222875 0.31604372934452645838 0.094539547986005625924 0.62950587329962259808 -1.242540626651519986 -0.61900187518481308846 0.52857226491259556855 0.1860429286031887175 0.053039760377039495143 0.69068059898438116662 1.0344537347084290513 0.10288616817635402867 0.52700647383670762292 -1.495861594868725053 -0.42602557064843954437 0.7774946213942675044 -0.065705278119942381321 0.49683281096472992067 -0.81193454863817016154];

% Output 1
y1_step1.ymin = -1;
y1_step1.gain = [2.00087110188028;2.00518320445287;2.0031561944056;2.00250526511533];
y1_step1.xoffset = [8.81941434118794e-05;0.000352432056340057;0.000245930698326013;0.000908227895756286];

% ===== SIMULATION ========

% Format Input Arguments
isCellX = iscell(X);
if ~isCellX
    X = {X};
end

% Dimensions
TS = size(X,2); % timesteps
if ~isempty(X)
    Q = size(X{1},2); % samples/series
else
    Q = 0;
end

% Allocate Outputs
Y = cell(1,TS);

% Time loop
for ts=1:TS
    
    % Input 1
    temp = removeconstantrows_apply(X{1,ts},x1_step1);
    Xp1 = mapminmax_apply(temp,x1_step2);
    
    % Layer 1
    a1 = tansig_apply(repmat(b1,1,Q) + IW1_1*Xp1);
    
    % Layer 2
    a2 = repmat(b2,1,Q) + LW2_1*a1;
    
    % Output 1
    Y{1,ts} = mapminmax_reverse(a2,y1_step1);
end

% Final Delay States
Xf = cell(1,0);
Af = cell(2,0);

% Format Output Arguments
if ~isCellX
    Y = cell2mat(Y);
end
end

% ===== MODULE FUNCTIONS ========

% Map Minimum and Maximum Input Processing Function
function y = mapminmax_apply(x,settings)
y = bsxfun(@minus,x,settings.xoffset);
y = bsxfun(@times,y,settings.gain);
y = bsxfun(@plus,y,settings.ymin);
end

% Remove Constants Input Processing Function
function y = removeconstantrows_apply(x,settings)
y = x(settings.keep,:);
end

% Sigmoid Symmetric Transfer Function
function a = tansig_apply(n,~)
a = 2 ./ (1 + exp(-2*n)) - 1;
end

% Map Minimum and Maximum Output Reverse-Processing Function
function x = mapminmax_reverse(y,settings)
x = bsxfun(@minus,y,settings.ymin);
x = bsxfun(@rdivide,x,settings.gain);
x = bsxfun(@plus,x,settings.xoffset);
end
