function [Y,Xf,Af] = myNeuralNetworkFunction(X,~,~)
%MYNEURALNETWORKFUNCTION neural network simulation function.
%
% Generated by Neural Network Toolbox function genFunction, 19-Jan-2019 18:05:31.
%
% [Y] = myNeuralNetworkFunction(X,~,~) takes these arguments:
%
%   X = 1xTS cell, 1 inputs over TS timesteps
%   Each X{1,ts} = 100xQ matrix, input #1 at timestep ts.
%
% and returns:
%   Y = 1xTS cell of 1 outputs over TS timesteps.
%   Each Y{1,ts} = 4xQ matrix, output #1 at timestep ts.
%
% where Q is number of samples (or series) and TS is the number of timesteps.

%#ok<*RPMT0>

% ===== NEURAL NETWORK CONSTANTS =====

% Input 1
x1_step1.keep = [2 3 4 5 6 7 8 9 10 11 12 13 14 15 16 17 18 19 20 21 22 23 24 25 26 27 28 29 30 31 32 33 34 35 36 37 38 39 40 41 42 43 44 45 46 47 48 49 50 52 53 54 55 56 57 58 59 60 61 62 63 64 65 66 67 68 69 70 71 72 73 74 75 76 77 78 79 80 81 82 83 84 85 86 87 88 89 90 91 92 93 94 95 96 97 98 99 100];
x1_step2.xoffset = [0.000932404802351834;0.00186802752024641;0.00280342458880649;0.00373859606245317;0.0046735419955944;0.00560826244262509;0.00654275745792696;0.00747702709586864;0.00841107141080563;0.00934489045708032;0.010278484289022;0.0112118529609469;0.0121449965271581;0.0130779150419456;0.0140106085595864;0.0149430771343441;0.0158753208204695;0.0168073396722005;0.0177391337437612;0.0186707030893634;0.0196020477632054;0.0205331678194726;0.0214640633123374;0.0223947342959587;0.0233251808244828;0.0242554029520428;0.0251854007327587;0.0261151742207374;0.0270447234700729;0.0279740485348462;0.028903149469125;0.029832026326964;0.0307606791624052;0.0316891080294771;0.0326173129821957;0.0335452940745633;0.0344730513605699;0.0354005848941918;0.0363278947293928;0.0372549809201234;0.0381818435203212;0.0391084825839108;0.0400348981648039;0.0409610903168989;0.0418870590940813;0.0428128045502237;0.0437383267391862;0.0446636257148147;0.0455887015309428;0.0503474364159079;0.0503414060992311;-0.740586358293739;-0.819889732998062;-0.320877441564013;-0.564461306908435;-2.1606888981067;-2.92300691247307;-2.74301549420045;-2.59996781971995;-4.66100418624781;-5.74979746650391;-5.9372715220908;-5.38540165284962;-4.3096708574678;-3.66719667239656;-4.84087209222085;-5.65161236947952;-6.09162430247477;-6.17299761238881;-5.92521296336964;-5.39198565972355;-4.62767046233287;-3.69345446390363;-2.65355459631094;-1.57161576293377;-0.507476816914569;-0.220701218391553;-0.501813218476691;-0.660843571127658;-0.704085522280616;-0.792219447706523;-1.12954420111704;-1.32543711798054;-1.37431182013051;-1.2848964152198;-1.07811695772578;-0.784026980834785;-0.43815790481602;-0.252590820809818;-0.425826330383138;-0.552901424847351;-0.706983211350502;-1.05621161914536;-1.31544575339859;-1.47974666338313;-1.54954330689287;-1.53010622412225;-1.4308205404731];
x1_step2.gain = [0.286910020637951;0.247957477631371;0.235177270420545;0.185939496252327;0.157751558487232;0.154265406920945;0.17027487932227;0.1732571404983;0.162227857755679;0.158534433852873;0.160989121145597;0.169309379778797;0.171205490892702;0.170352573864392;0.172575022951562;0.177687089946243;0.185625442174087;0.196390254017848;0.209979945515088;0.226306779921247;0.244635160176417;0.249189214610161;0.253345507660249;0.254984559800326;0.250253041897689;0.24737508119077;0.231665686886073;0.218801993252605;0.211115187790215;0.207985316525552;0.20893992638317;0.21361512122443;0.221676345005388;0.232707681098888;0.241262362020754;0.235749513252622;0.232171634885837;0.230395289796718;0.230267631739487;0.228997239891969;0.227811959814154;0.22810672907478;0.229738054393964;0.232548818451154;0.23636242242499;0.240976946740803;0.246161291600737;0.242461086873784;0.238433483628054;0.0459842073042997;0.0496382357488526;0.055315533889119;0.062860819273169;0.0728718083017589;0.0822998651586156;0.0872074560505273;0.0947723348591288;0.102664301849433;0.10780664184178;0.100686574630183;0.0988212492968167;0.101287280353092;0.107841282177641;0.118677401891587;0.128029513056185;0.123196207288632;0.121134151689707;0.121643968972977;0.124707105862392;0.130484967755414;0.139337532961345;0.151866032789761;0.168986746274012;0.192046270064961;0.222990633778492;0.264594739632483;0.288095509804666;0.289478272100579;0.29548445759662;0.306446241386671;0.315325559834717;0.311484093728857;0.313978071613717;0.323442280003242;0.340721922787315;0.367006610299815;0.403889404737519;0.453307190961328;0.494850104000449;0.495203083570541;0.50024971433191;0.500980322917766;0.477438303566423;0.464785749102951;0.462000401794511;0.468718049085976;0.485214049379437;0.512439851675322];
x1_step2.ymin = -1;

% Layer 1
b1 = [-1.6050125127211991582;-1.2119728244100691494;-1.0928568689296189742;-1.0569029463832118054;-0.84064147687904300366;0.67105282011808620179;0.47520574451947850125;0.075949948489172247612;-0.049407959804018020122;0.10645699676812073187;0.16401406252132794128;0.067696367288935785367;-0.43569850384718389336;0.56823510926191711512;-0.68987782958026078184;0.72493748264641899581;-1.0913005717700772212;1.39075644544153465;-1.1577024482342901379;1.5492117226794466234];
IW1_1 = [0.27402319070193315032 0.22137647164972484859 0.21229315591569297705 0.05512594399069440515 -0.090438493814741449661 0.28436879911570334123 0.26311049277432874138 -0.0095474759128350815407 0.14738684505285915005 -0.13990043124220705173 0.043220385462523852604 0.050044879830882370297 -0.13895254749554658558 -0.1442521426726413869 0.00021818925712729789548 -0.17035818560154528112 -0.10324767305481738489 0.24533282943209944182 0.15704214269211391741 -0.13445088799440119143 0.18506491953909379178 0.065094648790036777064 0.083923240432505985531 -0.24646920669496830136 -0.21206207245605832035 -0.2614137809505601151 0.031019118000854745132 0.00078818130725080075109 0.14218944000697239516 0.1387996787483634642 -0.12072316956106048103 -0.10846065080326927621 -0.047209951341447585482 -0.2192084738336382288 0.018473525520141368533 -0.13335825847403787181 -0.09470102974093627668 -0.33024552172209142853 -0.1924849362736719971 -0.066882637746563472492 0.074778178062229819223 -0.31628889180923497326 -0.21890570155011995768 -0.31116201451884284435 -0.28473091736530392604 0.095287828532125404268 -0.18291139806289652414 -0.25386222944322739403 -0.39990148288710680724 0.33604109648821134382 0.33296694653349756532 -0.043720387970937121813 0.17396834562667404245 0.33646957167779367737 -0.10934414030769029624 0.14162474510548608841 -0.070016870738594708112 0.17702506793511751937 0.044000517764714856817 0.27937225033733575907 0.25431471738500005531 -0.15906335644559049802 0.18454502672702258192 -0.047371437100478891447 0.055836492265937738566 0.044001131523695106995 0.14720967920172869925 0.13903546714637890491 0.12950400309937476484 -0.052174405984430217986 0.0090838408266908678146 -0.037203856784687516779 -0.11842815694643403501 0.076978040801532129911 -0.077685625041501310539 0.029479794711589651923 0.25514791690632782073 -0.19981323982223161972 -0.064862051468851447678 -0.07549840151317191439 -0.074566045893654134269 0.12908902905553271134 0.20093516377595901923 -0.27986960748135036869 0.017141274998688359188 -0.073729325297066175549 -0.22576682602354913865 0.016681945724329363956 -0.065632518926137403681 -0.17095121246293953909 -0.27854812170567649909 -0.25041792289185793585 0.066749361517748240225 -0.32216605114857149728 -0.12265540731443570766 -0.29893014459489886114 -0.059484073175114705878 -0.07889110880230543188;0.26344819019395471216 -0.10179312850392019385 -0.21844704710565177042 -0.16080067913813009262 0.059018371296959783179 -0.30846139153034024538 -0.12564857332215306762 -0.27323928484021253738 -0.32071753820194720541 -0.013359873705798767929 -0.087914652794355480081 0.0018147722361042343403 -0.27243455304550762142 -0.038526142688180456397 -0.29050477073271763206 -0.047528322658726793182 0.064208396441203560712 -0.22080723932799939391 -0.25510208485995955474 -0.23291664175192747233 -0.16348564899573742037 0.1625774255696573467 -0.19133193295805875356 -0.11765378951959937215 -0.0066409266734962779655 -0.16651353638672672375 -0.047382723703721305042 0.0297620817582671289 0.093529100423843450351 0.0083242827930159208477 0.00099852866064189843738 -0.044252713339787183577 0.0064839060838057160571 0.095825156402173206072 0.19110690318717549196 -0.22601736146088249879 -0.063793136998068808441 0.12634111515798793213 0.096402497167085793306 -0.25580193797517891685 -0.068259683446079313929 -0.051464362309351613378 -0.28332768272976610602 -0.1210899102404848493 -0.052923814955114098502 -0.19034210265313900035 0.14017419742881354061 -0.23277624483443459802 0.16555762802078721752 -0.28118279286771047376 -0.14982024949957531423 -0.052026110937290079295 -0.24208626504942706847 -0.26055602331523530779 0.18354077217087036433 0.038934727416915518305 0.0034998608871792159791 -0.14990730375616972969 -0.11258758821464298627 0.0063126882116758854802 -0.24735497288769933699 0.028667732763076575475 0.037334367655520887819 -0.031517090035709113827 -0.07706157284282039166 0.056863638799598874296 0.014493023021118654411 0.016116426997133583704 0.1599415481674631434 -0.28696795254727602842 -0.032982731375237966942 0.03473556309578875595 -0.019832591637722780942 0.093949244556540370543 0.17832527119677427097 -0.2839586729495303663 -0.36285640802581897724 0.15552061580247614203 0.0021127992075886661491 0.088454189997155305281 0.12411400141917605655 -0.16989733122927272446 0.0030178162786096826217 -0.26596208207349864017 -0.054509784440399264294 -0.35489687374225131755 -0.24300943522916210182 0.068853416094607780562 -0.2439198108844308488 -0.38470815021270127199 -0.3561108700892785528 -0.029413815271035488597 -0.17490572089042738524 0.12451246881938125843 -0.17795466174249222058 -0.039155993086760168542 -0.071532275979600531968 0.067131417278188429409;0.066073643871836909569 0.039704623647010953147 0.081104725403170749298 -0.12415666699448861532 0.043685328030467297789 -0.077156676455697154049 -0.080368330381724514822 -0.19954204754364238128 -0.24768188787671777118 -0.20027414093552278751 0.22308380943851754963 0.016536722052577314257 -0.06451245977430013212 0.091427442595559516025 -0.024841258104853759098 -0.2286129021254678928 -0.23243981259076729184 -0.014919230830072814642 -0.18288899860121365926 -0.17581405171366937257 -0.21933853295279090445 -0.21830859636003796531 0.12750981501907265869 -0.037642637644877234571 -0.087858174814287232079 0.12324456443530437677 -0.074622920622174501726 0.043932800716231519556 -0.16102445355711775266 0.20521019963044001555 0.015165259771817700407 -0.00049796363169451324238 -0.19620137004403451209 0.12994975883407805517 -0.20335089433418879201 -0.21034649075225680948 -0.10368542371422963255 -0.10546273805030431658 0.26349337369209596682 0.033434294719334838042 -0.14677632640562204847 -0.075772530281889113879 0.28626372878099826114 0.17216148274821693742 -0.11474696071859183388 -0.1750743178739725403 -0.16997816056793910167 0.26798910409079879091 -0.15535384357238227193 0.10265930572369942608 -0.078971753538171277076 -0.088440263092896043151 -0.11146676087070639394 -0.13309434259593397321 -0.11165532243949809199 0.054648078752469748942 0.066860621880494089386 -0.074509224442964594459 -0.032296424864056594295 -0.20112422432432081054 -0.046547642170721541255 0.028893891413621933251 -0.024552539575187829618 -0.23318146736964071031 0.098096874074807688393 0.19351156225364329888 -0.011780175748437688929 -0.1682090395259096538 0.15298231049865199105 -0.11651540014442608728 -0.09313126258143324121 -0.087071692928083421759 -0.029092669003714564935 -0.19215926299841401548 0.19115514248487294746 0.071574340043719111848 -0.089265821458250654841 -0.03290383052374133005 -0.069680024349927094374 -0.19163341083061707915 0.21123982247714642724 0.078883256213072600049 0.11961329109282034522 0.17297995493449949689 0.24261548490481280038 -0.12806343045287638116 -0.23569011083641117077 0.22090659235427345664 -0.067452865512702242512 0.22442637345397972726 0.11846547214833987038 -0.13522351920343800291 0.044892813120456474818 -0.042347485618830560394 0.29535951819057087997 0.19172640249285977099 0.11845962272697523054 0.20060298368531703783;0.054185513876984559012 0.3472387130576632952 -0.0055070285764311213347 -0.13576923964558682001 0.19985210509503378851 -0.17209793563316111431 0.027600316138336987437 -0.18448837672270396171 0.24503117859162026893 -0.2204210548225558064 -0.21528819158030854108 -0.19711122838264844015 -0.18783586905867594163 0.20560487990262515945 0.11692305494094380747 -0.084423046280702712663 -0.051738640420081208338 -0.015881526028505357773 -0.051628498687636324715 -0.043840787470793673997 -0.098329669528827740033 0.14019798697143409649 -0.023067554784861617201 -0.14788798025811139558 0.18259645710423175191 -0.011580225735197504852 0.088745299489770362866 0.15199127648847732264 -0.19750091129276656221 -0.091691198785865596355 0.22819472450122946228 0.23562621207710726656 -0.099167097076227214703 -0.1712864326030778539 0.11459619022217093498 -0.10072399038295669349 -0.078542406532053618551 0.08088404670437718269 -0.14788542976921936756 0.21138835186616269923 -0.032890096347114365638 0.16595658685931771736 -0.089607765662109914451 0.1392648544748325834 -0.17356073980699088244 -0.052798678261831592795 0.082955860722826513243 0.05291960061410724836 0.055705476830592480508 -0.6941532663799618863 -0.0027885200672929854812 -0.15254180433564468178 -0.043914037288816966387 0.1646950425170374821 0.11880636255758988962 -0.12982859506591576393 0.086439642651523262984 -0.18003035321223878618 0.11551005084817404789 -0.042098342527082791009 -0.17622011530152278946 -0.17088013345874666915 -0.19930854391071567422 -0.16497617879741230396 -0.13547874259474868008 -0.11875928339921620891 0.17527526272991800216 0.059449490737648234828 0.21171923995972416477 -0.0065263303365656610833 0.2231406376188178331 0.14605918020877506347 0.10460238628491276558 0.0038267612470553216512 -0.2219349972416194694 -0.1840507378927037363 -0.11877519186225259096 0.01108939505455200196 0.069126818080480101347 0.16985344086156417553 -0.074345956027822526768 0.11977841083567918046 -0.015674493939882967741 0.12610758106763925168 0.043807500486597227007 0.017449146318154577784 0.16599746079774810315 -0.042404155703624400731 0.13285927379608572507 -0.11161101740707564389 0.1176650932350083445 0.14492949042025704554 -0.12734022485766932631 -0.019546696116458952414 -0.17215776332000973237 0.093924780838812740869 -0.086869389360766297026 0.082410510429340819161;0.40544439962928352506 0.049841629306678195133 -0.048498258545318473356 -0.14320205288012247125 -0.057207708437135240676 0.27391582643109518846 0.25944792099468377833 -0.1224287293747387817 0.22652452201211609184 -0.16964446849196651579 -0.10818077553418217751 0.21986530726631164923 0.065001764338196349469 -0.05384870909906835923 -0.057242311997035597027 -0.093750840655616549113 0.2642800378257819105 0.33221956971056643138 0.2872909743425144935 -0.091108477706345697422 -0.1117371354262666483 0.17436570860851818843 0.12869866131438104095 -0.033573556269821218379 0.17497363424769221685 0.18605473073965872466 -0.12737915134798991068 0.073597026659039305185 0.13347882492060553217 0.034288064999288034307 0.027204766353692354935 0.16865349129324633259 0.11406904708902070034 -0.12884837818766542439 0.17230693477267020053 0.0064679455649832798964 -0.14679246220429670311 -0.15457488806055966202 -0.092034104420628329302 -0.20047402110111939288 0.16347687737325333757 0.21101955916009898506 -0.20384354298863774368 0.092834261250799993137 0.0058454444097710200542 -0.035453803988243381973 0.18633908598729612138 0.23177202698682614068 -0.027232159044977735651 0.35218647851545981098 -0.0249945169613200735 -0.077462302208115216273 0.1432901847427337505 0.0069862547397829700274 0.15580853719593065754 0.062074866301298360638 -0.054920837113532593177 -0.23010549716764186479 -0.046156865849480338548 -0.26459621528331284113 -0.057646347921639320977 0.11354960490481734448 -0.08736276442012069765 0.083107256308164040304 -0.26058851455547438203 0.027343081336516698171 0.13657791270018351804 -0.041093759517758260413 0.015363092981436838116 -0.16129695026425833193 0.054603176105138220842 0.019592609981503108368 0.0034593672098223496834 0.20837108713252319725 -0.23822042778549051834 -0.22865178281061090959 -0.073190921222672095103 -0.10670257221084639143 0.12812844133578077388 0.19851039756860222596 -0.14773651180282726392 0.17653903591485892166 0.20557543604761233103 -0.10261531694937552073 0.19574363243603115636 0.09715059075839721503 -0.10812435000892360593 -0.067205821143855454247 -0.041409022812887524845 0.31988044945190113877 0.11828367937215673866 0.051753218609141983519 0.018364223329669658591 -0.2122747775354620059 -0.17780424695745122854 0.20858880953069039443 0.13184991709654855785 -0.021350782390078149042;-0.10724541209203229675 -0.30609785009031681424 -0.099630070245079777047 -0.32160205533674662837 0.11899534144251082413 0.044282718182379790517 -0.29654584485386814574 0.029392345029638524551 -0.0013708188687669362049 -0.27682414539634475625 0.081184503850385822399 -0.067147583588959544598 -0.070275684446437836073 0.029023582436314237371 -0.13661522100258247092 0.1600476210083741635 0.15345202386574821607 0.051171838883495017469 -0.20244344644144318668 0.20733594081221279337 0.24745079298487704378 0.069962257641388317375 -0.011693063327995228268 0.1444160203026484679 -0.15729145383646081502 -0.13594217130316518793 -0.061105288271083912921 0.16730951123130216596 0.20782732604812370614 -0.036424821097370066458 -0.077554142293036198996 -0.027074112077541595545 0.16076053040616941625 0.32832682135128526957 0.048722912073022608959 0.07387076878931284063 0.40389675261287455443 0.34198951240738628687 0.33934435733770323962 0.3733521175527879099 0.19594013482428104811 0.069219027916431988268 0.4650975808211326723 0.10184458876912574898 0.46727449793030439995 0.46872639762130491325 0.15288993184347521304 0.22128230055371059248 0.40362955144225598492 -0.32565082471071382653 0.019564924582640610268 -0.32396694585630819718 -0.24465092673647076404 -0.037314650202401711265 -0.31326815619812564684 -0.29053092133428859434 0.069644679081485125205 -0.10702524842401588134 -0.06430705120264540442 0.00022565908010305831682 0.1706092177437250057 0.045575051072693391341 0.034008400231777376199 -0.034470906002013759761 -0.19588211768719920869 0.039104772652002448008 -0.2188493370862887033 -0.14356906727321538941 0.10992743495716246482 -0.23649576007509687248 -0.11575034139565809621 0.077630326589113465841 0.11822710475603979974 0.11546931687152264812 -0.063350083862147216207 -0.2534002549423376438 0.047172098757932857949 0.0023875851507026181475 -0.24680104868933053219 0.0024873936515184720542 -0.056079996719450166121 -0.22917672348923290304 -0.33480693974213665554 -0.084740924258100730482 0.035104115744248501341 -0.33999490800909309973 0.016585779180681683304 -0.1107769531761308851 -0.17807248608402670431 -0.34681644087067720061 -0.26912326132931818634 -0.019952788131220151879 -0.031531793426151602522 -0.072242223438402392022 -0.076191251924860300959 0.018963413515590256397 -0.39591193968829718752 -0.29099940016165631862;-0.24281943868015470889 0.17284555669882634144 0.043704010235965241871 -0.21690026391445599296 -0.10782274571351700698 0.062056905614964880114 -0.014326230411038875373 0.2489423331357380198 -0.048862799195992664969 -0.048421008703712159482 0.22345713383123141926 -0.10707664051546128547 -0.060190598188306097815 -0.19210160708349782732 0.2112011729019074302 0.065304340730084273203 -0.0059846583861588517617 -0.019425988998285168008 0.23510305553257077049 0.0012887667667455934492 0.063483396293640803609 -0.23724670227819402712 0.077931243503384803328 0.085138433655163298086 0.082640199076831372116 -0.023695741372876055753 -0.13063360088169584383 0.15448570561466817841 0.059429808456180802101 0.12879393187126825238 -0.067432389045527243998 0.2788062235794909749 -0.14487405354457297268 0.21710721053588982743 0.10350238851996701461 0.026903327040140166682 0.15329525237944596761 -0.11353878443513748531 0.13770991925397371713 0.13385440258835074046 0.20150372625308074492 0.19298850264540129418 0.18330135371923200749 -0.066595299018153170101 0.1786998969774593049 -0.16722939759635016554 -0.05996231582104431107 -0.16368508095109435274 -0.22456172881262306817 -0.22159905938317761565 -0.22562391020432309707 -0.087060926679538408468 0.015173480443538105156 0.271318749579531171 -0.0083163268384930932875 0.04088014215479080643 0.23045662605030897696 0.14870120584124879581 0.20862673867719758181 0.10054097796867744741 0.22817983432072075356 0.10096217159337904368 0.19979163275273484346 0.12326222689258398146 -0.11659333027778136238 -0.13836228287390642255 -0.2263916592567359054 0.13046120490725113261 0.086585455768596386594 -0.22539038995722376901 -0.14946172324951162436 -0.21779191771507516728 -0.21523029271410151764 0.23317469693280504228 -0.091720887957858446282 -0.055639063766482685369 -0.006266190543566405903 0.12821449469879736549 -0.1938413533969464142 -0.08091150961698291566 -0.096266859775251331643 -0.085056808619106319402 -0.1985683122778983678 -0.085662851544222110012 -0.16213263461357332873 0.113687739124143386 0.10177976636724681003 0.093720674575319809496 0.093428520968596343033 -0.13109779324859474614 -0.088361597420160337135 -0.20264178532006840716 -0.014792313229442749165 0.054069604671466674206 -0.12417794559000004673 0.13512448607646554422 0.029539205748013996899 0.074389537736291561076;-0.2499187763401340967 -0.21182529064967992039 -0.25734672179354772803 0.14060728920033011002 -0.091873814195373548763 0.2186213477578876907 0.024499445091003022729 0.097354369604215840184 -0.16621973295510056312 0.18268991695221392657 -0.088292451738282443086 0.056797202806337890313 -0.09994662497001569057 0.21743556655186185855 0.11395861421938652258 0.10735111207765332675 -0.071499821262438534308 0.10932660043621787727 0.11510752611639579746 -0.040338793922223434296 0.078816636647453780506 0.10768098479480253671 0.0050023899840212267959 0.11449907427593111753 -0.049468318471524067026 -0.083664410785258769288 0.18968623132859530056 -0.19177429464418674354 -0.013374860409981245701 -0.10369511633358297065 -0.15341689856436641071 -0.15466554109319086141 -0.031056539315115531952 -0.1541681109988091436 -0.23189332634286002888 -0.076451475717103173357 -0.075323881773572493037 -0.27517271665048015361 -0.25806944080400051611 -0.13301312869328624222 -0.098306881068058890594 -0.25413234519032501524 0.18980357332018465977 0.15298356042499011709 0.12143496429083831811 -0.1305109234632638171 0.16848443686352587711 -0.23882853833035846969 -0.028148372840276596196 -0.029202942543126983455 0.064582465778496606079 -0.2772109722149585509 -0.14851539137620309305 0.02758372902815782457 -0.20240736175006054931 -0.21831195127578337245 -0.16785785379288986618 0.20514143041962573655 -0.098734531811180928362 0.23314119426679805192 -0.066389845137904260342 0.089985013344801495494 -0.058850516740021396878 0.19808364801320535453 0.17277543680606960441 0.065175185625145334867 0.14827982512972479046 0.1229073855536425286 0.22897900520285738302 -0.13797854246604682182 0.13546501490897425168 -0.020756933033775813724 0.2360053069954112237 0.035699482954678993241 -0.091748834823768776747 -0.043057131742415773179 0.16697850286487678217 -0.095325169937215320504 -0.014842112041592782357 -0.0485318930817193947 0.11681512553839111523 0.12697663566144967717 -0.14303990071177030696 0.063828874567520801908 0.068465678212545288961 0.13723488468118494321 0.10854451069736092972 -0.17467537753434148051 0.089139527595825926443 0.16875799402473870559 -0.22476207889661847794 -0.2074994768835301262 0.089489136271016372914 -0.37743979454469284152 0.05119132135528149663 -0.39529303008959648658 0.010415645906357504091 -0.49293033451336831785;0.15161621555843751707 0.50623154342353915425 0.33652712437306808724 0.34506787346502348912 0.052872642005629050255 0.081915939423038944267 0.046876418848883119606 0.076403400891573616804 -0.11856541232055509139 0.21538088253680764961 0.31941372394287403935 0.28787965440735019396 -0.052149864317814521864 -0.21200051356592272689 0.20857502377825934414 -0.010465413358056443668 0.043503934310638779637 -0.021867341077493853557 -0.13887283216883036796 -0.048252420798385486922 -0.11564696836799367996 0.043622751936831107022 0.1119239035561491874 0.058877335663883353933 -0.12037175725979683272 -0.11252780915019026942 -0.2311707585206485005 -0.28671124737760922407 0.012089132366872892138 -0.16871055489197994692 0.010317353859124103049 0.016586230701609971927 -0.16563187467050016766 0.19096552783879480741 -0.15514871137138447343 0.14284613051571112829 -0.20101389065702093828 0.11427365091532400154 0.012661648392378235112 0.098613074086586691158 -0.28793785120925058374 0.042865503961302467428 -0.15216854591679501718 0.13815224308103293827 -0.20958073791164844035 0.0069923119965136990017 0.039071884926472393029 -0.014843251006504671816 -0.0061766251125092395957 -0.65270765709014244571 -0.54364774037666596662 -0.16137055437998984453 -0.3519211154484533921 -0.27830944637486482174 -0.00094004910803040242495 -0.29088308928984490942 0.11036158370008736229 -0.18559304601764864406 0.11759327725892335104 0.10209087067544242444 0.09162816078505015005 -0.12702537835473640127 -0.025221285098097376981 -0.096617464874584113588 0.050953967449630932496 0.1710698373860761734 0.045754389346405736905 0.049019797103057392851 -0.17111696722477978683 0.30863482772135442112 0.29095732050736738961 0.23194310362536865733 0.13830971103131686761 0.26059121907676097152 -0.17798688288456468443 0.12059793888975497977 0.16519676334585969846 0.1079854477695465359 -0.20293431423455307594 0.085720387317915577863 -0.025426221863204319373 0.17028418557952965107 0.30016051435428714456 0.16951745913449187131 0.19159648676432963765 0.01652006604625341768 -0.036689265081745664476 -0.20906788016841373889 0.29000791669779679705 0.30588000250785618572 0.14218064532351698537 0.31778693432833526877 -0.08088554237601086605 0.091032358026973569931 -0.0016623214467745041356 0.1311069569151455394 0.23404433420590797787 0.037968211002497982698;-0.00028703615359393711004 -0.36106234539780002191 -0.2481818019704190581 -0.21987115348661342984 -0.16406683523559426052 -0.37413405145429112775 -0.14111519464228500231 0.083420501542734767919 -0.26778613280157487209 -0.3091033699507234056 0.070753796447071734543 0.19238593564609199338 -0.19966376618708164825 -0.0027574563503838757025 -0.2427563486107728874 -0.0030553385762527485343 -0.13837616696706833697 0.1950955843162013037 0.17622802892136971153 -0.029308839012644340161 -0.022010177587559156404 -0.25121704317554877095 0.18317563302131203984 0.083166470925451402296 -0.081425977646330582882 0.21643174353041072511 0.09960441814129730731 0.087771699776949346772 0.17358710577921901419 0.033651356851704533613 -0.13264660725162533139 0.070794089814373586944 -0.0081679118456027283851 -0.11265819883341475494 -0.1940996911431391303 0.098930064573401574335 -0.12167593613719578094 0.067123878291254310269 -0.098298949150370462657 0.15968648067677573832 0.042468103257382899818 0.011187395513570223826 0.0021334928215120639583 0.093534548479562593104 0.12582189048277331311 -0.14000283605362567885 -0.19345409315441428055 -0.025103709052530894658 0.057795911566851126961 0.7246089011732371743 0.06085805012126972724 -0.14505622124940728557 0.12151811483727266439 -0.11213063042030288474 -0.18111280145752156612 0.15901650739283357261 0.30583695869105653742 -0.058771509501271343434 0.062470505071135717934 0.14045316862700238381 -0.1207106034772306713 0.22757298720928431646 0.097611018589088924258 -0.30356585677721253935 -0.18827508182381585966 0.14924247980540078506 -0.20819238697509098723 0.0055534374597119573469 -0.20809146045936954827 -0.22484945544043602461 0.23943938822095545138 -0.057172661047311362781 -0.049399306307273432859 0.11697758003304573049 -0.24123609728267339514 0.17313102912001501754 -0.2421792712561399441 -0.056864271444185016113 -0.21143932559571920748 -0.17358651244027009652 -0.2665779220336470523 -0.040677902224813260179 -0.10472928795329622398 0.12318503704634213569 -0.086139159940851611763 0.14461047270330307235 0.16355386557695908434 -0.057717327467964860133 -0.14600898069768625254 0.0079737274427877022354 -0.098006974715400832499 0.00049902313973393397362 0.13431528863440705956 -0.17800128272102028193 0.039105172615211777898 0.17765704459554895744 -0.078283007644982471884 0.084352537191753854118;0.29164193101867041946 -0.32685388330758569086 0.089367756934170539118 -0.11894153940449758711 -0.028191042016873193304 -0.038881788179388851456 -0.017868315219638272046 0.042534236456506627211 0.021713475527413789168 -0.044829564989454583068 -0.29217543836544818125 -0.1096117773343884827 -0.1117629901128650155 -0.079451152507944960979 0.13410904820917571301 0.020531787461221411017 0.18178404361224725916 0.16353501170960821343 0.20385453951530940753 0.0028099172295699536422 -0.10829202138736501726 0.11238106257474363148 0.1477496231910983282 0.077692308392421513541 0.0044559194803850312588 0.23896858651647240324 0.022615739889892939873 -0.033853531405895302686 -0.0087724801165931249464 -0.069056172419961217579 -0.053918225239664378801 -0.23825967063975408977 -0.086013304225529121916 -0.0028725721623153559203 0.1728619951256943621 -0.14942606883820341857 -0.16335438244707692346 0.00058937061704294069903 0.16838605858807378923 0.039615527722516759301 0.051661621503712597259 -0.046414526707637286662 0.18671379898541159981 -0.066351378030587063184 -0.23023591818928521024 -0.020673244588052672871 -0.30321057088105513033 0.033842273353775272071 0.079333378860559813917 0.060491121758592947266 -0.1549691971024345083 0.012033075107142486571 0.23655167236561477906 0.38956641284494175625 0.20393997562891938435 0.31075802569803956388 0.10547412693408521334 0.19393937619861389976 0.10406825651277823441 0.16682783570056716749 -0.15301520493145820412 -0.12891381739143492613 0.082642649801897422046 0.25090376288371596392 -0.073135630762259776216 0.16951615802458436244 -0.2488676272711899673 -0.20625644346558735798 0.0090603295347686067795 -0.029159504800239537115 0.20383909039738201674 -0.0065814760365949971643 0.068497374811902878022 0.12938370917978500585 0.1961639558676631645 -0.043559615015996505649 0.0153530068210598232 -0.068467637714726428677 -0.32508752800049062204 0.023219013398996901643 -0.073542793143164447711 -0.23251295452607378955 -0.23130083568166098784 0.066205537056636121207 -0.0651460115223492231 -0.36718658496940848046 -0.11720572764534048504 -0.10438244772890424572 0.096845212299761618269 0.053820992589686977858 -0.31766770694292828514 -0.22475440971072094265 -0.24594346765256666631 -0.26451647555725243954 -0.34664368528307792916 -0.046100550513952995302 0.083150798949965021301 -0.17667996476229430591;0.038809570318739702866 0.068948302483916257266 0.14463574783137428392 -0.18786088572719389367 0.19855289240728005162 -0.10155911853239174558 0.10180654897836655115 -0.19869904398584781191 -0.24720257577492746326 0.050655081279823419016 -0.34089412473465513509 -0.23515555864401618824 -0.071983233558172321498 -0.33692673797180738848 -0.08461611770465471416 0.10266827241384003655 0.17178567158515456459 -0.13844989568233487254 -0.093877727849433600937 -0.26744635724392212817 0.14608919909671524984 -0.2521513760020766548 0.11177938488700447928 -0.11893745455276999445 -0.071349749272396414956 -0.031262477621409712203 0.18260201288950034249 -0.011784176446739732386 -0.030548001727393338245 -0.16590450019829047767 -0.016531002213274106211 -0.26978210679276642958 -0.21396033887005522223 0.20456512107228252972 -0.23695398225843333773 0.11170832495971409759 -0.016085656407644616239 0.22816307610978803222 0.21498498000316737522 0.10673147422626237668 0.27708472641020925886 -0.11500557031969925459 -0.0025542182756855113385 -0.13427899695247871859 0.31820553263625001028 0.043050317319250380743 0.17231797553887523433 -0.047706552933193542565 0.25978642166845772321 0.40420223106588193396 -0.13606173763795320619 -0.30889360758300227205 -0.031381514829773790587 -0.068200677783847668545 -0.14428967118534713476 0.015855483064587345965 0.053850602215144566243 -0.036334258490331047819 -0.06451845239424348899 0.07985457391308650732 -0.15447388912969220454 -0.040046448376405051339 -0.13022253031787689448 -0.085408081382995715281 0.064841095426560177439 -0.025236457864382687288 0.08069424175567478652 -0.062048544597445950965 0.22482242109260791585 -0.1263600070675577336 -0.14000367695121576639 0.26649209676308871497 0.26267423322617505788 -0.063274562569081371777 0.1261869381337492324 -0.24792962224331141496 -0.19881413962447228028 0.11697868891592345941 -0.069807193833730948884 0.079981635653726346202 0.011210252376797583129 0.16417561011998874076 0.10700917429796960589 0.067893660210933071131 0.21807225082407533101 0.098512997908076715969 0.31308887343993629937 0.23483777289724991344 0.064503907783159605827 -0.029973947030678703418 0.11401657176063367816 -0.0038091864540445771053 -0.0079081379419578493734 0.15438701853925754226 0.34245056720869759825 0.28100079718673270923 0.39449082740470042818 -0.070302539793506382826;-0.17661196120502670182 0.26441473169867546478 0.074174731169602381442 -0.007715623575653821932 0.26694546679557296098 -0.16989326117513423031 -0.021159358391726296872 -0.033644592232062349446 0.05890935517123616072 -0.046731458084463502189 0.22816798513400948778 0.046689366721111354164 -0.036744227355388035805 0.15476005955325794483 0.058674803812881620724 0.08586129735833844534 0.17386193740054317614 0.054860277705370621981 -0.1960382159933355406 -0.13875253841961357471 -0.26266589378274141087 0.0040625933114646307562 0.031026498043483018846 0.0055533414392776453417 -0.16898456247449070156 -0.13814958407802052642 -0.037263855133236718775 -0.065530940918809552076 0.18339901535974023616 0.2057079840763742784 0.18846214793650487018 0.084463112099684350964 0.011232562621998766483 -0.051709833496703438982 0.01091870734981859048 -0.24795761044740688428 -0.074964167651580884688 -0.1808718431619352196 0.010629015995117651813 -0.25163963836468500324 -0.29844246828335208033 -0.10183821039850335377 -0.2510945321339527192 -0.0029057393297651527495 -0.26854415715354462701 -0.26029708425003617034 -0.021409003472435274296 -0.22093796335480656023 -0.23483375492419589214 0.073614990511878461432 0.19290611101528989946 -0.014895789270602362991 0.26489448782683328032 0.054827598066709670732 0.074593754400099313018 -0.18548704860513226533 0.067438992443581785574 -0.19586476117460438484 0.19465173266868304736 -0.1964172222259072953 0.074799387958994115189 0.19966923995480484466 -0.11723551600409298779 -0.17203357984708214645 0.14996196374462300582 0.2246566283982958101 0.11044202495020892518 -0.022871457532535496154 -0.12423700242795132631 0.045686677740929083902 0.086927962514797382787 -0.11530270837435305231 0.08239719551910440476 0.19261449143359871128 -0.039670369914996020388 0.062006686175271469308 0.070932706619499602541 0.26696148375580081025 0.16092117161945057591 0.099833271331001158244 -0.17701540973947535451 -0.10018359147602778902 -0.12517951859583051344 -0.13464071151381382108 0.25396168919747541537 0.23692622834041426882 0.25711979501995479991 0.34277524095456080033 0.35728974063577501052 0.31727575311431344129 0.046557630833413014837 0.10012250781850695613 0.010046691937334406228 0.32829249275677790942 -0.033049116444413391414 0.35619170519131349018 0.35520933891726014231 0.076489667914966003037;0.056552652006239857718 -0.13139830758549594925 -0.1789011855075585411 0.16503383539378185807 -0.028196549396456809661 -0.0027033645170920451647 -0.027385779992544084099 0.1605736027728924542 0.026080978085911598469 0.14600662994297824993 0.27792816374661943879 -0.090514297072848359793 0.21995112952509798809 -0.0070421910168254643614 0.067859030981627987966 0.11227964785433144912 -0.025243434543547636079 -0.1240604410248925954 0.16893288146201901334 -0.054221621890790085152 -0.12142596781279681173 -0.25755145441594939903 -0.29200534934607030868 0.048577067953182659354 -0.093357749953659335818 -0.15129564743392240334 -0.18735227836115528333 -0.071439426425956575883 0.041912888106291998347 0.16389951598044275038 -0.15934681209510243027 -0.15497078716000275977 0.12235409063765304016 0.16762260131188827517 -0.025213579278168554015 0.31254285425288219624 -0.1076970127409911937 0.09905267558950951734 0.18727734350218500081 0.060437705456677280613 -0.034086653203220559916 -0.12987798246362994292 -0.036375744496676354345 0.012792746926810670549 -0.024950576175133888646 0.059364635732561732429 -0.10566986453206893282 0.0010834038105815221864 -0.056999112932978837631 0.061359544400143739562 0.24710011060896977519 0.17994010010708255676 0.19203794284675945736 0.15595915380420771745 -0.050487908395902746095 0.34207775114113009307 0.22365885260919515787 0.075999860966394938711 -0.026822778536519258086 -0.15767147557165175908 0.19449393757360319834 0.082088170110713079564 0.26884981532846174979 -0.15879149363195776967 0.032380693391100737188 0.29472351126617718498 -0.2046683871788343434 0.28938092971703827105 0.080171454066426561802 -0.12515403082355877618 -0.16180226558017760108 0.22902493993917547033 0.027913289162214444117 -0.012508826032034785214 -0.20783392926104723997 -0.14054171036381463145 0.055609279380920341451 -0.065569490538726432627 0.15756132244877263382 -0.129920252920148388 -0.030300758754676315049 0.21648525708482105334 -0.083795363920485699261 -0.19168069554031172408 -0.072179961127216182848 -0.26867056127241689678 -0.087874572659882604908 0.088898356919459908809 -0.016552263412700336798 -0.16307773822299814759 0.24986847640332859877 -0.237030913937050558 0.27195790666045494 0.14442750904352552599 -0.1088232910727045949 0.02070315001110085984 -0.059243615708737942804 0.14821777742017391843;-0.014117937928473890327 -0.11381093490444492422 -0.062222953159006479107 -0.21771996765822926312 0.026061504768689694456 -0.050380835023679688967 -0.212105814454380176 0.22470988353846399477 -0.12133042836688125166 -0.030775020942278560887 -0.10228105983098138843 0.16600532904727346994 0.24720826769552528557 -0.23310087777686813726 -0.24369234273840020832 -0.12195838474186058986 -0.046924504535655005288 0.0011388490916366018901 -0.24409522830465701926 -0.0082576667709204354395 -0.17960478417989514388 0.019314790272211133926 0.18955547097376321264 0.17186613990090307547 0.2100057031571803956 0.10410286458250404829 -0.24319941933471522777 0.1875069629700383822 0.099314834443308422363 -0.060807980600351294043 0.10031861971373109976 -0.11144822169439870529 -0.15055169575129712101 -0.17718077381506955326 -0.022601282528204244548 -0.080507194808028662014 0.15217831589219937838 0.23982165054618867495 -0.029208144985479699701 -0.15845117490206639399 0.1934550114491342121 0.23400744429276623682 -0.083367561124826697339 -0.13826452326765820144 0.11516256508776451239 -0.093167943407599054795 0.032201760499886648847 -0.022671427684111268575 -0.16702800451150062733 0.19802657045688523696 -0.069200690942823994689 0.084332985492396733695 -0.18283676291582312556 0.16543507546805033548 0.13240074837665635754 -0.043655143845275988512 -0.25279540689130863829 0.08249132241081019723 -0.24759462273902407836 -0.099394922099359725443 0.15752052447966136128 0.074597750532700971005 0.0785229878063448683 0.12142451885149790902 0.0018089602824503938847 0.094352888379199306712 -0.17734361016243438414 0.12847100003046565964 -0.02578043372757030105 -0.18974531273480221838 -0.0046182937782927807949 0.072174436339468114876 -0.22654020950423020553 -0.19182649129211007399 -0.07912451802132992873 0.11868583879342874121 -0.078371876600610859698 0.08708091370766707362 0.11929071285731625285 0.0072948578159433164619 0.21120897228959364944 0.020128747836496093532 0.1239969378912491732 0.057699467794374459384 -0.079262388776342299068 -0.22168352953871450772 0.12752111322003695237 -0.013517088160212742398 0.17483371138646236487 0.014465188243588972261 0.1093941754387320886 0.16958431044409696953 0.25448544052689731076 -0.18552987911701532275 -0.15837716447810445963 -0.14691310626989526056 -0.018061737695661800318 0.19072552750237561914;0.41833584402037327088 0.30197378286586501472 0.32937212617127764602 0.14895759099404629056 0.2844872200686355268 -0.0023327438275633494147 0.12822862877649507385 0.15462714816154130015 -0.072595077409674718671 0.22800100202076384326 0.12106527126763252933 0.13293248363183451932 -0.088255874564203778965 -0.19689650526990151724 0.21745124748053909491 0.16081472715714817401 -0.1763566871875479336 -0.22338713646650823486 -0.27599173977593971507 0.011230621358691447731 0.20552589782787475392 -0.0064503841683633857118 -0.030258240619316659203 -0.29266657430924059025 -0.21331790282545493032 -0.16784987654156027781 -0.018896854590956236458 0.089693300538146211731 0.090172014702413122444 -0.053807557946379057368 -0.092136615579111083574 -0.16780455822756698558 0.018845397884846893516 0.158236281627818276 0.079632913794885393233 -0.072039292295349527384 0.17771194649513499808 0.14635973953123723734 0.099202834628362268621 0.17303283974544744761 -0.18134295781853865259 0.090796049300893272305 0.26213109308113774487 0.26002763124993444332 0.18363315768464347211 0.15757590529542811475 0.035215058622502640184 0.035390386283382577193 -0.047415434758432475904 0.23984945586718561805 0.066564047055688177479 -0.17153363362414619786 -0.059366156882191732647 -0.090092265836343568552 0.051221819102454782535 0.25061467442142221218 0.13192981684132376596 0.0088176625396295081616 -0.080109614421642244553 0.054334844445760581422 -0.21078696054452558672 0.035382262795940193356 -0.23091983202508495343 0.054394651662719575858 -0.1120399879284781075 -0.012366812631407101547 -0.16570323526402411241 -0.15260519152453858038 0.083958692792275288475 -0.028221166472069091069 -0.16692525905801719466 0.16060706108401140435 0.1162793303925009486 0.16959091869950448928 -0.18889140590928102381 0.16145035357007272991 -0.055061194722078120323 -0.1992068595013338772 0.048713476548868386851 -0.10563725775454725631 -0.11791205977470839428 -0.17337680769006136305 -0.074056329678521576332 -0.17764577788351232357 -0.0093277622101490334505 -0.014482049449969062321 0.26967156020727534038 0.3077240961609112313 -0.057559055098921133031 0.20650932296682814049 0.025135917511882602954 0.061221161280113067793 0.19644505871768086491 -0.014707922829553002689 -0.31512179632116782413 -0.11767389103895127545 -0.12045572559067588281 0.062557255858000912485;-0.5265478347321451702 -0.56840796518742997545 -0.22608401210154691063 -0.29724845187158066562 -0.12579196601945566436 0.018885950973885665127 -0.055443522668348940718 0.36843869337477513914 -0.10067073587613963037 0.2429970665262130014 -0.022151848070374985378 0.3158686856163288037 -0.086075198793956947396 -0.21002170856036048163 -0.023517809664335368597 -0.056108095572033299392 -0.01062819461490902874 0.045837133021970677405 -0.05191486717576829224 0.24086037166724327818 0.093832522146375718641 -0.22833197725502923925 -0.086166364980053603007 0.10217455304521201598 -0.19853503754686030458 -0.036616016546765918493 0.069342658187810088388 0.20706923107869565359 -0.044139052354227846509 -0.28353910496949008557 -0.048159275585852263923 -0.21036705473297998004 -0.063433686060184374389 -0.035143040158972412013 0.18948584835662876658 -0.073126154941204155047 -0.086523781261825472022 -0.2891056804226470045 -0.0011116941036284607239 -0.14014944151356922841 -0.04812643846448527718 -0.19739930230291777291 -0.10119030163624327667 0.12083842708508842068 0.13861423663360031289 -0.069609712999236919573 0.22254455444453818957 0.27168236204883927654 0.27214518388973868435 -0.053679495057343096232 -0.024741030478945512383 0.17636157685839701226 0.024514998596074966813 -0.12415355023603100171 0.064706149570655402403 -0.093132284851045132879 0.19474590145187140044 0.11597758182180911701 -0.057460385371598463045 0.059917430845420831254 -0.18567142353285762124 0.10027486596235982153 0.05687429722123375081 -0.14440981375521400043 0.1611867424313169761 0.17474389048147279113 0.1530945020887539143 -0.17987392818731315347 0.15086419935859235464 -0.26355550984558334671 0.098865999593773540299 -0.090582930466799327363 -0.090507438081792235263 -0.037698035118715965408 0.070446386120243648099 -0.0040817919141651511084 -0.10371290614757525117 -0.22397331504280226788 -0.20255259277972639809 -0.053262079291286762439 0.058437762946620008808 -0.054778736018846654887 -0.25226565889436453061 0.11283429063199766629 -0.013569701369257662626 -0.17406132281866559808 0.19972048550626236851 -0.11683264388692063407 0.0011284185828931798598 0.11616149712860457388 0.15988673771408082325 -0.026265532385474563148 -0.1146744684824102245 -0.1264555197168219236 -0.16258199271874670955 -0.0014536943208358684559 -0.020621294674458050256 0.0082164399219913086814;0.70909355497253923062 0.21258475447462979457 -0.0061489378753721291027 -0.14082477078733396381 -0.16816967519341871617 -0.034349449417106464599 -0.12818467324119023343 -0.019551621542709417267 -0.14165426635375294451 0.068057740736709365637 0.020273965583083655706 0.056194337743789374295 0.083734516137940487313 0.18656381620395021126 -0.052616340773061806568 -0.091410601266305874235 -0.091550946490063220273 -0.19688090798921886737 0.20278296144457985672 -0.073901749065575131348 0.0028495731333928369169 0.092591133379315002094 -0.11624463052047820377 0.29415960250118772246 -0.046087453504396441728 0.15516363196491927967 0.056174126110898316144 0.079260186044077751699 0.014158565286258490562 -0.059724503835636218174 0.011352660827400237395 -0.22682962953848459509 -0.17855411379984742481 0.13490641302379363653 0.24158378183943579609 -0.089903885203133193649 0.056475827080080323594 -0.1423346094159624875 0.12340557036718959039 -0.19144025612981022122 -0.16059045744054839533 -0.015478160060227362516 0.20718070500509103149 -0.083319077600050334143 -0.22053696235598185815 -0.071915171328340007917 -0.1244400419680751213 -0.12829768283693440689 0.27032258092576694208 -0.089946148464615113816 -0.19699248383228593062 0.090591937226613919454 -0.267804784088522152 -0.13366004447086832219 -0.10559079051603606492 0.13727779578766322044 0.19398919496048150357 0.22064281402401797472 0.22925654513201976226 -0.16123514763408736128 -0.21741895568507704772 -0.20826123691515838199 -0.14477860417379290192 0.12573268660198058666 -0.13880602850303835893 -0.23244085327343411151 -0.15047353397345372694 -0.11376073239698571149 0.074691870144138972076 -0.10647718843351276774 0.28292238851352641271 0.12230532875860578024 0.20399797685105997003 0.043198502870313654212 0.18611473733333805392 0.028273388453782181962 -0.11589408587768967873 0.21245771603938087835 0.17641210525689204891 0.23534624136762805069 0.14932202752206183427 -0.15499949807674756608 0.0072698715608804937577 0.057730281142506834069 0.11807615306420636558 0.23198954514305153429 0.17673637258433225194 0.17729579754496349597 0.2705903159999412666 0.050565154928776501198 -0.094472433995111820826 -0.044579228894375197423 -0.10839108292137730749 0.2214956881846040504 0.35556229075539919071 -0.00068012254040810370126 0.12149367430614106678 -0.14015647775623205074;0.17488815735279028551 0.051806863989052424901 0.083729028452989781584 -0.23471926713151614052 0.052974512179081181817 0.1411313127140877699 0.27470375747497238761 0.082647101803895589578 -0.018355368529996810706 0.017954158188047398409 0.046690074607962081532 0.19161888347152694623 -0.26560784386053692963 -0.14539439287814909241 -0.0085217893075843695327 -0.18218801414989546639 -0.0043313662931576853155 -0.1485709212525446743 0.0019000684755282482713 0.056765083286838428911 -0.17576785259444246967 0.069350397285961346006 -0.15924312349334754368 0.0087265656597513528714 0.23543594012281662819 -0.0056583086064611633204 0.060067361746282840751 0.019805788459008856484 -0.16907333661672094283 -0.26863074371887712966 0.048210876730573538895 0.081520296404968259352 0.065389140592228209292 -0.19587116278635718913 -0.026449802485736244317 -0.15831912398318334634 -0.13655448407225512231 0.078358209618088342507 -0.21237095948770381981 -0.057785916343567368669 0.13888452528202582803 0.011276399610630222919 0.096772138129674736828 -0.16658533051588619855 -0.14097263559494149776 -0.091813125382944185682 0.17980925657732904632 0.30488897319494684401 -0.18845471371718910958 0.48978725777773801653 0.056148418603476968336 -0.20725318016875116101 -0.27710965585099894826 -0.10945829795167001663 -0.16824605498833958284 0.11660007559226401308 0.11007905035477744127 0.012077023587894752943 -0.22888294158699884484 -0.03449334581515349496 -0.20973912295336460954 -0.18667994581172558943 -0.23490074282375253412 0.023064957915697327506 0.14533647019203818629 -0.24311175969915557737 -0.22604143449945476863 0.02310755933999670414 -0.22005066819695601188 -0.045981359504488165946 -0.026987788441005175488 0.15757607192297673482 -0.23291243205782868886 -0.27611861476440130447 0.12330487373126887418 -0.10162384848085530276 -0.14839488303096240451 -0.26718142416246215554 -0.093450397927984957258 -0.0084013039647423369549 0.10533355718498629838 -0.18930880465541616298 -0.18733768788875490574 -0.044475884621739507352 0.15812743442882512546 -0.075039055860095668637 0.25460719349889637808 0.24773388660527140281 -0.0096590261102427604767 -0.20839153716940211902 0.16015378196907253949 -0.23833886381641619656 0.13169786527218413363 -0.012491930906757675937 -0.13319907873836753232 0.18689167481204302379 -0.26868831938576887008 -0.32208357964670164542;-0.2291348556260344449 0.18810744546652272136 -0.0082800412389511714867 -0.11880360778126081156 -0.14639101273220692101 -0.078628960020375157636 0.066174941353484936779 0.016551315134585971311 -0.14402048732524277974 -0.1181069294609359277 -0.1752954557103969524 -0.11373623131189068702 0.037759196086956728355 0.060936673248367337341 0.0057561484911946630624 -0.10542771606748906066 0.086230777251309273512 0.1817764145944043841 0.20192484599654342281 0.14165122949035671707 -0.018021400387998109255 -0.18764181729721735037 -0.056697204302309053836 -0.13605882879729064294 0.019993658584042037912 -0.17724438464557984441 0.046759282878018768037 -0.10233118034024039911 0.067675747387634210828 0.13539814517942039274 -0.10700478234513653708 0.24174229106894931651 -0.14516097422036541853 -0.12623061931740506281 0.25919670824973861656 0.12022085498588526431 -0.15885383464360383621 -0.13925954988164809811 0.23277272422172137767 0.076238094812539861089 0.22219163512077008682 0.1988541899615139108 0.24016196271537251783 -0.048085279740397078585 -0.19829940249415928255 -0.040155946689061687571 0.055947802531085569222 0.035954832599887839861 0.038496309160841984953 -0.24646531579528982436 -0.07793254248620916369 0.25564964385945648795 -0.15541611256397097618 0.26693266630289841368 -0.037615407512472644191 0.30097431900479515443 -0.10531020619475273126 -0.10770596103267632282 0.20840007369853044694 0.019409769937618195218 0.2715275912008735526 -0.1584821724326340997 0.089015716171636921628 -0.097332698602868195081 0.20457280337854152896 0.14131910335033512349 0.056567681222206706027 0.20921790315068677923 -0.062354310228773357494 0.26085253938364344473 -0.17401778608496798473 -0.13458059158130369903 0.012702999258675098243 -0.085828860105023080385 0.14607965464220834528 -0.12730424351477898082 0.21131626284779184144 0.27654474218610647362 -0.047783926037924681629 -0.13462734490521882647 0.31187200262678660412 0.27614667774023754498 -0.058346438544776758894 -0.069002944482681405347 -0.15216042092869147551 0.18758887109914479385 0.27631476090765272335 0.23079535906022741187 0.28440045235852984273 -0.011280596583741624855 -0.088649620123775835223 0.048978764066917167275 -0.10333117992347508329 0.14211302791854768524 0.11366334004214168063 0.19212570982432358724 0.26904131762078892232 0.13267092057635779256];

% Layer 2
b2 = [-0.80949967144461543178;0.31894238529879692656;0.56991138309940314599;-0.45086283786191805323];
LW2_1 = [0.75152293854675800144 0.46633880575868724705 0.0026636346881643221951 -0.62815141219388259675 -0.54291191647911352103 0.69983392715510772675 0.72470701192890851772 1.01147599731446447 0.63812010702090704584 0.58154396869630153866 0.10272240737989725423 0.090862173175697294458 0.78974961049003167268 -0.25476923334408718702 -0.7662691085274042635 0.19380736003748252894 -0.33952407048709443149 -0.021724905957070664991 -0.31600355935081575476 -0.92384766570500465033;0.25346323303357398693 -0.75829861071393478422 -0.62606559029677255612 0.34997714529532825134 -0.5290453393173182306 -0.21648159241155179311 0.49333567706921044316 0.7629061661803644423 1.4284273532502123061 -0.28854251438355471571 -1.0556540293680376497 -0.54582036632609232107 -0.72059412614465478963 -0.33897312775763743797 0.18001176274706365277 -0.067987841811000426784 1.3911321273201728843 -1.4064938811949576625 0.48362595646789657833 0.29355395932313899099;0.88906523992332797679 0.67946716510403393219 0.60136561988333558926 0.97839839765808911398 -0.50645596143508364584 0.71043683072577434867 -0.22052658968154972841 -0.49605377155398561184 0.34043628899377653685 -1.2593840176547899112 0.82648279289243054002 -0.948741058387855829 -0.3030649612741306842 0.64684040153842314869 -0.28749645927740757889 -1.0728113090483690772 -0.71046071089620688177 -0.421218600608006144 -1.1798941280930461684 0.82556680976214258383;0.69643507990993880341 -0.35543453432397464908 1.0682682987854421608 -0.78585348155447909413 -0.1762587142783872407 -0.96304945227328875301 0.24727954525699330501 -0.63824455553236070227 -0.077758424994616895387 0.92601853714392279304 0.45470816488019716317 1.038295251703909905 -0.61707237186672259099 0.21908876004099120394 -0.69236618607187916385 0.84699105868640800487 0.10086723961627840074 0.53363539161988415849 -0.0054336285492815397657 0.46048916756761321123];

% Output 1
y1_step1.ymin = -1;
y1_step1.gain = [2.01201054259832;2.03982355327433;2.04258053494594;2.07832474208047];
y1_step1.xoffset = [0.00494975610882331;0.0168658816409677;0.00151548508347132;0.0090209590433753];

% ===== SIMULATION ========

% Format Input Arguments
isCellX = iscell(X);
if ~isCellX
    X = {X};
end

% Dimensions
TS = size(X,2); % timesteps
if ~isempty(X)
    Q = size(X{1},2); % samples/series
else
    Q = 0;
end

% Allocate Outputs
Y = cell(1,TS);

% Time loop
for ts=1:TS
    
    % Input 1
    temp = removeconstantrows_apply(X{1,ts},x1_step1);
    Xp1 = mapminmax_apply(temp,x1_step2);
    
    % Layer 1
    a1 = tansig_apply(repmat(b1,1,Q) + IW1_1*Xp1);
    
    % Layer 2
    a2 = repmat(b2,1,Q) + LW2_1*a1;
    
    % Output 1
    Y{1,ts} = mapminmax_reverse(a2,y1_step1);
end

% Final Delay States
Xf = cell(1,0);
Af = cell(2,0);

% Format Output Arguments
if ~isCellX
    Y = cell2mat(Y);
end
end

% ===== MODULE FUNCTIONS ========

% Map Minimum and Maximum Input Processing Function
function y = mapminmax_apply(x,settings)
y = bsxfun(@minus,x,settings.xoffset);
y = bsxfun(@times,y,settings.gain);
y = bsxfun(@plus,y,settings.ymin);
end

% Remove Constants Input Processing Function
function y = removeconstantrows_apply(x,settings)
y = x(settings.keep,:);
end

% Sigmoid Symmetric Transfer Function
function a = tansig_apply(n,~)
a = 2 ./ (1 + exp(-2*n)) - 1;
end

% Map Minimum and Maximum Output Reverse-Processing Function
function x = mapminmax_reverse(y,settings)
x = bsxfun(@minus,y,settings.ymin);
x = bsxfun(@rdivide,x,settings.gain);
x = bsxfun(@plus,x,settings.xoffset);
end
