function [Y,Xf,Af] = myNeuralNetworkFunction_test3(X,~,~)
%MYNEURALNETWORKFUNCTION neural network simulation function.
%
% Generated by Neural Network Toolbox function genFunction, 20-Jan-2019 14:47:40.
%
% [Y] = myNeuralNetworkFunction(X,~,~) takes these arguments:
%
%   X = 1xTS cell, 1 inputs over TS timesteps
%   Each X{1,ts} = 100xQ matrix, input #1 at timestep ts.
%
% and returns:
%   Y = 1xTS cell of 1 outputs over TS timesteps.
%   Each Y{1,ts} = 4xQ matrix, output #1 at timestep ts.
%
% where Q is number of samples (or series) and TS is the number of timesteps.

%#ok<*RPMT0>

% ===== NEURAL NETWORK CONSTANTS =====

% Input 1
x1_step1.keep = [2 3 4 5 6 7 8 9 10 11 12 13 14 15 16 17 18 19 20 21 22 23 24 25 26 27 28 29 30 31 32 33 34 35 36 37 38 39 40 41 42 43 44 45 46 47 48 49 50 52 53 54 55 56 57 58 59 60 61 62 63 64 65 66 67 68 69 70 71 72 73 74 75 76 77 78 79 80 81 82 83 84 85 86 87 88 89 90 91 92 93 94 95 96 97 98 99 100];
x1_step2.xoffset = [0.000661998198028568;0.00132439482344604;0.00198667709678978;0.00264885327766183;0.0033109152761101;0.00397286162866434;0.00463469423895013;0.00529641796504768;0.00595802742319398;0.00661951599656911;0.0072808920467642;0.00794216368781768;0.00860331970247639;0.00926436273296033;0.00992529710537483;0.0105861186302986;0.011246826370307;0.0119074189970162;0.0125678927373052;0.0132282517266475;0.0138884988394799;0.0145486414958453;0.0152086682596708;0.0158685851320034;0.0165283770685351;0.0171880580262897;0.0178476330918123;0.0185070950018639;0.0191664523282337;0.0198256971015449;0.020484828944314;0.0211438475947941;0.0218027488358573;0.022461536553353;0.0231202191259123;0.0237787887557666;0.0244372451789797;0.0250955837262477;0.0257538091729194;0.0264119300086169;0.0270699384610413;0.0277278346577258;0.0283856184785054;0.0290432900206328;0.0297008483433201;0.030358292170647;0.0310156112557052;0.0316728198526218;0.0323299227014828;-5.82660277215259;-7.33819427504049;-7.83527430557047;-6.37423475722642;-6.89506190797052;-6.86770080837785;-6.93027356483737;-7.65632996620083;-6.55892525101821;-7.09328877367297;-7.57739754784373;-7.12901551726758;-7.59007267748671;-7.09869082222179;-7.23817438578614;-6.97404836775698;-6.214509137275;-6.46890702326643;-6.78617615653987;-6.76247485629838;-6.63198450873802;-7.19731938302716;-7.44075145224164;-7.38324145098263;-7.05497422991615;-6.49337741979909;-6.68224070628902;-7.10616001339777;-7.3422099450485;-7.39405135789366;-7.26946895963861;-6.9799879240784;-6.99616453034284;-7.10839298378437;-7.08781979224086;-7.24031456916937;-7.51300438387818;-7.6675346324231;-7.70828612775342;-7.64095121411599;-7.47238411540384;-7.21044360708256;-6.87291597740306;-6.83693217949751;-7.01844300785955;-7.12732423216846;-7.16485099140331;-7.13293288642689;-7.03407579183044];
x1_step2.gain = [0.176658303892938;0.15606082398899;0.147436639594775;0.142296692557163;0.143043761569219;0.143520265793297;0.139777520567183;0.136377602459759;0.137376207511091;0.140183534086841;0.138611070247633;0.138627954725824;0.141169230516878;0.140651599956055;0.141481327802656;0.142694693164251;0.141980971411191;0.141702222711585;0.141239787587845;0.142566638357191;0.145706894268785;0.150769063654679;0.150895634286352;0.151178007629353;0.15259604116895;0.155152374480465;0.155532828988199;0.15592517271048;0.154446961176097;0.153672229918487;0.153570954675151;0.154124371838219;0.155323796401039;0.157169759410715;0.157998436832949;0.159243966270354;0.158571810616711;0.158337380544488;0.158527768230687;0.15913422130655;0.160151752546989;0.161578819389473;0.163317480128419;0.164452974259572;0.164904418175808;0.165176752997764;0.165743888808606;0.166601384062254;0.167746364034552;0.0394629789552301;0.040157345108804;0.041182426729121;0.0454181679619126;0.0447878484082234;0.0457074401288258;0.047490803752629;0.0491876344167901;0.0530172973108203;0.0534857131238431;0.0545522930998584;0.0576220857214557;0.0584491259405347;0.05916733319148;0.0591257639101845;0.060109478967832;0.0623684516904913;0.0630173885935061;0.0638011017357355;0.0655522787101891;0.0678554923052117;0.0678535928515875;0.0684518054533373;0.0699733244126;0.0724455548865198;0.0759408530055707;0.077635596384543;0.0788212284162883;0.0807828852362777;0.0836007544078262;0.0843279974166824;0.0854934607619885;0.0856711957394639;0.0856070025360629;0.0861394482166516;0.086137660204137;0.0857922994778426;0.0859800433801693;0.0866876328869271;0.0879150008238562;0.0896746385979728;0.0919916623713953;0.0948636498304025;0.0965881595781323;0.097423513878273;0.098710511730538;0.100472627417565;0.10274354420868;0.105568763668368];
x1_step2.ymin = -1;

% Layer 1
b1 = [2.947331310287299555;4.1681845106458750294;-3.4262935957606428516;-1.7262090567283492337;-1.6712939090370133588;-0.62639154676960506762;-4.6341938972966580934;0.7042780655774465437;1.2577115354868555475;-4.7080633428778497773;-4.8873146138143077621;10.332884707342422814;0.61437703363992457462;2.9851567518939230439;0.91135627372682526115;-3.0662785847120197502;1.843547471168801799;15.977814068879466092;2.2011000710154404736;-0.087834988119188564526];
IW1_1 = [-1.6038685500280891461 -1.3852020939354725559 -1.1083714162422442229 -1.2282395222852395822 -0.88064530381753480803 -1.1057851682839636709 -0.96679834203627212919 -0.92802718019896313084 -0.90640331037921539892 -1.0397191941237904356 -1.0030263726807031599 -0.71013028628576202461 -0.79033437588628852044 -0.4193323673159114473 -0.67757913351531573465 -0.71602246517398604464 -0.38103225768223958347 -0.15560673871376962119 -0.20092037028314271851 -0.11616948274307661859 -0.23872883194958857689 -0.25627771864466197815 -0.029464204666288018597 0.20785715946204014193 0.26205297140275890522 0.25273891446391472115 0.51435155012595812352 0.55723014306441520649 0.18172898111495819351 0.36554526844907320182 0.59983112295684914983 0.67643995269634493717 0.64813269741941947899 0.84483097817869645674 0.80462844213024420359 0.80523269839314637331 1.0845888020404892416 1.0414968086424545302 0.79953174293264217543 1.1018983666110311326 1.3650751380697783155 1.2630641373372539782 1.092688989791499532 1.1582923143059555837 1.3815086950602846194 1.5124753106324257956 1.5725935089173359582 1.8576252226768372733 1.5971479165402420186 -0.73641450950639997242 -0.44711036694875472275 -0.6762165238356722119 -0.76441942967114306917 -0.77903415450103052908 -0.49567598032615167725 -0.40987746764477461792 -0.43433672518564914178 -0.6360474925783016209 -0.54509720418520624108 -0.336088785023981651 -0.23054032288101211634 -0.013057979680314019469 -0.48063288599035397519 -0.086964284857806564699 -0.18169483273753594954 -0.51918629183027609209 -0.39249199240633209085 -0.35746619075727342763 -0.38993481106862559749 -0.35392862501754707161 -0.16072976187177134832 -0.13810985553364055201 0.032802266371561784875 0.026381759197462870126 -0.16758785008543569672 -0.0052874457432954095892 0.19933285700515665506 0.31554156153595053214 -0.015324581826292095824 0.035425028388659990375 -0.014430909243104963688 0.20700700098072249977 0.069913239411678165802 0.21304671666974958621 0.056287050541524476233 0.38637918912011431916 0.11792254583118498557 0.40316601785325950624 0.076851693934692003052 0.33821797671590980716 0.43505736367138841958 0.1595819630783594234 0.54321395486646917306 0.25012633578761800379 0.25015982969623890009 0.41316225618296120725 0.25091911926769122632 0.31000015786008050522;-0.43804339477568854377 -0.49859324605742538772 -0.50031406586766347111 0.074117639748867661376 -0.20905531877152147557 0.068709245152399484047 -0.0041786889725423589925 0.020762504761898399608 -0.31346254957254521267 -0.26290201218845626885 -0.1473935661296461308 -0.071857520118044568291 -0.2779589242405293148 0.2282963536332945631 0.08365393921472527583 -0.060267177542849013905 0.20583512171080703412 0.20468995885477095364 -0.1673711491984051225 0.028827481031362164887 0.031735473712363751475 0.5614549652672243818 0.20057741181366278704 0.12628216877823825182 0.33110293739434132343 0.20216410281224184153 0.60239276970505006847 0.57116118902181844952 0.37439285102358793589 0.3171786734677193853 0.23420988927910688093 0.45547744843161480643 0.2127731019806297641 0.42896594467299026254 0.29903134406033793358 -0.039048498493314723334 -0.03087887914032315384 -0.28141864041051656287 -0.27170814576472540613 -0.019356327945853322309 -0.21108683949777393152 -0.41123003417674153237 -0.15699989267001746018 0.0045106702452697164732 0.13465033994913500059 0.053572024840791626632 -0.30188793667410812605 -0.039209855961750299247 -0.37270566430746471243 1.0956052302747329996 -0.23458092268736047137 0.21694123869421214068 0.99248577134839632841 0.68668917896748360441 0.34196579599026899476 0.61638894023690260493 0.79281073709266303151 0.75060378175920472454 0.84578315036166906715 0.99716164583584132597 0.82501356799948122323 0.43857032351191793662 0.39887187251314715208 0.32226471620110697103 -0.29555587864329235792 -0.27305013839153002841 -0.47153237013463034089 -0.54682453554969878695 -0.37466329326978825565 -0.32223819203345521744 -0.21780308488187516414 0.24475192095732381525 -0.15452783081133159016 -0.11081273288455352477 -0.10684390389011112765 -0.19643164543321475768 -0.11684845846115375634 -0.041179315903208973948 0.1219296834767758797 0.31267786616383325127 -0.0072622067530625031978 -0.024606656633097700321 -0.058599643024946586334 -0.050822990942500465006 -0.050516260572309928945 0.032670969308490380167 -0.28084251836807166969 0.17843251694775405514 0.020420751377959324435 -0.29301365326272038603 -0.29620565849414287607 -0.25466026304883770948 -0.4760325284070806573 -0.24054921962976810734 -0.17711028675706089186 -0.22563642366285041607 -0.26823900511774406707 -0.35951451401083067694;-4.4692013683464972829 0.080853977178189651021 2.2369836954776074478 0.5181854790454688553 -0.3953891682604636082 0.34176971486784379906 0.76639058463308873392 0.4634195986689358393 -0.086143781745008793371 -0.1846292993013854411 -0.48177387364970314376 -0.36324499228752293867 -0.40431705180693522372 0.063020810205549379623 -0.021584914631674754354 -0.20155854829067293421 -0.33817718169351257407 -0.2439362570718813239 -0.035529772687386176888 0.27056889337271233797 0.274003363180691073 0.62716912807806302066 0.4165225421304650788 0.23603179438414328972 0.071647909958138383812 0.075657818681451965981 -0.17139443862827138942 -0.33235682499226010256 0.037180860936973599007 0.0066827900160606155955 0.2963744339153286389 0.069928091670301811833 0.12465280616302792938 0.0494319176396773724 0.047561641729773188048 0.12835438493098644264 -0.15213022478439347518 -0.085962466261356243469 0.10681562710450979992 -0.12623391865105501597 -0.16803284635934903624 0.086075015688681255632 -0.016271068716145115074 0.045370954921324813114 0.24633860511006341887 0.36631157486970833403 0.14400592509601020663 -0.10183147920302616785 0.023401992611136276934 0.36475952725431737278 0.03285245760949295768 -1.6769242419556584789 0.83076681877107894092 1.5130443203421872767 0.24247514034733597121 -0.9216936553997612247 -0.75016019070454631468 -0.52458992900230561052 -0.56978717268404277529 -0.096976669255035327644 -0.16761774690757785811 0.42291229099565058602 0.3014310201803397371 0.21021708587423879044 -0.45799723680717602248 -0.10669705125976511328 0.32088771510937857956 0.21247615378173004275 -0.1543416335886193258 0.073854319890138186988 -0.056418155331382606466 0.3940497054714504066 -0.14221269062022640073 0.42898483396682485225 0.21872887365019175188 0.15636424810533028351 0.10295701795105378917 -0.070628999092982272523 0.39342548487784023692 -0.20254020319494211999 -0.20907997601726890924 -0.025592760726496476681 -0.59144523359950817998 -0.85281737394788514894 0.030150717033575323567 0.13388719485469496862 0.40653984163442502542 0.046637181845136446712 -0.11871576315579206173 -0.41205309254257099782 0.0059872208385773452791 0.23158773805398638612 -0.079865760122326587278 0.13554748032160829352 -0.54951661361529113847 0.12956525874500285367 0.42644095276376536852 0.99221390224472294506;-0.22755461878454552593 -0.16356940285585772066 0.39148637357801158165 -0.18716731118177490356 -0.22310381572908705161 0.54398086394128819521 -0.60538382640975485494 -0.054500052930993039824 0.22466711942503189703 -0.25488488502690398452 0.23487396667904011927 0.26066624081442479888 -0.0093070264129427628108 -0.052403232115178846606 0.12854939863167219594 0.18095520183091232114 -0.15364131975556474807 -0.11078370201504152137 -0.20030883410580038739 0.19418008468773695352 -0.020363023832875689484 -0.15368474001187293343 0.11819973923417936845 0.15560414616878742722 0.031750497977664035587 0.044092077184535158341 -0.025726102349841926953 0.0094277710102937239273 0.053684097445004935745 0.064130355036892516818 0.024530755834295162043 -0.27279611702354034097 -0.054194387426768124427 0.06703397694763481296 -0.18493183868218382448 -0.10797887566510830371 0.18099448777802007449 0.0011695432239058731107 0.37304855946628656671 -0.098659667003246562245 0.16999617246532877646 0.070551973255532168805 0.026588082353567160654 0.073602563531613068859 0.21936019319947167028 -0.072066358517534734318 -0.17187610916428888719 0.11654307074102611408 0.028786481563544345785 0.086319077778678143797 -0.31629491205201554216 0.49931990574862272769 -0.74261044983589863389 0.15403639501061702766 -0.14050463637717994225 0.69266584516228779655 -0.42970164500989072032 -0.1981552915809946247 -0.56319556159896033698 -0.065384514153403336389 -0.50005059575013099948 0.35604081393083619744 -0.5759459925968890559 0.40609777857558976288 0.52521058059604919244 -0.13377339287406272983 -0.52909041160155378947 -0.18878878703959303675 0.67743889086003883371 -0.36358695982164013216 0.15649280060013309734 0.11447392420564951598 -0.055604465605634610659 -0.15521691486595129428 -0.2763686310700307347 0.19892075625831034946 0.35159606254644859558 -0.027280958668410907469 -0.90003584859598695367 0.20697693272372305606 -0.84606725031510521262 0.2215370010343386542 0.098951959169516698345 0.45365743803691099822 -0.19567385027463252145 -1.0848414947909645889 0.1379813541878016081 0.53343219486789072992 0.29460659081713796992 0.23711163170957366697 -0.41399028735528486944 0.040046821288730480304 0.72771041859119844908 0.40609769460627792581 -0.043437733593790266162 -0.37555756674821466623 -0.31186005455263299257 0.13387095871531573543;-0.036882074542200639355 0.019608000062124965324 0.31947618343974637511 0.11502910463657479989 0.18101612892721702375 0.030126171118592809384 0.37924851371021217616 0.20196955311439412917 0.14865302445984893143 0.40102021108354524159 -0.18008729708821089033 0.076710615889119579403 0.096517978996725678487 0.26160954452739337839 -0.055091845504618534857 0.090113299105963440283 0.21185460720103385657 -0.10055935712699205775 0.13785572838990389766 -0.16473169422281608298 0.037740539998879094052 0.13454668736203592716 0.10258639673764248512 0.013205241622415913455 -0.068933850548950528769 0.049040801603769515471 0.28531475226128039102 0.14659832279092388507 0.11733738473108296096 -0.18080171537590572495 -0.029434825342725571412 -0.039346364476237086216 0.21012703748589287023 -0.27229108941796636989 0.19936117141127779329 -0.16110567331647918099 0.27532133871572972428 0.094550690200853243494 0.04527607575911861415 0.17885238050952853572 -0.10008501541092396092 -0.068707771720721094733 -0.076380105842855733345 0.0076005442725151839065 -0.046672412731612801517 0.13040765563272621597 -0.034972899014138907059 -0.0062198481481156300474 0.11795416776396046299 0.15522523975767033022 -0.19484744782205432045 -0.28749544573146751381 0.55163809958035525671 -0.17597863177041409011 -0.074962877009386738592 -0.39926120064862252734 -0.016618132178250755171 0.17995845356230993906 0.28375825554200906353 -0.064283483901719964959 0.022988606056873299444 -0.07785474661462436774 0.349923950779327253 -0.13738718249170975283 -0.12418179870501232231 0.21502009299706034695 0.27414665118361425389 0.15267895982159204737 -0.31370035273264490483 -0.17354479486219048789 -0.012742925976850743089 0.042370338752198227761 -0.40244262310591488729 -0.088706638672158444336 0.15414011257779414166 0.0042195019785972506104 -0.049725296805618462992 -0.13695672645199813422 0.29296989939816653337 0.35805048985374648973 0.050460860477920421729 -0.20270189321343823341 0.18275493672942996759 -0.25938170383025799248 0.18130527030712706438 -0.055803430442569870729 0.24518826316709363411 -0.29057521349900039542 -0.37275949892433779542 -0.045539366024070680739 -0.15176371148466055727 0.12929815035675015777 0.058924602983428192582 -0.097370345668757532498 -0.13334540708640518769 0.08494724341455517358 -0.082524962799608150843 -0.33920534767308696544;2.1642058484897757076 -0.21818349867780884033 -0.38875975407296708974 0.0076798708671567145895 -0.81648947091962453815 -0.55675295023775039915 0.39185264416527260112 0.55233560740216680607 0.20429217181012990223 0.12819174400304877981 0.32696580649069234559 0.064978964752351958678 -0.23271217815489550484 -0.36138798742946953713 -0.13936638576327306516 0.19614344411727838158 0.25200298405820614756 0.6781822183711826435 0.46780569616425166091 0.11240649763125522276 -0.32956071641892759061 0.015620242165228696504 -0.4133677704793989327 -0.39420316550830419855 -0.40459840416591469348 -0.37199313244291792868 -0.3034280312680681102 0.14690358866411640237 0.25099092502067177346 0.27642008734795808778 -0.0048031228644488900212 0.37693807432390441514 0.31125995016800267479 0.29424641617906699409 0.039968460887268651704 -0.11367419556451718865 -0.0075468189829978457248 -0.28554800227547177949 -0.36548546323738351216 -0.37056000756004264796 -0.09286786752343099971 0.0031942730658053725135 -0.050026279416383587217 0.19850331680295588144 -0.076786545974886516452 0.10573720295358256249 0.11353302502564895093 0.29657851034974724858 0.18638526565989332884 -0.35573405207232350334 1.239344527994970413 -0.56295765977814038461 -1.4085996560412710199 -0.79954465670544305755 0.067767528789192427174 0.60763888150684031153 0.95722812852000904726 0.64974001629633038046 0.27278968496219557771 -0.68357803111902371018 -1.1078921237934111765 -1.1454233587434425878 -0.26844602858517163657 0.15811499375635462705 -0.41772963975101146117 0.4108382674950767921 0.46557547101734619854 -0.078155458658846571618 -0.27386940433138839968 0.66469962163222906515 0.20389843870265667025 0.23938226415899266364 0.020204483204549112535 0.12910111918111161211 0.023540907840828559361 -0.38864315344900146609 -0.7914017270678506133 -0.43287302067958111085 -0.19485468288594334774 -0.67461302046167381796 -0.26072087189095288773 -0.33531618097460275107 -0.52504579487386393577 -0.89888704913956707365 -0.10202281348423476726 0.71732170300669373386 0.4083469298715441953 0.42737316507509193197 0.71383800929103358168 0.30700342982136985537 1.4179985177062872648 0.52023246570637005082 -0.78550456142464164522 -0.46165066128419995906 -0.55292280049231434802 -0.43458646914096382696 0.041061439060609924989 0.19558263093565914081;0.48997334341394382928 0.029898977303342930828 0.16538355444098268299 0.19250586839584329923 -0.030403448557116130591 -0.17400376014572571659 -0.099264807062523344183 0.077662392153687198615 0.11081825292825091267 -0.29924607980709966304 -0.15757794478809578065 -0.067793488399812015799 -0.0089655194381473152232 -0.1620103809597648048 0.015395162331192625838 0.15346792843347434321 0.039039855495561319454 -0.037695890425416773983 0.17192821813127254216 0.26887760263247961756 0.16558600779536833403 0.24664579540796890966 0.12724107070068357839 0.059820540433173016726 -0.028435974773703361074 0.03875729727028107835 -0.038434735823324357729 -0.03756508139148232589 0.10202386285768182128 -0.16359686781549531709 0.16278799452007666759 0.011250798712210536429 0.27452277528256691097 0.23158057905499473961 -0.1654809843029504679 -0.19093143186752603579 -0.19134745740138520143 -0.26700092944860348565 0.22247513052510617393 -0.1259183649859457188 0.043770784807886098378 -0.13658544089048252346 0.072711931910358351683 -0.043201978173750217593 -0.10193949505545243928 -0.41164541595969483812 -0.39053588330747318613 -0.43662768916837546573 -0.30695656473189292246 -1.2519422240403452751 0.026612692578005574251 -0.62603696467601421816 -1.1352170717396918853 -0.46481978135985790868 -0.5395976230648795724 -0.55577119509093286798 -0.75843690862220980442 -0.61887535154707629115 -0.87688622216295364353 -0.53735437597931234865 -0.68929930500994196496 -0.66739453189273867384 -0.48492254627929076705 -0.61860885839689450094 -0.33379302667764393364 -0.42878938866865812241 -0.60096747399111694055 -0.31795163294080552863 0.13364695912020929658 -0.0054560289070634034742 -0.23734581730222314988 -0.078808456409776586615 0.26308644273019421433 0.31743645917568391601 0.10655058722898137769 0.60325190988441745876 0.17010759535238767493 0.22246920856503807351 0.19289614296355686585 0.56631839308569387192 0.41644625761464132419 0.72818931924584684445 0.18950484650133400666 0.74698837920395566581 0.40767757517441466364 0.11925991891458567751 0.024789798704353428055 0.40290300740414147773 0.043248613779996010476 -0.031028933419805903443 0.22617888040464315114 0.14979755002882916282 0.2087572238385466683 0.2811409880122724414 0.19359203452872991713 0.064821811878965490683 0.24089409807627715221 -0.22125632026595357105;1.3886058000164727133 -1.3586741801446953204 1.2224507992215076779 -0.34457311691130709796 0.68593280677607781914 -0.13428833678066828816 0.14801861673664157282 0.16779593822309413209 -0.22499124855465785222 -0.0057530315292310344605 -0.084061293602517045409 0.16915555213979191485 0.26995634679777275045 -0.07550633797961862903 0.19166983738671775073 0.33167607480800648245 0.17701181205531518748 -0.40760320480040246327 -0.13536794691723841311 0.29185723308330946413 0.39033823284459001624 0.10312098132477887091 0.087415726805769561336 0.10546554118882782436 0.19621584195871852319 -0.24027313444537498621 -0.040431408442466940101 -0.19533853827028399563 0.18772968345075388696 0.36919129679645429354 -0.12663317447871511034 0.086724024249245135199 0.03590452963263764119 -0.013332117122177463558 0.06971111796593067178 -0.16389991995095623545 -0.26659666960402039759 -0.11252551119949007197 -0.19769104168612722239 0.0084928143576368485268 0.37369948263775731867 0.37977186357347708645 0.25823963102199792852 0.18825337386261004058 0.39900234755977631584 -0.12127681088054274861 -0.15335565624876032476 -0.20829714326330350804 -0.41476262139840647247 -0.16982824244596797514 0.70533910966985102764 -0.65803764811588838501 -0.18424673933761848144 -0.12181414394625679487 0.28832675644755889621 0.9097341623566744806 -0.16494275529694507609 -0.16180232341535466523 -0.59120043757792606343 -0.34006694851105917499 -0.11143328886355431673 0.44175855118995799309 -0.59313972928435698684 0.53837158618199532079 0.59821795550824730103 -0.54856220395481791741 -0.30115987073155947584 -0.080374583411787658971 0.76522271827068422123 -0.22036412195416113513 0.21277349786937921339 0.41470538120453193098 0.24446439749405979303 0.20160918977612082847 -0.011909565694710671363 0.24611469032453814343 -0.10356077015829542876 -0.014343041369943750063 -0.87077298209129994078 -0.12497406971711964851 -0.54760061767825696233 -0.17206511838391300162 0.041118096252840401206 0.41305580233706551407 -0.20082825754939870322 -0.095536513774537715205 0.23206453437051416389 0.49006250785165111905 0.29131230365311294728 0.67187624742062856953 -0.045047795925643181747 0.42361914512611653638 0.69308988994638032199 -0.18050001148328950751 0.15831989167270940633 -0.16989324373968178739 -0.30702251480524739291 -0.057607205648106757367;12.753136120648678187 7.8710911087536663544 3.6865399340118703009 2.4473245851896634484 2.0755519334101477646 1.6556337010122597064 0.67985726047044459097 -0.2052516149810953705 -0.8121164846774054924 -0.72683272910795504451 -0.88781554354199965218 -1.046332853610041802 -0.61479290771571726282 -0.97825523151504978348 -0.81358942526258515304 -0.53283432575578681956 -0.75708695355325306142 -0.68478970630668933861 -0.72639622618595933723 -0.91506463078368660558 -0.96252695762711149019 -0.91774068506858852423 -0.43571012911057344086 -0.39323818943977190132 -0.047031102018886480898 0.13367674462397580171 0.26971053605173683776 0.52686811248616438608 0.40496277068634833896 0.12966902540476932248 0.091988372947318652884 0.45192986846747978946 0.38456724795577257314 0.38969043438648426347 0.44405311849529055523 0.085222496736791247818 0.2078925912985657154 0.54001188893344220787 0.19517793642824440847 0.39722249761664063517 0.27741305865160087452 0.28831775865848385809 0.30461872668583145352 0.18240283649537325505 0.18673664804116379967 0.16200925697437013051 -0.19372289763953248753 -0.66354195923302450311 -1.1509212856426536131 0.68472061850947585349 -2.9128216598305423091 -1.140251376010356088 -1.536173784787135066 -1.6951554615569253137 -1.6631232132834927739 -1.2067700534558367664 -0.64191571657703794251 -0.43137084746217152498 -0.77852873204435746324 -0.77269951468242503712 -0.94321798773796194926 -1.3568340538456040711 -1.1133948487740084055 -1.1799487792652891827 -1.0751429496926940832 -0.9542477303914258524 -1.1051705876650661509 -1.3381110674347103107 -0.83863029965194990645 -0.98041483357249803454 -1.1246965447686829709 -0.62980697438153054879 -0.72907145116663363282 -0.81537716182731334591 -0.78199361166358360986 -0.88642531466122764794 -0.80136731357692014832 -0.020156207549782943766 -0.474508718979631261 -0.60316536909150442192 -0.18188168988500258427 -0.838165052665853616 -0.40640122736897243971 0.058333192429438275595 0.034200302038898691692 -0.6129188921069542717 -0.83215266895543416048 -1.0514350333519186798 -0.36237702415263950417 -0.20424087254426151472 -0.6907517969786237666 -0.39245235688064283863 -0.06610030697608376693 -0.24819681354935632656 -0.41311523935060978641 -0.059547624641529177392 0.14596325874390375654 -0.20105698419651557574;-7.5615659422698868752 4.034719538031985131 0.35603810054597267998 -0.34204584394597664643 0.21110653491983094598 -0.067080363196939774006 -0.032662842646193068763 0.17873776289210457913 0.22455945064831164815 -0.19597315424732950073 -0.074703384513162190972 -0.066718543446368253069 -0.16712418278188029275 -0.25831994493210896913 -0.14949015588424022227 -0.058082167600212446235 0.11279316374475369111 -0.33192408305040888017 0.052227518125033123297 -0.028199503411133676478 -0.17403474650068431751 -0.010951267578495843882 -0.25897343560504204607 0.049573634191793274073 0.0084814570014444968377 0.26814214690478965775 -0.35962066670598863416 -0.50942192428697696815 -0.14041818666441618912 -0.19811614990506318246 -0.39099053665723759732 0.021496272844440885569 -0.098329902807656521802 -0.05408732512690365285 0.14062914108228263821 0.078533813996690488013 -0.079001885720232686849 -0.0031907517273330869047 0.29824963331237580588 -0.018061892936640986523 0.16246833038086661016 0.29303418233627070988 -0.076533523004680401036 0.19228199699732104189 -0.035708353585873736646 -0.0085748320478797896566 0.33261547153940806965 0.3819419894754800815 -0.33235691784846715935 0.84413133430394615697 -0.067073900767060462558 -1.6260475189130978446 0.34981289946828497683 0.51498930918482277441 -0.22273467414437464473 -0.24152726086515849402 0.080656224521055752685 -0.36509011690949977336 -0.19416532301863440035 0.12592076407235186508 0.16741879636770942708 0.06815502645868902476 0.18106494097536576793 0.15607015570240340141 0.49486734423783951264 0.099045373331415734186 0.29447326380600546969 -0.045168186190794316903 -0.12877937225121510734 -0.32905107611014722258 -0.28453387533751972605 0.20346428158834217736 0.15660113155873930935 -0.087307808387616106516 0.11362223386629478894 -0.24602974390824977613 -0.3351525453525593945 -0.1808441138163714712 -0.29321290982191178243 -0.3714023063215464715 0.11823853620414939702 0.039899005233561747608 -0.083223349929423331983 0.20953319513432891452 -0.03704275898592800792 0.15953365911708819458 -0.13909985372663732917 0.0074512803096673614275 0.17459842438804534792 0.12472143499777066378 -0.019959974531272416803 0.016542438410575892316 0.084761708741029145875 0.092605967649521420126 0.2233086448990796169 0.0029461608152266511272 0.18708798044376895309 -0.25112353164932521565;0.65737404265536070191 0.31442564956555468791 -0.91784455519568974857 0.7514349774985503716 1.0131458277874378915 0.47934628329897011056 0.7881669689553230107 0.37630363722799881065 0.28651180865333686354 -0.066839455518357043795 -0.53356549011334553079 -0.48002936420330399869 -0.24542338865244414658 -0.38810972140534238939 -0.049115831773903835533 -0.16421481763350409544 -0.030728439455836416977 0.11396647123309899818 0.041015108458558338644 0.43661711895741034395 0.4495128377355454008 -0.048156353186102965336 -0.20802320182360717338 -0.24986924967891371852 -0.42496226484626520303 -0.40851380912825446812 -0.14337749747947584056 0.19357930625360730836 0.11425723957654769503 0.42630382094034963147 0.45048932157207516314 0.096343778783984368452 0.057526878514127285924 -0.2760392728909332738 -0.24754941992371681803 -0.28597739946560873925 -0.139330302602167444 -0.3289051874632451522 -0.032536938130066944685 0.04266846060447818112 0.075872652256967612616 0.061488358287949754222 -0.34173379043179591408 -0.010301049923863134922 -0.44037721613693414646 -0.092483787384450122371 -0.020948660865826865957 -0.0057248646462088863957 -0.29281882493437655368 0.28329426506117461049 -0.37344803977880880463 0.19029659718297697868 -0.46595038466590471549 -0.051349584763865530057 0.37146794601063459762 -0.3743443384041756361 -0.037146337185122613178 -0.38371365798394563296 -0.57981504969672581495 -0.16312976134064025024 0.2432678159107696525 -0.25577975355628795873 -0.36111873421603374323 -0.47308479370016304211 -0.35453911224664425017 -0.62212394703299367382 -0.49179779043509075365 -0.58342052385542597648 0.19280204888898122562 0.18012871769197369431 -0.46369465780539687039 -0.67050050662672611157 -0.19703556227007532065 -0.20153754570236601107 -0.69029276008931150788 -0.34413484842121616625 -0.88331361793308615926 -0.4074836730224967174 -0.73020016642318796851 -0.60679158745467576264 -0.35516318392414181204 -0.40841075490247241708 -0.39865437311702051071 0.66556136089730011385 -0.53337935300345784562 0.50535199783632855919 -0.90227269930853082336 -0.25574914534811565847 -0.16805188189054323655 -0.1582068924297285184 0.49338468767748711041 -0.33746951108314143797 0.34678185126036886743 -0.1603612244137174736 0.46668728287686200851 -0.62216837228494348278 -0.97601631193451732216 -0.76853462214774936889;13.975217107167333452 5.787060310946859687 4.9271073216000687012 3.5172793343224624252 1.7916504531566455061 0.92542193664663252584 0.078580551214501886959 -0.64216001557108703945 -0.2421239751133773821 -0.21042898595275885687 -0.57455373087393513121 -0.59464091710477839925 -0.6275306018593890256 -0.80054921484423180456 -0.89075191324844549268 -1.0295854773491579515 -0.9517781225154111624 -0.79539411867495546371 -0.71545286972771826584 -0.76336078935661100253 -0.60283912211203627418 -0.36557788325856666045 -0.2511816158031132673 -0.22500672419467540597 -0.28564784444985208411 -0.40460138557807695525 -0.16934517062285214806 0.2612233225102323364 0.26034036284444184162 0.32076308327156938249 0.21740136510520119417 0.45366532573863582734 0.38055812496902552411 0.22788060814277205646 0.35359348356941600056 0.12614805838949022521 0.12674656754394192371 0.016493542890426135528 0.017429444457745697783 0.055953523853452272196 0.1667985037793812686 0.39592208930965716585 0.36615960861294716278 0.17068787847511293632 0.37171028458867899635 -0.29720648663459381389 -0.5398321104231441625 -0.79352613267926075391 -0.75216556995366590233 0.29904131929140786994 -1.5974717035064918136 -2.6074288618292453812 -1.6783467689885824825 -1.2803694926871189708 -0.79554002680761859434 -0.85436213490219703459 -1.1106147732385376337 -1.2470807638465972733 -1.0120484268323497457 -1.0698898575661093258 -0.82453150609376879565 -0.55155837006688401836 -1.0237016704268189216 -0.69921161632557427001 -1.2334891106682959183 -1.0400679608317189295 -1.4457500377381196088 -0.69490550781024917892 -0.76114459307342297034 -0.96716161356281626915 -0.23700216162736956194 -0.50875622321735369802 -0.20475907491316816533 -0.21408853483867729128 -0.21191502921779881152 -0.011302539074669205182 0.59179801455856206882 0.28962347386643050307 0.91665900573935954476 0.95803935055115563291 0.3380253481978514607 0.62813069218963535345 0.63330576420926909531 -0.14660078631553158379 0.060676112391332887031 0.80717733256299695199 0.78382867589987093027 1.1179811754659678691 0.39714106109126473543 0.47859422931470962936 0.8886116727346247135 -0.30023056006218429292 -0.1028096398351350943 -0.1160675092955514992 -0.071024713233141661961 -0.027396125792322416348 -0.057407142899712416961 0.58545170871148077829;0.11458749647864398258 1.590865724111276025 -0.31321151960342186182 -0.20236861182872858955 0.2342596826800283083 0.19255454729848059392 0.18662320856089470444 0.1115035544323670913 0.30617772823543376592 -0.16039518777366765234 -0.33511757962674004752 -0.29864377768337663221 -0.091558676637897046247 0.049292624696971071296 0.019027089832415248344 -0.11110584595648674566 0.060509702360250751385 0.22115483212116074374 0.072427700172334436024 0.24157484356977132478 0.25858533562878549539 0.014902927266039676241 0.027348232363284295104 0.089831129809758117344 -0.18846141302287772179 -0.2326426215335354597 -0.14983703531879133397 -0.16154189512753996949 0.013577185061039468914 0.0080931222692649396749 -0.40147461889334856711 0.062817936644297842075 0.0011950642714378015112 0.13663300494756411285 0.41556773909550609458 0.45145837907620334217 0.36419589683486397469 0.099579708994702031966 0.12931625098668772522 0.25288232498302098961 -0.05004574618528890434 -0.15135762103330227535 -0.10957511475798226153 -0.46447203148930715777 -0.16772092759441825649 0.0078900512720968922487 0.05424625825199928808 -0.12849419808222165007 -0.043350139221916633714 0.50507265693059832934 -1.460785449195232788 0.72566529979033156383 1.0424194484392601545 -0.01060672214745254395 -0.5844974066739682117 -0.69361063323072658093 -0.10717723870442379119 -0.63471200796831006574 -0.024668787255585349072 -0.001862254620379097305 -0.31110635737818437274 -0.14698075509979810493 0.25420081466627908462 -0.052929070599212826864 0.069814612049691790463 0.22374707491783960012 0.094655482103882235267 0.32974543299003927777 0.35777281360780782693 0.02916405113156350648 0.091606940304473596925 0.24346440774738553614 -0.1628572836968706361 -0.085329011516081215705 -0.41715941445335447124 -0.17913331710953803166 -0.16932853507093972856 0.14407651903961588014 -0.15471501650063179678 -0.13703493478328482302 -0.081343798713852208393 -0.26698880217318932129 -0.34417264866947033797 0.13021832055650880977 0.062101312111827358664 0.093012581670528865496 -0.33282854556875579588 -0.25399852362662089789 0.18810301727151540474 0.3552218851396073962 0.5505431666325908413 0.19216139068059462369 0.12888342959253304421 0.14249949500473238495 0.26432238409508068688 0.009875569895058789946 -0.11330025513260018333 -0.80216658593570955293;-0.59143233506699155466 0.23258901562903627758 0.61475443045361777283 -0.18627326204217437011 -1.0323953685007161152 -0.72029888483180404268 -0.43673241675872193079 0.27095317476837432746 0.13764847487991063724 -0.31369848472121847349 -0.58060195119563529076 -0.69842363250880801218 -0.12799580541357402641 0.11629996150012533729 -0.19452058626807799957 -0.28876367877465963785 -0.128328210769440898 -0.76024712209996980761 -0.26278748209671737301 0.041626154805506500323 -0.052469344899433514873 0.18257904968288526937 -0.3128600998306283465 0.068966051055602203834 0.055474465197530783978 0.010894343328875136234 0.23445383100013308941 -0.13062920913675590828 0.052805551772718083148 -0.32658342930726824704 -0.08421123343390021776 0.049525676152949497932 0.20490821982108317623 0.047041987759113661205 0.55840400136008838672 0.84661647305962994814 0.85905672478902261879 0.69993201406684468768 0.54909099280485285099 0.18787021791207070276 0.16451149022817987411 -0.29718367648358323674 -0.8063882603347846123 -0.72554376468378367626 -0.3054335139336839533 -0.42059111291583911596 0.54362102404044010395 1.0157089895368474064 1.9203665966038936386 1.0820392153351181541 1.7777322695132040664 0.34094567897813116142 0.54899093156881206834 1.1161255703735153411 0.63314364950753065919 1.3306030743415806494 0.46568637977729304689 0.22541469773447064817 -0.16823973922611085152 -0.082162989152453139163 -0.10849437938841902107 0.22709476292059513347 -0.44224062864803731498 -0.52199900134302201771 0.11765572555970499335 -0.41456594053589412852 -0.4058775134429555842 -0.32077784258696567798 -0.22796386500214294024 -0.67341815805407634343 -0.5745257859085517449 -0.26510837645760365611 -0.39344767773303723768 -0.45637870932514668088 -0.21842926744753168866 -0.56898652449214792703 -0.053306528673575159782 0.24033754311398672354 -0.02650988894833556514 0.79392934440582196842 0.48913513291195381827 0.71533803128557871265 0.32860916309122689682 0.18787219519620937391 0.096028376441281815268 -0.34312208050378306678 -0.32591022790285306687 -0.23647447980431751668 -0.036230850417521304196 -0.32032919008512938941 -0.14228137834620824265 -0.23502643135498904603 0.16156871008058212857 0.32914843636459029108 0.90163541594405316459 0.6320557428605957373 0.65942959595364258885 0.5802006137461309665;-0.6339922557710436779 -0.72590723030963122397 -0.6460025736033830901 0.11586098458234081465 0.51921094293192382452 -0.072652592670252952312 -0.023471765785503362345 0.33554532402457676321 -0.26736304130151905545 -0.37861999588541317419 -0.1708818880076017066 -0.58972414518334836941 0.03702862993978477818 0.0023312102340564619385 0.33545612471705810176 0.76685388919545161013 0.86989395550254122735 0.55751260633755861384 0.13939999657548959866 0.14145721211984943477 -0.15194498046643409306 -0.30525796499142709983 -0.25280695801267216716 -0.52619846597155695012 -0.32797735288708340651 -0.15813011445647440212 0.020587368600559090293 -0.050867962690172026374 -0.31117742524033109586 -0.052399531952182838712 0.30914027473513755462 0.025226837010542537548 0.2518645334785914458 0.41717313637029002082 0.63463954368477015766 0.22024319904349984323 0.10033457739317105939 -0.27097947870406169368 0.074171751954980269517 -0.014914720989848416141 0.17013280348915016393 -0.060863004944895576775 0.25342433020483395856 0.28334927140398241674 0.31333630278578000761 0.14007313626673076334 0.22946414992081282103 0.11512021773504409194 0.36413945472386449742 -0.85277799620701666417 0.8281865590295653945 -0.86288912427645814152 -0.40792945791753698614 -0.077262154772416491433 0.0047669572091562075963 0.49632510440918831129 -0.18623396658073806953 -0.091819704473777949416 -0.24417201504567243031 0.043419214223764997229 0.28298000946194878935 0.15576960401222164632 0.20872792485187727229 0.18589100604890190782 -0.057810450271881155815 -0.22411383688345229426 -0.14588857572635199888 -0.047748689766396422429 0.35450115086284250676 0.17137854216438866417 0.080016403048265266618 0.17135863321176256213 0.22407431922911313915 -0.12244627459253508428 0.043778060911192726024 -0.031181588544682260766 -0.30048446441379789151 -0.46521224402671407239 -0.052786156431974283476 0.11278820596536104359 -0.094765592172144766381 0.47788881153650308864 0.063297556125938209126 0.57486593219766435325 0.064508611681306074481 0.21560109889147510698 -0.1190086319069552645 0.063442122698930028535 0.037626103806349446568 -0.38569589349395944078 -0.21298389714007145979 -0.73268009604418560254 -0.45622657389132958983 -0.062541948985525619431 -0.067237988743560586635 -0.18347530538384229648 0.143343075543692966 0.18220772467571591524;11.255757186593907448 8.0185268702334511204 4.4422859367093279204 2.6375807865936060637 1.5381810435831171358 0.82302902357659357691 0.28420625389213383105 0.19402663545383833088 -0.33115687821786143896 -0.56268604331185800849 -0.52902901386884104706 -0.61141451376239197568 -0.78051119720141359792 -0.7400357707030402743 -0.94850727953181335206 -1.0868241990672000696 -0.6188204320209254039 -0.63830916854368346947 -0.74823743226102523707 -0.57109238022562425208 -0.68554085955572618971 -0.59070630778582089437 -0.51192108844342854024 -0.55200036728624657378 -0.55002320564990336837 -0.10625255651958347147 -0.15078442520349499834 -0.017752722612603469982 0.13996879626811389863 0.16393762346121307227 0.11585473322217951231 0.038502827844128839629 0.35720671851949226117 0.33066266507796643337 0.28013486859605779555 -0.012115170109995597458 0.42625172115070397716 0.50041708895415981662 0.15206547169205589243 0.36309171514803773029 0.1726755301302441703 0.28878890879664537161 0.18682540442850079088 0.00059032381630962711856 -0.26057915341784421148 -0.2317094915907625674 -0.22626582962617508565 0.031358831223791093501 0.25452335397224318259 0.68029827672478559997 -2.6978657611234724278 -1.6571467505231840533 -1.473502312727786423 -1.0220097005054815664 -1.4800916954684377735 -1.3361440104830308861 -1.1865531802566902098 -0.81940332851050479146 -0.86656039539237572633 -0.63457210244484441031 -0.5343365029502958885 -0.70631638611409208739 -0.66072795326033051388 -0.73262902544886832068 -0.64573349749451292023 -0.77687026546827686602 -0.47568357565816898891 -0.66097870075362308295 -0.64973949485953896854 -0.70415192123304437555 -0.57674251675125598471 -0.8544857364289207835 -0.91239087841906729714 -0.87016824100006995302 -0.62703219887235372987 -0.70451896818421755331 -0.8154132152009823109 -1.2290859282013557596 -1.3562012607146469723 -1.2295882115155556402 -1.1774520057712807297 -1.0355710279340077928 -1.3614024336450782915 -1.2016793103353820005 -1.2510742540517920673 -1.4154762420665054634 -1.3717077042478271753 -1.2985688150277188146 -1.055867212774534547 -1.217172842132763666 -0.91207184087752324331 -0.88234743491108535984 -1.0527689679393232858 -1.0745595423015268377 -1.0606524516965600835 -1.0907611809917641121 -1.3003953410765112242 -1.5362900674753707797;3.7075934996180648362 -2.9777977455485622471 1.8144549422826548035 -0.17725036383858316924 0.27107486139166914185 0.35770094478131203575 0.3407265965381597872 0.23063453297333913472 0.20690142271516276384 -0.03431515098510788675 -0.37734025228951473263 -0.26912709356718389486 -0.091792703366157898937 -0.18952188651723761437 -0.030165304961146690438 -0.02143806314303931676 0.088790927434859417966 -0.16434769721679079457 0.29373529255195041099 -0.17101573061663591369 0.0089238170277767016325 -0.30433944030870713204 -0.31316497381234786879 -0.19123181166433908529 -0.17183438182049926013 -0.026555272395234138377 -0.37736780563224991969 -0.34887575445987217826 -0.27062712184417131445 -0.25728433336763478767 -0.08459141153295836324 0.14014567278471609657 -0.20672665969826320431 -0.15411449327358495154 0.19232974689055748474 0.051643938574246713025 0.40791982123559955564 0.26356047564640872061 0.067199473150665697818 0.12637911209519767097 0.16818892741464219753 -0.14416387894712076601 -0.17895989419369376372 0.2208793429206048764 -0.23476663304924086373 -0.093938657757283439143 -0.048444610211000035949 -0.20376059652598710326 0.73000723036802284138 -0.026320213952725858564 1.0637947687740514358 -1.8144078805567012136 0.52391652425916412916 -0.22426068777808247368 -0.0032809542697231851814 0.088164755496647859156 -0.33222560452312799306 0.21599740788106530642 -0.39348179814651029762 0.42499175830312496682 -0.15047412773893334426 -0.019057020319907611722 0.036534264230200133583 0.13986986341571025494 0.19063719726011926769 0.22681617735225281796 0.24382796531922051875 0.077741313649415361153 -0.00041125062450031251403 0.080249200338111753572 0.08648937006475392042 0.18989242800804778666 -0.12605768088596047694 0.036735913035751459332 0.26368569671972541535 -0.22482842970404173788 0.052936440315942426271 -0.77679060288143408908 -0.30879402393099142365 -0.38448003913918521457 -0.45257351977778675911 0.36320659278416050908 -0.031669720567237311104 -0.33456751858334887739 0.26988925290564075299 -0.98808047281145128249 0.89599528537146777563 0.83552743623096792369 -0.56780629006097482758 -0.18333063466500143512 -0.062118881813866919095 0.51448101545118063438 0.41718562923441487866 0.53232799607215408599 -0.53069398492240371645 -0.36630204623288564747 0.14080768797516388102 -0.032804427878140626773;16.916118555738858475 1.7497879513891316794 -0.92755939845337231908 -1.5821095323143437028 -1.1655454499515234268 -0.13107248130532397901 -0.13475858749965485828 0.068517141708998766103 -0.05617594793044491247 0.31933748514934190421 -0.037614695354840702035 -0.25559829129598937714 -0.24315737711002821664 -0.38119880598961480844 -0.22234422364374717418 -0.1682006925999943725 0.079209889393523025269 -0.11372185792638736523 0.040179014588726705282 -0.015693070504305413337 0.11567055200678375004 0.25449406048485762044 0.067888467071721178558 -0.15738198292279692581 0.0039663796152343581622 0.20837640006907415247 0.096136639277991431385 -0.039036943695244255559 -0.15208606650427022866 0.1238254475353460643 -0.27363027721638499834 0.20492838328938692283 0.27478942224342722822 0.43560742343490005402 0.50512443581005217474 0.33308760935100151235 0.31720577770069569024 -0.00090633758421285355589 -0.15651991487178526508 0.050114762633981520257 -0.33211457701915203522 0.2179248366628158684 0.027174259034284865832 -0.041980054892435281211 0.28506549137978476338 0.040851052945950726281 0.14722568113006920254 0.32519621836997697484 0.50587733929544564937 -0.52824772435274303106 -1.0616900323336448952 0.7603882645669854945 1.1679582139688866604 0.37987231673785576413 -0.18650299983936499681 -0.45450934833785094913 -0.24975749613967401785 -0.65885346458195936936 -0.51994156844989269928 -0.13686539595315333484 0.33784838003931150219 0.92524291831244132034 0.26954195979342338019 -0.008709028937103650489 -0.027113116012423658929 -0.64865077038774754392 -0.53379153535958367982 -0.25788091550807173968 -0.069350253904186767717 0.085458049980682737612 0.27476932245506219266 0.23425379903161214212 0.023664176995562166 -0.44293604604889880161 -0.8151829897005371528 -0.2327519588009962781 0.082700841689676479751 0.19761962687712442133 0.41833618781429487976 0.24514438812576552773 -0.11212416704940238177 -0.16729968565647135303 -0.19566053224875581962 -0.13017542059333711557 -0.032766081697088875191 0.30185170584133469429 0.36435257256502545653 0.15385895596147258768 0.176142140616886822 0.32249030508703246944 0.080295886019247156296 -0.53549706726706125526 -0.65220491909764122251 -0.20939606191343829167 -0.1200198971055481123 0.037810325676597811295 0.55236271655167712424 0.82716906208199725281;-0.072262471147660461979 -0.10372446096195239718 0.33986361493621980445 -0.43805996049233986156 -0.37433281181126187853 -0.14797180895615125173 0.1310343710611096002 -1.0308937419431050131 -0.30729070409440339962 -0.22109786750508175768 0.018917999695630172835 0.19306582296988944458 -0.14127444494027782684 -0.082647016171713091892 -0.1622533601223376809 -0.66717975490234682212 -0.40638012104100379451 0.026892281581172149119 0.2321857818151308317 -0.20560195907156281203 -0.47224608620263791581 -0.11324549235788290702 0.31602527404645541775 -0.030294482881284608838 0.03953214423076874956 -0.073313942652331376415 0.42982905700913520697 0.4300527988839397131 -0.11400566000946558975 -0.18160006172266854318 -0.24208416153089590273 -0.25607501832402795872 -0.28803871072264397579 0.27083627679570876357 0.26479544661962822749 0.5441921624499999055 0.26857931063949558315 0.61912383394836789652 0.46216480116720842775 0.30300209120116344819 0.23223902109976160557 -0.0018529650667547395773 0.04364281712421533288 -0.29651503929599393183 -0.17534433362954437996 0.31573675480617946487 0.51773527692432164127 0.3198022679225535625 0.11032083001399485556 0.40503638633362010202 2.5451751043440817845 1.5160336919887915652 0.14297144001403672142 -0.77564595698421145986 -0.39237212443155089492 -0.92890712162175448352 0.54840201729823156995 0.32386397137453487582 0.19448154569589617968 0.46751045841964344874 0.1830431456497117193 -0.38882341560416872062 0.22141009512783477176 -0.069425595640052767399 -0.64067277103882525058 0.17431655717573252273 0.084724663207514108731 -0.18968253663558964917 -0.64875981420421224843 -0.29017526758175998802 0.099011136023786250338 -0.34834763598192036715 -0.54598299887557888432 -0.30824690869833387685 -0.26805460841383033088 -0.32158732369067627443 -0.079485431161616881823 -0.015154407303628795664 0.24596022897337085911 -0.3881102624824643299 0.50978500167925733244 -0.41789102803300065547 0.0074977046089576828911 -0.17693615342934213008 0.36051943987350082432 -0.020723543102232747093 0.62583625260869180096 0.00091547298916542846001 -0.17952238794933561561 0.19299698302500981062 0.49692368040852491484 0.54009796579402735706 -0.06715043405399515053 0.2598920448118018367 -0.097908470868699665202 0.56402909423863212268 0.41090541125672874756 0.58394214918021103422;0.45228716288202064355 1.62586926472669413 -0.05562672500538554804 0.42199599202706633561 0.34243647142896871394 0.69056453889216651287 -0.19258483710191345861 -0.32916678826876527575 -0.31950597356266979832 -0.35291262440660775557 -0.096362895597231421063 -0.16969282308224084566 -0.50095697771032599022 -0.69175928896984817396 -0.60906329659703006829 -0.20837739840853369833 0.23884452602099587315 -0.18673146332213705345 0.28553886914767778737 0.19210398995262378818 0.39843980498036141169 0.35275225189271836035 0.23296645763541271035 0.23317052185302894474 0.50368141991067572061 0.72128111583588350175 0.22731651697783075705 0.070097684971407211996 -0.057335388267674453067 0.20425201920420274493 -0.18898414279388564552 0.0099515412653107312296 -0.3383254795992713948 -0.19797425378862293366 -0.37021717242842216988 -0.32795183779898495757 -0.20179543458930940258 -0.2877679984955492376 -0.40940363654961064999 -0.35123624982563139696 -0.52180155659525573331 -0.31358439273153299043 -0.3869577557298898296 -0.55542561014597846558 -0.27029723970640734398 -0.43140385234647277146 0.015748003288298530883 0.14142790711437389084 0.23091373294858508203 0.0067900733992441323142 0.62331165117059039726 0.48786785088898904084 -0.46650895352717081099 -0.61683463731465892899 0.069802598402668017408 0.65518824663968011635 -0.43022247353781212231 -0.23828003299624442302 0.0955174647609403904 0.27466422342002627666 0.28321216520070674472 0.26292243428231304447 -0.065389722153216048306 0.543433033172624258 0.36909535587388714317 0.30778716518404375391 -0.12150282397505231258 0.049862390624151473051 -0.02857307937766452588 -0.10533250528435798843 -0.21038144365622818421 0.048258672869269519934 -0.32830315518257841001 -0.15090787193978219549 -0.11399782869116656392 -0.34607153423281311611 -0.059501182002772899649 -0.11713868167962394884 -0.063308274714746079481 0.19792580533195056058 -0.0049815344841896199574 0.57060560796545845008 0.38340385690439487965 0.06092779919312886483 0.17097630888615517053 0.15256145621655814448 0.17342212146419958008 -0.0049284988141270582099 0.46288591124857048076 -0.032479186966537731962 0.031193160068207416435 -0.11366437271191381919 0.16849493418514488452 -0.33247461325096588913 0.05643208910495388364 -0.231284177939314467 -0.58423224581802191135 -0.55873228604261016006];

% Layer 2
b2 = [-2.0728123532606712587;4.7432186361544861342;-0.3639625271324202771;2.0250395264796501316];
LW2_1 = [-0.043932006621514682609 1.563719825625617954 -0.10149439866010807887 1.0750306329824832474 -1.4923548176765446538 0.029529833870355980119 1.3897356927763186984 -1.1042230636587904158 -1.8311639506486947493 0.22697377662440793022 0.25562209871010566076 0.12587420332199134032 -0.060731119592116619699 -0.19621243117996375882 -0.42090491414419967109 1.7143899819309480481 0.17884552598298344983 -0.073087413691047611874 0.1345328780879974373 -0.68834028489861776023;-0.53597930049571795852 -0.77997089079936099409 -6.8969530339771338845 -3.6022534600480100586 -4.1709260953739430988 -0.1801479894000178883 -0.80570803698807480497 -1.0548782591922545304 17.947331858369594215 9.4018486923610478101 8.1876493746106095983 -18.511071444118179841 5.6110600833527817244 -0.86016751516994738314 7.3265743808009764493 0.41006721614228330841 -9.8926583795945131072 -20.831984974526676524 0.63904268486524296033 -7.24743468428660087;-0.59248314399532553409 -1.0856061125811422574 1.2662065401054232172 -4.4050475026153570468 1.970705913072505755 2.8775237415711765188 -0.93670422967390565283 -2.4542710011846486928 0.22135236867906479818 0.29451098695945704398 -0.09091873220966005531 -0.75538548531817995002 0.78059755530637009446 -2.0251631976818909031 -3.2922532552977559206 0.54406212157247757499 -0.7043073106863256827 -1.8932707586380006504 3.8370297919537041942 -4.5738192071536003525;-2.5389486351883543414 -2.3931739146289534581 0.35975014581989578355 -1.3918471409692565466 -1.6588393356959298952 -0.18866601720208348025 -2.1632976942456347835 1.0348101892988530448 2.3526853506958120832 -0.40296993503624040089 -0.4740729635757475191 0.27629025861516487428 -0.22914376582619155887 0.38600495198239076489 0.040843785048851458108 -2.6599393502254953248 0.52401377343056310121 -1.0888566250120852441 -0.095127788586031408746 0.24594583780994880295];

% Output 1
y1_step1.ymin = -1;
y1_step1.gain = [2.00010416733267;2.00061643989578;2.00070558424807;2.00009009348849];
y1_step1.xoffset = [4.67610919414607e-05;0.000276478898514454;0.000128125955069613;2.20624484595922e-05];

% ===== SIMULATION ========

% Format Input Arguments
isCellX = iscell(X);
if ~isCellX
    X = {X};
end

% Dimensions
TS = size(X,2); % timesteps
if ~isempty(X)
    Q = size(X{1},2); % samples/series
else
    Q = 0;
end

% Allocate Outputs
Y = cell(1,TS);

% Time loop
for ts=1:TS
    
    % Input 1
    temp = removeconstantrows_apply(X{1,ts},x1_step1);
    Xp1 = mapminmax_apply(temp,x1_step2);
    
    % Layer 1
    a1 = tansig_apply(repmat(b1,1,Q) + IW1_1*Xp1);
    
    % Layer 2
    a2 = repmat(b2,1,Q) + LW2_1*a1;
    
    % Output 1
    Y{1,ts} = mapminmax_reverse(a2,y1_step1);
end

% Final Delay States
Xf = cell(1,0);
Af = cell(2,0);

% Format Output Arguments
if ~isCellX
    Y = cell2mat(Y);
end
end

% ===== MODULE FUNCTIONS ========

% Map Minimum and Maximum Input Processing Function
function y = mapminmax_apply(x,settings)
y = bsxfun(@minus,x,settings.xoffset);
y = bsxfun(@times,y,settings.gain);
y = bsxfun(@plus,y,settings.ymin);
end

% Remove Constants Input Processing Function
function y = removeconstantrows_apply(x,settings)
y = x(settings.keep,:);
end

% Sigmoid Symmetric Transfer Function
function a = tansig_apply(n,~)
a = 2 ./ (1 + exp(-2*n)) - 1;
end

% Map Minimum and Maximum Output Reverse-Processing Function
function x = mapminmax_reverse(y,settings)
x = bsxfun(@minus,y,settings.ymin);
x = bsxfun(@rdivide,x,settings.gain);
x = bsxfun(@plus,x,settings.xoffset);
end
