function [Y,Xf,Af] = myNeuralNetworkFunction_test16(X,~,~)
%MYNEURALNETWORKFUNCTION neural network simulation function.
%
% Generated by Neural Network Toolbox function genFunction, 20-Jan-2019 18:21:38.
%
% [Y] = myNeuralNetworkFunction(X,~,~) takes these arguments:
%
%   X = 1xTS cell, 1 inputs over TS timesteps
%   Each X{1,ts} = 100xQ matrix, input #1 at timestep ts.
%
% and returns:
%   Y = 1xTS cell of 1 outputs over TS timesteps.
%   Each Y{1,ts} = 4xQ matrix, output #1 at timestep ts.
%
% where Q is number of samples (or series) and TS is the number of timesteps.

%#ok<*RPMT0>

% ===== NEURAL NETWORK CONSTANTS =====

% Input 1
x1_step1.keep = [2 3 4 5 6 7 8 9 10 11 12 13 14 15 16 17 18 19 20 21 22 23 24 25 26 27 28 29 30 31 32 33 34 35 36 37 38 39 40 41 42 43 44 45 46 47 48 49 50 52 53 54 55 56 57 58 59 60 61 62 63 64 65 66 67 68 69 70 71 72 73 74 75 76 77 78 79 80 81 82 83 84 85 86 87 88 89 90 91 92 93 94 95 96 97 98 99 100];
x1_step2.xoffset = [1.22925491643095e-06;2.46395480693407e-06;3.69865469712224e-06;4.93335458699546e-06;6.16805447655372e-06;7.40275436579702e-06;8.63745425472537e-06;9.87215414333876e-06;1.11068540316372e-05;1.23415539196207e-05;1.35762538072892e-05;1.48109536946428e-05;1.60456535816814e-05;1.7280353468405e-05;1.85150533548138e-05;1.97497532409075e-05;2.09844531266863e-05;2.22191530121501e-05;2.3453852897299e-05;2.46885527821329e-05;2.59232526666519e-05;2.71579525508559e-05;2.8392652434745e-05;2.96273523183191e-05;3.08620522015782e-05;3.20967520845224e-05;3.33314519671517e-05;3.4566151849466e-05;3.58008517314653e-05;3.70355516131497e-05;3.82702514945191e-05;3.95049513755735e-05;4.0739651256313e-05;4.19743511367376e-05;4.32090510168472e-05;4.44437508966418e-05;4.56784507761215e-05;4.69131506552863e-05;4.8147850534136e-05;4.93825504126709e-05;5.06172502908907e-05;5.18519501687956e-05;5.30866500463856e-05;5.43213499236606e-05;5.55560498006206e-05;5.67907496772657e-05;5.80254495535959e-05;5.9260149429611e-05;6.04948493053113e-05;-4.09439747195087;-5.46308060017989;-5.81158956749204;-5.61119288305611;-6.29814101908368;-4.49495929765785;-6.22432192086538;-6.32145799599857;-7.18093143037914;-6.87852899721168;-6.94536967376407;-7.45565734001452;-6.8757706504972;-5.41804444334009;-6.8166006690014;-7.59198104077277;-7.73862408965053;-7.32179310750674;-6.83614868325365;-6.07745992677394;-5.82944083719551;-6.53319938100871;-7.05331407776766;-7.41816008980381;-7.51209953942149;-7.35171518328399;-7.13164256508559;-6.98115240916754;-6.64697457193827;-6.15521390056297;-5.53406216982093;-5.14894223583718;-5.57816896066906;-6.09168077615302;-6.49279140123899;-6.7815642681514;-6.95964892682224;-7.03017673192041;-6.99764089071565;-6.86776336727864;-6.64735119707383;-6.34414478543297;-6.5420527275764;-6.85746295711608;-7.09830761752929;-7.26533362755799;-7.3599277941304;-7.3840790919515;-7.34033696623301];
x1_step2.gain = [0.158457816371007;0.117883640778032;0.107423190629586;0.0872432037401771;0.0779277773573781;0.0677154056993007;0.0614277841595584;0.058045384650311;0.0564464489880142;0.0536578232840175;0.0500715406447565;0.0471172259258747;0.0446459919741146;0.042552254141709;0.0407590510961895;0.0392089580212164;0.0378582549717055;0.0366730665982477;0.03562673722832;0.034698003435951;0.0338696950549648;0.0331277945537473;0.0324607445007519;0.0318589299951327;0.03131428657428;0.0308199994855555;0.0303702704118175;0.0299601346336778;0.0295853163468055;0.0292421131553831;0.0289273030989175;0.0286380692434889;0.0283719380823973;0.0281267288813325;0.027900511762812;0.0276915728181848;0.0274983849081837;0.0273195830968342;0.0271539438814359;0.0270003675498935;0.0268578631280132;0.0267255354823944;0.0266025742258827;0.0264505159229861;0.0260126183945426;0.0255944187782932;0.0251946508803586;0.0248121546702967;0.0244458653814939;0.0371081287251146;0.0361870426366033;0.0359641861019128;0.0360981835605764;0.0356599258159067;0.0368485949916504;0.0357146135695624;0.0356566032096392;0.0351222024428261;0.0353134736022982;0.0352755958917182;0.0349646186559286;0.0353264713962752;0.0362640637142763;0.0353709669157108;0.0348961543086019;0.034810744394049;0.035068848218378;0.0353738086044269;0.0358588113648013;0.0360228873473857;0.0355757959646094;0.0352534144386535;0.0350318394875327;0.0349779719915262;0.0350800612925582;0.0352197284810863;0.0353170634832549;0.0355305056007555;0.0358475081071127;0.0362550563349995;0.0365139495630763;0.0362339828535982;0.0359038684709935;0.0356510022046417;0.0354722078817088;0.0353642774196583;0.0353239779036381;0.0353480407919609;0.0354331374231623;0.0355758443569048;0.0357726016725414;0.0356502339733582;0.0354546937124812;0.0353077032424704;0.0352076186487725;0.035152795211726;0.0351415840664074;0.0351723247596049];
x1_step2.ymin = -1;

% Layer 1
b1 = [-7.5494820794805752584;14.448494234489341892;1.2870104738344465556;-10.316664539716262183;4.5273192396100796486;-0.90924031251085168925;-0.21190920337672664031;0.64718876087191312685;-0.27166347125836831644;3.65400841123696285;-1.2938560619306995747;-0.71220018287897945974;-2.9006899857151986488;0.91682087958483204915;7.4535008083971092674;-0.088956776615629340466;0.32572309843667013318;1.0064640665280883969;-0.039729616899389016971;-2.110414874133626828;-0.87324959264185897378;3.2184923625400543301;3.1797515339533335421;-9.7014693199020349823;-0.60504133591351505483;-1.4831926044055760983;1.675205112911241967;0.74908577154958888578;-2.0099055094181945691;-9.5385711475625747369];
IW1_1 = [4.2211298297429715731 1.7287069482124652886 0.78723968330348370603 1.1989092382169657114 0.920740759142614551 0.60750406457922656589 0.36716294663516024777 0.38029871389957553562 -0.20444226774341348052 -0.32664726896174867132 -0.37606208933362039737 -0.16243378843997011152 0.057361486099955713569 0.11196275382628009809 0.20903297771662252003 0.35605360833908744622 0.096938985593050752687 0.15955098612633036859 0.62987289372818799915 0.244516800941617235 0.23666099761581083083 0.37466497681389315799 0.09846575710194348241 0.36875298294265729249 0.26205483693832470893 -0.015891830422884188623 0.010418751614139262415 0.24758247113661216443 -0.078160029000769473684 -0.14451650337962979043 0.011233162411943862363 -0.35596394932361929975 -0.12266588222634181027 -0.22202097676495685663 -0.15511969878706577397 -0.05044862352594966376 -0.061272996159090785395 -0.11419627773788468272 -0.28649255930971495587 -0.43340540332329213769 -0.552989263239128781 -0.19870443307675283995 -0.500269727503045325 -0.23654823917786635401 -0.31360690124749762697 -0.087801109983101116585 0.047968035475824892522 0.1289038295782558019 0.37321361120342849693 -1.8711705565876681767 -1.2991827982350934167 -0.62846631324759016923 -0.66124515584570064952 -0.94758788096692314618 -0.43178362758103028263 -0.65777203740919187869 -0.59799464589362572031 -0.84987681641319445802 -0.69798513172720566544 -0.63593052192670729283 -0.35648511842431285235 -0.21374937343757036134 -0.2271934455958201371 -0.23455187684592335162 -0.79207025355219518037 -0.67425474326989820462 -0.42762535633371401289 -0.59317531459806460692 -0.60477657615736923891 -0.59307143756084157449 -0.35481174762492850849 -0.68890609592812523942 -0.38352436625974717366 -0.44903175535812966945 -0.58321807934000047258 -0.42685284089479741398 -0.21017521872802050198 -0.35968773678105164793 -0.25706366294152688257 0.046105794662517095295 0.12251708628349675112 0.08221123618868114713 -0.19757679215311982346 -0.27214958815022771699 -0.020636900331088926797 -0.51888069231786004831 -0.28216336692151933185 -0.4385184248198273349 -0.21506817597665028874 -0.47473948673340254922 -0.43543486135833309181 -0.44139423878821076874 -0.022671225974750412041 -0.2355871771117554192 -0.34979681410580265588 -0.24773597738932628953 0.04179627298261124474 0.012386464644844323579;-0.65175704249931365464 -0.52303965590396572782 0.23086820746073288824 -0.25531636960056081076 -0.16464321587267766178 -0.50847226856754235147 -0.73197251761742876397 -0.46890673020391404613 -0.24449343969953765687 0.021016547722564067613 -0.52215249723837497964 -0.2363276823954367778 -0.71972538885053893853 -0.65998341599232535071 -0.5922958514361946758 -0.40545320497446130092 -0.51540357723426200032 -0.51271332558266580204 -0.38219926743210397291 -0.13437449363516754119 -0.54511919130304598013 -0.56801882295049876959 -0.16561625401089416498 -0.493136694186521507 -0.15544840217522909454 -0.13493713792242920113 -0.03514706541858728106 0.026737987014824403376 0.077350268161003696288 0.26998395323102464261 0.0071544967589876051761 0.29627904257321691084 0.33213610003470839249 0.4321241935354423469 0.35367730673997721524 0.71912450217925805163 0.72276267077575817588 0.89271263797892275171 0.95620024574827766628 1.217547380967967996 1.5527298127582385145 1.4960115283664923158 1.5700049019462787303 2.1157116744321746715 1.8653784737697376439 2.1610185744861114543 2.0886683571260888925 2.2560728575084509906 2.4410133786705263681 0.17186846414736389743 0.21746868892370854742 -0.33378054221828801218 0.070814622577667823977 -0.011594414250210561407 -0.38298575996468547933 0.26165875862245480121 -0.20774866830485308467 0.046138575197914311055 -0.038387965239255361638 0.062023482396746654199 0.45260473721067795427 0.033549904538026364964 -0.19634828466415460424 0.003954028432199884445 0.46087761108274810651 0.021083374938299061924 0.069816013297620119205 0.0040206351714100162231 -0.17937332396303515281 -0.19684595071298688351 0.15577701188106440888 0.21756568059463318732 0.17874091516804491153 -0.10133976284346549179 0.29291535009039876281 -0.0026705405165424354538 0.025190302349967733098 -0.20219256293149140413 -0.17983064861653411115 -0.56785276967921727298 -0.41098894276471525933 -0.38223080411842136339 -0.64600265023673031362 -0.57290265993963807034 -0.29477811511089258012 -0.0046127361852136405246 -0.28172506350038734046 -0.38030982135730490024 -0.10481837190686796313 -0.11068582281598129957 0.0076413414505035193169 -0.11908388663121488582 0.0069292090206778825592 0.32136642366759260447 0.23741752151437797713 0.78556881662745692285 0.8440965547052865503 1.0224189490554393966;-0.85247917117709914869 1.3549408325473506487 1.0758408387169973164 0.41580199066542905539 -0.4661227374275748736 -0.1151519436895444698 -0.10668330168826993531 -0.37768572505834824282 -0.25272803208317640156 0.11661856176920189221 -0.14743238845558123695 -0.1197569446159512524 0.0079318825981768842359 -0.41711319841784305629 -0.29066849426662821898 -0.42229569601226912834 -0.10122741501016320476 -0.27954261042557720929 -0.25722692818641940127 -0.029403448375435126128 0.10456491789580212026 -0.17680764426036627013 0.35549487911625332615 0.096968317120137981213 0.026288642947561332436 -0.0057702258626352934123 -0.051745728163246976217 0.13713186099541396779 -0.16105145843877169409 0.12180710495635739543 0.30675112895693423809 -0.08566590315806786593 0.0091550450839838065642 0.10009041212776749463 0.24549910715447159637 0.016630505807314455158 -0.066938711004657078241 0.25729118843258869109 0.12208175683878727535 -0.14381794787058355123 -0.028493276804006571062 0.19240035990290338397 0.12215910443637491289 -0.072891181737419832865 0.04755161069878816732 0.11911198942566382508 -0.053337110390851968922 -0.023680305379704769814 -0.12875616910208337318 -1.7725877267758172184 1.4225539667376569941 -0.030827229579785966895 -0.2963966095940089307 -0.54471244660168438578 0.11830844670023485388 0.53026946668433538878 0.53964164917736001659 0.45464773285087567434 -0.16174350563844472339 0.012305263127139469403 -0.067951804296730117239 -0.26614548631407214385 -0.48690129367713713693 -0.023163915000898968599 -0.31475306414652759468 0.029984181251526968032 0.1593041506948112418 0.065913900432109401306 -0.033331567859518719532 0.11502298193071593124 0.016679655085869434655 -0.23712970522217355351 -0.30655224615861553783 0.014067955527399027271 -0.16059635726726043115 -0.19027490244336231484 -0.049944127173477084747 0.22864840260795810112 -0.15098794026353637432 0.040115636514215118058 -0.049588004561259758918 -0.20446456959194650449 -0.15758464243870812238 -0.19946332371021163743 -0.108424451027017546 0.14020439655600022699 -0.19835052314136067397 0.17340010886039694538 -0.20761505977626751318 0.26650612491917241575 0.15520287339536265048 0.35060622216790959804 0.4440906473824454137 0.12755369189809739883 0.26473778354851201788 0.54158054168249547544 0.57925759841387725047 0.33505302614736098832;5.5059903720265888083 4.7661247114776958966 3.1833062096236077743 2.8465624130376645518 2.1014925789429339531 2.3396877545034304724 2.3573428127591906645 1.9278202629887966069 1.4765950985977533971 1.3106159422911065615 1.2026507191190849433 1.2813660551422314526 0.94001212119583565929 0.93582940012983206746 1.239784138145557657 0.72194484552113780129 0.90276670867607022863 0.70814908733167314381 0.49020150936632411742 0.43483585827936144241 0.23755683585511708222 0.35497516589279581867 0.26008088354881636617 0.0063929455518813675663 -0.29180208107788180305 -0.014841352988706778271 -0.071038263443749471993 -0.57098994811351766465 -0.49666140685589177384 -0.55337616542476075754 -0.66681757515954409588 -1.0520555590440214822 -1.390385018840734066 -1.5421559370590580684 -1.5066751420293384989 -2.0196445187081697448 -1.8835238073102431589 -2.1074136367901035172 -2.3763964424217580707 -2.6733206271970004764 -2.9218758971646034972 -3.1626326693685737901 -3.3934953876003306483 -3.5643201846918857179 -3.1712315002317033041 -3.4251335457279017405 -2.9734071745469985437 -3.2107306605786196663 -2.8009498750508421416 -0.52795591085113191543 -0.10882571299073698357 0.04115389155887264061 0.21764499013689667106 -0.17389625870968666854 0.45889331370402747234 -0.13404771022221761978 0.29085603388815595149 -0.22514882106654943161 -0.035174504309611748232 -0.095158284088154909686 -0.39027723146559945011 0.026530864900842936194 -0.1242799585136151741 -0.065802309136836656389 -0.24519288486169926733 -0.18146423630807256844 -0.46934514713902897309 -0.35242111702357392655 0.28461646177998284335 0.30416960813762733418 -0.0066860132757403717071 0.045011714552934338485 -0.15685452631455934491 0.15439124006873139461 0.14109424189101668623 0.28073734238826797416 -0.065682170589847752029 0.42737311370652575349 0.49957272715983158662 0.51551151186538746174 0.6028021650579681312 0.18890893072804509911 0.2240559848353959882 -0.10825662056004800582 -0.17068600238172482175 -0.16795115308193986348 0.061317382600495594358 -0.012103341591793020937 -0.23037529284067093105 0.023015707516191613591 -0.00066379992938021999127 0.0027292742402650720102 -0.22476939234284210034 -0.036080868235739263494 -0.3759050049340990074 -0.32306580947974489204 -0.17252114794685799448 -0.37454429439677033864;-2.3786985895069712171 -2.5549710962907505873 -1.4162858500612454105 -0.73807448617380055911 -0.72404389826224246907 -0.36356512696172382793 -0.17553199075992026446 -0.10014021567967369697 0.026799473699636172652 0.071026672332231727269 -0.24896930470568837124 -0.20995767487196190237 -0.29538937515284646729 0.032333918558577319502 -0.1488607597215271805 -0.048585794201366355738 -0.23595836520704360773 -0.25933868345094901464 -0.070329671865918458318 -0.32503444358736732767 -0.046353473619165225239 -0.2258795717057500152 -0.13747783994913534422 -0.35480210334972123176 -0.44774435318562971764 -0.33589499991553273262 -0.056585945794333319947 -0.059113071171806433335 0.069740818760893899531 0.0091153818374409903424 0.036902666587127236353 0.094917779596546264509 -0.10658867119702490622 0.067035727466556907506 -0.063924043541634584242 -0.09281215384843601035 0.02568209058917469978 0.051247926832516201012 -0.10440310853606668551 0.22632290399908955303 0.25168976397491282793 0.46390638164894976159 0.57090796864896153906 0.46816161984378301675 0.62003023381608501907 0.57294840692369286561 0.35507691788081374717 0.33016129426088092202 0.50774194586339937985 1.9532011723566551353 0.9147748421935629759 1.1359255028826149569 0.73088602844798467029 0.73409170405148005401 0.61952870719703345692 0.54391633561034324895 0.37058870221112422128 0.79012148555870143074 0.53913785179067663655 0.6761496289041283303 0.4119796579342878684 0.66220324346307768426 0.23672322862371719676 0.70652702618929730249 0.59595999537008748081 0.35731264452887545602 0.36839313221180286506 0.62243750368397754436 0.23338008546250404995 0.31702001235326010553 0.33324170416946585771 0.64193444502834584586 0.44604864103196217862 0.63329715866767422039 0.3424535486339135848 0.39105930653976744837 0.37887137743384807775 0.10869493921404657644 -0.089815176830897056059 0.0091011647522597164534 -0.086811281472543425086 0.1215351147890730843 0.033919967565728570413 0.097462291400318576406 0.094158698184195185887 -0.095784259061746923614 0.046043217036789485519 -0.18976368366840248858 -0.015899599160551024235 -0.22003309340160231988 -0.15377621193335686001 -0.088048774234774779268 -0.038715564207691434417 0.044523041584205808041 -0.32798348594954268576 -0.33188302907977651479 -0.1017891019300962846 0.068987249505857717313;-0.54839125573420810511 1.9531514646977961025 1.7733672624712977228 0.88390455959071501102 0.16799264764164342778 -0.0025352851079352778721 -0.1417272484469910554 -0.42738651247700376601 0.14284700371594233337 -0.091182078716235681615 0.14771147583297097872 0.40075916612974293862 0.17229006566285620661 0.10456027337283896328 -0.12761573246678023508 -0.11766345406662595541 -0.066019993131711168788 0.066092486283095441824 0.10100912415656700116 -0.13508310211706511805 0.054809649157139143927 -0.13240371034329201372 0.0087202049693949207354 0.31520761005918623843 0.31492438076310180772 -0.035436082242184800684 0.0067440174186249911628 -0.071149376725217608475 -0.024901364593373578188 0.050122622249038330244 -0.1910451654857146242 0.11615914479715604146 -0.24589741584862803703 0.10133404054844522002 -0.1455877216995657697 0.068511566967109013837 -0.37465994724460000009 -0.2796525836219094785 -0.31710098201825220876 -0.19370545692513749247 -0.28738439708939800266 -0.14417389425958954119 0.21645658152606706004 -0.038393245452701424414 0.02703344691084060003 0.36905971258288083892 0.51974498296385995832 0.24773072780870905585 0.5395762662826933953 2.5626279862410474841 0.88204805294566712703 -0.8034379634515498303 -0.77038893730676183402 -0.4073630676794436356 0.06995193182074371796 0.072944866129189794846 0.45607498654378814118 0.097896448806723282421 -0.020474970168523121128 -0.1633944929142573943 -0.33182058725517582509 -0.52325500192420837386 -0.40589713704475205436 -0.33154616783034746019 -0.42119376515868250932 -0.37565009396579751577 -0.47142250904505722531 -0.014060591613823987187 -0.3671772190089165333 -0.29040914384200244847 -0.15768277739886013555 -0.21018858346340438259 -0.13483888007325681158 -0.2833072038768681411 -0.0038582122320766146228 -0.0091270701853257453495 -0.34361703693503703461 -0.18684400977823770185 -0.12602275868077872367 -0.39087237232786581353 -0.4061192317419794473 -0.30069893439025596749 -0.32776785690639376192 -0.022873209920732270189 -0.2301455372171685998 -0.28350491898132251789 -0.1553383907174862022 -0.31795551375463732002 -0.13956847722909540566 -0.13936257011555938656 -0.2091502262764010911 -0.21057538593303415375 0.15500978868616202555 -0.10387671114733854072 -0.2679494887142907511 -0.35823530447589796433 -0.47068113094810004604 -0.40413490427070342115;-0.2932196432168783784 0.15401643554187705032 0.089425457281031836554 -0.35664396328726777341 -0.6413975024939357894 -0.47789705977206276 -0.54411353752294844277 -0.23920841278545446063 -0.2514671595332396703 -0.10253017157798853531 -0.057321645112042400594 0.13005070216931097216 -0.20497967970371799851 0.19128579251452507148 -0.039740608410876947232 -0.22136960803497868211 0.097872034256813622566 -0.13284504053654316857 0.08962333404925279523 -0.054517692027125079501 0.33012452815893372771 -0.041077429928178706142 0.085837345330958020329 0.13977984248420985414 0.047150316998989527661 0.0043868267313836514787 0.18792691367204378272 0.24783144618729929798 -0.035578938619517420927 0.14507702693987378773 0.052531010975800707108 0.10715023540712628747 -0.0050677540661187465976 0.16766517657027377175 0.097750777047932085884 0.35139850731091903935 0.10994365365928071565 -0.18136911573634295625 0.1762017089499122724 -0.10415483312970783003 -0.0062041042146921375477 -0.24901863009960795159 -0.068320407074302619277 -0.32398808107951654334 -0.44335317742561142218 -0.22475631089588624101 0.040334684640400804423 -0.21509357447781951578 -0.24868267839802593588 -0.90097176675989909533 1.3205308005597160559 1.3439363003742534897 0.14295741628083855068 0.62674360482404689598 0.21409841473404658818 -0.16058993870108045909 -0.23474360774377583949 -0.0926094649303420836 -0.063489638977724291435 -0.22634444960634245159 -0.1053791371464633253 -0.083545070280113389871 -0.45970415649919826873 -0.27088774392913567146 -0.29377839283934081838 -0.084709894819917821995 -0.40526871477538906063 -0.092627001292628866058 -0.067347525945116420987 -0.036868628816705231732 0.099464831652947227614 -0.041975397443462833524 -0.27465121539032089082 -0.13576458136990599002 0.18065377275232885612 -0.12541810337790598728 0.022595209311093510107 -0.080854745521676443798 -0.027228857065663816805 0.27418834061659308476 -0.072083321134015262976 0.20399649104034611735 -0.23132301463806112518 -0.20762887008798708299 0.12612390789900149168 -0.1429476449013568351 0.0082189000724456218877 -0.017736168318200663807 -0.20991291645188614456 0.07212709086382107504 -0.040105938924236986254 0.26118190603889140933 0.24344136838583912974 0.37640279333078607849 0.27689634934512807884 0.33707073920406199763 0.49351789349227365156 0.47907085954499012415;0.070155841005976965485 -0.15829242753648475883 0.2138326060884344626 0.0028880018915512012043 0.22271587475415707824 0.23874934942601869214 0.12454292052436954918 0.35566094814428123039 0.30725647752544210656 0.33159817797144597318 0.39943003461716436453 0.12475552390540138592 -0.047146246300476833679 -0.079132730202174234035 0.15645863060004050471 0.095302097557124085259 0.10961017755116705952 -0.12464051548513259415 -0.060800020771557404531 0.04143539048069915659 -0.05866157726763943786 -0.13346326912128531061 0.011243755902934658708 -0.22731132086278935112 -0.072231904576045821709 0.032109222587566210727 -0.012383845345528315257 0.13153150825291112791 -0.082115225610106729048 0.067219406625941599542 0.13953600578800628984 0.17088334042098707322 0.23899962612724326427 -0.063282074375521663034 -0.16819831867977710904 -0.21087315104332093885 -0.20403039898132552254 0.0052615225863160367675 -0.093795486106660524994 0.18079319700204674048 0.12214284842157213662 0.26721175422689319445 -0.067173907466744398054 0.023186602847269078415 -0.028025870977365013176 0.1803227218847267832 0.064639273458943422024 -0.04457689382165481301 0.28026270549255921649 -1.0513586952836049271 1.2541741543842643836 0.89830336679984090775 -0.33673927080290433356 -0.1368994922829546157 -0.6668758961512397665 -0.42274523745534708929 -0.659605230584000779 -0.36227326633233530861 0.16777947653355718138 0.47988134921493519336 -0.022552434858175436638 0.21534765865626340209 0.24048582867513657035 0.34958451388721362152 0.3182587489613583065 0.52198723353405274139 0.33392629904646514705 -0.050422758474090279002 0.070390640375320778777 -0.17816556116942369736 -0.018600323184582007868 -0.23897040643935138493 0.18594320564886654412 -0.15619416629099980298 -0.14526151765161368634 -0.19333439601965665688 -0.32101289957476625281 -0.21167776673643987073 0.17323363789990375849 0.067852438495048156275 -0.22550108854954406534 -0.12459637687843115594 -0.20876459657055060348 -0.2290491054031564 -0.20130858718018052045 -0.26054770901756002521 -0.1588723911868563099 0.085484604263814017999 -0.33042071126436417527 0.026256112910725375176 -0.34123165410897665639 -0.068849151292261601132 0.14984833902503960634 -0.028810187072926742025 0.2604728185375417282 0.28580220941644740584 0.0032291905052696315281 -0.068260353095852904781;-0.11562192842310509144 0.3571769020089519131 -0.083553947016401217129 0.038162449437330644986 -0.018897110988096141315 -0.26523892790670472452 0.13716004660238304003 0.14012722215601469689 -0.094292067630136408574 -0.22559129740682828946 -0.16338164947354288925 -0.23587031201048408446 -0.069407072982103565351 -0.17604687931198981232 -0.031816164287154974355 -0.34332628567549910992 -0.13251937896326504429 -0.22869266410168151427 -0.13673649668239881705 -0.022627712405238437771 0.26055571505061997373 0.16137410896811080208 -0.12602053715380986953 -0.36430596510144303002 -0.29298333035646778599 -0.022935036945349734916 0.16635965373520339439 0.09208547119533838643 0.24184652592522098979 -0.078483890624497024135 0.14788977018504470551 0.23502560919744797108 0.17461324622789894945 0.12445673864527227737 0.15513094284069969819 0.029887201656416131912 -0.15678563679330351222 0.23873862475462026556 0.019751160843603444289 -0.056725827006546540587 0.092450323191330077699 -0.099975523982770611586 -0.22174166198438458042 -0.021368584251446672007 -0.22652332483875256552 -0.29303457493817780533 -0.13017143463254682301 0.0030752932756050628538 -0.28578351944619462266 -0.21394047323308545971 0.23734779587664325828 -0.52558408900991693269 -0.16015385588539943207 -0.07035872860998834688 0.32879560961301101951 0.22571040157347252442 0.17951985005073731183 0.14325325816019351954 0.29574574371789974503 -0.018978949818487595574 0.063873856883450694233 0.15768945652482291298 0.11507766378843803379 -0.097419027021043352876 0.14804732974488996056 -0.20609625379836485348 0.076591758946229687721 0.049715329369327140863 -0.11299756705325937622 -0.38679493801377451412 0.046105289245894021111 0.01464991535484362617 -0.12641125436673486537 0.049411815892248578397 -0.24736703508558949283 0.024568532538789839698 -0.27124730849229911067 -0.14088873353858133441 -0.20719192290886370711 0.03145226637573065448 0.37078785905741751261 0.13191474493383278932 0.2780812110708168472 0.22974651772534768202 0.086036092115706147565 0.010313584282577278189 0.15884413608926997719 0.044193924228944164723 0.15440944562258249184 0.10101451578815261179 -0.1495058569291887185 0.12786041541439926994 0.2982281904598891864 0.11707720202165808332 -0.15084455278232275499 0.19147095481009643314 0.10612631871225744473 -0.091419371910479732546;-3.0818507358361024728 -1.4976957358167892753 -0.41458809021544368312 -0.092581736725440219593 0.20249009131299705588 0.48570137244448369218 0.5964871334602083186 0.50226530086673470965 0.91800376131529504153 0.6298753855143526259 0.63002461299087009206 0.54335686969097096721 0.5604667441251187654 0.69514523997605515149 0.29956902276249441908 0.58773757017270189529 0.46300035404569628295 0.42879447059579633983 0.017108564304936780404 0.35167684073735167027 0.040637491714273984988 0.34819195506623368264 0.2253614205981998575 0.1799422036136529568 0.31884569467998191694 0.26661932999986215354 0.24910235544823502996 0.40061988307101958906 0.42048177751501425448 0.48028870041885607378 0.23525314495097623957 0.29427685145447152193 0.086541997409865234481 0.40887834148972035386 0.23793795824726984844 -0.20104486984917011028 0.12071873025890815512 -0.2052849297868746814 -0.18237838106703391228 0.069868269361856485955 0.018222706065627553712 -0.26078594351598283207 -0.33269799839469987868 -0.30118900301358003668 -0.037602981760428019764 -0.43337792497357707777 -0.44874614147716784807 -0.75436295456223578793 -0.81967042011339596996 -1.9202654753558485723 -0.11077250363426749402 1.0240626183193961563 2.2063693455905086793 2.5135573702367439708 2.6432901207118728593 2.5593431667064110435 2.8010563463991018374 2.6945143495182084514 1.8441296328877394561 1.8776708688949050874 1.3647147834767119345 1.2484449615598940397 0.99403670326386728284 0.53514074455871085689 0.74533294598483679216 0.77874526161111223832 0.50652617081646056363 0.75637133191253913544 0.36827259315396371209 0.19699185742745081718 0.43717367606652390855 0.58843862301823224303 0.28571153805515098201 0.36017958386634363332 0.19522901699453110158 0.3844195381105935394 0.037349543426843802296 -0.090751554243474419348 -0.1517039986455445133 -0.29115382754267471466 -0.32542540714697504312 -0.68468532031671025528 -0.44524011081760928032 -0.72561085402402325517 -0.9299062593490579065 -0.91531743397993181599 -1.2659077178044597645 -1.1067667912200467306 -1.2079196956824953535 -1.4958339594837906095 -1.5720975353514232697 -1.880094717956583894 -2.0435818863268844225 -2.208251498719821182 -2.4025215217800051093 -2.6380514310530833733 -2.6922462311329407036 -2.905649698759062094;-0.65099215905369200996 -0.36563087102107905135 -0.52383493088769228496 -0.33995909849452743412 0.052583697440037178994 0.32348533575818783081 0.38301381709224574523 -0.062024526582052284807 0.12444179873571056816 -0.027457936308173960804 -0.48938832355340355917 -0.13828290581799221326 0.1821993830934832137 -0.016955445622850551929 0.12116575457538067417 0.094434151380219003014 0.18468018700523836095 0.29163634013060335537 0.2934329049728138239 0.13950000327343009543 -0.043251480419722994342 -0.05801143320316079488 0.097553398697612925261 0.34065800930003403701 -0.0039223051018355149094 0.35609487741088691193 0.085753052063928858484 0.15279611913575319448 -0.048621039716877222092 0.078725881301876451945 0.20079921215245705168 -0.032938043455074846044 -0.035066770980428790816 -0.15413643826679437887 -0.13723838706179727898 -0.12978624685100351166 0.1447362561688583793 0.0018750472599366289905 0.022318927070107155014 -0.34066471333772863073 -0.30666858076933195543 -0.30683629119837979582 -0.095522908879344808897 -0.040325602200047182266 -0.1819215529987579516 0.1775973327576707006 -0.024484569684259559902 -0.024080448729442927025 -0.13672317491637173137 -1.3498643932055420791 0.8334738891288676621 -0.55061318387039204225 0.0027147340627118946021 -0.29154832040601647014 -0.14507394325981470828 0.14836421069186733757 -0.14215028777913840674 -0.40003703997913964141 -0.18089813831956333412 -0.047197410843014903081 0.14483817260243023184 0.016993140076911543435 -0.11963395937300055905 0.061321661525077356125 -0.39250010997631012977 -0.29380013705404361968 0.022896554873986202372 0.25079735439713840561 0.13218068839314445206 -0.059320374549515698936 -0.081541805062865624354 0.30399613357405319558 -0.12255977662257548644 0.12064149799361059689 -0.10665613485480977818 0.057260996085597357097 0.14690626169557946534 -0.083532034245902414549 -0.19970261577781717177 0.13238386764225124059 -0.16803218612005199617 0.015633365587951628117 -0.19901296185599509636 0.0046819273116730135767 -0.22224458234227872921 0.23853526311901368517 0.12377292537324469102 -0.20249216166802008754 -0.10717528550392327324 0.082965959326474811308 0.32948910978751816403 0.1994900233032500525 0.039692466372392695706 0.15707176002633935208 0.087671017019467875619 0.10358481604148421507 0.28456676199446417908 0.33993914617428983016;-0.016721539224062574591 -0.5536195921477100601 -0.24341481383327184806 -0.30562138059977467242 -0.12692134227185630779 -0.02485987773488337188 -0.042070818827669900775 0.27658463050208997869 0.125677780214847018 0.32467153212979960042 0.039036393034284369574 -0.21054313691528062091 -0.058327779282930189431 0.051208379736631941259 -0.2890605732040313347 -0.33900822095292709735 0.079730447717630423266 -0.08831331367548701794 -0.18790961771469943953 -0.22332259930058342978 -0.52808273557926865838 -0.57296075135810964341 -0.21834805303755402961 -0.16617126602907669741 -0.24726935666475693965 -0.25345534584185386295 -0.11501556097153507741 -0.48422566859700677533 -0.54657304789892602326 -0.3970626052309621512 -0.60299072757653338073 -0.38096987913498514544 -0.4628344258011930501 -0.49331879780233905963 -0.60481027943669929403 -0.39861337475637526051 -0.36038982264910784936 -0.5463415238409887742 -0.32541588979516850033 -0.27495016316167691928 -0.60478998604329392563 -0.3884163896053390852 -0.50635123807976212262 -0.43929096122199778884 -0.56999569383872339401 -0.61030066434737484382 -0.3342276146757345856 -0.73088127756474097207 -0.36519476815498469469 0.8686621177233370128 0.034215962734354309072 0.018848415065124267398 -0.068969310597918456751 0.042470522740361241198 0.63526381593259340086 0.57827258946132109596 0.61544969880129873907 0.39062264482686487321 0.74718148405696338532 0.54611680857645727993 0.63650493315646239356 0.6434845387695206087 0.35341702270893909921 0.26593840145631664207 0.29482558131103642207 0.2843566978850078919 0.37579338984748378305 0.35485165330603923861 0.46208099885790077099 0.49465423505721450859 0.38347213616489650434 0.41194529883497210676 0.46452395584576167131 0.20202324671153221169 0.48842374994060738791 0.025682578540144121448 0.16268868555721971436 0.36769366011432791375 0.12314448840461723889 0.54308322525799590519 0.18054066198398346921 0.28107227244414251244 0.48353772298715153033 0.30988830680515683236 0.24026813796780455146 0.4465568860653275074 0.52167188743264147899 0.089797608329343858724 0.069540637716094116927 0.37288044645344098349 0.11636566543455668932 0.2301223284852111084 0.09779509706074787645 0.051013455834405231626 0.21886724733601625736 0.35105246082520846773 0.20856111313557601505 0.28242759513369902757;2.848681727044952261 2.4933075345218198571 2.159152740786071778 2.0638523077907486858 1.82826244094782564 1.7796048330687666006 1.4968499389331022531 0.99651020471540296963 0.70628781035194954097 0.87535155662328800741 0.7885988434104026501 0.27833774180836462486 0.51356974324008142219 0.011836386842581536616 0.15618363012680172575 0.1020210211153251556 -0.1158423896266580766 -0.14743914073506536599 -0.16128978613162522904 -0.36421513312367764792 -0.696179593135763497 -0.26443955637512756018 -0.48190572673773257595 -0.57954208053535316569 -0.39010096138821337419 -0.54801742426001109898 -0.47314652620494829227 -0.63950559526536143728 -0.56231163178695198201 -0.43234592063491256164 -0.53348581256115257254 -0.82206006084166061143 -0.52297613184689784038 -0.84844536767004552491 -0.58914083736217814913 -0.85652537721967147988 -1.0570924846460099111 -0.96971380601096412999 -0.95441343998159733353 -1.0944981318059694431 -1.1857848668687711591 -1.2310087027062885934 -1.0222614737445148148 -0.9532851968841246082 -0.7549802776053978759 -0.96152073126685622118 -0.44924241202483805591 -0.70240501283411438394 -0.2366133688147002978 -0.3639288382717265069 0.26017187874625163913 0.32138568258168676017 0.32074120302174702335 -0.066057797860248762545 0.28041682521111072068 0.25710661164641396281 -0.14882443265580297398 -0.07259915231649095857 -0.13831357642247654738 -0.28465452043092892565 -0.11662163309212619788 -0.25186824828341658478 -0.30899191543428150553 -0.31387186135302086454 -0.32430045077342412041 -0.36253323261939884858 -0.37231717510996253928 -0.079221813229632162545 0.037311085492884303594 0.091072054335909508049 0.1769301135277389081 0.37079904092007004435 0.09747953538654305361 0.23829804898345116615 0.59826957717859508001 0.52033104663734375261 0.23702976387383997703 0.34658744622583348427 0.50133728523060849813 0.183968131582649852 0.10012375828587875837 0.2538821836474010607 0.26774225588080968752 0.24922463706092135016 -0.16248897372309345499 0.21177836828135893077 0.18157918600801281617 0.033833246307586821444 -0.19674257615458060067 -0.066354398262778377382 0.11711952305642214789 -0.0066784366929183922035 -0.0449549523643905935 -0.24214820724760061088 -0.39349664994792232786 -0.49380602245382765325 -0.49761809922773458936 -0.65328601184269696756;-0.21418456623346329715 -0.30525981359800796744 0.28629523169204401656 0.084353220172173393188 0.28347273652249466158 -0.11351726539872643296 -0.052369006372738870214 -0.24738332799596746137 0.084490977074797607438 0.071874996337710383987 0.15228759581016826363 -0.096394936015604615331 0.19350394436483961402 0.10141124773904175438 0.16042949244788287655 -0.11852492546070861335 -0.070966340682090872649 0.22708254164431970756 0.21574402569128187102 0.12984587680192100079 0.086049539418746961994 0.13656573676214528446 -0.26857721187317729061 -0.010755504647674649088 -0.19361356459367376481 0.1585130370594915461 0.028613573451648000034 0.16578801908249557462 -0.17763107056946930706 0.16911725275813505043 -0.074569467178062745494 -0.12212670971221095684 0.0091185978296228140105 -0.11412857650700566903 -0.084789668299616496872 0.14876302498264401541 0.27090530211317298548 -0.085416790501907771671 0.22979921998586139154 -0.13073550886900703327 -0.15965613623538082999 -0.067995171737720294658 -0.004433175128642295737 -0.082932313634107482359 0.14018868901643538605 0.18681506059802058251 -0.20200868751973316551 -0.057478450099940701923 -0.075772007598522123084 0.35308621676773832565 0.48533739941843623278 -0.083194242521930555911 -0.066181434066362926361 -0.28487393471243588339 -0.2470523017574520197 0.22081999556839301824 0.22042557021181929944 -0.03385243546985125529 0.057004869867298434138 0.27118396929654631222 0.2052292353916013723 -0.093976666010552059594 -0.092112517708797969629 0.17022480207548318365 0.3245056508100883641 0.30093462867203363276 -0.074192737277770329229 0.0057216447580202339437 -0.16125679813479726343 0.12008262041975545364 -0.16008475937111535381 -0.03262994707121857213 -0.10392706763299826289 0.18629520021194484469 0.17863299237157273525 0.22524788618343269397 -0.24820150157684608971 -0.13443452148831708248 -0.31159392148478592954 -0.3002123107436162619 -0.19352162334028491508 -0.13881982179915697273 -0.29136145612262770443 -0.033348056821890612045 -0.41483487918347300427 -0.39502329044402190172 -0.3347843510834798697 -0.25097626587705401668 -0.066394896927426005906 -0.34418451984164799562 0.10826675148168291019 0.049916327040372923673 -0.051749553992655628054 0.32117524244778239417 0.39881534872594004426 0.30413992644012083355 0.64407256876450236227 0.56563291507023216731;-5.6900232381877824395 -3.2628392567566963933 -2.0195121918184599785 -2.4214512351324652961 -2.0694762888950339885 -2.3239972806699946695 -1.8199706115933547146 -1.9349680275711220734 -1.4294876795872200059 -0.85272250271812755074 -0.71339401277335046103 -1.0047230201702503916 -0.52732928573731285837 -0.62780138233055282626 -0.56901219281707859921 -0.6868910008492715713 -0.80892032966332538813 -0.51037912019489883875 -0.36760151930696888245 -0.37937832891513800782 -0.56776292414830353827 -0.3803673718594245412 -0.12011915696515360064 -0.35055237357780411056 -0.036204280577193617696 0.26015169771531460041 0.48971330209594449157 0.56392709658650430615 0.38238085731242010823 0.69521441309694465005 0.84846915552767310231 0.91198221253945654929 0.76935803030064620067 0.8569697731589787093 1.2522615662063083519 1.3682813705748733124 1.5177325346720182964 1.5623419578253141538 1.487909066149247117 1.8490032740744948292 1.8917711153965637294 1.7659712280639929816 2.3401194331148134076 2.3358197634768624873 2.4416877062182598124 3.0073841639865332986 3.2488245236072224031 3.1373288926800952936 3.5052787595934815634 0.31259947992399433891 0.34283737907283190482 -0.16935593406980431475 -0.43756326623149827126 -0.19327523591010287163 -0.20684408549701066571 -0.15730352430038990752 0.054659550247108536214 0.30451678249548191912 0.37794419566982606629 0.25322049672364133066 0.59081509101600593326 0.25270619090389639938 -0.18183795048899517588 0.043163368989369753359 0.10639610816115790959 0.21573860819363011032 0.063113834805968410668 -0.29954786529701615816 -0.3664014316251670289 -0.074606422459612783959 -0.077311965887518263596 -0.09301893033457800386 0.23877268328576048417 0.098465093711743223448 0.024814524138501860284 -0.046521545395069897888 0.3361058104570779359 0.14038650970554322761 -0.22738212862834158989 -0.044560236138993319921 -0.41118279408891733606 -0.41367450191660842806 -0.33543050315789624261 -0.19197678683346749984 -0.017133701412926947288 -0.0089266655218056857601 -0.15312441959578604322 -0.40762422184499674804 -0.10754910604718807832 -0.16547582112067749094 -0.058013428651423511184 0.23039098085629300394 0.11187520266368689015 0.29844469238865622973 0.36761812111514152734 0.18626979194099657633 0.25929876505416515897 0.27775946187675548682;-0.54539805933741836164 -0.02519207894256341243 0.31442358159564681719 0.11573515233798881141 0.055026671392205711575 -0.13401261047692433759 -0.21656408185239989228 -0.25900373876260618378 -8.4644519112872518285e-05 -0.29445434634487072101 -0.026357316395955118077 0.19613203570651491225 0.24127350484872248093 -0.073716000679286242114 0.31443841226933894051 0.11504289233398576342 0.28988038073693178642 0.331868230659550012 0.13322046659806208169 0.12052388738563456216 -0.092579699854128477687 0.085009271690204321614 -0.02982430862588248896 -0.1096898379043620142 0.1248391012761805724 0.13837826873446859577 -0.21706272009115762378 -0.11827308480415973935 0.14880179486072647732 0.18411339094338227684 -0.24320410503015812975 -0.14357761325165147026 0.097120003241898678059 0.020883737351157474066 -0.060456395705750842762 -0.11435401577130110962 -0.20071431022442107195 0.12811636849173305142 -0.0059833835966270447482 -0.17074561887669170712 -0.17917189718217557681 0.1584948049235535561 -0.17608973472791608628 -0.086221974489994052115 -0.20994630045989531864 -0.053092236320362973245 0.2715485668697217303 0.16031438909161968565 0.3214196083314282415 -2.1104834396490002035 -1.0165594815175238441 -1.0461195787729178353 -1.3931717190204970791 -0.98024012170979257785 -1.3150703891733483974 -1.0760682239160070939 -0.93457176609951020385 -0.46881960149897328183 -0.6413981521449448886 -0.42418986537373909451 -0.13548683642996642296 0.05856486099032476994 0.12551386427361371778 -0.27166404217545830901 -0.042977060500898688067 0.092362359597940438261 -0.16808923135741637989 -0.0028610881125273081305 -0.27923958626693273777 -0.0029034866318043799083 -0.012656973364026607651 -0.26063138353109588374 -0.14468162126114811339 0.23520547658358825771 0.22095131151040370288 0.1107932305727582778 0.28778870361821279333 0.33417599433811245868 0.39539995511978431875 0.18299474702232512713 0.47399378590323931748 0.50114805223169911486 0.56155401360382029008 0.63700683382520051357 0.58550745589257524593 0.73188498597707019044 0.42262842148439466738 0.60590003981332474225 0.52052324657862580892 0.67142692150990146427 0.54958792208826079406 0.78657865514938496432 0.66038356055265046152 1.0956471243973602281 0.91033731208753398967 0.88040117593522260186 0.8473171246174359128 0.75572505233712972128;0.32964630527093569112 -0.38833084474050616475 -0.55110768588390857126 -0.3270851600984792662 0.24833027609930008461 -0.34903322842958800498 0.17567138000932144837 0.18024788493847859749 -0.065661249882306566006 -0.15368793462470248246 -0.05287011179255568516 0.20012284209527675394 -0.25660926406185097237 -0.099206546825461289218 -0.039051417480841128793 -0.0014705401550879487749 -0.0045308784920728671641 -0.098590729781634800499 0.12639110687959795309 -0.041009237396628907268 0.21991587579528221186 -0.074037395376505679701 0.21533860448145195066 -0.040718454763025782595 -0.064711958483638101769 -0.010363225953115328196 0.20194421923222666271 0.14963313700562186348 0.25558175356023821179 0.082146735071238596859 -0.015461415491132128944 0.058093753974954406849 0.26709842173488596018 0.27023256653531613214 0.18148665109223674485 0.21113562971525792755 -0.0629861203807541431 0.084465843952674424244 0.087851618277052651029 0.1340574518416537686 -0.083480700189108317244 -0.091254377926459434578 -0.12220822644788809086 -0.15470835526291937256 0.012651897621694784685 0.20811819703739453669 0.0069440502315492938501 -0.26693555410869335143 -0.13887786984745043029 -1.0028331261497576143 -1.5148669022613261426 -1.4889480877254184232 -1.2701534973626305014 -0.93972363284168947128 -0.99601915212586489279 -0.62243819536307654072 -0.56301286788459181665 -0.43645489780334095764 -0.74119292962152982795 -0.33814301354144288281 -0.36242085272040880373 -0.7368216443308018837 -0.53072901917260573157 -0.3054220663494981447 -0.1422917879267133201 -0.19055206212425973566 -0.072612387569147604505 -0.038998101341769605965 0.061063860799193653284 0.02755321872686533613 -0.14282970871612615804 -0.18047580504330451578 0.0057382686814932380714 0.053829512579525035099 0.045521875838322789498 0.19769041753087324143 0.018977147043783802738 0.18784152579116672466 0.17557784417490668316 0.22230216111813574931 0.31978394809698856838 0.39045317834260423462 0.12174723044806480543 0.40868404235339689246 0.48141968759658687604 0.62746822592746054337 0.75627740545325661259 0.35575315969084853052 0.38077522047889733603 0.84365931013689610118 0.91735779552443308393 0.90454561107997955016 0.70611222992884981053 0.97838181805893675858 1.0467602025075266603 0.75007942900763147076 1.1690953638584204999 1.3211522757929134997;1.3342555656150874022 0.25104422226660177975 0.35958689187873826842 0.26169053306414019611 0.56397051040021228818 -0.00052138423688138924028 -0.14421450047552686335 -0.13162829858122407356 0.14999009669151630586 -0.04210693827396215505 0.25213403821477881062 -0.0022473409350608512455 -0.11056722529404941491 0.22154150268130051726 0.11451549386952539211 0.23354146894087210451 -0.034820231448537922181 0.02414257434180825182 -0.022539414198611336382 0.24391937557237339251 -0.11047290023018685456 -0.16914950939648953909 0.07999076105685178073 0.11255972856140554483 -0.14188819826843329652 0.028310559809393443659 0.077963932753969789058 0.051127588940838575304 -0.3496963459730855206 -0.12752112879614591057 -0.33235544076127043756 -0.010605203864465700958 -0.0027675612960835413445 -0.34105207915259927454 -0.26328763844342512046 -0.25702393849746635324 -0.23688073945511828322 -0.17540333663635923611 -0.18479557172362931494 -0.00084970806143973461044 0.23703600586808548645 0.056813282306671306077 -0.049140641044697001838 -0.090075802859473780293 -0.20040771332537826721 -0.21518140788922363038 -0.11469804396827860959 0.16717181330649263926 -0.21023938849275006224 0.52484887849146333316 -1.1025311740956666995 0.72988785879336903761 0.83016917704727721805 0.31162839633946215478 -0.19647207602313976338 -0.35529843184365339503 -0.15554938269214332869 -0.13166858269399633885 -0.12668303114919743368 -0.1278242975963325978 0.24198097207797869546 0.27524485062778503153 0.059429718373497045225 0.2843247803969620735 0.13091341127134145661 0.12422021215885072076 0.23787213696766834614 0.19467697620342500064 0.24812580583889320973 0.0027089879435432794724 0.20452392801690860713 0.28521708685787799942 0.080761552138114867105 0.32823054497032810861 -0.052066840183432876177 -0.16474606405817271426 0.1640659415277157529 0.080639325236571107736 -0.070130738023007926918 0.061501145584430393087 0.10260262748207672756 -0.32418117388269929169 -0.29873453637212343814 -0.12337451073789593159 -0.32484003051694598785 -0.24550868147140456066 -0.3985824405485627886 -0.099414290953872316847 -0.23664870533114734652 -0.2804075670132051834 -0.41983334151044082727 -0.19146334002916173822 -0.47803750571879466413 -0.084100605133339695341 -0.24832495866701459475 0.16275324887619030401 0.098523857479733606413 0.036490456797675145661;-0.29487000297095722345 1.057961604218822238 0.24832983962142507472 -0.12219338755025156706 -0.033970022948591561962 0.20410886795096155888 0.55429240048504979654 0.29567073691914413924 0.086955037828887055129 0.019919697296898051381 -0.0047128924942866842751 0.23487876630046461424 -0.089549713922728410576 -0.14777635252748760886 0.14972987233687212738 -0.21286441471826575422 0.042577794534644469726 0.21444143194983067424 0.25788544421960246655 0.15493144542654954665 -0.15877246734155225916 0.13956417492589717755 -0.046956959146401536231 -0.10714431475741156841 -0.063972431578135965924 -0.22888848798513342087 0.15661069483891032483 -0.16241829956290065873 -0.088019410387121327366 0.0260442058322578468 -0.13116222646734823631 -0.16221089072274805232 0.015691300485743360504 -0.033260938877245328771 0.15627910942681219608 -0.23930594580533937066 -0.10980194690039864203 -0.12224369612024414689 -0.2184677961898690568 -0.10739400668479770484 -0.089152917380952587112 -0.10630415405038136367 -0.41956563459480422651 -0.065611727989166104824 -0.072219089133792199742 -0.33179499603095419236 0.042978818990700939917 -0.26723233726747219752 0.096628541290366715133 -0.44815084481633310487 1.7754344433378512758 -0.59434346581708141777 -0.67927794857385292993 -0.43334383610360682759 0.16736203369263019658 0.1446162366713541203 0.38727930873774513154 0.57790386082816880275 0.45406656801463163298 0.034212251024489187534 0.23349166875717225489 0.19496044413829410891 0.011939926946958917542 -0.10748921025087794512 0.073464913137245763108 -0.080822747823495910691 -0.082392165128952754571 0.074256223151879241495 0.11116847565443480073 0.018218335763924294046 0.21699783227943816866 -0.1005536031989857082 0.13382332777305905314 0.20422640877528730474 -0.0895316882603888059 -0.13255001628039514427 0.21061556950785456643 0.24368962479113767672 -0.094559846950686199385 -0.26273324863437858001 -0.15299590710712998587 -0.07065331955198898839 -0.054749640533873558668 -0.094472460984255754446 0.16928473266846918999 0.17530006785803206593 0.037837485858383722304 -0.27166589152286779729 -0.17270342740668245818 0.017411437810667083903 0.056392561690460585311 0.04752182567636442645 -0.11002855102681596833 -0.20716001064844263846 -0.4266526871971666468 -0.36899397550248996813 -0.25688468589340629489 -0.77679616588204369876;0.46561994167003312173 -1.1242120125600307823 -1.4036812627667856201 -0.33121725813766417224 0.085728124328125404618 -0.049503739821987205461 0.15853850538635860801 0.099199487971738081749 -0.24685031033787896426 -0.065630631137944664411 -0.17183076980385764143 -0.12738432479028299893 0.10749471042583721991 0.12017850361332003961 0.07318285663248921824 -0.016669190668429232499 -0.12719803458261291773 -0.19981931415229939319 -0.14403183978939437804 0.089012443357589357551 -0.050201365162460070968 -0.2663240955924385811 0.028080284124607664958 0.038552728847636622 0.062992417706323439175 -0.10846822236166060727 0.21217176171574936294 0.15645495891414040734 0.0021736063612320943861 -0.0024971552496332420634 -0.28600157623785898986 -0.2892864369962591109 -0.017955527440100708253 0.14904579390446914822 -0.18332734011978141231 -0.056406765565363656267 -0.068493448926093644658 -0.18316670151083630502 -0.051824760209054965276 -0.26344814469052674211 -0.2483887347702635473 -0.29146777417440417057 -0.16100304980819396539 -0.098362558558753865334 0.31001153069137116214 0.28584598841556957405 0.33112452751317328348 0.21003234556961125623 0.44664415196309825706 1.2999268756937365499 -1.6145871640670064195 0.13260389655729173941 0.45348605339303998951 0.38571280134832375275 0.1147475081324892815 0.1300102448260163357 -0.35825683273468705847 0.019264668012700571914 -0.23899998703796568322 0.19937830739067086139 -0.040655410737718181147 0.026850289699485583444 -0.069908827363681244615 -0.038936998478566076098 -0.097272893139547997321 0.18211601658988327279 0.079222165078578765662 0.071877365807278464915 0.25581995868604284761 0.22393884062080299246 -0.11090357472375023118 -0.00066268785428810750553 0.13039782418613060644 -0.04806039159713270531 0.083847396313082869779 -0.20231191794150318874 -0.088904234609498561381 0.031805500674353989754 -0.03050521499134457859 0.043925194709715488506 -0.040073303480703134638 -0.25655980016101220809 -0.10889231456880907323 -0.10688142026365639314 -0.26824923706819747693 -0.095209103876065168115 -0.012410565701227779106 0.094333293008851279438 -0.096273405037838488685 0.21112949191001284532 0.18235747684586944839 0.39642984621459836925 0.082347568082705824288 -0.012600552422149191578 0.32314160939291303176 0.14907852063896542827 -0.18722551012057717101 -0.038304295145214731222;1.985070020079237274 -0.72821773277735779573 0.37219671555758676584 0.48773579695912372411 0.35208142093661065619 0.47568703290998370914 -0.013414897960707914543 0.047847375207162680388 0.084045635471298132946 0.044509050933609517475 0.030018352796689622142 -0.25864309832739867945 -0.16156944299785302999 -0.16193733678448873903 0.20095948653804548978 -0.018434435048236066934 0.29860282199933513292 0.32412039835623573936 -0.026321838215914467041 -0.0031051059968168143524 0.37800519566778878477 0.00071994504952554408579 0.19060411474339614135 0.1112094427530990054 0.027288577701972824979 0.17160225297778763931 -0.071821438074602866886 0.24416646378117826122 0.12893787291315836341 0.056416993869498811842 -0.2777965861364860567 -0.005823799922593605842 -0.15510119476095193813 -0.21998844748802318105 -0.15173970117749702169 -0.089549878292308177086 -0.087773768474947069795 -0.037988590124315491092 -0.2166266525514370378 -0.2026226368503722397 -0.15153595434137268061 -0.38411281674568398259 -0.20697468359519899384 -0.26014420959913331366 -0.34088665396066397673 -0.079577203106935917587 0.20423532669542404649 -0.074632817465986600602 0.14640979545732904499 -0.42484213453211533418 -2.0140520379516262395 0.27798638758166999141 0.47399483643534218169 0.40151818991009669002 0.082060582932796305444 -0.28394625694751673972 -0.43433379506431907258 -0.33822635750039847791 -0.16823724192956332479 0.15480142847605393719 0.05961660120631569193 -0.13765866932811010592 -0.20169136919296615229 -0.11322075068175059542 -0.26568626825677088554 -0.42752247710512486512 -0.22893317263147935914 -0.25505856924421710374 -0.510603471634992645 -0.75078487271266491909 -0.1955230056030482777 -0.17781281504466633914 -0.39350893442721796012 -0.11017379597420522142 0.0088535182256658778027 0.0094617346380761139374 -0.028949768078221388423 -0.31006035752428329211 -0.21343579738195614381 0.15956650020384519073 0.25324917670363222832 0.038077270783148056688 -0.087463295411825875414 -0.18378734734889387581 0.099110077851032513108 0.32266658331894537692 -0.077400591354232869956 -0.018444336446910025024 0.077167093201190542495 0.29531373945578343054 0.41537846058564881213 0.19333312902825899871 0.0087986152276940954309 0.40739547023034561324 0.29845921607667774689 0.1620640670576672937 0.29126643717265554567 -0.076354533259672896506;0.023496776665108860815 -0.12226689706452494033 0.17225949385366223776 -0.25292768020026745734 -0.43003056392011684839 -0.50776251039768194318 -0.31032542848161337457 -0.28709252650124483797 -0.20536808454636920618 -0.21734844198881389521 -0.27111581282969215989 -0.068264240473854737035 -0.5285486327671141682 -0.15977495573648201055 -0.097031967836828381113 -0.19810609821601554703 0.26383221635832238006 0.006924462301916494561 0.2557157189232965866 0.24557528043168896925 0.016564660941408359401 0.13531479557402123493 0.059347607815741110215 0.01017542017773261781 0.045924247800872078362 -0.21401931730647719143 0.064987925546918651198 -0.32661918372473136563 -0.29212200050070175061 -0.018522445732835294413 0.022678672243754506577 -0.23891400743487256619 0.22406581828245158983 0.15593658570313928546 -0.045724571152595816503 0.28350288264736961397 0.28447143197510527113 0.1949410997009655977 0.18761443302840644098 -0.053701379353024332464 0.28171068201593868485 -0.13286549056575397421 -0.17312509127577391244 0.19441986012263356987 0.10199138589435913227 -0.13302767288563935311 -0.07348157254166907959 0.17573974990684684827 0.14584604410877710645 1.1290211255678006541 -0.27388023683314499657 0.38763909503779847565 0.19011854275316145135 0.6482657279532939576 -0.17317746377947423886 -0.056450258222158516963 -0.13204505277698475041 0.070565275392552403999 0.10168513159536027302 0.50952748093446165178 0.24970050400108184663 0.32252364665635896435 0.54460552537945550178 0.63450998449284012892 0.5124621012547954102 0.39295598465516362596 0.184731891327127834 0.42846876065570149716 0.16430697606285812884 -0.16435220959003421504 -0.11489366541977777403 0.18017098196835579227 0.48959118065009388232 0.035364301406711866338 0.1674167998193615281 0.050247102375868879509 0.19944825832013660105 0.13683415862541720154 0.23642906096859495069 0.10240383212439718719 0.22602405720351137486 0.2945535783485108694 0.12567095771686667693 -0.087321453143126046004 -0.24146746113446582171 -0.29551455559446160315 -0.25381759436532014274 0.10947570110835876112 -0.010884111518888222453 -0.20155172977580701477 0.0037247679902242397665 -0.21364947408083348468 0.087120729255356979537 0.0025674654575687169689 -0.18025861420378874733 -0.025352191015725521195 -0.29001217036092541424 -0.36066701709884574356;-2.7649739454553223794 -1.6176097467459358281 -0.70252284471346804207 -0.20527180400116920578 0.20006360838918207934 0.60481129438250702535 0.6576172727246145655 0.32630425390966533161 0.75520615267481017163 0.88838922126447661398 0.71820021140674616955 0.57867849971210871818 0.74628713704188220923 0.46345600193154401492 0.53164041737621103856 0.29482382168422821556 0.47820091638514383714 0.37258831469159525707 0.55399674368230522603 0.50755439311967853744 0.56256011027526064971 0.25200918436691738256 0.58753202356978206922 0.54729219316568744613 0.74567585461856644713 0.6405310839527823541 0.54859514593096991852 0.33771971237673270583 0.58477222143003826371 0.27480179710406887894 0.397756175424207159 0.0088105793119061682345 0.00088778742342722483105 -0.083874423910578713159 -0.015800564341438838589 0.15224326393530412949 0.06165897473627870301 -0.21681713812569217148 -0.23251073480060213683 -0.48077284904346884176 -0.21212979671987591823 -0.61325891149670774816 -0.37608321385398074677 -0.75518879791993365203 -0.5144955835314261039 -0.62931061133292121035 -0.67878520956612498072 -0.78523751707860056648 -0.56554798594694510872 -1.552095592153642345 0.40541875967798418623 0.65948473436049093177 0.62992344562548929776 1.536323234869231058 2.1405826390223765543 2.3703741187069065077 2.7767014611101359378 3.1412340906945672714 3.6635585423007310801 3.7746137227847822437 4.2399640169747510043 4.2612759542683367187 4.0282691114462485515 4.1510894844870405151 3.6069066730493473116 3.5179923362612615101 2.9633318132922652488 2.862543282482531648 2.3658012664667098512 1.9818397806551415474 1.6173711065114562135 1.2987573646197718702 0.82235656725488326391 0.89643463027542447108 0.24642067922819713144 0.1901940864646604612 -0.60471220399183167604 -0.56192410368899570194 -0.91093588702341887764 -1.0871416223888661357 -1.6308925969767671393 -2.0112326838593554967 -2.1331142577272550476 -2.0714478915388983005 -2.484506296653155033 -2.2859166196061839749 -2.8439664999074425467 -2.950276634904266615 -2.9379720100135480187 -3.0930705247591401275 -3.5303423742494288717 -3.5946938102132031112 -3.8609430471147376807 -3.5253292837221597011 -3.6894646361613401275 -3.9911294655527034259 -4.2230499950211157767 -4.4745227004503336232;-3.654751145349289132 0.90028640085858313569 -0.071246329477589867563 -0.78925988712424699489 -0.98299631082327265652 -0.33107842816919152984 0.28794790198422060001 0.24719144071442283872 -0.21436550929113146191 0.077744757409946047 -0.091873164811641011562 -0.18916891297933466354 -0.15665864990568775794 0.050814390900380645988 0.099273739859652321282 0.11067329369928276261 0.0040352469375721893019 -0.087687861929385158 0.14713857328820564851 0.23587594867987557445 -0.14636669377015681937 0.021501347377463106425 0.2129280796075588289 -0.048344147237910584103 0.11470076453770648717 -0.1421203914168080451 0.084917253205357312584 -0.078918430703648206892 0.23599148792287816256 0.21177603517143636647 -0.12934625046567199691 0.25882675974292157495 0.11680157596599473335 0.1820660742273698951 0.078197744743215336083 0.16795040937620864252 0.071423678145092026059 0.20295628726243541973 0.15349264096040762806 -0.35869750284140217156 -0.3938052352372024556 -0.0056824444948580122433 -0.16562248986653185789 -0.39450899206879835868 -0.23568804485172212271 -0.17650158963847722982 0.12548006425732174951 -0.27565922392547087538 0.14607813280025883085 -8.1610225346431839455 6.0919869809726456822 1.8826038952198975718 -0.48748147451113710282 -1.450149378203218653 -1.0348796420320964806 -0.88028107600666682941 -0.49754133106181197554 -0.38660443027153873485 -0.18734933003518333683 -0.31659997774690740169 -0.1038856668336019945 -0.19547239475853450674 0.13072333562886068181 -0.032608467164751672729 -0.1488796549429685645 -0.020759746384450689094 0.14406653349385514784 0.45046189650262857818 0.051644598284693289669 0.38992884395276039555 -0.067878426509916517384 -0.17072166527325896568 -0.1525789020094710513 -0.32474947620708194407 -0.45246706075222353771 -0.22546693219495925198 -0.12766863845697312696 -0.11444884363173160602 -0.13161366524111314802 -0.13181857512186356818 -0.11164961097315632965 0.28781497031540376197 -0.14389245160036251425 0.21125817058494966716 0.080407852545825622692 -0.029863912842566286976 -0.016101781118548874616 -0.1700983173906163437 0.050173729047657086855 0.13424558144391063319 0.069848404047989545718 0.12221775892241645844 0.33175808800425093947 0.026149579267399435112 -0.042725092821017225664 0.099326146916657739872 0.028549842446265460971 0.23343475665241450456;0.026154500021955427724 -0.30479484969194869937 -0.35448827269574378906 -0.030292336959328543255 -0.049583385221046855085 -0.10276600406242292207 0.29845611141601308125 0.14698238198675084298 -0.11401626533276996989 -0.055905824422752048442 0.096686282459548092416 0.021208106123588154474 -0.01601986009155632884 0.085340455826417208063 -0.11741909642870818065 0.31406638814966264528 0.30173753957997140329 -0.17925992023734391156 0.19483551712282859425 -0.033422445357938139476 0.055869744003769303275 0.228982051287285715 -0.18265401366808436956 -0.051022865230640361556 -0.18231776547095338015 0.22529721766471985656 -0.14107088376617352155 -0.0075322044890320707239 0.18298485208070741637 0.16339186226514507139 -0.22406291609602130288 -0.12872903415111405789 -0.070047775620009244957 -0.21318103456894843539 -0.068887957389013598775 0.15003253780683253882 -0.17756694298852004898 -0.1246228934283158396 -0.12619477135752199537 0.056410880178851131872 -0.043761208170840240617 0.25978127861734523485 -0.15164675344092948261 0.17589984154241600223 -0.032804402082195469048 0.035147951394478148257 0.077104938046406126806 0.52613337880739607932 0.6719260795335858516 0.61044156004728322706 -0.37263377082521709216 -0.2323201548378762693 -0.22849673249680749199 -0.21561415967212010925 -0.17025998509331352615 -0.33171925824490722245 0.098540918007585992511 -0.18581706899599390037 0.12095560985332948212 0.21671788058415158984 0.21188478777751795779 0.15434271767117135887 0.086227135527439408014 0.19576388153819257454 0.062145046366655243286 -0.023153187294762275772 0.085727939054156029886 0.058647501121484049702 0.22212691739012765946 -0.14329884561982333957 -0.1375381760542481735 0.12422332551472926865 -0.19496734989824188178 -0.1226891561975079481 0.051686732965595796885 0.11269481828662006317 0.01560717047764077943 -0.085235671797030579389 0.026508871164629743689 -0.29671714975663082692 -0.041988477365539018937 0.12101952887520696367 -0.24211174128310300468 -0.093711963778625992361 -0.27380717279956373611 -0.18332643412477162004 -0.35112382467315911283 -0.30425436692654106441 -0.17385016286420851284 -0.18648115113641974827 -0.086667088517367957268 -0.2372497095029874048 0.081953262187384051662 0.014576472562427710347 0.29306947029025764984 0.41877028361079926544 0.039611281911624399155 0.17655675680236271319;-1.518203522960316576 0.2274998851707319969 0.57305009034592235828 -0.094039951678927188872 0.064475276281004217926 -0.28875855176466563856 -0.25373242321310712777 -0.24002102183006884806 -0.013629463424151281453 -0.37295413210947225835 0.13211702038356487598 0.16037890418335329357 -0.0066848224123839967287 0.081906739481501081301 0.25112944640976692101 0.17003656570198899534 0.030374575812860904467 0.32162465106674742454 -0.044463856624104972082 0.21491078240161565205 0.24558772886160337712 0.4692959350735478874 0.31286734393057419323 0.2507740151272037088 0.19451586523321118261 0.65836311518822099309 0.39963763530941465163 0.29071544117217978931 0.55428053449906389272 0.37212322100906314315 0.38805132842699024964 0.19189762210631497452 0.43441738967495391321 0.59201907712807788631 0.71060748863181144586 0.46649749180141747429 0.58581818655882167413 0.60665794261903727147 0.36087675845791522544 0.68526333215022294798 0.33837509080352418112 0.4252462549314354745 0.61019939391521360594 0.73147726829816361871 0.36837922381844689923 0.71823996962169966984 0.55394683460417049048 0.7553852175148755288 0.79544335088382611687 -0.7523410963205274804 0.96165344156503995698 -0.095375182187443896531 -0.54816799846257413531 -0.45568584073549428526 -0.74782768464214499637 -0.54055504857359149007 -0.52578649796049958809 -0.83174484668629811157 -0.43268567090320964041 -0.33516912279050120604 -0.55668784659539150006 -0.5167073924417587838 -0.41737596415169714303 -0.43889400142280976524 -0.22178743561566677256 -0.34888623491609016547 -0.63621609865257378047 -0.55265516413828019715 -0.31912290627038969459 -0.67778985658417900684 -0.21799138861948103019 -0.29036364276116372052 -0.46413315815800038067 -0.3706388370706224511 -0.47419341837611012069 -0.59027607647675872649 -0.3601577006759175692 -0.33369929736125086839 -0.52544716419836412502 -0.18213286986317422933 -0.19784280081881516766 -0.49763055913848414091 -0.38740291416648220402 -0.13274645599032763865 -0.34347505722223409252 -0.19999358642319639556 -0.15518207020985438915 -0.14622955012471708369 -0.30355009340737948431 -0.14432115861087321806 -0.54442123792335506138 -0.11094274009200807973 -0.40101433601000718854 -0.12643273278625272171 -0.23550346998476512361 -0.34493716061351975544 -0.36340066427974659913 -0.55901488529430976016;4.3819560117123126375 -0.49815523753839513477 -0.19167229567505128518 0.023442013999458496259 0.65156515516508384245 0.35458724888586928836 0.25025553509608716718 0.47283333505627328508 0.52858530774735612567 0.47071659409743604741 -0.026093090201287399282 -0.040676825427593280016 -0.32671781978369768273 -0.067689846797451144744 0.11393969093196937292 0.22743656588706176458 0.04309616304002818199 0.15700560869761681637 0.27703704309681381757 0.079399550300801036151 0.081216348888384803928 -0.16439412794621047209 -0.14803347839211977721 -0.0053403130907612320413 -0.14758813962657058028 0.16688853116034263468 0.079126155931443134528 -0.14944017003066659144 0.16077292773531506875 0.011593192747576339802 -0.0594850347034049029 0.25626025606096097809 -0.0027782295528446842095 0.38414396192625827053 0.17214536977029970544 0.0023941449658812460378 0.039024803093238497054 -0.067688042451426233548 0.35031683510970063056 0.15193917143295299077 0.18935513184560073818 0.21620169471459055321 0.14176784710976780834 -0.085905026104196577363 -0.17370420385267920649 -0.3397008159836957808 -0.38365098230540917168 -0.48388143305013492368 -0.68746220324596607476 3.2159740571200292614 -2.2702481350061480825 1.1127236686035744118 1.3710207079013667641 0.86628435130222569693 -0.31980843023771948763 -0.49646099444509617094 -1.0094202765426434354 -0.88502506966147853618 -1.0416598158198926427 -0.62698787970635772027 -0.4020011852707071065 -0.52598267941658449764 -0.23374281178092684574 -0.32144242981215220833 -0.2051556720445621429 -0.038251926381405496058 -0.23273279880032451961 -0.010816749155529818693 -0.043993570793339195624 -0.18444444969795653622 -0.053173839834871318433 -0.17236690806984075741 -0.24378147733171859346 -0.39785245045888129045 -0.37493699459914747729 -0.37104754683285046113 -0.45498020639045605451 -0.16781782459434829713 -0.57060096395234305433 -0.68028937439650516428 -0.2192006539522269315 -0.3017403735002402998 -0.29875375049361918567 -0.33251046391391153589 -0.32790700216279039525 0.089462722948469478035 -0.20825840029140685328 0.16609826889508297332 -0.082646830116260644461 -0.19378588199713117635 -0.18991893552755556573 0.04949347043843916466 0.28387366287873677662 0.071984982276083908648 0.28301365990963700536 0.00062427454729793371846 -0.057298757983441139796 0.096106372339435364172;0.92723774632609956559 -1.0719437491563412745 -1.2691671656578744631 -0.70957309589279626838 -0.55285049387701357126 0.10583640135583365083 0.12973799357065143867 -0.050320372312581712615 -0.18012521450360294284 0.018616042706075870694 -0.11025409621121318171 -0.029610102043780506254 -0.079107512335501270484 0.15571107531165828686 -0.37850941500160928399 -0.35171083881004333582 -0.23861191694967329169 -0.14250542069813984525 -0.44189407025600757617 -0.30343046699216053019 -0.15074475120478642021 -0.42762840312186300995 -0.10357730905315679082 -0.04059810120356018015 -0.27077074936705591846 -0.11589153254996786835 -0.31862095530086226303 0.11711825299793837685 -0.00095992888687859018182 -0.14798059786084827305 0.17838721145995586892 -0.23680082779959174544 -0.13140131579260583283 -0.14552760782085694125 -0.033954755058648887489 0.100020572090584417 0.17480491845182632993 -0.074383301873247612002 0.22924422055326565406 0.21103991290613294263 0.005036574867889954607 0.059067720964263041583 0.43939194332096309648 0.29115769156915249916 0.15116271119096205688 0.17144756887506826248 0.44173649825265443036 0.20253262639112790122 0.10305960012972786854 -1.8339529034129833374 -3.1358509208717006977 -0.078634804495959206849 0.56577590334668748095 0.81000326877753092703 0.95587472232415315876 0.59029711191365974443 0.33243765315485901413 0.27668968566502627482 0.4070597968127863675 0.30332023427590171227 0.42419374730392900297 0.5013473351428646696 0.61851684967385012204 0.23642379184625383903 0.56749102398795603364 0.50419464782840828221 0.46468876311047457861 0.42541827738884308019 0.51642785803269597444 0.59017957766078588122 0.50734525567895882858 0.4710275026198879611 0.41779117768603024619 0.41263121259247959038 0.54861431403736837797 0.2628843210966101962 0.084053174425402166214 0.081324249419247734982 0.23554762668673795423 0.46127923000753723315 0.46656230415408284085 0.28547533792064094804 -0.045290824347553562679 0.15458059775022389704 0.29277866315765810334 0.33981370756575662861 0.38662188674482689255 0.33232198101631760245 0.13114635352853631911 0.092311154894632943546 -0.061164390908771917865 0.11497087000857110495 -0.40787711843474316886 -0.014601727089305223048 -0.23563297067234112436 -0.68753072313611329758 -0.59139943735028643879 -0.81681809565509699844;-0.2295828284629447269 0.12119447190062937469 0.16832056769325487444 -0.045647412576858073519 0.42843610563557643633 0.45852688186999002173 -0.060789355983754428392 0.1099271995529639695 -0.17794131341335195362 -0.14614087536835329573 -0.0025605829711868657861 -0.2847588515055655134 -0.12509100576429577067 -0.11512583034455689535 -0.036253317980715973889 -0.11606246308909402842 -0.22552990015257592948 -0.15939185280795303834 0.028717286826390964194 0.17285609294010290116 -0.18580287978523205017 -0.11393469587609753035 0.2102516466596774658 -0.20338496842030295841 0.17064478783723258104 0.304774503634427818 0.35281751094979058037 0.19859082773206448991 0.29270507349460411772 0.24303687664678758074 0.31369702945975053154 -0.098412312479251917718 0.0014732990227750808292 0.13625123652660764417 0.1310944165111285753 -0.024192480640246663559 0.11557170565508231852 0.00094371593755117680336 -0.12781607630711594448 -0.21567825440029256279 -0.12668615530247387402 -0.2393641386566920104 -0.0039950149055008894045 0.15877775290564560828 0.17494471838933164931 -0.26063065274726582299 -0.1928472897356779403 -0.084305537412163081279 0.061213974064886364501 0.037967497573210745587 -0.28781034401334515405 -0.1443541834892049236 0.18835113493879454549 -0.0085232886275285260624 -0.052721222323196634263 -0.07528332111552911432 0.061187655588762629444 0.28288996183814546503 -0.077461109262581748225 0.079797375115688087832 0.18981850634478542039 -0.24959908801254629407 -0.24826451829844992103 0.12933042076659143071 -0.2522790983122860653 -0.095726472224182096449 0.16527537065752617718 0.055603351073024720463 -0.062376097581448117224 -0.24783177686304402876 -0.13269426874080836321 0.085896584108388199241 0.17557135825963637865 -0.10839594789670073394 -0.19169123323137679527 -0.13829406819533293649 -0.42305800448044916795 -0.0422424005998093266 -0.2621370649642087991 -0.072913740948115701723 -0.088382618873756035871 -0.41531900588057285573 -0.22925259633098907242 -0.18127088460390294866 -0.14042850110176724465 -0.13680255514219558099 -0.10800831586430204023 -0.27405483615101200456 -0.0063173651320354261285 -0.090069835538583414847 0.005600951032495407253 0.017980119978680222936 -0.052498068491795751855 0.27424686093757794092 0.49834692889335419075 0.4306589778716345962 0.42461047639110188756 0.39824402316056778384;0.29030405830179739635 -0.2785573245035906087 -1.0287076025319441541 -0.28182848337982502329 0.0040725060903953232139 0.077095987143364949623 -0.21859623932410676694 -0.083920354306056335614 -0.27245628953830558494 -0.28181818015138249134 -0.32477984217105659859 -0.059545015814417956435 -0.11242908416473415545 0.051450903033523773256 0.091344701636913730458 0.086559405937344985338 -0.16827119009644722625 -0.0024984525347097330528 -0.41188584123903793088 -0.31699627286144638205 0.13619804443710564756 0.04631910161400733944 0.027343200909365004969 0.028394944111513550217 -0.030188095230762858334 0.14808494649474224225 0.010641632383010015891 0.2356436173520137789 0.084108314616900561878 0.32909362120030283272 -0.12212500016252128554 0.11355761018410695518 -0.03322867298440469741 0.22705706594486302352 -0.12643518205806977828 0.080678863404360715017 0.0032374171843375008049 -0.15729130287384346376 -0.058209469253349237217 0.020025860596950939563 -0.088472917491610014729 -0.45976035664742975761 -0.026230039076230428352 -0.48018771712621699521 -0.21664204645771800717 -0.21164656906993317698 0.14774987775833198222 0.2575019831820083982 -0.041391893583485404873 0.49953416061417765803 -1.3379274681305974859 -0.93707990563749998802 -0.48371904543917870756 -0.028516352372882705635 0.20920382746115739891 -0.14229727663995206388 -0.14291554810833934086 -0.1674589240155643366 -0.31326215119614519988 -0.20586820533350605467 -0.65592904582756983434 -0.3448613249269193437 -0.37058540213765728266 -0.32512852487829929649 -0.85414113979161032653 -0.62743160707484213479 -0.34895794699872412226 -0.53947223098499375027 -0.18661090021568546571 -0.25026616149417635349 -0.23012942138751815713 -0.19000088542282120296 -0.3460188328077842268 -0.18528143638220287426 -0.29288673864771974653 0.0042330098837445656254 -0.2706297358315817303 -0.010708205639102064827 0.090470430994385092616 0.38253462873010418699 -0.0043345225050765122388 0.016472239413195574609 0.12165078335439144519 0.15498601898322048043 0.073313595231572964428 0.10868706488973740865 -0.027537665711531263829 -0.11494352925663045561 -0.060765600104460200381 -0.0022339076093381526715 -0.047924155509231215755 0.036909456423433337213 0.31859437286359770791 0.32536079122279509823 0.0077896194155028424325 0.046702900618718262704 -0.082394025998060477223 0.16709561126415695131];

% Layer 2
b2 = [1.1761641971980401067;0.82532633707827762759;-1.8173425293213507636;2.2080428481488860726];
LW2_1 = [2.5504794834363657685 -0.079188989252603453339 0.40018816603165158208 0.0094800823931594918603 2.6519019065993645334 0.0054698780256451206422 0.14555442755398570465 -0.58565484678375023808 -0.48668095644713771364 0.048868920487925709972 0.18306628276598915783 0.60298201997989508971 -0.055974698129834507543 0.075886579765388734176 0.050995047018178668585 -0.14224157755135263814 0.15696280704809290052 0.62564901074647816248 -0.40441557178980369613 -0.13658739105845951745 0.015757187414401983838 -0.41371928997200818623 -0.010643762018256454696 -0.21019307745537557652 0.29893515146419380457 0.6328711398396348331 0.18814711864675762176 0.15892299145752164513 -1.2965232200692957676 3.3954888165877212813;-1.1722038433630856957 -0.015454319176867327423 0.84862472243317876863 -0.14809967201180182506 -1.3945514281019917302 3.1883657851103959224 -1.0328185464154391315 -1.9520850201624482256 -0.58991218607871642732 0.066431250790370363624 1.5094541103364664814 -2.2759077642006504405 -0.081895667069677796635 1.3357896132215745233 -0.2617468017829209237 0.40570035868075965402 -0.35251665672321808032 -2.3045045297873971712 2.7933094023764186709 -1.775178786524302943 -2.165637738468201956 -0.87995091756757326529 0.020300576529463664616 9.8204592629367137846 -0.9153076953777868896 -2.1448227714558143475 -6.6469300626990319714 -3.415149234813317225 -0.94236357285927563332 -6.6549986409105930107;1.4389572681105022856 7.0184428431182244168 -0.3673223321894929505 4.5750694426027296302 1.4881970046048591527 0.22620140515562375816 0.82975987962695729738 0.59637776185360547032 1.3619892611296693374 -2.7032621899237230245 -0.54822288311570466224 -1.15006947941008697 2.4869994483813400166 -1.4929495749473331578 6.9242548377768766699 0.52720662642144544563 -0.76554026999433433254 -0.62275780077411246882 0.7440461947181370439 0.0218405978909726739 -0.015563206894948590497 -0.54834273836433766736 2.8298789576066818441 0.97383275452520201565 1.4080599165497227343 -1.1059832053620970438 0.40368389340031585188 0.51843012240605101937 2.0968038552017458365 0.74421728937908449009;-1.016412605275882397 -4.830144335210463602 0.73216829724531384826 -2.0058271212359497504 -1.1232865905910189852 0.63620882355555063992 0.22225323910306149511 0.15622343439620456351 -1.4927158896593657467 -4.0855542740833472592 0.070721553571660683568 0.26656361361434238733 -0.06226796030692327566 -1.0704166564468375888 -2.2103376088456578863 0.88964073730610249147 -1.152997290281475351 -0.72884109517451989291 1.675974662504842172 2.0306215429354748103 0.64671059966343280578 1.258378657757954322 4.2883039017201820542 0.69181507266213781993 0.3851150526990628209 0.14242769562462248567 0.10908619617726852957 0.57083548957490770626 -1.6305967634956164414 -1.6858874553430696075];

% Output 1
y1_step1.ymin = -1;
y1_step1.gain = [2.00074836754406;2.00037480734143;2.00083125449966;2.00020989469681];
y1_step1.xoffset = [0.000347410532073322;0.000111836139844779;0.00030931306170956;2.45297456681337e-05];

% ===== SIMULATION ========

% Format Input Arguments
isCellX = iscell(X);
if ~isCellX
    X = {X};
end

% Dimensions
TS = size(X,2); % timesteps
if ~isempty(X)
    Q = size(X{1},2); % samples/series
else
    Q = 0;
end

% Allocate Outputs
Y = cell(1,TS);

% Time loop
for ts=1:TS
    
    % Input 1
    temp = removeconstantrows_apply(X{1,ts},x1_step1);
    Xp1 = mapminmax_apply(temp,x1_step2);
    
    % Layer 1
    a1 = tansig_apply(repmat(b1,1,Q) + IW1_1*Xp1);
    
    % Layer 2
    a2 = repmat(b2,1,Q) + LW2_1*a1;
    
    % Output 1
    Y{1,ts} = mapminmax_reverse(a2,y1_step1);
end

% Final Delay States
Xf = cell(1,0);
Af = cell(2,0);

% Format Output Arguments
if ~isCellX
    Y = cell2mat(Y);
end
end

% ===== MODULE FUNCTIONS ========

% Map Minimum and Maximum Input Processing Function
function y = mapminmax_apply(x,settings)
y = bsxfun(@minus,x,settings.xoffset);
y = bsxfun(@times,y,settings.gain);
y = bsxfun(@plus,y,settings.ymin);
end

% Remove Constants Input Processing Function
function y = removeconstantrows_apply(x,settings)
y = x(settings.keep,:);
end

% Sigmoid Symmetric Transfer Function
function a = tansig_apply(n,~)
a = 2 ./ (1 + exp(-2*n)) - 1;
end

% Map Minimum and Maximum Output Reverse-Processing Function
function x = mapminmax_reverse(y,settings)
x = bsxfun(@minus,y,settings.ymin);
x = bsxfun(@rdivide,x,settings.gain);
x = bsxfun(@plus,x,settings.xoffset);
end
