function [Y,Xf,Af] = myNeuralNetworkFunction_test13(X,~,~)
%MYNEURALNETWORKFUNCTION neural network simulation function.
%
% Generated by Neural Network Toolbox function genFunction, 20-Jan-2019 17:29:01.
%
% [Y] = myNeuralNetworkFunction(X,~,~) takes these arguments:
%
%   X = 1xTS cell, 1 inputs over TS timesteps
%   Each X{1,ts} = 100xQ matrix, input #1 at timestep ts.
%
% and returns:
%   Y = 1xTS cell of 1 outputs over TS timesteps.
%   Each Y{1,ts} = 4xQ matrix, output #1 at timestep ts.
%
% where Q is number of samples (or series) and TS is the number of timesteps.

%#ok<*RPMT0>

% ===== NEURAL NETWORK CONSTANTS =====

% Input 1
x1_step1.keep = [2 3 4 5 6 7 8 9 10 11 12 13 14 15 16 17 18 19 20 21 22 23 24 25 26 27 28 29 30 31 32 33 34 35 36 37 38 39 40 41 42 43 44 45 46 47 48 49 50 52 53 54 55 56 57 58 59 60 61 62 63 64 65 66 67 68 69 70 71 72 73 74 75 76 77 78 79 80 81 82 83 84 85 86 87 88 89 90 91 92 93 94 95 96 97 98 99 100];
x1_step2.xoffset = [4.32128783732169e-06;8.64297645293357e-06;1.29646650578897e-05;1.72863536521902e-05;2.16080422358348e-05;2.59297308088238e-05;3.02514193711571e-05;3.45731079228346e-05;3.88947964638564e-05;4.32164849942224e-05;4.75381735139327e-05;5.18598620229873e-05;5.61815505213862e-05;6.05032390091293e-05;6.48249274862167e-05;6.91466159526484e-05;7.34683044084244e-05;7.77899928535446e-05;8.21116812880091e-05;8.64333697118179e-05;9.07550581249709e-05;9.50767465274683e-05;9.93984349193098e-05;0.000103720123300496;0.000108041811671026;0.0001123635000309;0.000116685188380119;0.000121006876718682;0.000125328565046589;0.000129650253363841;0.000133971941670436;0.000138293629966376;0.000142615318251661;0.000146937006526289;0.000151258694790262;0.000155580383043579;0.000159902071286241;0.000164223759518246;0.000168545447739596;0.00017286713595029;0.000177188824150329;0.000181510512339712;0.000185832200518439;0.00019015388868651;0.000194475576843926;0.000198797264990685;0.00020311895312679;0.000207440641252238;0.000211762329367031;0.050091556399955;-0.804641579995925;-1.46005000320758;-4.0558650877695;-5.2302385082869;-2.17138339162311;-1.44167252659463;-1.83156331041572;-3.8067184922476;-4.96008861011815;-5.14231187896243;-4.38880612059497;-2.90045013680246;-3.35091389628915;-3.98245567055555;-4.19367119487089;-4.04865018316049;-3.62612901747888;-3.24996254375965;-3.8834932331903;-4.32262318439445;-4.56224016077582;-4.60547948810351;-4.46307655007626;-4.15245851698756;-3.6966279138472;-3.12289556528869;-2.46152278786912;-1.74433250800793;-1.47148731295299;-1.80671529501802;-2.09940265514206;-2.5346001090747;-2.88314622314725;-3.14975513348005;-3.33981000268178;-3.45920796192782;-3.51421510143024;-3.51133249971696;-3.45717400747947;-3.35835624775102;-3.22140106222546;-3.05265042452923;-2.85819365568011;-2.64380661487496;-2.41490239986164;-2.17649297487334;-1.9331610495801;-1.6890414586612];
x1_step2.gain = [0.188177739150093;0.130160878511989;0.121807056753385;0.117274428803311;0.099462966681594;0.0878593411088567;0.0797671542668156;0.0738522063650151;0.0693785607062039;0.0659068911263932;0.0631586467971226;0.0609486187739524;0.0591488342223061;0.0576680185217308;0.0564393184909903;0.0554126528667909;0.0529457106811791;0.0504031562753428;0.0481324299534194;0.0460924567985997;0.0442500400763657;0.0425780588358508;0.0410541386912202;0.0396596569316594;0.0383789878007506;0.0371989229208854;0.0361082212090764;0.0350972557424615;0.0341577340540185;0.0332824746413918;0.032465226935778;0.0317005251806201;0.0309835689953127;0.0303101251063677;0.0296764459948994;0.0290792021578181;0.0285154253970106;0.0279824610972388;0.0274779278733658;0.0269996832925728;0.0265457946306872;0.0261145138206887;0.0257042559086334;0.0253135804571475;0.0249411754364957;0.0245858432234792;0.0242464883932595;0.0239221070418436;0.023611777419916;0.041970644205023;0.0421599091495107;0.0403108945100459;0.0380907709371476;0.0372203910137352;0.0394628597414075;0.0400426242839245;0.0397371723521677;0.0382412607208322;0.0374206007172293;0.0372979144625485;0.0378340929294176;0.0389350496819584;0.0386013624576654;0.0381411776798932;0.0379927925853583;0.0381024047090931;0.03841633424044;0.0387007341410277;0.0382367340940883;0.0379230035541783;0.0377560500105761;0.0377298191656801;0.0378360386627414;0.0380643312742137;0.0384021716147019;0.0388347650687548;0.0393449330605686;0.039913093556218;0.0401367713411574;0.0398736473915269;0.0396473571257442;0.0393131842637929;0.0390505546176293;0.038853156609985;0.0387150303557617;0.0386305315269734;0.038594296300438;0.0386012096244298;0.0386463782541333;0.0387251094292554;0.0388328956297925;0.0389654054993121;0.0391184807378172;0.0392881385198803;0.0394705787795506;0.039662195519961;0.039859591155818;0.0400595927869824];
x1_step2.ymin = -1;

% Layer 1
b1 = [-1.2023934502586570705;-2.5240805647216930652;0.36385255672712574215;1.3281518180399469742;-5.1773264871798252429;0.4745618481029474367;0.44996212613198727226;0.99997590619932108513;-0.24260812979009452328;0.091104634698953981808;-1.3051762950756380377;-0.60553388739413205322;-0.21933652851346324697;1.2099847087814581403;0.61416399128562593202;0.5534532797166739071;1.221575634381400377;1.3689074486945369546;2.8941135754881233133;2.0137688777081463876];
IW1_1 = [-0.034547626186397270565 -0.1958472995085996371 -0.030112819782872418672 0.041704819180257562961 0.025841860852347915689 0.14189155723783383745 -0.19634575425877387467 -0.072378556761151069399 0.11539270439330985563 -0.24303707976092758791 -0.24423926886281352444 -0.17688549132663705654 0.13149786360651535833 0.015866653659068766236 0.084669098584107468919 0.075972367102418891793 -0.094181245199690857839 0.0092873936931038136161 0.12120443689772718299 0.12800894386073197184 0.24422058935686297154 -0.16970272150842494185 -0.11370507010404574955 0.27192475598068793774 -0.21973807988012764025 -0.010813084870916096769 -0.025793531327335798842 0.20404337241248160506 0.077079584365627756837 -0.11455706944932014801 -0.0023602153936782741504 -0.24978309311972934914 0.26006983455016136064 0.066582540614221585873 -0.13521533070098953888 0.23656768075567502496 0.10233474235631803695 0.16660160570077858777 -0.089818578033939791561 0.065018895089396927522 -0.11695198619301357124 0.028772687535956967958 -0.090016022018701249974 0.075677135456147626158 0.19514524441986277892 0.20446108201377002911 -0.04247823751318399732 -0.14253801265925528097 0.11486548149250681849 0.33919817517591244194 -0.20076898286234251545 -0.33034922052166193485 -0.16708159116698007018 0.11427179847462684559 -0.057358723555524876447 0.18682868487803522273 -0.14803409707053138966 -0.22991351082006544759 0.12617880443457696327 0.18816657406160913757 0.037012221441000817124 -0.01607641490551321023 0.02039273069132186561 0.23486290724144676112 0.18679165249884560618 0.24781855849815376258 0.081939435882112693355 -0.046628314077572452501 0.04014451622730566549 -0.021986231637197699296 -0.05548997482688895061 0.037084258012090066947 -0.14538297499168312266 0.090042498358118519541 -0.092685033365972779862 -0.048702109216313661799 -0.036205617048528926372 0.078503611834458794649 0.2006198564834718312 -0.13258809211775668402 0.16811633414869814329 0.22821052268679098418 -0.10492693331996680306 0.029333074378004562327 -0.037518802983383614524 0.24227823930071434866 0.092060831517591146245 0.21402991876541335725 0.167004800279870802 -0.20515964059954711063 0.1943258602257157408 0.083788546620704118517 -0.13493423068600790549 -0.20784853613470954947 0.18626982465654567944 -0.054809555437709080172 -0.14356665244979788243 -0.083178465191972902892;1.0687643082830724506 0.5927001813542722708 0.41530097418914491136 0.42374281269376351533 0.35026468210428862715 0.2543745587671532582 -0.048426105560119808713 -0.046466564854060775358 0.23125366460460250462 0.14716755464509800877 0.2263325435900153948 -0.13514645879992412403 0.10950005970692854029 0.26081835020231186606 -0.22365919506895659552 -0.12259194048462664084 0.19975425165550780848 0.1399731744582581594 0.075324727815768002803 -0.091351379088911929816 0.11690948779519064193 0.19298962315559956004 0.21385864478536184552 0.12474993110694380938 0.1475490647642691 0.17098709998299291279 -0.0077115561741197867843 0.29464822040409666126 0.30973869258060743315 0.10487051246288134343 0.32442290228218989556 0.19353345486356024474 0.092607636620485558887 0.15843875189407849446 0.15127346970514804481 -0.088057810528144431217 -0.068995624844030142842 0.067034098380429910091 0.030884840394604630431 0.21712936016472700329 0.41860537029038330514 0.071184390175193207329 0.15140703521305998169 0.28535618634251164183 0.34001414082275255302 -0.0056396606716063758802 0.49449914738195810404 0.47989563586440064924 0.21460700217399480971 -0.16968469369014263504 -0.40506309136226931189 -0.1061457406527871461 -0.13727957997610590324 -0.47460222032686377736 -0.16815333071443999691 -0.1841851257960620547 -0.38488427244798695259 -0.080063547897769218875 -0.072028617607490200148 -0.52718030806394500232 -0.37896405802751498282 -0.44214512652772147705 -0.34414088966835104655 -0.53484580969793049654 -0.23842391335380910822 -0.36502254041076498403 -0.38152091958374545477 -0.56319384778259440338 -0.39980644220417155266 -0.32565160925508374046 -0.36287276273638702229 -0.39012184957292783682 -0.26783037261938691387 -0.39323520133824757528 -0.18051992478947281873 -0.16168175765361381124 -0.21813056154642554429 -0.53960505694779037356 -0.45686733813886543087 -0.09467550902966051507 -0.32546465427594434283 -0.51236201391922919779 -0.21904417913848758803 -0.12503595826347851938 -0.47240283148502548727 -0.28111443384994283523 -0.21175361729548844436 -0.0015461292941840003301 0.020314005725263230978 -0.077180677891264690138 -0.016033785109236489697 -0.22014997955778825567 0.088826374431238891427 -0.27667215682452739323 -0.27926518354667140276 -0.055290361025335361955 -0.23407740344124092213 -0.10955619249220766021;-0.064326949739236138903 0.089408916785843492447 0.028687684125301624732 -0.31020624089760590048 -0.11611099256209439501 -0.33717902582015496504 -0.28094965181865011461 -0.00070565414834584602732 -0.37182092435582470014 -0.41728908683968424231 -0.41663894045750732298 -0.048551013250514155062 -0.033593538857203335268 -0.31478219362960607741 -0.064128917332840651433 -0.13953236324993817385 -0.30281780700877403145 -0.23530352511403493376 -0.25416672677450952156 -0.15207080348225660016 -0.43953170127402302336 -0.063944899024801798992 -0.12702778580326962166 -0.13996553906983866256 0.063683115640808446445 -0.24631028456512063518 -0.12052116470866174047 0.086862529610287300685 0.038134432238941834425 -0.13644497272410596733 -0.092867259446383770838 -0.13191479942638251188 -0.21037114613250434969 -0.030388586313875299433 -0.14527121613947346912 -0.18224889010693087754 -0.076547538788649838182 -0.14430950488212920813 -0.19049151156132379525 -0.21611404234497777477 -0.27571724856290003025 -0.35142605531639370398 -0.023033302381693460115 -0.15812957891733966931 0.023820340579959416172 -0.14352946252596279764 -0.14098439516775801428 -0.15055670566367626573 0.028627174332998335526 0.29285564164814625876 0.39717189542377179245 0.44114370223341914379 0.33934867193346773817 0.098474607664481170199 0.39182580028743768663 0.38836185796177957741 0.47015648760338518697 0.02374598379252144259 0.10738821078928538488 0.094807689730829675101 0.43446354000831566289 0.46505727705420080165 0.12220887995640994372 0.24257886158743896532 0.33142790847011477373 0.31598322506165016366 0.28517133466628935556 -0.10479208555432589778 -0.057753775455597219923 0.25769909513452587957 -0.029875439813218822305 0.2632921002791141496 -0.12486361738781955044 -0.14615846014826000543 -0.18007090960543187252 -0.17529745211328326415 -0.17879660198607608135 0.10017458751966405728 -0.16606330223508886101 0.17739077633690866764 -0.20614341095172186713 -0.16922369978345747077 -0.018397909942512533782 0.23114433838622280848 -0.19723421114029079937 -0.16555420771374010358 0.12078587545046418072 0.023209573750783005913 -0.03096172593493440317 0.2786398707805409769 0.06011908808162260559 0.37493866142726678392 0.33389625085204466259 0.43484744934700808594 0.20860837450629421408 0.60790548140867750604 0.68398499693114545028 0.75017569862804689418;-0.49300282545825452329 -0.082680765967779554226 -0.11143887237577089488 0.022443031497992305817 -0.050821220968933322748 -0.36891021765954096212 -0.096031436343880810513 -0.26443046558666338797 -0.089928369118976406171 0.073852424364963115133 -0.16006249732012456377 0.091146769343181263667 0.054862487683603446131 0.029533793433077080298 -0.11698796707760765468 0.20130534837692876104 -0.070649302478950945505 -0.03509330247619906612 -0.1800713839246523007 -0.084754044030024802692 -0.097299010324613174894 -0.17880678848150455273 -0.14850614557899277646 -0.15762924034649361538 -0.21023363077979762004 0.10272658119500889529 0.24840537069650070467 -0.025825936175594508409 -0.11865051425092829063 0.26542849093654785619 -0.16391553874651029754 -0.060087378606680716397 0.18506805593242192653 0.022717456426342888531 -0.14926436208476606682 0.096418085784763046808 0.16391190836877184145 0.02396162943667019124 -0.049344275776854740201 -0.2318368395177754504 -0.051237763775758005114 0.13519058123457736165 0.090523509474255858809 0.11380078250631581183 -0.013998406921263990138 -0.078030357387331744645 -0.21593176504351729861 -0.41464471221854198868 -0.1933444819153807559 0.54161255243900807699 0.47689821866622228441 0.1448510442322475944 0.24695678825468855844 -0.11515739985792486366 0.023673296383998128356 -0.0047695038209851648575 -0.085342563646106803232 0.21675606679593120707 0.2460604082881746868 0.12981129863663318225 0.35698034184409827008 0.34420936810245694737 -0.11463480277191680223 0.14323016272221991696 0.31285616880264088824 0.18314959129936447813 0.072453967089148293979 0.21771682178266760221 0.31413345569787587408 0.15309414096486614887 0.15706003645433699867 0.023691970757506303907 0.23059818281374636073 0.37955469928604834706 -0.0097856955983321933235 0.144640259055618281 0.32861040480622710769 0.36058706590511291346 0.12741926447039220172 0.059178324483251415478 0.36368333475839287328 -0.060158043646538691962 -0.10636283374643985822 0.20531688273543274859 -0.019799950540105682589 0.11908923119579641059 0.22328569225912955898 0.086744604163171451505 0.079855260434885694254 0.15806420037207763452 -0.24702577541464809663 -0.017746824377768567749 -0.090877398175730886298 -0.36029289280980314469 -0.19523149216249174875 -0.3448734638189284718 -0.36565689442398258135 -0.37711309385864122401;1.0720763082628148588 0.075252891420853507132 -0.32644601202244599714 -0.0043526212747914336254 -0.026124671760354115091 -0.047328007195994191425 0.30004709788780620228 0.077293892819168569241 0.17022155106715483597 0.11441131915285682186 0.089894314047404860757 0.25658030513446961063 -0.0178613265253346927 0.065220768951289989634 0.26810604323146774997 -0.14191624944804873132 0.11757904154468121205 -0.00055437954954513229966 0.2719759871835412679 -0.11054447786689640398 0.22372257278548782211 0.083353978631618835804 -0.033799799331340141251 -0.035563565404428038041 -0.065341731005094202955 -0.051864809167959109726 0.1239466380227299408 -0.095574905329958229072 -0.094105052413189740901 0.15275792614631339417 0.001054288702358664731 -0.028851305364226309536 -0.11003416214856277799 -0.015331050245337464466 -0.22855428339002578642 -0.069622259161302504915 -0.046581528308795402959 -0.29606636422737109271 -0.25994271082383113569 -0.28399695710283440198 -0.55637265189496121209 -0.53984369308087154504 -0.59898229795988189306 -0.47170976969695360692 -0.5798300577943514833 -0.46520967243520250367 -0.91807091124583750652 -0.74056543517795581089 -0.97141882192837025745 0.063493399616801657337 0.020425564012037267236 0.44201599800927515727 -0.03664786765927890988 -0.49470401585333984018 -0.029121859805349641082 0.1159895208120115262 0.090896980512714636857 -0.2945976486919851256 -0.25585776328172343819 -0.34889333377897346899 0.049495033587102714445 0.08412981340972726374 0.18177046496401336184 0.1112863287912610466 0.085717542865147364206 0.18497124690472441233 0.0063455466221758460854 0.27984343072258116569 0.37532267210432501692 0.059847757518601676918 0.34497874762020874773 0.043290423731762631143 -0.034807831623546899025 -0.022605628640283776526 0.039722221613219456382 0.36900639368008514296 0.28229820255937976281 0.5124989518080954598 0.16169522324521995449 0.51737045246516677466 0.02716280930651421982 0.066768539984745703397 0.34375606303532818542 0.23675686316139779586 -0.11011640787676492403 -0.23301994653449492612 -0.28258077711347306948 -0.113560417053128207 -0.3733936893779001287 0.064121565978910444183 -0.3299885397331813186 -0.17256422968759638215 -0.11212469544046210768 -0.48930334414457693493 -0.12741177651614857269 -0.48813562552107514492 -0.25069501903154423061 -0.57982689652662255941;-0.2834803110319473185 -0.26805352717530894768 -0.060352664437617553617 -0.23803279887212128174 -0.09341899388055623088 -0.0032414997566663013469 0.068935470851998845165 -0.21853569950145548817 -0.3131285729995891276 -0.27855929748158919645 0.088503225735336435442 0.23300489853184058742 0.12899785983584680094 0.017559355937253173091 0.27839009530791125613 0.06516265439938001558 0.020497551818888508357 0.12463035199774027961 0.086098986066019234098 0.25259445171022376631 0.29603663368384702803 0.37627249550735508699 0.11274174988356186478 0.047068389302225538406 0.0027249191269753114675 0.29470513666061320945 0.05292041215479796612 0.207679587363536311 0.053643613555309076213 0.23874533415200385744 0.044236590265120834253 -0.058708822594515777671 0.091211873039306612387 -0.010898931809249510008 -0.091881016381417476846 0.25373400746388419247 -0.077042722202081290184 0.032682439704392135527 0.24382724252852550073 -0.15747098963036632036 -0.058150760984127650155 0.099706875352935639412 0.034847724552927512864 -0.030350622201316644622 -0.21018591369173991734 -0.0089922774634586567777 0.16822914311023617895 -0.24819220514501383335 -0.2760584403878385551 -0.089016920334511737134 0.28234589288332267998 0.36787699095825404649 0.2638790110972031866 0.34257146284214090581 -0.13870188976103775547 -0.097147278760305558198 0.062693714767694391776 0.013539135771196045277 0.37439412815075157059 0.077160496036940973141 0.39507383114092015086 0.35469823246311482645 0.27480755710207360742 0.5333699468933044141 0.3911437176710409469 0.43287581897853127932 0.20606485258525902848 0.1768424326565664062 0.38952369792767282952 0.29095944401143225555 0.18486360385565825393 0.58506937286161353473 0.168730407396881249 0.44235935931470032889 0.24159993580114655365 0.24488950190280384112 0.12448882922667688089 0.35985985579878554397 0.35894455670192310093 0.069116921788312621344 0.16248882712157933228 0.25570520060955048702 -0.14793059913236011882 -0.11873536577226595501 0.04966457861220864578 -0.32026052872221760781 -0.17000612018070465625 -0.45370110425742604665 -0.20801190877786984723 -0.4632367795407477673 -0.48873107778460361805 -0.68075385299893109714 -0.84286181222974798644 -0.59052993880914239622 -0.65641079264295010276 -0.93303148611502217946 -1.164721224621838358 -1.1945098567272962597;0.93442295441152334323 0.29278925118162307806 -0.087238779414046507821 0.28031626965812500574 0.16123272914871195072 0.085131314148990722135 0.1633719635906604184 0.22007097685895693484 0.18648748068946530143 -0.23600310047224401511 -0.24847744931625706521 -0.13556254680803625501 0.074265273192324662843 -0.071176476361063917286 -0.069846877762198139594 -0.0205430850019224856 0.043394676102567482368 0.18696930524406918384 0.012843338070546059596 0.30850264411478939275 -0.075320360965047850055 -0.15937113593776633391 0.093891891090029003242 -0.14094083847207186655 0.17499855921724055685 0.082750438838889925353 -0.13644034512129873948 -0.14602944548552448945 -0.00071272277142543465078 0.056898066819129081151 -0.32373880779991665024 -0.13586253743873258348 0.048310142429515583185 -0.29773281880335455973 -0.072167404932349743518 -0.27883499655812293838 0.011183101071403318133 -0.16503914659019489064 -0.23992083675740077942 -0.27178189722403139905 0.21349053798654407665 -0.049234061500799904121 0.11191141419170802518 -0.014612452114925360627 0.15889137958625743074 0.11818807769137580632 0.18071649890183666409 -0.063161301092048899308 -0.2334736825897694712 2.2685613196466896113 -0.19507385130427049025 -0.24232235096904741756 -0.40792828129653174729 0.050165975565848341944 0.22766855590908607887 0.16951185474033306222 -0.013603754540546672547 0.10444298263473547617 0.12505650406034163336 0.018031092326401966519 -0.094174736730059244172 -0.036122908865164900238 0.19291558169600261929 -0.15670775614767101791 0.027550542108792930307 -0.042608928503465808013 -0.065918604507849226648 0.027581090686482966773 -0.10482160581207129735 0.22425896578341389387 0.31007746493192206438 0.021603175369003579931 -0.034635982237395099292 0.18964299604440823521 0.1609125757926015976 -0.090602325133077823982 0.10586103368053602358 0.20813850284921919798 0.12197673879188444812 0.04143080238839664392 0.090060328454345459082 0.011584516392364938714 -0.045941754819575665592 -0.12142884996935562891 -0.10010273289929835783 -0.19182929672343548844 -0.16194029917419772158 -0.21914057475671516739 -0.24723596626367613793 -0.12577467356462118664 -0.38371861926707206969 0.054664519791561422268 -0.25876688248508672441 -0.025245412370443684469 -0.5145318579809754489 -0.23814910687114154708 -0.34982912984802383427 -0.52633098597265515206;-0.55594207663616823645 -0.65365476850123371833 -0.57801912899359708664 -0.25901344721507690849 -0.10951256670936430904 -0.4786355315267667998 -0.43125729743387458681 -0.25212398843095962242 -0.030318943816457215312 -0.26661583734544075375 -0.12317731021154207371 -0.32760112335788599269 0.029942097747619265957 -0.28653788745208663702 -0.25346936459138813547 -0.041555430660300859969 -0.10948407765683712545 -0.064446794246804078865 -0.13908602773129333241 0.27846970571678619777 -0.11952996745371533005 0.10025654095112981889 -0.042781244372573787316 0.030029208405284911476 -0.00058343410487533787709 0.2438484288577303094 -0.11775023788707075778 -0.12045134150774432225 0.25785228494744133476 0.13522538121908314612 0.032658891349608233645 0.21346749556937835712 0.17758163909148633186 0.080452431138967467339 0.31267413403699328978 0.23439513570134062892 0.44744675714265447208 0.11737896292281671529 0.26786736723737086807 0.04248450473410779471 0.40223419044808877976 0.22604640715226212433 0.41555960860309404392 0.40841384277194908714 0.45494906708892218772 0.33166013111010067549 0.096517378764237576894 0.49445120563782463119 0.21734494553905842062 0.18901405420365413601 0.10182593580058944827 -0.16974562253905750575 -0.042083831562992682351 -0.30273468756970833837 -0.025757267439165620893 0.01321533795865151989 0.09664053633688123035 0.035075293726308479081 0.10281530278941877765 -0.064498887970306367778 -0.095053612569175549574 -0.050995458297117324253 -0.26989319488155422144 -0.011157555923004942866 0.13292946784450770936 -0.013674943969719195735 -0.054897049182324374195 -0.13761434872772795868 0.0384310041058084223 0.096254565073537259878 -0.18653938059585029041 0.10645024442402671594 0.25423247388534547797 0.19872705607771087855 0.13466754271758771266 0.25739435816953509795 -0.066332041776823016943 -0.13509839888223659776 -0.21943314347538639408 -0.010318792376406637004 0.023969346958226771249 0.042544026783077261433 -0.12269064564229366365 -0.12778075818172510147 0.26295727240739918962 0.019760865921521184735 0.090336926068611933527 -0.1235036674987799038 -0.18616361409308362918 0.22876647058789220668 0.086538719870905236875 -0.05872309948316153938 0.16770657633786575924 0.23635829756074958063 -0.10983628356723258712 0.27930687973881357378 0.096112126129033165212 -0.067587533100816027387;-0.22660729740569757196 -0.67447662815336417719 -0.48811928326810122281 -0.29473563563019977707 -0.18566775803647195264 -0.30459978897133649367 -0.35805738322924063333 -0.13235417308716573848 0.11278595889826381615 -0.031986320841972087914 -0.24477365098078024408 0.18470748472478346058 -0.12942438107800513514 -0.015270831084533746658 0.11798065594814249879 0.037722408333909156208 0.04116972690121838141 0.32260414878127641192 0.25788144462886791741 0.36247553937730769835 -0.091343575407941329791 0.039849221442730023424 0.27951265087896409733 -0.11619453545647749626 0.2141673916359538854 0.27178237252751158426 0.12023594837404116831 -0.16527348402410219075 0.12784625267788188308 0.02412127589817889689 0.069479419573746023508 -0.1646808483127347178 -0.022822267455163542521 0.11606054275161074851 0.16513506165017108329 -0.21824634225928363218 0.14072683752954501246 0.082348895984891118394 0.19286105522688912206 -0.15278843654749182934 -0.02406712812553615799 0.012253936065907328201 0.11391674383223734934 -0.11070022519436907571 -0.10651541503670107491 0.20438153045018850329 -0.0095694065594148121356 0.025003901568938356748 0.076121726490488719752 -0.73394690143966412332 -0.58835979542241956253 -0.17282744547011610892 -0.11599985404571147574 0.22507912965334544997 -0.095306141491169824032 -0.11108964238473488517 0.013825215775494970397 -0.15461600558433336028 0.085605697917659526186 -0.031357431163717905398 -0.18179141797743675335 -0.051769145213384382131 -0.20492546783582388237 -0.19915227438819588235 -0.29478707196218534303 -0.32942686473046128848 -0.21012467318861907661 0.064055310398373879743 -0.28162040066667393123 0.18828319189251285781 -0.051309940793137262527 0.21605358934799587245 -0.027029709825765968478 0.15420496863742327864 -0.098784775329565296942 0.017270497088063985897 0.021566183642281792909 0.22821842971320610571 0.029291390464095068413 -0.098149011420174445131 0.17138726780110072334 -0.11833250109644015413 -0.077723762222365239127 0.031456537370512946405 -0.022718332405459930323 0.23346055108196239747 0.0036276962315787784213 0.29379936803635242626 0.35340377913254678033 0.40895278755644376423 0.081765967321507482257 0.34879734418321389766 0.22337873265793262156 0.06975072198978227167 0.087011600680650488804 0.13756595666089618812 0.15032346662541040683 0.22994256629947540382;-0.41716642089269129201 0.18308687774850290753 -0.057401695332728722154 0.089517649691730205586 0.25841971956713261083 0.30277843542050603132 0.15877059449107264189 0.26475005770699600038 0.071496318970360114853 -0.1251264792565765227 -0.07061982409751761669 0.038716926200439275019 -0.027049038138434428058 0.11548438990684437022 0.0655335653593440981 0.34390313066504429873 -0.045211140962177438773 0.064954768571039128711 0.090053373692635316217 -0.037364404447987484281 0.27515661105692706956 0.25234599929152534692 -0.0085964729352933730994 -0.16300825459493981096 -0.14304401699207966447 -0.025701483008333275704 -0.097849058308524319849 0.048288873103961453548 0.21908300974469552269 0.13374371905891582757 -0.13494909911475744257 0.10406998003203585257 0.2435475980459122225 -0.088352114110378937584 0.059416417711959976233 -0.22115850648987872562 0.060606395308039490155 -0.11275046287772930165 -0.23993400411249254933 -0.18033577440230305622 -0.15022231406181540958 0.00014461419810922818141 -0.18241356365337108025 -0.19172928026447408345 -0.2416594833260207742 -0.21125781002479357418 0.042895379041270616238 0.026892808572050036497 -0.35883081395536459146 -0.24020467363287298368 0.040608927939889807868 0.079482715327297101537 0.16232659941191757147 -0.12405406173575325712 -0.010838726997726449985 -0.10573875404240097586 -0.19165745215218962794 -0.12214678556287880684 -0.23648533848877198449 -0.1630568348880806484 0.004624361224194888792 -0.18380542425901721937 0.11485456515772980712 -0.26393833773051039726 0.046548838164141778662 0.074892837371010170799 -0.18959549172816639317 -0.052457372342051888925 -0.036556281093834512574 -0.28064124602407058973 -0.21390887608685132948 -0.090613523781407093183 -0.13629426685915022044 0.22288481599000556366 0.13419471655610215599 0.12478021883002034242 -0.074498892058829646601 -0.23332760026295509825 -0.0082278789861262024985 -0.0051324911063468890704 -0.21179675237442732727 0.23095613559627897748 0.10793396293090552762 0.03765760090998979126 0.22470772933595309362 0.18434879429372255655 -0.046005208990350827947 0.20181494061473040369 0.26931726842645081765 0.18657122007401186203 0.36006148347811167687 -0.011254444927102688623 0.15906898438439937005 0.16680522329044497609 0.21245859096203298377 0.029078449725017607719 0.12846862299384204098 0.27268906904417783421;0.50219818342799371624 0.2312307782836133252 0.23661481351717539301 -0.10415864104066521745 0.16679380123593368079 0.069346592570198622996 0.3506695648328099213 0.17692576371583798589 0.09073286664732350959 0.23916715326224932681 -0.033632176972139118942 0.013056711048155204141 0.18126978621958808602 -0.22043269850453181546 -0.23884065485268929363 -0.22208378317640065092 -0.27737614155199735722 -0.12368963465337699803 -0.25387675972697276716 -0.059364003071342666407 -0.20216203821627237724 -0.31354675346301974503 -0.27378559728922047256 -0.18848575467591582866 -0.24068897112031528707 -0.32671386758226467206 -0.09861680832081312631 0.097807708268030174592 0.065064827965433488788 0.069969542124727279742 0.14688269625209168789 -0.077007966273118608203 -0.15741246350514859209 -0.18360053315729182866 -0.20401885748558443168 0.16080927389960963936 0.14272496015275679127 -0.030417839163073560199 -0.19742097386737161857 -0.23251915703860270845 -0.2325882556089261255 -0.013466271490656378518 -0.023546592725275462821 -0.13356929554758312229 -0.012556750705950175256 -0.19127051910602921314 0.24032079299683445361 -0.16138100999992929796 -0.1589360417497821254 -0.071312139695760029534 -0.28296383059391366777 -0.19750317964051625208 -0.15016502269167428252 -0.038232721091668676883 0.11441130349951122991 -0.14056670987905001136 -0.023812383746332911605 -0.34710665425751990876 -0.15048712856895657408 -0.30192057395531868291 -0.10640821798981583979 -0.34283733420896267408 -0.032368963679028382729 -0.26695916824385013122 0.065538086201055917313 -0.16347640538007005007 0.16861357943140184434 0.059394691573702571019 -0.036549366964292305526 -0.011019613334078215763 0.17695680317740980492 -0.040318940791901985987 -0.13904255040862964488 0.10869753227916456595 -0.032729490603265395943 0.057024419535734040265 -0.074278292111846500045 0.093269666490500655054 0.10273243103374313234 0.15680803839246662545 0.23288558150304627947 0.11322427951816013691 -0.042002159825594062581 0.21027213301662336931 -0.026176489199281303966 0.010060932982754325696 0.077408293180992404636 -0.039970593352712177615 0.02260160753201481687 0.29537553434067798097 -0.022047122798726392912 -0.12170627337161761539 0.17920752374272183594 0.34715325671410190989 0.3415148909362363816 -0.11273012503851595478 0.18100991847257058565 -0.018950996678874183765;0.3746071889017412726 -0.39763102266417477137 -0.28435348994797177147 -0.058347368729692684897 -0.18931377566191387452 0.075166313955793512269 -0.08227578972925955747 -0.32302302147677769417 0.079339356316125014823 -0.1419659500336668545 0.10786519632859856155 -0.24591120064391447375 0.11064204417526558866 0.30308590638857502153 0.2723560049068261546 0.15560190443434240848 0.063809908098186554626 0.49015649897297192128 0.19234047351828706396 0.46095881252702308739 0.15728978967989939997 0.27367079582360481771 0.31516179645399111653 0.49079534345066277989 0.23236906819536118363 0.28207127494809874912 0.37916905091435759712 0.32739516067592400184 0.45518382033061771663 0.47618332878387115148 0.1970701296842667094 0.35779217142765296078 0.068799482895085056766 0.10099343306503592854 0.44087104007074945367 0.25727786953681508475 0.48770350844869719831 0.27391831652749659698 0.39483690240341084987 0.27648198283301245182 0.39471783027461926352 0.32449936085493258364 0.52728497157506049042 0.28292824518815656853 0.21915029406454086813 0.104538716096600523 0.22989681870261488572 0.3516623532869559976 0.12244457907090793014 -0.25235035000962907636 -0.34248049064546864928 -0.031649068677031023944 0.083454221047825211111 -0.33433282775060396697 -0.24412241373630802488 0.023301231334471091822 -0.42784606105880373939 -0.15398877560586346491 -0.4152405183319454185 -0.50508645283959263672 -0.36897206265897347643 -0.49139525869895611665 -0.52984900931591494277 -0.11233103775906076727 -0.2850145747599861501 -0.063077882263874493485 -0.1179831722413167 -0.060030472837116974349 -0.33877381008185358802 -0.34577215388519061401 -0.47152106113047287383 -0.1458097965823000608 -0.39597057095626503331 -0.42885264106186815614 -0.27404124962890807904 -0.26546262862222752554 -0.2842910575872552581 -0.30745690897976707401 -0.38436594028237136556 -0.16367738418308461212 -0.11254673850112839606 -0.14994150096890118684 -0.13107442798553864405 -0.33571009077933916531 0.044505235077183250003 -0.013216520277288031776 0.016897596498378551072 0.023181306982075267076 -0.055657305149728469873 -0.22524497306946561492 -0.18489995327457223184 -0.20459851429377642895 -0.19081900132017379224 -0.035792466378938292415 0.065085429698862509729 0.062087271690292239468 -0.19318128988062135964 -0.32221500469113800724;-0.13791603562699819574 -0.28785763279078663279 -0.18384524408056110434 0.082197963503855359102 -0.15626656288430951225 0.18120001190685344761 0.13870777189978417132 0.06091116727233795991 0.097538241100636358105 0.17677329478968867305 -0.055640712281320038601 -0.18932932369123448013 -0.046739297372295825206 -0.14756983750528074317 -0.11731124301874240601 -0.13352550120856124249 0.27105294194646978312 -0.15038182703570029952 0.054769477640813461761 -0.18506459043090117689 0.042969038607223002113 0.13700155430939500723 -0.0012436013628224088304 0.098807499702894763249 0.15685525625096480296 0.22921368345247325471 0.025000702396841899267 -0.067483107714618781325 -0.060207706668477654899 -0.070964406250792075315 0.10503716847280147872 -0.14413698290140672387 -0.1685712206193917817 0.064166500488507263733 0.10312080433390453937 0.063216584550039117696 -0.14955154247708940529 0.24901429930142021663 -0.15753078220672253607 0.028250247009502311296 -0.15853372993466641194 -0.16849390572234418384 0.2521453617428349725 0.19328699730259796263 -0.16914567024125523598 0.20919366086811602701 -0.06454597169588810468 0.00054625815871654510164 0.09693565273638179991 -0.26776128450462727271 -0.19708594563508147202 -0.023793731868181358657 -0.17960804437533950395 -0.045947049494247049761 0.013817397035892981655 -0.40097653734010263449 -0.071100387259621200542 -0.1033475432047701037 -0.23695626690197896247 -0.2314791956992335864 0.025575126384416356495 -0.18035050556083742634 -0.02698340612004207148 -0.10441614633557266822 -0.13903747877557942614 -0.12384256903057486165 -0.30616626119005524442 -0.050430809646555496695 -0.26469696279938037531 -0.017136182737043967328 -0.25615561870799341548 0.11389308196129513395 -0.26513817414397844452 0.091315452363178784001 -0.091899859521239024573 0.18473887227523400067 0.1789094889480728201 0.20284523878198687519 -0.037775377672714882671 -0.061438561851459981555 -0.15366195165557075542 0.28889689261195000691 0.16047828560600205239 0.24745156575287527434 -0.028193133070043372573 0.20529683687294961181 0.06632108816349958913 0.3171252538906094709 0.32210775345748593468 0.22043169204551898988 0.35464837149791506032 0.23405182972271978969 0.20818132447808654351 0.18351586072341835587 0.38296012078603686168 0.33872826290076657463 0.37422885179130116473 0.32543024834144940183;-1.5987051042949409485 -0.64331292591439837025 -0.43840138318952004415 -0.19575629111263548321 -0.22535046041343115286 -0.19967113172680514555 -0.24579845560593441278 0.047624743254596924036 -0.1501906192941435958 0.089209594694169641604 0.023846328358158652011 -0.03920763465687639171 0.038270707445149251824 0.17453045666890915077 -0.040839283367707368555 0.18162255668948967813 -0.089771002764488849746 0.10397147922979992074 0.15376054647715475809 -0.0059589718306202604792 0.29294283249490565835 0.2731795043024713987 0.22506000884482424418 0.16523603116308613337 0.22624294863906133091 0.29203436589421960523 0.24090557286260760872 0.056367036761289859848 0.38643902803616231312 0.10451474755515095805 0.36177782480221326589 0.18825551753504113361 0.093352168606476201851 0.30640120087205841015 -0.1600720365739173312 0.20438806107998136463 -0.0065101923895910119439 -0.087644493866533057513 -0.11824430379735766106 -0.21452477866135233331 -0.2468253571587531725 -0.23688785598171702151 0.12619706008044023759 -0.056128287830816123161 -0.31039020782629239692 -0.36266251880170291555 -0.11903539003879679004 -0.20621490578644444125 -0.39664432679109296043 -3.1614593049702293115 -0.061088577115573514109 0.27415874761248731906 0.54681810728912816355 0.25538177401385397935 0.038496166727872954683 0.40114330166740491679 0.32943229164451864888 0.41842484527638340586 0.48038939991712575894 0.43831256522619904681 0.5330340426322679459 0.62008958207744313551 0.66740140860217189722 0.56520403068702096405 0.42219001823597124279 0.50149419026933128585 0.54508450186193324605 0.27195848907597380828 0.3001772871408038279 0.1619655370987874432 0.50893249061218692741 0.24181746019383421054 -0.067743352554695851486 -0.033128713934579279154 -0.11954468816822408361 -0.098404143978100058754 0.1969799451903161136 0.29540894582236221222 0.21020239339003471413 0.24771554141411111782 -0.013620274701536771306 -0.070098955606246571293 0.19265668044759667876 -0.042346255771019837566 0.14984138900242272019 0.17833922628670392796 0.06227315632345729185 -0.2697974216596090713 -0.17599819009518766211 -0.081021946951802245596 0.06770628272074978582 -0.13221180033173257629 -0.19025841604750756697 -0.25990435840479514384 0.052075390680796376786 -0.091122779458824881837 -0.38601168049170792029 -0.40602130816131620783;-0.013487457173189491832 0.30414380932064605245 -0.027038473348924611794 -0.32622928576815402035 -0.2426276131003967107 -0.086143371724230699549 -0.099962544050269289131 -0.3457969256693574911 -0.01241531666328668515 0.033027002086306322948 -0.23278757370472585864 -0.19839564730923858749 -0.37259979512357949138 -0.24026487123357251341 0.028684926813984525096 -0.081800777199956570263 -0.097951341241640260682 -0.22120646301898469477 -0.074095816548328113926 0.083007679631122266439 -0.24348529429441617689 0.21798312337829270358 -0.033240012067806273821 0.14259172978687828515 -0.1387276677497765176 0.22088359183057779123 0.017361781536505794393 -0.21132539174974063201 -0.08085235272217002056 0.23265890678232009625 0.037150155391565832519 0.22235918329364981472 -0.068443672326319190957 0.23214742791244591391 0.29576220494559984919 0.2371901257641311489 -0.04350497219450071007 0.01729247380553357305 0.13987819666195258628 0.2452108877566287759 0.19874660918885225791 0.27089758506685868156 0.16993641011767446347 0.37179075009803808083 0.37845647979615942846 0.30041440804915786611 0.3274530619886961702 0.082482586832184623393 -0.035316779843219930912 -0.51328396065281445271 -0.19886782552127757473 -0.23145440773014988589 -0.10621264711255562485 -0.1763339477445464154 0.16094284685474435914 0.060355943763756907117 -0.23300444249049653833 -0.078205717028314164496 -0.11473715542146828428 -0.34910104603489044983 -0.23927181232453309523 0.21125155779303833592 0.20253809743749009997 -0.11440309878522716969 0.17199093465858469876 -0.1440374362601412328 0.026750705871817066078 0.10703384773916721495 -0.086094243879984114209 0.069874527103701622455 0.13255371469160059927 0.32444908218645035491 -0.0026088941939869238033 -0.092852566651277987364 0.34724835456728442296 0.070899100268391870849 -0.092123103793830707353 0.39782036897894346161 0.12471976253123565059 0.084819314541424675746 0.19722667528332868403 0.13082051853060702729 0.18821177859094040397 0.2264440660161907426 -0.026810386564964847761 -0.19933512536879674504 0.21715806587539462913 -0.069812045817834192385 -0.018315104777606845687 0.049084874192592733988 -0.29627583680008529043 0.090923166004414635033 -0.058404778535728216204 0.012803418741869361519 0.11725151588132734504 -0.021570032145661086759 -0.18567825587084635375 -0.10060777744048633731;0.24339361312820176342 -0.33461532540294025573 -0.092658443248773370016 -0.092931101058996476438 -0.05666707448249694995 -0.19901231329031401907 -0.1436131881621939832 -0.17733069848469756868 -0.33094290448832303086 -0.21090307620285317358 0.094224239532043438383 -0.16127816919351883884 0.082066990632557651475 -0.24017954526817333893 -0.018586140968463466666 -0.30466963754257436747 -0.26678719986875271131 -0.16287218282377827205 -0.22379366458546909313 -0.0053544145795840379295 -0.1627792660695359106 -0.25635824928648182075 -0.11272087574457566317 0.069761654863473562815 0.15501158210802323811 -0.27719301860437473017 -0.26463905143952431986 -0.29970005308738223437 -0.18460457100398205976 -0.22607385602877333453 0.037897221274144417269 -0.008068834180766419617 -0.22900472982127362265 -0.46723104691241928998 -0.24189905259296809459 -0.28744623776890504407 -0.34977985132176409033 -0.49212927256326643999 -0.28860027944347993456 -0.024278454490712711444 -0.032699371636946056308 -0.31937046684730074908 -0.15819311627513241159 -0.23074006847909447893 -0.26952673572485208453 -0.44306361367796659456 -0.46156747276162496396 -0.074618237030613057681 -0.25933719385918763134 0.02593047678000433981 0.50896212568613397043 0.15925488424487035943 0.3917225326621571746 0.0020361524280614468063 0.14258094284949868191 0.23835701077387477786 0.37325780872311126179 0.14581744549861114235 0.15174738607238638655 0.36709961596129686567 0.20967498202198886492 0.33982499606946414694 0.31950726454757150119 0.46743583675930333587 0.21083570810270788054 0.23051154576601887158 0.15118305687718991415 0.39820622808641165102 0.35241157888287444333 0.19911403911968339475 0.17618669377738691018 0.078924311519954687411 0.10494944573660532072 0.48011091695907986976 0.11236187341661384165 0.47410531967069247106 0.05036080448252965025 0.19187269407675230926 -0.066020662264969165456 0.35710994115700844809 0.29829773085223204587 0.28679768994322296649 0.23293814368979592899 0.038464035371014525244 -0.093169438767532433698 0.25616410526341304443 0.021882760408251385187 0.3838827814823806972 0.097646255894055261626 -0.083671578377134889215 0.31503376381815823004 0.26248044917850843483 -0.023325585283852978691 -0.0469314714665079874 0.27861505656581292412 0.091775985715800562081 0.11980806553108772072 -0.11863695770619830938;-0.026005347986839191798 -0.3824510560129137926 -0.65726029984072675827 -0.43951780140940616137 -0.6516430436187944375 -0.61200918900138712164 -0.63002289170992198386 -0.37523759393584554811 -0.18374723303110387929 -0.44452524821697053659 -0.28191074603511973029 -0.51630286442522999035 -0.10120022108701580421 -0.50304766799381983589 -0.4575386081336093036 -0.21289746381841129219 -0.072330269626445786724 -0.14782072153892208966 -0.19599583533406675362 -0.34131705156896552378 -0.089472362025784152317 -0.25682997469416440905 -0.34213440033087211267 -0.013719619976220530366 -0.094828324184927814677 -0.18827261930137548229 -0.18057230547108424346 -0.079456527099950838289 -0.1066791421817352703 -0.070578035531279809112 -0.084924789790879320894 -0.075908229389480025295 -0.060158727544657154829 0.23763719314584552667 -0.1945886249703819848 0.17792655011328875614 0.15908553285557613943 0.028717617522684941306 0.33941691475485213925 -0.027440066312722666275 0.17206324478513601584 0.35394327795659591418 0.41021023433129383262 0.15039326430296165449 0.41548684304241428888 0.46570393681840166478 0.34637053550537283408 0.39948344904254301513 0.46066177416450021509 2.3896470526730553274 0.39735065846809880519 0.16283181192910953228 -0.098851342851974360881 0.13006319935432861246 0.12080418840541087833 0.27673565801863536651 0.43740761515900850043 0.49579601311948712228 0.16338224161041448035 0.096275294905875719031 0.52738765949904609087 0.54528831566852786761 0.39036633745022430997 0.48542201728830342011 0.40955239832113743415 0.0054749099904430210267 0.30193093211524735242 0.31682154335823842217 -0.070521512437551947539 0.19664538215273208444 0.33476737335445772015 0.067950605546525183476 -0.07626571190349171192 0.14198392990742558784 -0.016569626485474827499 0.12777683171217243951 -0.23216067511051874384 -0.01393554404351329476 -0.27879187863611543108 -0.31136373870602207514 -0.24221075317324031184 -0.052262406048532467073 -0.030719777474889596591 0.11460405415167448928 -0.09410431936811676501 -0.15449713917214194514 -0.079980627364769657506 -0.24815165181002615813 -0.17984015976810155402 -0.12720842227461323648 0.13603649647554957869 0.22086518488348128031 -0.13441883611022098499 0.26397538192483499531 -0.025099108301720195885 0.033684772037755883467 0.31366231110273223859 0.13897810704860405484;-0.029294947510122605616 -0.20764639543415383538 -0.090599626479545919411 0.049295807565631698244 -0.16774515099174139299 0.094594183992873184796 0.07993325856082406089 -0.12160511060757386859 -0.060357699347142516888 0.076856083891659071616 -0.27838543288352884941 -0.22483815806478366084 -0.010295912276812712455 -0.21121774011535560112 -0.14133748562863165943 -0.25200119626185379929 0.17117372462170585279 -0.22626056377631609262 0.10816462842078937434 -0.093176646842279706173 0.025985055288359454329 -0.17786158866196702388 -0.12114656740245495492 0.18370221383234289214 0.11499711014094229911 0.16287993085694962847 -0.079320322939302398413 -0.16843334107371585318 -0.19872772575750929924 -0.1424673628461920194 -0.18610617995271214187 -0.20383388939801549977 0.13532598453467648003 0.047672987379592461632 -0.27218263903084227717 0.13245808275236023444 -0.20028542874954186059 -0.19574675173465772016 0.098724860529392860498 -0.061668996495794964341 -0.24343456525914719535 0.036863638990331286382 -0.0027993192288322046868 -0.0020909070277133189747 -0.26775540759436899929 -0.33535141526673178936 0.012058272044891502062 0.06233822509472925627 -0.033898583170375119755 0.051775094887253528264 0.18283103568022951446 -0.012954069920056248549 0.098113666530839471758 0.16538898965718645817 -0.14815852562428544203 0.13512592825146518827 0.15149372987781378752 -0.065876680052103592233 -0.28368538453320840675 0.15432329426074056777 0.17080570559538801878 0.10686932053547365529 -0.016192352539804867606 0.0038062096765789626279 -0.2951208903386787763 -0.0021697121978586993325 -0.11715103969368755032 0.0038497063743992815908 -0.29006770687694416466 -0.12930964623359511578 0.030609672627174119158 -0.24248397210746150399 -0.15901059768536121575 -0.16991092527312931515 0.13732773239146414679 0.17162593002737305814 -0.3134780952002365062 -0.23536006527180686199 0.13877129904144150374 0.12319231215103697286 0.045143163377648745649 -0.11440612008007945699 -0.12401595069450156716 -0.1284075759094837621 -0.28000653550992776752 0.011255851748158301681 0.17679121275712053607 -0.19150235997126502374 -0.016811385738410532242 -0.099544254248449509648 -0.27773073677401083348 -0.031828132472170408973 -0.11444891898337279657 0.061324668983814431544 0.17020431265901952989 -0.14021609013979921543 -0.12777903799803214113 -0.12164463588580726183;0.15972202218698450249 -0.72577775655402787525 -1.0597331945481722748 -0.62425570332309010535 -0.59209832058852418513 -0.2067412879137816295 -0.038216493933869138955 -0.063429605341128472706 0.021524699427741020991 -0.068744225579564818829 -0.11113685375861788451 -0.12007636254720850666 0.098610482533050020093 0.11734269262783521282 0.011419530227093783667 0.26876435225737937973 0.34948612636510412166 0.17188583153715655816 0.039289003833783156527 0.090768197171769107734 0.025882120532420199721 -0.055658503974542167247 0.15159999560411330233 0.065172335054737906557 0.10434885722636694227 0.16228535737135343919 0.14835086639918482199 0.087425572066813936334 0.086539812288001560781 -0.21114453053080778355 -0.32172216224986804889 0.05955031006817586986 0.082639891115289340617 0.095691479726652484139 0.20779908586991960306 0.13629008077336701721 0.033710969681659930242 0.18258244281076052573 0.046386155394958265841 -0.1248421034946134156 0.08026895932093759678 -0.021932295880769142604 -0.097391866418305744757 0.23196488065503068077 0.078556553343405152723 -0.10296568020750640482 -0.052093488884845357001 0.038802699199608145508 0.25068078117263786764 0.77115616483637472456 -0.45561771382021704069 -0.5883065347791491817 0.083927763314866621336 0.27349549003498463406 0.13316792204264035759 0.081386944010091125112 0.38549572373862767138 0.30461674612651229443 0.24227275205723627916 0.23602816156927736158 0.19788546819576069424 -0.090340602645737566601 -0.025443368670956378191 -0.11035152750180975134 0.33692734719905581553 0.047327096094983124586 0.30962939370972791808 0.43299461266603123111 0.23308785100324189155 0.088421733413985431627 0.20718156665170764374 0.18527473610434450069 0.43038140943052721754 0.24403827355486701345 0.010491146058720146605 0.24157231526588007764 0.090779898815190662731 0.014853396329520391489 0.43231602216276349138 0.42891486491117225555 -0.011377990443284163868 0.082199825276926083428 0.15414628821213766097 0.11266806170936521925 0.31511096347726780253 0.12552877464804007568 0.16892442188202444475 0.098503262305436711799 -0.27783653009095277131 0.093633813107203395232 0.11825479774031938396 -0.095687025910483544666 -0.14333003765302804178 -0.26119028764498986028 -0.06827968084171166796 -0.39231523016434755036 -0.28438220041642825464 -0.49202143824771671365;0.49203343100075386252 -0.49032527304247114364 -0.39593208743394037175 -0.088530836927685263582 0.089858823394420278552 0.090577293096173017162 0.083433964260304471772 0.18800273625473784556 -0.15195437638990516582 0.14782456193301421465 -0.15963166166093534226 -0.035904873841823191361 -0.0084986077489530506557 0.042901159421317822118 0.32331795104355753878 0.18193398987725120652 0.10138348858255942508 0.32141237443173498178 0.036354353802337049939 0.1773027208952756284 0.29018708407655463555 0.30392262652616452989 0.056584754600223156895 0.006368202233697963649 -0.087648577942247285488 0.2436381678410455276 -0.22607764433453789166 -0.014942155436250284528 -0.20697115805362581442 -0.23446422564284691292 0.10404082015770355074 -0.069318595660779760981 0.11443097959567444244 0.10782013475451043827 0.026705770544453472093 -0.0051430492222645585523 -0.12334997037485422033 0.027371214734889345171 0.087619065138998780684 -0.12554142831840547911 -0.3032990105384927304 -0.1683007595501445075 -0.24437333261857932531 -0.14840905081365368678 -0.021053555710173327969 0.17831029206704490653 0.15389806022576782429 -0.1161614830056654224 0.055254702058325402825 1.5789016814335665728 -0.26187661636092485207 -0.080359141512428081122 0.02785500578584850645 -0.034316746221668886774 -0.057162435474148121095 0.12676712471036558072 -0.051131645714579308792 -0.1026807272455776826 0.15194109155741289396 -0.048167243016142467782 -0.17722507530492306871 0.060834048684199767965 -0.14389644350344582557 0.037746587914707724343 0.039790483769889473109 0.17803233119362807391 0.26878413342089219062 0.042831131386936137362 0.14619932295949472634 -0.080527819026332853047 0.19068674510633817909 -0.002129961944303693927 -0.21563419073390471814 0.21520375472514138848 0.013842775976388069226 -0.033251541494634141716 -0.25890841937873720902 0.16959576708225548858 0.02212497680382830359 -0.1308454356030186172 -0.085649077204946286179 -0.05131369717928364188 0.072015969072465380041 0.21543592481608336842 0.032225015273836289664 0.02898357150177488864 -0.0016839753356616699986 0.13712161082456664207 -0.37977882507055915617 -0.29761915914438225039 -0.16464382326095330922 0.10256762100582686448 -0.053810335307114431913 -0.30031642152961102177 -0.033487241505856919777 0.16994529161631238834 0.14648793338901944239 0.11087054866974332956];

% Layer 2
b2 = [0.24589678982133172935;0.93526191598493690904;-1.1077666575218210188;-0.13158190118705015426];
LW2_1 = [0.37185460362535599499 1.7554841148592674749 0.077280023618328377855 -0.034780014962747018981 0.82737466123939984453 -0.10599227773250988194 0.62976799077262701765 0.98048540112800397495 1.3524157742248243963 -0.19882849881017627958 -0.48799911627361725053 0.82176956719124261141 -0.012227741852526730071 0.129311412498554823 -1.0342540049768516042 1.849021043726474467 1.1045194328908913839 0.87582368102021879164 -1.6498940414834162294 -1.1997188267665637174;-0.47182667386267285181 -0.94521096084307576479 -0.61733902958068598288 0.85269492756317843973 -0.2666321076088782327 0.13437029654263438205 -1.6710614789783313494 -0.56489888762148565693 -1.7913833710280946399 0.19079176772536096673 -0.11364070692738981183 -0.61925699192073702104 -0.23111473543816940523 2.4123632206625371666 0.54333504976400737174 -0.61868502967192917641 -1.8064628200439902805 -0.71807347148663058789 -1.1489086505376016056 -1.3770956373480753854;-0.25161669004115500003 0.39666801720729888414 -1.1916572124897306661 -1.44929174594444099 -2.5059844748705835116 1.2934770411016482949 -0.15742251242515881149 -1.1314434276512572719 -0.96081867806137455368 -1.1898046218855860001 1.5693442970398268077 -0.80122019394655630276 1.187316204985571888 0.23582477167626073045 0.36142663397979291062 0.63332491216980613125 0.43600795463246938555 -0.91093703368379863594 1.2163326690206623937 0.56556155334728752671;-1.8215923908966769051 -0.6694204171154030103 -1.1347829804564346645 1.0492386071091202027 2.5535823323830837417 2.0518169325950768034 0.15528872932659826267 -0.55145896926358650703 -0.80399333810498829767 0.58459229714556781854 0.96142438331113633243 0.20058202984094997134 1.2507884437218741436 0.042016094966983580372 0.5926460233749601958 0.87747401621168685804 -1.2299772246120643793 0.059685375452584919775 1.3776593712191347318 -0.011994139019282146208];

% Output 1
y1_step1.ymin = -1;
y1_step1.gain = [2.0026822220915;2.00252666948219;2.00661137181626;2.00977818588822];
y1_step1.xoffset = [0.0010744713328702;0.00125184249645294;0.00247602628824495;0.000333609556873449];

% ===== SIMULATION ========

% Format Input Arguments
isCellX = iscell(X);
if ~isCellX
    X = {X};
end

% Dimensions
TS = size(X,2); % timesteps
if ~isempty(X)
    Q = size(X{1},2); % samples/series
else
    Q = 0;
end

% Allocate Outputs
Y = cell(1,TS);

% Time loop
for ts=1:TS
    
    % Input 1
    temp = removeconstantrows_apply(X{1,ts},x1_step1);
    Xp1 = mapminmax_apply(temp,x1_step2);
    
    % Layer 1
    a1 = tansig_apply(repmat(b1,1,Q) + IW1_1*Xp1);
    
    % Layer 2
    a2 = repmat(b2,1,Q) + LW2_1*a1;
    
    % Output 1
    Y{1,ts} = mapminmax_reverse(a2,y1_step1);
end

% Final Delay States
Xf = cell(1,0);
Af = cell(2,0);

% Format Output Arguments
if ~isCellX
    Y = cell2mat(Y);
end
end

% ===== MODULE FUNCTIONS ========

% Map Minimum and Maximum Input Processing Function
function y = mapminmax_apply(x,settings)
y = bsxfun(@minus,x,settings.xoffset);
y = bsxfun(@times,y,settings.gain);
y = bsxfun(@plus,y,settings.ymin);
end

% Remove Constants Input Processing Function
function y = removeconstantrows_apply(x,settings)
y = x(settings.keep,:);
end

% Sigmoid Symmetric Transfer Function
function a = tansig_apply(n,~)
a = 2 ./ (1 + exp(-2*n)) - 1;
end

% Map Minimum and Maximum Output Reverse-Processing Function
function x = mapminmax_reverse(y,settings)
x = bsxfun(@minus,y,settings.ymin);
x = bsxfun(@rdivide,x,settings.gain);
x = bsxfun(@plus,x,settings.xoffset);
end
