function [Y,Xf,Af] = myNeuralNetworkFunction_test4(X,~,~)
%MYNEURALNETWORKFUNCTION neural network simulation function.
%
% Generated by Neural Network Toolbox function genFunction, 20-Jan-2019 15:22:19.
%
% [Y] = myNeuralNetworkFunction(X,~,~) takes these arguments:
%
%   X = 1xTS cell, 1 inputs over TS timesteps
%   Each X{1,ts} = 100xQ matrix, input #1 at timestep ts.
%
% and returns:
%   Y = 1xTS cell of 1 outputs over TS timesteps.
%   Each Y{1,ts} = 4xQ matrix, output #1 at timestep ts.
%
% where Q is number of samples (or series) and TS is the number of timesteps.

%#ok<*RPMT0>

% ===== NEURAL NETWORK CONSTANTS =====

% Input 1
x1_step1.keep = [2 3 4 5 6 7 8 9 10 11 12 13 14 15 16 17 18 19 20 21 22 23 24 25 26 27 28 29 30 31 32 33 34 35 36 37 38 39 40 41 42 43 44 45 46 47 48 49 50 52 53 54 55 56 57 58 59 60 61 62 63 64 65 66 67 68 69 70 71 72 73 74 75 76 77 78 79 80 81 82 83 84 85 86 87 88 89 90 91 92 93 94 95 96 97 98 99 100];
x1_step2.xoffset = [0.000792119509447198;0.00158500453920186;0.00237780597478173;0.00317052703560039;0.00396316759456685;0.00475572774379314;0.00554820740621455;0.00634060667518754;0.00713292547369274;0.00792516389506842;0.00871732186231085;0.00950939946873935;0.0103013966373658;0.0110933134614907;0.0118851498641414;0.0126769059385995;0.0134685816079081;0.0142601769653297;0.015051691933923;0.0158431266069317;0.0166344809074302;0.0174257549286431;0.0182169485936604;0.0190080619956878;0.019799095057831;0.0205900478732767;0.0213809203651463;0.0221717126266076;0.0229624245807973;0.0237530563208646;0.0245436077699618;0.0253340790212191;0.0261244699978044;0.0269147807928289;0.0277050113294763;0.0284951617008388;0.0292852318301157;0.0300752218103802;0.0308651315648473;0.0316549611865715;0.032444710598783;0.0332343798945175;0.0340239689970211;0.0348134779993103;0.0356029068246467;0.0363922555660283;0.0371815241467321;0.037970712659737;0.0387598210283358;-1.11909237183259;-6.75503970183397;-5.95079947809646;-7.69075784969228;-7.0216510863854;-6.77685060468246;-6.22337859126694;-5.5922244524504;-5.64042468498546;-6.83460114734233;-7.57717248100847;-7.04348726568631;-7.74513209323025;-7.85111424658966;-7.80444473085847;-7.03187789614599;-5.70460411966514;-4.27410792732011;-4.88592490784006;-5.39901334475678;-6.5038704180769;-7.28735820908603;-7.7490551368339;-7.89986919154365;-7.76070119486632;-7.36086865302996;-6.73636804455306;-6.70094290337669;-6.71466856198772;-6.55710781117575;-6.24022460072773;-5.77947590183562;-5.3806079835;-4.87550177684073;-4.28116369051775;-4.76269691437206;-5.40899594292357;-5.95529498358742;-6.40184205830531;-6.74996759396801;-7.00200202599614;-7.16118752368207;-7.23158523237045;-7.21797928878451;-7.12577890339777;-6.96091968295409;-6.72976534310452;-6.52625902943737;-6.45305791308824];
x1_step2.gain = [0.176738585225335;0.156929245542784;0.164444403681595;0.147434542201489;0.150086509519561;0.139052400264107;0.140343431897471;0.140390882476141;0.141048815030403;0.140684036063446;0.147328048162957;0.151851230733527;0.148486450024114;0.147869377311087;0.146943342543762;0.148764617024211;0.14861609422317;0.149165181523808;0.151791601783486;0.156546187361481;0.159003584888087;0.161846830918471;0.165005708045183;0.165221484844801;0.17445160339972;0.171895758729074;0.166947295427477;0.162853340205247;0.159530080857239;0.156910332923228;0.154940739932347;0.153579614709617;0.152795273031531;0.152564750265939;0.152872818469886;0.15371124180932;0.155078221541759;0.156977992163296;0.159420536134502;0.162421388721205;0.166001504999461;0.170187160044358;0.171477801254473;0.170539920023471;0.169902436823658;0.169553622879773;0.169483672981075;0.169684492014066;0.170149507793253;0.0514399717707509;0.0413216323564369;0.0426638316534557;0.0440382572587683;0.047421750698249;0.0501337094419871;0.0530483762216845;0.0565530182603978;0.0587711261024107;0.057952221227524;0.0583511011051459;0.0614023077554475;0.0625514417645017;0.0648433892943291;0.065193534062465;0.0674810015459884;0.0716576678401847;0.0770359576947871;0.0770647242968933;0.0776572335396171;0.0767119550582826;0.0769122974048795;0.078241607509955;0.0807488551401879;0.0845529729926379;0.0865598724253937;0.0894444521536303;0.090230974700357;0.0909802159122581;0.0926171312597788;0.0951754749138022;0.0987217021582401;0.102366853837885;0.107045780861188;0.112891597805119;0.112345174067358;0.110907638387607;0.110219655638891;0.110240337242322;0.110950380440262;0.112350091482942;0.114458772440812;0.117315354385517;0.120980314616509;0.1255390721904;0.131107247665755;0.137838438949596;0.145012376633507;0.151453591274925];
x1_step2.ymin = -1;

% Layer 1
b1 = [3.08261642501201516;4.9284628957540679295;0.83596310951212626783;-0.85276821412747905171;-1.315061020268798897;-1.1704233944764728115;0.76826247162949767855;0.084242830088953668533;-0.32820584311123851551;0.28954781058623041412;1.6048687014753266755;-0.65971454920485539386;0.2196140418224040991;-2.7543795407435207601;-0.54417040599555543956;1.3116626576879708566;-0.77457418617715712017;1.1014300314322855723;-1.1816970173566434532;2.7918854386097278208];
IW1_1 = [0.35487260770116613173 -0.0044997033837889128388 0.39280574103138909958 -0.081279095371390594482 0.014547149675832989069 -0.096476175871528083161 -0.058289569103310255593 0.12125685439615996319 -0.26506938103165356146 0.079340497753525821012 0.32661292307200384677 0.25535752509225717599 -0.072182844522336725435 0.19116593922944416506 0.046100503344207149903 0.15590833207114954129 0.1093732679381121814 0.17201874709288433873 0.057496844376314908132 -0.11978481474952235031 -0.24917458473456441381 -0.17601240018809174992 0.051113855639035234157 -0.086782074915274953764 0.38465669483557329844 0.0087771046639686552127 0.031102138475006022023 0.11560640556117594835 0.4105485492641344214 0.17950964046396178375 0.34365843698943737694 -0.012291514005412959923 0.36408985830819767804 0.039719841842954441147 -0.030266956602152610134 0.33583841680816778341 0.27790284097657652618 0.19125182249356445507 0.17203265388647523415 0.26712705545902265536 0.091793810663645308834 -0.12017512245300313034 -0.06410527465015773696 -0.28862412476973181574 -0.14851517128616578689 -0.048231221583097658168 -0.46535725170328906541 -0.47363075614740679509 -0.14258260726079688419 1.5636829515549139913 0.023671690365062388745 -0.17945984010290802479 -0.17822598696260119611 -0.20381379497172477655 0.1909020327086419222 -0.13995364431127060856 0.016869528419135165764 0.29082605834906155584 0.1650498547680874506 0.10411294261887321655 0.20871389767772080548 0.034207084258017543543 0.07764221345255090112 0.17953725547567367382 -0.099107181930868051833 -0.39271816925521912944 -0.19649094456928073438 -0.17609653853450543681 -0.34174352447442657432 -0.069344083230246045257 0.070920466031530793316 0.25865088809825159677 0.23965104220579544481 0.27371150052870724112 -0.076555605781591498649 0.20484731805600220333 0.30355797052146588078 0.11018521766867450662 -0.11454931394503788111 -0.10068888068571875405 -0.17893994532423529442 -0.29660081461164311545 -0.12594656800867995439 -0.12813987158480297235 0.039828555529267083146 -0.2781182727657039444 -0.0037886559504670641423 -0.020232346177194448361 0.14132078351408694505 -0.15561571398967824487 -0.012641865275189343928 0.094153812899730640606 0.043948442028119538705 0.17051421209703326864 -0.011563506468154689799 0.090825571445712571794 0.4349027022801422171 0.31343061776780262173;-0.55966925250479393483 -0.68038885674958593519 -0.24294478137267958018 -0.32972250764987004468 -0.23767096586366823208 -0.25488917848187525594 -0.11746192328118068571 -0.2043358565828358453 -0.026476830109475622821 -0.3289794399228795907 0.18565179869912065702 0.288710322438030631 0.27847410323131821519 -0.0037708010509128380219 -0.0033025060429163525209 0.31326230856842202099 -0.13731693676071096699 -0.061800042843408703463 -0.00022970894792881044189 0.099329405479276100532 -0.078249231887575376732 0.2013131852714459824 0.19166985149625886953 -0.053920602538623726985 0.41455808868171412085 0.04950047788493743689 0.097131298855937048264 -0.06402931277838040669 -0.17416356536706414926 -0.066228874628011233372 0.06765443940534489331 0.026597766940407378822 -0.013659652494442583656 -0.014469890977800192386 -0.19491582236923543636 -0.030602665566838039429 -0.18995606523905450569 0.051155067518317616504 0.13757570116367651147 -0.047196399588620770171 0.20964725920150670269 0.32654993106913610124 0.37565935867848998519 0.16509387900248329029 0.0067370250450944167003 0.1076412426974936859 -0.076837485729745289009 -0.5587412987417857968 -0.53127259818152017257 0.39531806600137914254 0.33045662939172787409 0.089202054816460166209 0.53942336949107816402 0.18590925800792745815 0.38970313032979586598 0.13222267715626953577 0.25594896968228675327 -0.17625348819776676113 0.22540519336955877616 0.172472709304831745 0.3305740687265667499 0.47304277730340432706 0.15605318823926792038 0.43127830087827917493 0.31461959946848189196 0.045159198489509055907 0.30154588284597194647 0.0074791783772796844448 0.16858451909887792186 0.51629969575614464983 0.27433738461442236378 0.11049976278676888752 0.39321709446025054913 0.51521392903531315621 0.42105962194859369863 0.44781126998541564976 0.19804606118731124531 0.24964272018503907979 0.41630397046854406007 0.29310213396515905071 0.52749745841752782027 0.029458602584768844856 0.24604591381809107209 0.28922957827867784575 0.10729573638846794104 0.20840690439596207262 0.42095034774936257449 0.71261627914142600115 0.4228790158521099074 0.52581694224377284463 0.34482244476619849927 0.44414347975513185363 0.5635413279068639536 0.37186719809001961279 0.62504710598177548597 0.59993955876621951617 0.77289656493613523303 0.89056269679143251761;0.079274954294212940376 0.89486225535752816906 0.12305227024064054053 -0.047652242249580194222 -0.073025222142233697786 -0.18870348848035836675 0.028803814125536689184 -0.26362753134583605252 -0.0079567049679524787936 -0.32155398484002645221 -0.29987068761682422746 -0.18039817794251969407 -0.23006303355347393347 -0.018973376828157619001 -0.085012287885090839779 0.049554308551870471233 -0.057225033907982926495 -0.099655490721207537486 0.13068356391509614034 0.016905096958159726572 -0.039400853570551688798 -0.19038849561321447013 0.056708376591199594063 -0.10100032016731365359 0.2009198175305657863 -0.22330187178797905601 -0.094474575045797606898 0.15815406175709306735 -0.26403620041221964598 0.091895339542188536619 -0.14109332196740279053 -0.059133224593630608068 -0.10084861566139413647 -0.19136170538121960449 -0.13364250522998649684 0.22073681929650534883 0.18006852158671587949 -0.10961934973615333755 -0.022671825066936227011 0.16667659571007870101 0.24139660514507685352 0.055944726071756434305 -0.18767720208227781087 -0.048848410756331651916 -0.36326702060282456408 -0.11153682065302135407 -0.076147147411014498575 0.054969310243784569314 0.13775222382004959076 0.55791588695965499411 -0.4981828487643124026 -0.2931502796472488237 -0.21826119449655767557 0.031286033342328767315 -0.27978642779710788391 0.011171942801333449927 -0.11998968662350945058 -0.24427755663624700633 0.25698003728384599675 0.24893580315142799231 0.043047951616610929948 0.050531938171143493677 -0.073690152991490190382 0.29033888138678559665 -0.10093589330340646537 0.00071040103132601170773 -0.046336572535025412345 0.14953717256781792755 -0.12334479628285018038 -0.055040328881841418807 0.23186410610211938277 -0.073018558869333144434 -0.11435857948914009141 0.066553536368456775452 0.3559648828512445573 0.038943146192166731845 0.10588885228520361625 -0.13095019015201575519 -0.10935421269976194902 -0.21931137089464497469 -0.25810654553619744034 -0.18154149555072054967 -0.24064043524663822349 0.22123291795538471693 0.17440619476327340331 0.33904518568737668227 0.032855165720955224751 0.17162929993950837293 -0.2130845348295202224 0.14211251548608069828 0.16311473718236402242 -0.081033414156324673483 0.056438387838191085566 -0.09196159222177233139 0.0067103101014033845334 0.094817630368042638001 0.23907797365569566361 -0.019422543416697326396;0.56788019330463601619 0.20753246838666142282 0.2805830587691348077 -0.066754793726235633899 -0.13550659524978042603 -0.13876398069951745295 -0.08611064311759457357 -0.2312343842001691463 -0.056393482671250522165 -0.076670393317665605504 0.15602568330677524244 0.057235080332599400088 0.11014725460123740708 -0.099819314455731472657 -0.015260187207704280568 0.1106941549091964988 0.086431045413026819091 -0.12594819690526015687 -0.11484170476494739987 -0.12364998540320298881 0.09736828745286765785 -0.2195250650780689039 0.21026085912697570213 -0.10808032615436306834 -0.05732167879817352818 0.25775065642926986431 0.1271823043717120183 0.019224476565234405179 0.15897080081487582892 -0.24491879576451544565 0.10676238780781430182 -0.079827312075118950219 -0.04666933669870953344 0.055114302374313146882 -0.054701959605588157398 0.010654515887108700553 -0.098808489388190298697 -0.024908625897259745879 -0.17626264465353078115 0.13028515873964133243 -0.079195852722816692526 -0.046598216224703302435 -0.22507721117529841393 0.22089148946987743893 -0.059675324026646402176 -0.23415165755157357763 -0.1938556199286147752 -0.26678660311746255074 0.050472526560571571996 0.092166093525027165123 -0.15839451036536020267 0.065896379408893215879 -0.33058432342458571318 -0.49122311374510074788 -0.49381205187538701473 -0.33719598455968913253 -0.41028767743710176097 -0.44338815481172955124 -0.61928166067561019048 -0.26913204176862931538 -0.19007138972072840089 -0.16484714265481639761 0.099166833231574019747 0.11556568082610714499 0.026438322255676015293 0.16133971572597866073 0.068951436319759654148 -0.22763575847289782561 0.25099011618042971206 -0.084480127286687786703 0.21352377073465106383 0.31062453921941879376 0.098432892646990635677 0.24852105068294999546 0.1225110145016300861 0.20266545347539116628 0.310545974436367056 -0.10758181905974446846 -0.027441995845310474672 0.26955040917532074873 -0.0019109674705527364934 0.19542255779807934934 0.26545901169002306119 -0.098989093874184336252 0.31891318768550019902 0.28433699886713487137 -0.078229462917703704306 0.14023076750568341797 -0.06624166799122988003 0.029203276166831333704 -0.071888799414240672769 0.01576410371297691862 0.18016065866270658535 -0.13464029540126695728 -0.057223006331136250235 -0.037117766688946569886 -0.30688222380822233193 -0.34731747554261832578;-0.36008096638028092018 -0.15264717780634390332 0.14656289739192951416 -0.0063507537775244621292 -0.1718076734513964976 0.12936773691704428479 -0.088734989384020288017 -0.1485433129962311638 0.07010429520932572045 0.19321456714571699775 0.12712299972477200671 -0.20259370727213513175 0.17289943783893813034 0.089860768039155283771 -0.28945786378830873353 -0.2414302856669063857 0.15401888609619893145 -0.062382698498813261845 0.260113654891010182 -0.17979246963911860169 -0.025434762544194421813 -0.23237319327700603488 -0.087093027479565682247 -0.25093589513572001071 0.12827386889960445959 0.22543359655291589361 0.042270296667179282912 0.16202903829558554238 0.32164503893466123152 -0.040485457580466135963 -0.060170255017878732096 -0.041649750441365762654 -0.15991478325850147502 -0.014462053898182178693 0.12963818719187389372 0.12834749828683958417 -0.16104301388664518657 -0.028947489208764960039 -0.028574745609216561232 0.083432757093636802925 0.072563099754183790768 -0.066794282037773544669 -0.26165409553319773917 0.068966427555628692647 -0.083574456324748622182 0.13706536427283777524 0.019733100944166626772 0.03776989030215421872 0.043172330094776167897 0.29160446228435621396 0.050349598743441907611 -0.056404381999886614441 0.060279394701315186511 -0.26934967871677328866 -0.045399450579169005338 -0.1243628689459182618 -0.35883624218560489227 -0.10796702895177710813 -0.069260384139513880841 -0.11026456049332272746 -0.066415330177214612628 -0.062496943084872545737 -0.28942217866634623036 0.11824492254608968966 0.18574459666862708218 -0.31642693098188140466 -0.23045941321127633161 -0.13638870946805525808 -0.099674188846327851921 -0.051494626087110459411 0.12196578954240260007 -0.21831581128880356291 -0.13350180454357768456 -0.030370818902799676109 0.37009944693801860582 0.27266220633977195087 -0.055868390136348269892 -0.21628774695200939093 -0.28825588682713682021 0.026045189509100619141 0.026431320698812595799 -0.086834241820148441726 0.088746295269185565546 -0.10180978950045486975 0.035647039498169087735 0.0070291373398953171589 0.31318234663173283305 0.050864508633423413664 0.089856803534680396162 0.19693154122537037676 -0.16743835753078728512 0.010088957535088592318 0.2239619417973741089 0.073664851307983697515 0.031213861127465991618 0.23266019878896307405 -0.058950499197385007599 -0.056155495560742514638;0.72413176988975536119 0.34093477881361528015 -0.690309871726723423 -0.31079969688409631035 -0.65434318366331201133 -0.69874550232085619328 -0.25779596103491098091 0.28812936631093338802 0.56562476652443327563 0.39298671402604340441 0.27009682934707585078 -0.013480589035614422289 0.31513838075093364433 0.085485585324249047101 -0.062378828797245905458 0.29585900558430561214 0.31111932449779794441 0.3740709845303334391 0.056076930191578402973 0.29436935103042694006 0.15229055554875600698 0.20206233133653433987 0.17525477445493511941 0.18103120076093534574 -0.097712758651634423757 -0.082149252474978270988 -0.13322685232455658277 0.035894884745340756294 -0.26822061410645353652 -0.1195843758304759169 -0.42532163814112983191 -0.325714575523468719 -0.17038557980705598682 -0.042343807100944916288 -0.20861536782817383107 -0.1042926462573367935 0.22905375035330957645 0.12245636079511691696 0.27593369187282579258 0.30592352904662634128 0.6002120397499818294 0.24438411348894040209 0.10991890821856635518 0.52123904322781777765 0.5034364732752145688 0.39941039035010655889 0.15278059594788068187 0.086394875144042135306 0.30781531439889919799 -0.37903128304673322502 -0.13410911501915928623 0.62956047089296174324 0.43302023000204642456 0.26768390394767715978 0.41680694479780977524 -0.089994234985005583383 0.059031239589362731468 -0.34254284623699943202 -0.016542596339484877399 -0.15116205866537779645 -0.37716849150525560974 -0.44148202144788456502 -0.065104488963545828484 0.092634945365078269486 0.30395865745349620601 0.36522963335849767397 0.21840179126167116874 0.18573778947406030526 -0.079441589385609912011 0.28055351288165619739 -0.19229565945236740121 -0.046671382045754800094 -0.033666248614700314268 -0.18014069252148318112 -0.32857156181649987969 -0.47809084039390925547 -0.40235272723874043743 -0.44126143798972888854 -0.34137971554076845804 -0.21910913410031093718 -0.098261011904496778357 -0.014512038475967090068 -0.12867447310542579064 0.2911653125070179926 0.082284138101742329563 0.42559717100840160908 0.48816438790175076257 0.17982499416136082937 -0.050947542796641646923 -0.078095210875831197472 -0.092184324032677081306 -0.20148917400255683674 -0.080876619405343672109 -0.24603580029092825265 -0.058238444993503696301 -0.16269894194285275391 -0.30720182840806203872 -0.079904624708576232894;-0.32122692288013027229 0.069860615919207225133 0.044833963592319538149 0.36052282526959378295 0.28349214370995318157 -0.12159062938336590021 0.15527774582382758428 -0.15950667319732236837 0.02701410329877175498 -0.045244638417743961167 0.11785523818388690676 -0.14813145218045215001 -0.01298315958766300092 -0.2060571076195624185 -0.083912266867029211559 0.07566101338787546704 -0.15161222332111654043 -0.0031465573919458554586 -0.094456853358215214778 0.12905869183040583059 -0.13749676858792098111 -0.1257471474007915424 -0.1420435561165906968 0.010220962566629234955 -0.3718766945323920825 0.043430628968609441554 -0.07034469665108425418 0.030275524460007141592 0.0041323485422807143541 -0.0064793484295863623679 -0.033134724848752662718 0.060787176622235393475 -0.020609348067017297518 0.030057239331995336956 0.12273670155292348838 -0.013294505022632702868 -0.015806022888723503944 0.065183899365388681124 -0.1821549841613226417 0.22822990707325666038 -0.01462046328502248152 -0.044618746582811646961 0.071150979220291857286 -0.15136601198913421373 0.20067639835673414805 -0.11780916567000879192 -0.13488643446721426677 0.21194511008471308977 -0.057452264764892339854 0.4887393540137363046 -0.17288268494130601405 0.078529371324867286441 -0.31850761466772153918 -0.015487555130034075593 -0.2018372830404120688 0.090587054489781507205 -0.33550150519643245905 -0.0067194679450084376232 -0.24254595744946130798 0.020286441711809134747 -0.29996928894472035809 0.14060790748632498448 0.17617332261638285473 -0.075229926915880651617 0.026981941542843095733 0.040979422042473290233 -0.019929130767229907839 0.028429041930031647561 0.15249365354910701664 0.12450742720112503714 0.17819778055648355375 0.143000880599850555 -0.080337888080338287766 -0.23145191235434253718 -0.28555117706810118072 -0.16338316868811236793 0.18198689092451392213 0.1956647168566615913 -0.2668420475139086645 -0.16705232314580872877 -0.22145324023849857764 0.028375638783870889975 -0.066484887784363622121 -0.11813045914970396466 -0.037986505404227564886 0.24837756541357816631 0.03741313339127447235 0.09307014265312202328 0.26532887393885012939 -0.13213455880273872189 -0.1635195868327485591 -0.13644770141216691628 0.15975641650717714581 -0.025212861227163093497 -0.18129797665988725552 0.12392956482284409048 -0.21433155806322737313 0.11100080963350965335;0.0042514308126679369038 -0.30583300994734041733 0.093475014802652509061 -0.2063140219858672908 -0.17952720856335682709 -0.20960732783151822534 0.011740692829853119003 -0.27337392169852159363 -0.31925986921470067559 0.0021557906224368068339 -0.28520938991507127636 -0.26993036749117244044 -0.11232350335970378574 0.12110207752374305135 -0.10972626890828759971 -0.16029781131355338997 0.0026123899428994448377 -0.041081688837728461139 -0.14580315051264131077 -0.041239222278836973334 -0.02464531462627623376 0.193930096498576926 0.36757318595489502089 -0.022227386333597790036 0.031674028875573086161 0.28287507539745532226 0.23550612702450343661 0.40863890928326412899 0.14214551349728477003 0.096646226537018153913 -0.048055718872817641818 -0.10055564485546193698 -0.021393982632367157526 -0.11351505806416264943 0.012153549095351177944 -0.041691605167662744436 -0.10927807403591298374 -0.18173401912392936342 0.24274212775449674484 -0.18709459062078118152 -0.092046756612423924482 0.079273438978541707622 0.080975438478018746391 0.15748636798081022681 -0.26024993679342756092 0.023398745678939764092 -0.020318648905562501639 -0.018183613508820643118 -0.082968876331465934992 0.41149417253618414403 0.48040728761010387249 -0.061787015056486364883 -0.26390864207813752307 0.07265345655629859567 -0.18732981272710430565 -0.15483502665883841498 -0.29044409422487527106 -0.4298692346821026411 -0.059723648934970480218 0.031026989259561481294 -0.094720080189640426527 -0.20406520391114518764 -0.21509103875714039034 -0.14754844731741489916 -0.027594586985654291633 -0.14096723006457956284 0.12873954393303335686 0.24434581883723016649 -0.058968742563445246396 -0.032264078039012100696 0.032554222963106858868 0.13226613622566602002 0.34190230893030570947 0.24943613641015499605 0.38577778149778940708 0.38646560541950064627 0.062084029376261916366 0.32748949396664928102 0.025086055221539886595 0.094337968964877561007 -0.00044867741279211578384 0.11717995286093912943 0.3036210400038804047 0.13940751131432002619 0.17946638820130866865 0.35873897672179433371 0.2597338445186423983 0.22018284576571311995 0.097631170446473292124 0.18665534109628323378 0.14018527331503677358 0.27884513563371099432 0.38301670390083980555 0.40702911776255928933 0.44718029688028876345 0.30093046107672899447 0.10768504922448486616 0.36471534071553896039;0.41313458390989610258 0.12937485307040924587 0.098695312921592753819 0.053803033388528487269 0.23255393832785145602 0.24679318533003555269 0.30785379857505940082 0.11750506980483527153 0.0047295962345212366057 0.22772738471555603601 0.060664386872773812254 0.030067685197916704104 0.25726163678915214827 0.10935873678656926611 0.080909534254988202395 -0.022442697026733876564 -0.014261217758215224624 -0.26296182920332872301 -0.089705643746704338826 -0.057326405460889441612 0.091485014687387192223 -0.23013878175442431528 0.16785310296074140712 0.12257681780737668398 0.15638869373532271467 0.048441380735650164946 -0.19651111008391020096 -0.22069799258287442489 -0.054411548167458988201 0.020207543094607566259 -0.29723775526583934292 0.046867595956038718419 -0.27747860053541617553 -0.25674588193119124435 -0.01709851639990856223 0.13159052332156198628 -0.11556207003800736399 -0.030988156329843578873 -0.16994763153643602238 -0.38127674086106810858 -0.32308879828719860861 -0.21518252365467599452 -0.16043634430761841148 0.11400115782026028211 -0.075413649312018202209 0.16888984738387663453 0.24275000937379470622 0.085951952886532151377 0.2694120478063189994 -0.025928913083594032352 0.48040629601302314855 -0.021141368657174433587 -0.11259666040119876984 0.057680577428081990232 -0.15234962435749621612 0.11175578897302425319 0.064427545902157823399 -0.32736901762688180861 -0.28679092277933276867 -0.3777712423627405669 -0.14052488453947103997 0.012464875865958143994 0.00073753620841305461697 0.022018446467000078043 0.0058517354739389352419 0.17201344160877296563 0.23431063679493197016 0.24052431511845009937 0.11091298847588219878 0.060538662162270939771 0.29218042529882659597 -0.18628052921612123227 -0.25972035630999262823 -0.34747708318108277981 -0.31957810135497854986 -0.37041871697325146062 -0.35626119359796593056 -0.1758650239092111045 -0.13489928284983773721 -0.18942560580601014442 0.19607445344353824357 0.2691759910423474067 -0.035423282268551840868 0.24162083338808612587 -0.068895757253072772985 -0.15081063371765981995 0.2364095036686514606 0.18918372887290210715 -0.056358713003576345335 0.26073517737452650556 0.1539506386488723455 0.34769795909973483239 -0.025935395231198431903 0.38488333086125370297 0.0034387951246352245829 0.33001475574038013905 0.33396968974814944531 0.30509296752108139295;0.32465725842491671704 -0.28276753580251962061 -0.62372397933992329566 -0.48399918463561297788 -0.57766583606750698809 -0.65957354769704523711 -0.57266186867066037891 -0.44673372335889777185 -0.18988978997705793783 -0.351445095455379386 0.0026663574024074240647 0.0016154748213694650541 -0.032582591042688395511 0.081648159848362655833 -0.24937197215181472476 -0.28939080260775457143 -0.044585319031971958059 -0.20122652741750093885 -0.21533936628431707416 0.11775281919381770657 -0.078598777116449192182 0.26203094673190252539 0.44324175935318743669 0.077115180607801037116 0.2747801410079316331 0.37539826401721038129 0.023982269424307273847 0.068121828089291971975 0.24028728692778678067 0.12344527753010646476 0.22688600692612373444 0.20358988560278995505 -0.18395354733700863825 -0.15397197893725578233 -0.26062764358174439483 -0.24694693650825394471 -0.16358214705967794034 -0.26713911263785949934 -0.30651251534264445375 -0.27866637888127671063 0.02815243446905925026 -0.22974100073211903283 -0.16393863545217646216 -0.050747650293317285441 0.021911712656620761092 -0.051737787371251321711 -0.30669657929362509341 -0.0077663681228831750458 -0.42807032754306006961 -1.1718962966602652909 0.28034888677711333749 0.39713894081423245508 0.27634237191729443817 0.30936629554679445642 -0.025083174316124567244 0.1237315852220507717 0.21053980843108036081 -0.18211376480446819781 0.20938545160924706967 0.21758654265549323692 -0.12510645700374989353 0.24531262784178348157 0.21816528421943515159 0.2850595667973813141 0.067716457620945608165 0.26629694488880095715 0.33251989778195234493 0.15582314282339965184 -0.06051960990804148427 0.11736060465618147752 -0.11444158878128714296 -0.065889398996466078118 0.098675109325686599648 -0.050209749256215865931 -0.17404295081976026149 0.19664824179774562096 0.21251886831232066899 0.20205798900492449865 0.030209586245587040365 -0.11956288038445092581 0.025987096497866776779 0.10829303680984890546 0.18387531589841721313 0.054778974650461810525 0.37144984334578012852 0.12904452612991712535 0.38256106394889666245 0.023500071515359093055 0.087125935833456499835 0.13588301508146510832 -0.00985297296266970761 0.29739639909736914625 0.16077019633291630973 0.24466310602695079401 0.078370375331237959737 0.206035979987169382 0.28142188686123770225 0.034883642076414395072;-0.29202641817293084614 -0.3565620254742370987 0.087058034267054926203 -0.14509014946130360801 0.058006656285751773128 -0.33744877663092331943 -0.058514540070916533365 0.085706983993883559259 -0.063765090240129565502 0.030923554223962635562 0.10261782066566184357 -0.14343990470519979441 0.19536622476069701038 -0.14729379970399716915 -0.17903031272710615007 -0.099278469983289902023 -0.025761703516450802642 -0.098969210395531664881 0.1164975989960990721 0.27082290266166708648 0.16277609941038442831 0.15442192726433909278 -0.17703606949001737814 -0.11796448233190913457 0.09403698407834437667 0.1542511623897521722 -0.074801312352788779103 0.11213982511402395548 -0.22748003735230065692 0.18996768020066587268 -0.026645525468992261459 -0.09385143570832069071 -0.015498928819301429141 -0.048790073458750041202 0.23665444393410767221 0.25314356582984526289 0.15438154202005288651 0.30704339654721435338 0.11250161671783734385 -0.021436645219085538605 0.090324894401955346801 -0.07924055685673395133 0.050740123077484156067 -0.039939036286795265296 0.26222114689219938599 -0.079198915220078311417 -0.15724589100838784472 0.074944455599283449354 -0.21690020349404409705 0.80710914659273413907 0.86705242159863493701 0.32616951862602133749 0.35561143194686078983 0.48911109416260784011 0.18600099379584650316 0.011748336155293272881 0.1849731990425409478 0.038118111450345215641 0.24952607556350805962 0.19940388126675501201 -0.1607660165863310231 0.10517713447169728391 -0.05405413454866932893 0.31159196983460807351 0.28302206085148784442 0.025543860377953683805 -0.1353523015640052396 0.14976342199114839326 0.0035259532280144637202 -0.2694064371035902461 -0.21487230776741617078 -0.054253691075386245579 -0.063469062881210361327 0.056013962962551767932 -0.23282989506806600621 -0.24801800346990793278 -0.20358859843801452305 -0.36008484671078599959 -0.35094386002588229267 0.041961778623209447514 -0.10956323928887817809 -0.054239466547664774709 -0.22498737653543526838 -0.2183260882182654905 0.16280451553723643277 0.03695189444851414845 0.0029300422796270987093 -0.0070355983717339601324 -0.10032284773533728384 -0.083773452815896945478 0.22535150978281384693 0.016059742763526008158 0.12997142299662955978 0.08891363796470894143 0.21020768711711956822 0.34214626531090586159 -0.074590841642688657243 0.15845027912886705534;0.28812031334032373042 0.49012674684879325993 0.38089095910045200899 0.68646957250409812445 0.36740422906837083561 0.45926724205553071112 0.37727549137506144472 0.29479612377197145223 0.14033577624146512108 0.56052923304554269635 0.050755130400752961062 0.38288951727937448055 0.19472481194089888423 0.39230923179233972986 0.16651634386888400363 0.32563436513160254338 0.23706593920343471682 -0.073681587005374082899 0.24399194876483704109 0.086771616155581779428 -0.13832154462894041824 -0.049038914814558638711 0.17829711386227456438 -0.056820736327863309578 -0.012857586798322098373 -0.32089815921918918296 -0.20867720604634112935 0.038025797796433190301 0.058892956789527245443 -0.0030296911750780247154 -0.24451400942146303552 -0.19868043138928831448 -0.20351752812215034849 -0.44449414376901824619 -0.021623530029798550961 -0.45360514403719159882 -0.1810089273611253935 -0.22791112745467215217 -0.20689956054631442051 -0.48205502913051612168 -0.67346201121141713308 -0.38154299951506182031 -0.70740273996192337691 -0.49490405069512877212 -0.80933559480193262292 -0.37143953020272640897 -0.86773855009144662542 -0.68131035510608806138 -0.97661876641059142123 0.49200634260597692071 0.2428975059520271651 0.20389075324002564615 0.34335077672991315412 0.090597464157112422845 0.0070652072301118180528 0.28834599911471919809 0.10612459231645070268 0.18387199330145573284 0.34888466066221263118 -0.076398879364242194834 -0.080487223506797545003 -0.023698499641907060098 0.069569705340276150052 0.26493037527813451115 0.13612751836167003017 0.23141773660242911936 0.36276986857043957979 0.37198937383729085981 -0.0064350902148809984923 0.36572094885296280165 0.26747747340281835537 0.2351758231859544801 0.20697558435710569635 0.19700994564816992627 0.032619852113312072794 0.23367596474485011204 0.086793728174788212226 0.058767121916292089367 -0.0079350577742650224566 -0.067163257889883323792 -0.058287167048352669929 -0.1229151879494895655 0.23777739477066076046 0.13422815914655789049 -0.18917715388279443545 0.061075891884836308598 0.042515683938178332191 0.042131140788369769723 -0.011005010699111458794 -0.23987911009737000745 -0.15787801398420614474 -0.18017886035817581858 -0.34756618149391266259 -0.052438318201441999622 -0.16038679709371164717 -0.56238689612954084751 -0.44164367339698479276 -0.64778421106588301992;0.26800255014595070202 0.82258361474877639274 0.50813590206876202426 0.38169874617347443468 0.30500983682725163471 0.034255364394791924798 0.20615608922820508053 0.012671711496762031249 -0.0032396798000838712001 0.11960693603362354542 0.13558267295710174638 0.12537440036058955517 -0.21584549030460087327 0.013106605723070081579 -0.0020695955849677014765 -0.015578127745187988346 -0.093689585490646251631 0.33451985046200904961 0.0497653115242734298 -0.13946705072602771924 0.13616049925319070879 0.13589815226146403915 0.31095967053747580744 0.3038332330709759832 0.18497629103609825041 -0.14794325124891349876 -0.0053462999059120048032 -0.0086549747488176721061 -0.11715256361366187254 0.013256072755253584319 0.14012199132903160881 0.06152555127803545354 0.31292663861982317197 0.19139327913749509813 -0.13124977643949051198 -0.053345479025334027745 0.23047874782324798137 -0.1129685459900223593 0.26736827506206717331 0.15609721855276362246 0.22389107683046496899 -0.0083969306119937563854 0.023687228766658185997 -0.058261044988084764729 0.096395175180567310713 0.037799517012052051557 0.37246851409607234507 0.24321183325653808471 0.060056420346428385226 0.23806332461950618917 -0.40998749386574567799 -0.28391036064744767931 -0.20120535197626507329 -0.0023164917578616045848 0.15279413570905214792 0.025233398211885763041 0.042027546748721743286 -0.15655398969036660173 -0.0038354439699125209701 -0.067992278801539546285 0.11693902270703580848 -0.35548818968541728847 -0.15494251162271310829 0.029488586633189928232 -0.055970088405187592984 0.033024941222241664673 -0.27811139410296104035 -0.14194687664899471868 0.10895566784754967538 -0.053511159895480053805 0.22632445812833304477 0.14908407034992521289 0.1022179627053527301 0.093585356073950354272 0.19529960884767050278 0.30380333546988663729 0.016868622398836970178 -0.039999113122592376557 0.14264318808403494976 -0.0030886543250554583835 -0.23756890476482425689 -0.13907608684239605723 0.027706066533008978647 -0.16487631339254041341 0.048834911394547937669 -0.23843308494479165116 -0.21401412838132891081 0.0034679342568549363993 -0.067994248578013838369 -0.13899629653106748695 0.15172638706757737848 0.17418298293375480967 0.28169883275391610633 0.42487599617101085014 0.11304500863959969503 0.38726832580151615559 0.074701162315556540738 -0.031313761867696784935;-2.6628026836280889178 -1.0502875118834522628 -0.42900103748209922339 -0.31996955785689046303 -0.494534623922946448 -0.34470696048799648326 -0.49986789027493111481 -0.21404227959178370733 -0.17919021665525752818 -0.12930820652248409264 -0.42600490729196088813 -0.14779194973228937382 -0.3654917995915247797 0.13442601444082785678 -0.10404651720628195488 -0.047895565520158216166 0.06430391079730925219 0.18871494083596734859 0.54424501788682078107 0.39797854869761079 0.1303841824082584977 0.32977729328113392082 0.028383518213964693128 0.35064800462154566141 -0.086428598261182862372 0.1444209110712770805 0.088721550517077210629 0.13803261029723584707 0.042037342498884314179 0.26761688590311571989 0.060462804151500813832 0.28849861513909541566 -0.045417501763869522202 0.22555810815095983513 0.071524709490199567252 -0.035393538484960254675 0.26005704065700807615 0.0072387457184014212391 0.073224267812296406355 -0.20327984890470601753 -0.17120552189730833814 -0.14102014886906119595 -0.39738944223070093997 -0.22415593917847062566 0.057561386954949750328 0.098940823697580157492 -0.042003342689537218058 0.093098423302902924559 -0.11091684269289368847 -0.794689411519301947 0.40557986373470328312 0.33440644902878702283 -0.17748942695137701064 0.19449912170313807258 0.040798000701518594147 0.3008366252818089337 0.35379711153298754045 0.11188543517337606881 0.32162360224391467467 0.092294830959972748441 0.13617494098920857049 0.062510950299030490496 0.12535343053095432397 0.086186869308717398153 0.30084882314718680574 0.32586776748796081327 0.58533677475977607951 0.36399390022380945231 0.13624908947783170854 0.064057769753813470492 0.023436364605650183979 0.010273421450611219807 -0.34258106540475108392 -0.39096333760744844676 -0.1343662814149808038 0.21840773611570654666 -0.17902730026149393794 0.23114934850076329642 0.26377568076179475076 0.21738463624069989666 0.18719638490125092845 0.056907088562856665559 0.21008544950103308357 0.30152436831576318044 0.1694130065701587029 0.035895445508899344322 0.068962868806450167147 -0.2090892998772609368 -0.097153754265722355732 -0.12042282586589966864 -0.38416817137841885454 -0.33752153914367361009 -0.09592422703235294057 0.0035430034737073102212 -0.04283107870217094798 -0.29694981814162119127 0.012836954021928435876 -0.46477546127282765021;-2.0479961194340936537 -0.012909132524497692052 0.17901272538198567674 -0.070994890645178637678 -0.11335051915074452478 -0.13603602568885239665 0.18203643008774134104 0.16182921949377487847 -0.17004805445531254171 0.14057421648354653798 0.12446509475044868764 0.19647160070362035267 -0.040313666334219254439 0.29987449093479406903 -0.15621303846568890261 -0.0021796007059434706343 -0.17939587730651146424 0.02803912992776533275 0.13615653466789517934 0.049844667093678372838 0.064107556898180345639 0.14216513568622266006 0.032453095037474143092 -0.015797438189749397203 0.14533219210862033388 0.064736703182163610193 -0.066378357167870827293 -0.22904732594475168961 -0.22528138783497128617 0.11847386958900602005 0.059417689314919495958 0.03294394928172798831 0.1120273146278426557 0.085835437750614931862 -0.092792329500292827782 -0.10537842073169736978 0.16153819475009437157 -0.19434416237332791111 0.037824268805601989063 -0.12473571971650020129 0.043630497934013023897 0.18656439763700341516 -0.11465943699489063168 0.16427314634137932248 0.12044220327593525843 -0.10190117421734251613 0.27897856999066583672 0.37780880550764411874 0.091004054251804342157 0.51553809626649138576 0.21997376646852936921 0.21421803898681537892 0.3710623058943408048 0.23995360640424015508 0.20416724371028754925 -0.031730766298681059578 -0.38773449923048136645 0.19382466027132355668 0.13119969619371349423 -0.135131526241442812 -0.24972195490489548786 0.074725869995479657359 -0.0078098099357800879888 0.17573532890475107582 -0.091598254974211076873 0.19160527605558799746 0.027169235015776796449 0.18318505272347324064 0.12107169673280253341 -0.092951031372934214692 0.18366206141778484984 -0.1962751718558302938 0.23124670168776589874 0.040294686110817594382 0.21360573553983261408 -0.097804648703056468184 -0.056204929665716163445 -0.12258022103213778164 -0.22613331832341140859 0.028661135979967521104 -0.25468100438028712373 -0.14379775397887581412 0.024338544637766513362 0.072010387218652188723 -0.33206012735648821055 0.079773556383171934092 -0.29389456213397180395 -0.07065815527873102464 -0.11938706110744955191 0.041414641583158953719 0.2114413200450580288 -0.069713945038713143187 -0.031421238039506770023 0.27376918000261973862 0.26541019896662387811 0.10777281538205790712 0.1112085499048712095 0.39852977876618927988;0.8191164398306997052 0.040655629728325488881 0.30304330528703782299 0.11444274701843315523 -0.11500480029626428125 0.16362253247545990864 0.041303895053573624896 -0.02388695302221880909 -0.12682862153419544038 -0.070266433871099820418 0.050054878203172177564 -0.25426919404621078913 -0.0049698806734291538917 -0.014167185323738699584 -0.027990965132202880183 0.098451280933750329183 -0.24159830115844121989 0.1480503129760086245 0.024831594962091082385 -0.1865507262666359356 -0.15622111700038598947 -0.23651791186761050856 -0.21705431791524701368 0.13744235804083534958 -0.13831364245621427522 0.011318090331393897835 0.31299104210426226258 -0.084444853772304706574 0.10191065671001113546 0.050440108970638303232 0.16433328107897560155 0.2850671317885922762 0.32509262476305883505 0.13918364267690430669 -0.068610310409794650344 -0.038042577976125563355 0.29607204581041191016 0.07297574486395211335 0.20012699826861168884 -0.054087142326429520078 0.2822565231323359014 0.31091321025189283533 -0.016751308922856152084 0.02933109061709326601 0.21554625970334767571 -0.13197983891907263954 0.21881336125546296811 0.11332944654038175358 -0.14992866189132811328 0.9467050377125092453 -0.10986024415448196467 -0.27204974372974910501 -0.15207696365380424242 -0.37831230718094699395 -0.20749766064800298504 -0.18221746391566670531 -0.2918864184677095186 -0.3691914238134813564 -0.074579803975446529174 0.01145011691322324332 -0.14682496998613495109 -0.078022830166256676443 -0.016043786504811197169 0.092086577383996517931 -0.068629917434563897372 -0.15945297417920434313 -0.27088946489570697729 -0.23721899197615198274 -0.11401804512737162556 0.12680549283400402438 -0.053133937635863645599 -0.23011512177525073053 0.21863502474492660377 0.23765510036557949136 0.060920606922541226114 -0.10416800531582980083 -0.17539107595784089733 0.050625130925053947462 0.15378991185369123018 0.052689429172708475424 0.12454865869858101901 0.094400466709025007694 -0.22728374969991962939 -0.04214259089396414637 0.066886775358890995791 -0.12768525178115730512 -0.029805460668766742272 -0.29946511982324669487 -0.2730657630748770659 0.20873112998170376131 -0.25474293499414413233 -0.027063664129024170985 0.24720312890978973774 -0.020166051335881188256 0.061248185101689410492 -0.041562019162934449312 0.34492242139796874811 0.065820627973524684085;0.065286392830894587891 1.1222283762312617039 0.83374578999817594571 0.73915612714989809007 0.58114647035922506468 -0.0070921748162100081356 0.020220047622065168147 -0.016010712370984437475 0.11416223786128405771 0.33790015216454599711 -0.012928938244298358515 0.18927369009770561581 0.24409362111603249978 -0.039025247706960010385 -0.054815616319120998023 -0.16360351837664510732 -0.17456937025556229504 -0.018587530831310285911 0.055042551853564478104 -0.32921821994687766599 0.017274342838025858599 -0.4589303498349971977 -0.069006699294579143533 -0.35063568742460132777 -0.019913479692573461677 0.014281391461995331799 -0.03696062124421704842 -0.15994558780859852165 0.0029270624134019422591 0.072582533447592814668 0.040367893460630105418 0.071054752587792729956 0.012667754533325284796 0.093795394582871047251 -0.016110443303000730741 0.096470900589881780629 0.11326752257373186306 0.18536468299119027159 0.1949897816901431935 -0.0038009370170251511462 0.33571120781439345304 0.34136518058275283627 0.33178396935206194707 0.029498582315817169913 -0.063722853198350595805 0.051867680218775878698 0.25622039589706202545 0.34364722837005345912 -0.09429402914020183768 1.173813339418235957 -0.35772674199662157779 -0.47312038917672910587 -0.45652386328890987022 -0.10187393989454270049 -0.15689311712143386157 0.13100215455823688293 -0.11444443408062089651 0.01240360010094370552 -0.17333352569157250977 -0.15785270419197730551 -0.23771664100941650166 -0.58823326785512941584 -0.51129961115351585388 -0.32008256460087081141 -0.36115522041613962179 -0.53857943752600989651 -0.44641311308674941349 -0.38985316383919954575 -0.35375239918531437011 -0.28864886493067842821 0.12282178798382895057 0.16055067876641293534 0.13775919086029511651 0.08505473274628608249 0.18935634288585989626 0.25740675043625715901 0.19325228940762398389 0.08559975653355958447 -0.18971484024345486308 0.14993466636239477507 0.093537927637649315171 -0.30370339709561178232 -0.32793304312621468499 -0.24644090154992054353 -0.13963773049897160172 -0.27152620188330972573 -0.08776856664469044611 -0.31617511799197811628 -0.30416574766057252743 0.10109973201252403507 -0.16188337356954721202 -0.021341872627955591618 -0.00097603202943897832307 0.15761757347747126778 0.090040884182306851757 0.17994711824885095686 0.084121536420615650176 -0.18762837844197777226;0.050942527775779254673 -0.23457094663305685933 -0.44358526432455724908 -0.39408625525262630518 -0.25303353608245821027 -0.12787018549679105006 -0.23915954939618591646 -0.020727867888455868417 0.048684355428810152655 -0.19077606328960280968 -0.038437756070762822691 -0.014406098456338750635 -0.066904526583035153764 0.12558141621568033597 -0.062339861848252499377 0.042559329777854343346 -0.14643716629376724025 0.23645811114322720647 0.36656350488257855025 0.052320121106337456884 0.086760014165686696885 0.017753400471436295294 0.16549494624650903929 -0.084206255800648360799 0.11147113472262593081 -0.096104478492264208689 0.21679841366168509098 -0.16235329529739125909 0.19520233254535457323 -0.22099808746869209486 0.091690474721886364162 0.098062456814118445503 0.21354219223846021558 0.2362258711022517943 -0.0032535569430400244385 0.06987513135658367236 0.13543572173307460993 0.096106677785455618679 -0.18835120111068495707 0.20956769388444096425 0.19610533363140483787 0.11548086914331257002 0.034563359495993067894 -0.13918126728598487207 0.28254110570293311522 0.15476111085959515234 0.26386658828145403977 0.1575561650646455647 0.13488408425608799934 -0.3254084575439765703 -0.15318952334640165147 -0.075971591432549723244 0.3657590149423373127 0.082096535002048540153 0.12950600817416446642 -0.30193141341372808917 -0.083735660576833043089 -0.13798051901601077196 -0.042707725630468110212 0.083534812645930670016 -0.04175259530951268977 0.15287148066519426481 0.18804639011512877533 0.067778660909702956316 0.19926089204048691439 0.13608873684817940353 -0.13114532598161912635 0.20966824412382129017 0.12651184245252239391 0.10396217203940120999 -0.18412867920500625152 -0.21297296237794213769 0.24362341240073981385 -0.039850474877059754997 0.10994124011709043021 0.34262345677707412017 0.11043765057250939932 0.2074483489644230183 0.32400048771136974457 -0.10965661660670128486 0.31725459933192295958 -0.071804178473334992483 -0.086292840109858132136 0.11206333070545214381 -0.084380907123924681068 0.10156822960156004776 0.23479217015849174199 0.071983629084335226667 0.34723431890968053937 0.14811174614966188257 0.28136641594266120769 0.26362836992215882281 0.079010606048169534921 0.4077561553871740796 0.20102084353109317405 0.25517474204951090533 0.17436570009676799486 0.27848314929584777611;0.31566006724972967001 0.74721362686594894331 0.48485738082371093727 0.33190242406764852712 0.48475392605263584178 0.37049484435184754094 0.090146551543347608337 0.25800367013286601425 0.20109422912767041525 0.19556901367599160979 -0.084490185332034478671 0.094565731825991553028 -0.095476944054887311064 -0.043831988396876499225 -0.043300193886891387429 0.0663410796885659515 0.077685892969635211847 0.2730537084940281578 0.2147026438176202201 -0.088607549429495002791 -0.13464716800253556661 0.17306492204881418484 0.046800837705326489568 -0.052192001969643263271 -0.24580834047279098709 -0.24148189495403452054 0.27418630862786058655 0.10265625176772152916 0.23561058142673832472 0.14426636421922359177 0.26546551987138550244 0.19763953332491124293 0.24830758620741694154 0.26578903954278404465 -0.036327235607586501331 -0.094433005897408772711 0.027536917973464282439 -0.028648929504879298152 0.15529720934791102493 0.13906444027942893582 -0.19247078248235105491 -0.15567786594084517815 -0.041727447800497440011 0.15787934382623089458 -0.0148916447427621286 0.099931907451849794066 0.21448591793883978185 -0.09840240041180751962 -0.12941900384359794618 -0.23779670487138612756 -0.59832581160174769241 -0.053111645697244865005 -0.31100870958677295786 -0.21166551199704672359 -0.18188514435961297688 -0.25314176414380329394 0.10025029594119036491 0.1260358793286892598 0.016156746386567534535 -0.17873398830410791582 -0.11056902376630434182 -0.31432180927614383759 0.15386189890356949395 0.044843893486304874096 -0.12660704692126045767 0.25322337320853066656 -0.052571689829664453031 0.17960045834702448309 0.089304899081698502217 -0.047559904578540937448 0.10070148922541015402 -0.16344708533046947707 0.13629352767178926076 0.33609953871295250583 0.19368710612657674686 -0.11091304874038002137 0.2521752403913034013 0.041136992794659099637 -0.26042568307642827152 -0.23550744882003654679 -0.096902042794080947563 -0.10017447406527381359 -0.32816512890450894036 -0.017120314932880294906 -0.084406726474539311988 -0.17322272993552201292 0.13525005568369802278 -0.089817865653786604918 -0.13226825671236999704 0.093779283996685239289 -0.25140628261231323659 0.020254804818658055793 -0.27972229700321316059 -0.0012694957824125323743 0.12858432219079907188 -0.18233615961211013801 0.13614700301217780298 0.14137418858440975455;2.4989247126039906277 0.16224110789367379715 0.19091678802307440743 0.25871390039499231328 0.16447183475621279802 0.44169248898170976325 0.16678740039965525566 -0.10678151223790777191 -0.14673896031608305024 -0.17950854541276134446 0.011856719806278835302 -0.1941722369304781648 -0.20880158317967933979 -0.10960553549073810686 0.042566926012963871018 0.058380341305326724499 -0.13553786790442759469 0.051216656174082254849 -0.083031845952532309929 -0.038000521064464581888 0.0076871525207015348885 -0.041853837091436751905 -0.070744954812760607599 -0.17892177803025499649 -0.18985714432228567583 0.038106517971837776393 0.0071261617871327884166 -0.022399477255731582714 0.15739979980083992905 -0.08919241254957065157 0.15517640516661354577 -0.040491183873538179328 0.13600218021390517165 -0.059436924368646212868 0.16139846777497185437 -0.026165860276910084259 0.12839976400190539207 0.10408254251748809416 0.011471081026357221253 -0.34857092229694192076 -0.32133502565133914564 0.18711293194866632228 -0.081185830614464646326 0.17624238125114410902 -0.057602691084122623066 0.061585563215001082327 0.27439443904797855556 0.15831974706529727825 -0.095136932984667813007 0.37814157447310714488 -0.74639958101435532889 -0.16499813355260209424 0.1016855476134565367 -0.023921459351516929231 -0.2910102178481816515 0.10973537765891194784 0.075352153610350913748 0.16142788429621332535 0.18342816390821892192 0.14754461737106508434 0.09872382576824179079 0.034115202054210758131 0.043238118128793551209 0.095100310218377226423 -0.042510172263319274955 -0.24009991176796735557 0.11099184623042045172 0.077538964790598310928 -0.15596333124182884533 0.055537069295609066411 0.11566379127200762666 0.038383650817879616524 0.32433822410006540871 0.15091601168506449393 -0.084340639088475097274 0.078345706663953990079 0.026008201204333565582 -0.15411587643687693627 -0.017842944800416184192 0.073017579956886347059 0.037732228982927391858 -0.12608740006573779247 0.15068818096379474336 -0.19953304586473971649 -0.05077960757864645458 -0.11615973403313437085 -0.17311662920247369857 -0.048078144966694547069 -0.11192571692421088292 0.12816311396481122609 0.25951078562251739257 0.050591247759240995374 -0.024662795963272896721 0.10458803362735290265 -0.028346705925996272535 0.32555962495006435242 0.24921793846266984684 0.28271895457231044357];

% Layer 2
b2 = [-0.83685750349370124912;1.6453052239245726796;0.64732023743986144559;1.534886028822092241];
LW2_1 = [0.12188013196439466401 -1.5911428033419729999 0.12952684125544852711 -0.55549629506874498297 0.80015459125631593906 -0.083546834056605331909 0.38048810714877245864 -0.0037508412002113097547 -0.55012940959951639464 0.047843002866283679264 -0.58783158911747857012 -0.06685912151507453216 0.41132931950377166208 -0.10495593098790764741 -0.09225704775118453993 -0.37086643206797059724 -0.43654357652726555328 0.11389434093490891087 -1.4267572301903574949 -0.23991725942877972777;-2.3452511905864703579 -0.24134742091742927839 2.083909650791990309 0.74801331316942176741 -0.15879595768528145805 -0.39557627210554613395 1.0577080954435198468 -0.35583861365340158089 -0.59164455490289447059 -1.4476643093031094089 -0.95971669171790208175 -0.44847882526190085972 1.2039652594621608195 3.8607617892377996682 1.784072555589862441 -1.4223402980638204518 2.7981916032447129439 1.3949185374522279357 0.75186557123768738009 -3.5026539035286483603;-1.400394310190977043 -0.42469684437782689868 1.0355050650018431391 -0.85231824379832676897 0.91095154070301509464 1.9090880260329887719 1.0253399186271072718 0.80787962594917972492 -1.535542616627225021 1.1172194241880544219 0.11663739363884015332 0.054492062969906759906 -0.17997821814175232746 -0.58082420710782645124 0.9269669664737862913 -0.69689221162046788294 0.83524075545197795645 0.30356861336239648885 1.5588852913490336416 -0.13715982109493968233;-0.17156528651733682356 2.2095985682743815026 -0.76029257949677930828 0.67679204395027048324 -0.96441654815439548099 -0.0046595612980568426598 0.73011218956995105334 0.14857250296843962922 0.046092322309800370927 0.042261034905165063835 1.0915564144427609694 2.1788722033743153084 -0.25663955967428137006 0.12450517506001823609 -0.46117667594687128396 -0.16269517321009283051 0.13638381164996193906 -0.22450513718752787562 1.4219963248218718821 0.64857110202465839688];

% Output 1
y1_step1.ymin = -1;
y1_step1.gain = [2.00087110188028;2.00518320445287;2.0031561944056;2.00250526511533];
y1_step1.xoffset = [8.81941434118794e-05;0.000352432056340057;0.000245930698326013;0.000908227895756286];

% ===== SIMULATION ========

% Format Input Arguments
isCellX = iscell(X);
if ~isCellX
    X = {X};
end

% Dimensions
TS = size(X,2); % timesteps
if ~isempty(X)
    Q = size(X{1},2); % samples/series
else
    Q = 0;
end

% Allocate Outputs
Y = cell(1,TS);

% Time loop
for ts=1:TS
    
    % Input 1
    temp = removeconstantrows_apply(X{1,ts},x1_step1);
    Xp1 = mapminmax_apply(temp,x1_step2);
    
    % Layer 1
    a1 = tansig_apply(repmat(b1,1,Q) + IW1_1*Xp1);
    
    % Layer 2
    a2 = repmat(b2,1,Q) + LW2_1*a1;
    
    % Output 1
    Y{1,ts} = mapminmax_reverse(a2,y1_step1);
end

% Final Delay States
Xf = cell(1,0);
Af = cell(2,0);

% Format Output Arguments
if ~isCellX
    Y = cell2mat(Y);
end
end

% ===== MODULE FUNCTIONS ========

% Map Minimum and Maximum Input Processing Function
function y = mapminmax_apply(x,settings)
y = bsxfun(@minus,x,settings.xoffset);
y = bsxfun(@times,y,settings.gain);
y = bsxfun(@plus,y,settings.ymin);
end

% Remove Constants Input Processing Function
function y = removeconstantrows_apply(x,settings)
y = x(settings.keep,:);
end

% Sigmoid Symmetric Transfer Function
function a = tansig_apply(n,~)
a = 2 ./ (1 + exp(-2*n)) - 1;
end

% Map Minimum and Maximum Output Reverse-Processing Function
function x = mapminmax_reverse(y,settings)
x = bsxfun(@minus,y,settings.ymin);
x = bsxfun(@rdivide,x,settings.gain);
x = bsxfun(@plus,x,settings.xoffset);
end
