function [Y,Xf,Af] = myNeuralNetworkFunction_test2(X,~,~)
%MYNEURALNETWORKFUNCTION neural network simulation function.
%
% Generated by Neural Network Toolbox function genFunction, 20-Jan-2019 12:38:38.
%
% [Y] = myNeuralNetworkFunction(X,~,~) takes these arguments:
%
%   X = 1xTS cell, 1 inputs over TS timesteps
%   Each X{1,ts} = 100xQ matrix, input #1 at timestep ts.
%
% and returns:
%   Y = 1xTS cell of 1 outputs over TS timesteps.
%   Each Y{1,ts} = 4xQ matrix, output #1 at timestep ts.
%
% where Q is number of samples (or series) and TS is the number of timesteps.

%#ok<*RPMT0>

% ===== NEURAL NETWORK CONSTANTS =====

% Input 1
x1_step1.keep = [2 3 4 5 6 7 8 9 10 11 12 13 14 15 16 17 18 19 20 21 22 23 24 25 26 27 28 29 30 31 32 33 34 35 36 37 38 39 40 41 42 43 44 45 46 47 48 49 50 52 53 54 55 56 57 58 59 60 61 62 63 64 65 66 67 68 69 70 71 72 73 74 75 76 77 78 79 80 81 82 83 84 85 86 87 88 89 90 91 92 93 94 95 96 97 98 99 100];
x1_step2.xoffset = [0.000967699362330787;0.00195101108908567;0.00292970812793978;0.00390816748147416;0.0048863883820283;0.00586438380531695;0.00684212505906916;0.00781963667721567;0.00879693207929763;0.00977399144692378;0.0107508308488948;0.0117274310709073;0.0127037950585764;0.0136799382512929;0.0146558399256043;0.0156315073284183;0.016606957540021;0.0175821741908686;0.0185571551936424;0.0195318816003748;0.0205063794329209;0.0214806609785086;0.0224547083969725;0.0234285387306906;0.0244021354404377;0.0253754955360939;0.0263486231512324;0.027321528110822;0.0282941999274752;0.0292666273862989;0.0302388234954409;0.0312108056818562;0.0321825562834798;0.0331540701025824;0.0341253480506774;0.0350964043574166;0.0360672149137949;0.0370377952339127;0.03800816234155;0.0389782959485959;0.0399481814314631;0.0409178379401191;0.0418872813173345;0.0428564865305909;0.0438254616945606;0.0447942069518818;0.0457627221245197;0.0467310074962378;0.0476990628924131;-2.81956664657462;-5.58328629668627;-4.20083799590161;-5.54200602852354;-5.00911540189553;-3.23900215195603;-5.88769013414859;-6.21062071157489;-5.82971278739694;-5.41983672724249;-5.39965581353933;-5.01733058209027;-3.97041286519297;-3.60234148546019;-5.222124433445;-6.35940295016184;-6.98426755220385;-7.10232869910826;-6.75119520541385;-5.99520634060234;-5.49141822326369;-6.29195255302607;-6.99393735890966;-7.41595270563612;-7.564876508432;-7.45593572792125;-7.11159999887127;-6.56032081264894;-5.83517003408526;-6.15459429328795;-6.59911007885256;-6.89821464799585;-7.05440990500017;-7.07266360110067;-6.96018413868297;-6.72616673675898;-6.72878851013597;-6.95065588654583;-7.07216752705558;-7.09509090174665;-7.02244186017321;-6.85840255367232;-6.60822670686715;-6.27813381154311;-5.87519411748726;-5.40720617051481;-4.88256884544428;-4.31014969856318;-3.69915155439819];
x1_step2.gain = [0.177166501092294;0.171225234719304;0.165566121394655;0.170332024198244;0.150154702529692;0.140832547843701;0.140178826234215;0.145973188120644;0.140245049626125;0.1421421124161;0.147242332190055;0.146536825197368;0.145277807165074;0.143044699739513;0.1439760573463;0.148044560557102;0.155472235113867;0.153662809824733;0.152730121100437;0.153517854568801;0.155987692819778;0.160163818252198;0.165473722678422;0.162692037773752;0.160196512568443;0.158638594487966;0.157957120799918;0.158110223264937;0.159072481146483;0.160832796816124;0.163392785922724;0.166765514561582;0.170974433815159;0.176052367184081;0.182040389050077;0.18112704127903;0.180644958528881;0.183737169899812;0.19038850866425;0.18148080415742;0.175074960098549;0.171857157447727;0.171558761558478;0.174071106726431;0.179422377707741;0.184090579501725;0.185810536794584;0.18830215098075;0.18812306224377;0.0421538494015384;0.0438061749549202;0.0489277698405154;0.0512350103660284;0.056181505125115;0.0634799594795629;0.0626811746625503;0.0643842647848256;0.0648009350271762;0.0662271821299156;0.0676775761327484;0.070842865798537;0.0769426385514884;0.0825246155526867;0.0822504744065806;0.0839946923356143;0.0853929094701685;0.0855353184314193;0.0877934529461232;0.0922160317571772;0.0949572171331228;0.0918521626166704;0.0895657393731482;0.0886858996323736;0.0890911387158889;0.0907406523583576;0.0936630957685741;0.0979543694014427;0.103783043433836;0.104521067028692;0.104748409529237;0.105936455026648;0.108117826590624;0.111365530997775;0.115799295242518;0.12159684868098;0.126185551640692;0.129345712775544;0.133606734694577;0.137600276486386;0.141372924927805;0.146335258957005;0.152649812249676;0.160539118038624;0.170305772601898;0.182362823117709;0.197280695617547;0.215861709164875;0.23926266932791];
x1_step2.ymin = -1;

% Layer 1
b1 = [-1.8140690380760424727;-1.4385010359739940355;-1.1735316200712950785;0.92161466008874370903;-0.85066131927064314588;0.93201969628247105515;-0.37729073119628953048;-0.34058126526401111267;-0.33159932649402545923;-0.40425267415580506958;-0.44921281825198766668;0.61393678672573770427;-0.40337140241566260546;-0.38900817212515065302;0.50289095673818151599;0.84026278338168935989;-0.81604263856922543141;1.0730209092044977748;-2.0437387014532424345;1.4857564885043623715];
IW1_1 = [0.97796140714085777468 0.61021233040753453114 0.040085796068595164199 0.2893649341177519374 -0.045161390097383055653 0.12694111598812740649 0.26966999602925489921 -0.012147444810662755971 -0.19858956429953941725 0.16915836872486580966 0.057092659622271037245 -0.096451495280778162811 -0.16944150445567895957 0.19326175560198058379 -0.2312845555729129976 0.18593106292623173825 -0.098097613248644091599 0.17678769248540782133 -0.23383290234857564971 0.17958273950204395319 0.13282663955583462467 -0.046738884222161887483 -0.11264698884192404782 -0.021544939558012315972 0.10338393513734124574 -0.044027084330931172407 -0.16039518572436534116 0.091268484260674048736 -0.19019361909425303026 0.0049524241280910945642 0.10480002013640120351 0.1187813635336096435 -0.030575921773038746559 -0.082226087954143947667 0.10579234507808837895 -0.0026283172980101033797 -0.24540090151745577729 -0.24681258885807605408 0.13008272532266271226 0.12568529553184656922 -0.16568835264413106501 -0.063925034202280794915 0.17120986389368866853 0.17878627460077686773 -0.061259014237202598363 -0.16336154657605703178 -0.12461098829725157644 -0.00042413357764707962372 0.18458802444372721108 0.066246856110943469487 -0.24777206029600556958 -0.32319161676656971149 0.005184577492400942178 -0.1485956575681229852 -0.040013342328226571276 -0.02804606317915770558 -0.30822154866464857026 -0.25117199700786418948 -0.11309539865742547493 0.0066613271523529998808 -0.18374927142819363901 -0.14556531168634798123 -0.25221859110134908777 -0.35846877602913596039 -0.26694442012696828481 -0.42037101980319646621 -0.23996454793401428285 -0.46413123569225306353 -0.31504101568958348123 -0.092446282950750816032 -0.40556332263228350721 -0.39504588549410624143 -0.16579361410705109603 -0.28272963675886503276 -0.40429905294364976154 0.014012905373968719686 -0.23982283398216835968 -0.14522075558256811179 -0.18205356548974907516 -0.07377180888541443049 -0.22510506911518321504 -0.14617682778215856931 -0.45126170901433471094 0.0056633919575795237458 -0.086320013414023913367 -0.19733101987933027166 -0.43432976946205303914 -0.42284514732362527001 -0.24056323350628613933 -0.40469664733443777571 -0.24756535308766750014 -0.15579456739032906953 -0.1792944837947530734 -0.26911804166065067534 -0.2233302708247085766 -0.38466799315187477637 -0.34866456863484029949 -0.33409745838634941073;0.14884267850070603822 -0.099306002247536953598 -0.063145419969724059239 -0.051931665920807001946 0.13697630683282691066 0.083487192985390049071 0.086596593735773039202 -0.041023592949644978323 -0.074950310960511135061 0.11431932188622581648 -0.20813771583087617434 -0.1755003601218818321 0.099397539033121359853 -0.021814233624769724385 -0.1616552818868248198 0.26893991580526960261 0.21941075304772975074 -0.039459962360405123616 0.055146095791847739298 -0.22174073212902667418 -0.24097047377219896203 0.054642187575034195657 -0.11381943597642552035 0.14497474931536907805 -0.24809839390729929165 -0.020831576375550251573 -0.034741488992895447341 -0.14411871407500140285 0.11045084339557247055 -0.21534442471444736888 -0.18334501271913311582 -0.24824595627505163797 -0.16392829204571796042 0.012682273339001480517 -0.023432407184285401758 -0.15924935676292170661 -0.14834773734962941605 0.039200866845400590688 -0.054427201393171094346 -0.16496609526099678678 0.2253699051317701596 -0.11689075634360879263 -0.12066716260573043251 -0.063028633626616301089 0.18490262841505500369 0.1346862996318748118 -0.22632311322071518855 0.15594567926712388228 0.20836765189745570792 -0.43629557714793604228 -0.53181723121169810486 -0.37482080945005824546 -0.38957926537366599495 -0.25053824462577506393 0.14333739785312654691 -0.13505058425749191797 -0.12523514914295261202 0.066962161535289457803 0.058898078498850078843 -0.10631351858729519433 0.24888762107540668422 0.27987932003119819768 0.085278889244974342976 -0.083692263799668459301 0.072853121500913539665 0.23984997979219380149 0.042807861846749825641 -0.10472633173002603157 0.03348056751192124425 -0.033205758093080628424 0.15511131346879408754 0.19042547573790069571 0.15140303142802410963 -0.047252199775178055363 -0.10063929645748899422 -0.13618383802270561667 -0.24004374286669499794 -0.15728449774418595819 0.073897121010938315866 -0.17175883131378230639 -0.15637477755190082318 0.058382482087503080603 0.0069978272822271703202 -0.16383557778306240271 -0.037518234391222399227 -0.1411683087929566649 -0.26048048945209956173 -0.12721432330422957624 -0.01838436835450511439 -0.11686541828187752001 0.12615955450447338682 -0.14286617986861693819 0.18272572430726444215 0.03692084853697848168 0.12178642079641582852 -0.21894126124537491296 -0.013283445666662244133 0.030297125161444195957;0.16492740352072635113 0.0090118115316480586902 0.072489416582811272427 -0.26432000771675784323 -0.07911214718214042152 -0.035185434899947437559 -0.085042549561762104116 0.046007757356065187571 0.09615888630512077484 0.012984114100841718381 0.1665876766366381212 0.00639714654988294152 -0.005992596272346831926 -0.27032107072644628865 0.056261849898236883372 -0.086022126051632508137 0.070727421666104045572 -0.21843516655865166665 -0.025803255073728364327 0.26488963527487768834 -0.098429946739591267502 0.079946842485949659585 0.00025135515676378704548 -0.19786215658236136483 -0.21778787906366059435 0.21988830732539765833 0.21167576900208256996 0.020892807583290165518 -0.054603756530837266325 -0.067015238711861532805 0.18730102857524141835 0.011739838892718696545 -0.0032740210117665671102 0.14536589959991635945 0.038184674082512498616 0.22832580454647655177 -0.16170265524339108576 -0.0003312295904306112454 -0.21552544137658338763 0.13889375114244878473 0.30991912353554318393 -0.15511328419409356472 -0.13080981843434166811 0.015710429494835632253 0.10623042111388678044 0.15754365275009388214 0.0050638472108203496855 -0.13410221605023464608 0.05254332813124301671 0.27701930795956458686 0.23039421251764610754 -0.30455855073634618968 -0.102648230183530767 -0.16853826903491481159 -0.098160365584769093683 0.14929345120490983279 -0.076688910575842955675 0.031168182323082965768 0.1258632855278025986 0.25698293277167461035 0.01045645975118434344 0.037967681083667242925 0.17457023975964044982 0.0059759247842351807811 0.064710730036746932914 -0.082738624510640249032 -0.19491506006860145894 0.10901301517303359223 0.027350565745853355065 0.083089748553057701796 -0.085034574157565809283 0.18809000573509260246 -0.0066518614305428628783 -0.026019695756287087446 -0.20409500123027690677 -0.10849836092105831498 0.2181182099381832884 0.13146917460901066943 0.23059361681729634297 0.14082268968689853894 0.0055617067595994454376 -0.12917789568442167303 -0.17308812281911509223 -0.075319011241521724442 -0.10494686493404459249 0.081420813330103647409 -0.26049342751163911958 0.06631440611183711531 0.033513261454327016031 0.041040317614841927141 0.28195613021181548108 -0.0073215676684608493527 0.10792797004780084469 0.087368996143910429564 0.024402896962273681186 0.17000673237581989672 -0.26976174186082385598 0.17468487161209717007;-0.029655691129303059228 -0.48457885729008398634 -0.11775966919090934126 -0.2751164801886165634 -0.24307887104037104176 -0.038552999055349798652 -0.13133803582384739883 -0.11778143108502717173 -0.026414128267694958474 -0.013271332062738906352 0.0245083011591388511 0.090586492106524058032 -0.20993057311468824033 -0.19920296794370115356 -0.22140494460948775823 -0.036065445877687042631 -0.1409464840206990921 0.016192202126448243527 0.17685520528625292558 0.0081138963315341688237 -0.063426304473278696805 0.11937942965817520402 0.21992062853206983952 0.13441499386155852935 0.05303947271110194539 0.039678365216976860252 0.024455979738049540839 -0.029140532448138304483 -0.13755340579143968127 -0.14900555163716269758 0.22478378154768502428 -0.19733558679166088301 -0.10775199094923240684 -0.011978271166728017214 -0.26577787341810765742 -0.15558539424626979808 -0.24730230898612456936 -0.022250472214027150475 0.057355037142732767652 -0.018076545411065028657 -0.21790569347952792878 0.14176504253866811789 -0.17169732140953428146 0.2198596331769554213 0.012463311342116801389 -0.038505760657586138307 0.16358439844660843665 0.2522042083208394514 -0.15862707432591910406 0.16990081320995445435 0.085972685480056987295 0.20967254316497327404 0.28265810074552383258 0.17577551517143147342 -0.14154789674166134983 0.022765120169109955006 0.062060762888706912099 -0.092736880333590981929 -0.14221557190622702294 -0.13542213202399017158 -0.1750518842414230114 0.1044922775525404246 0.16185467157257296678 -0.19027805669628611307 -0.072226744725931227298 -0.24017986259680582095 -0.050444360905395148331 -0.08538767759550407177 -0.11099360383147865994 0.13582586517456055053 0.25010208106667886074 0.10926781132786585193 -0.20349860472604555661 0.2277155170364011938 0.16604861628744108093 0.22408791031069219546 -0.15495552058868097833 0.18992401069444975192 0.25951994255665117306 -0.07110884252816401796 0.21294071300864811369 0.22485613453899247483 -0.19012570182216034786 0.030306907009490645366 -0.10139973344788616449 -0.18820145380363884069 0.019844575199938031124 0.081495751961571383237 -0.21699582162930497464 -0.18891030260055524659 -0.16092870302817138817 0.10690210145311764001 -0.086616093707928873413 -0.16968798317372954521 0.10461068608690726744 -0.1677083776125062875 -0.11517677007568016823 -0.12329875906591629409;0.26709228847664195916 0.4648542339732759654 0.1753970091009600385 0.18110256432341906296 -0.038003047925797589501 0.10257743369981420223 0.043433530966302105747 0.15348848366648368269 0.18825864380511236895 0.059900918415357405633 0.018363455593085008938 0.30263791839659792693 -0.022431695684961366899 0.23178540254484772398 -0.15347901289004567404 0.16319566232733695443 0.12544454482811059903 -0.15247529143367691273 0.18569202450652486092 0.19189464001250300385 -0.12616445031496834051 0.18215743028812908522 0.17341833026929820427 0.2128282341781356779 -0.030640778824965412414 -0.22640940537973550106 0.29063550612571509291 -0.011286170382187519362 -0.12801650914050727303 0.24599760724528454969 0.011780870497982045067 -0.03321942427337204462 0.15949988246781249268 0.25129174931661402148 -0.12328994490629073544 -0.049576417179578148586 -0.070657135877638457822 0.024521372502188172604 0.23213333789371476401 0.034174563150000808465 0.034412044932181744261 0.089011680571723345023 0.25948653389078402132 0.0018527030528362542841 0.19044923293464446901 -0.038477857916231511526 0.15506598751156433491 0.22960703015121139425 -0.053491136265697153407 0.527795325799041537 0.057904874758096164244 -0.11151708862469816852 -0.40915389109157829228 0.020714707077601424157 -0.19407508141009094382 -0.2415658963153607397 -0.15627319444161916207 -0.066047545766285978286 -0.173976989227535489 0.10281473709540939199 0.15629957193812332727 0.14351403084324076964 -0.0052281189152940527043 -0.37835934024779016571 -0.34217023331964718791 0.071267963119698823915 -0.091544062849061733078 0.17835093441870936148 -0.10142822125734912708 0.054725824200733505509 -0.12390075783648435426 -0.07802594746938609771 -0.13700751805753330625 0.1002031547962946717 0.1227253313420045705 -0.19993378175114315254 0.19497995010926633119 0.17292309618157217233 0.019830413501096783718 0.0057315735196166832377 -0.044328211620543886418 0.24414294989627655097 -0.015664068122638055702 -0.063842712023779807362 0.09472697623799176958 0.14906013943311227643 -0.14060896486080687318 -0.06836756060871942986 -0.13226363149850928203 -0.078502392065939577415 -0.11266412400215410072 -0.1347790948904469821 -0.053920824566753122742 0.16246218437595885686 -0.14554963904142048658 -0.14074721562436029454 0.087706876373947695313 -0.024214200379307760508;-0.25516374789264817391 -0.067406096159999068229 -0.27524323075955742235 0.057352897749138091743 -0.22096487215677840243 0.046087619752910473359 -0.14539550085417221603 -0.069305399431980427294 -0.2689729716216650024 -0.098773811230833230557 -0.1701320625315814461 -0.029726977226275101002 -0.30708146989334683674 0.11921643680073538973 0.087055948451999973225 0.18089582288379646435 -0.2182789845042667487 -0.024306041253638509952 0.19609365705796352741 0.10427891947041516285 -0.14778689955537660516 -0.087731899489448067486 -0.01510969194332768481 0.25957084710614003464 -0.12288757584075218898 0.072010442545863390107 0.19810617827404991553 0.20887562373053422671 -0.0018418401413841396091 -0.052298955009705383468 0.052910369633188278349 0.33729825219586523355 0.19840030174947825836 -0.16679554564989101939 0.15197043351705108449 0.11463235216930209304 -0.091660212921762504457 -0.014590812534820238322 0.16280832916189955095 -0.10374993138673610504 -0.11687624956417141942 -0.24408731971588398801 0.16105610497117017754 0.14402657661952270041 -0.16504433266244755707 -0.057744430721334470691 -0.16837486911932736389 0.1025575267704863236 -0.17175831838830643572 0.68666641607759060228 0.2867336277339903039 0.42280510796976705779 0.30238534603346522989 0.020466625860336061515 -0.10734274633154591849 0.041936474579441065935 0.12431492066939169028 -0.14696411722413593726 -0.20560182896657383522 -0.096204817421013083534 0.015561481305700333375 0.047137903073659948028 -0.20336483040998609706 -0.15822392845959931673 0.21254336653689392955 -0.021859237816946656269 -0.12406630667721200989 -0.28680431950453855183 -0.10392598993274039521 -0.05597841737160549197 -0.28462979964860884996 -0.054727380971663651399 -0.033384943595563806862 -0.31287106748026932701 0.21642454547382547481 0.09020925083772945996 0.058685106257386869533 0.021802511197495738626 0.13901719416073513025 0.079760475690781360014 0.17133611461753345262 0.15761092941556154035 -0.034693394654034412361 0.22547349385838377778 0.0018892754196132993411 0.078394502815685621067 -0.15605753903408886574 -0.042689088977779184042 0.073454688571655421536 0.12930419985019250828 -0.070521819372674585114 0.010013767588182641288 0.079292434229147473745 -0.10785280457583061586 0.27392421618290890839 0.084485156642290726303 0.25454731666229507558 0.18473284744853415984;0.27251475065414443311 -0.090854948687721662215 0.12083152696073304333 -0.07653885265316212605 -0.17459614504551559944 0.10188744585048049862 0.28383301132532973154 -0.18863628974339866073 0.11164484259406347311 0.061951325427163056458 -0.15487769630250933228 -0.22772539128045091172 -0.37612913205748005341 -0.059610072151686038788 0.001473494015446094596 0.0032194709984407132372 0.040216813189157193942 -0.1425570616759636311 -0.26199243651236170383 -0.16206309495054371794 0.12144800767716462664 0.043005400418699504805 0.29094097940807217562 0.18775364277822018111 -0.070250174561475822732 0.0077071780638850503203 0.21328006397334567379 0.22006452662513134588 0.25654717657496151073 0.063968835392824593966 0.067129184711928011065 0.12661813031552399123 0.03420567895501704786 -0.11513752921898226522 -0.24749877688297211575 -0.18813753127452309544 -0.070258213326060720005 -0.2449017993770284396 -0.027437319600804210146 -0.32341045673744034383 -0.12801872901042871122 -0.16636788887717135488 -0.22921606084178938745 0.076797373505739688349 -0.28142068026373323608 0.14835850068841396898 0.144845387214481508 0.12538171728338864952 0.027709526718152979741 0.19713927476345233236 0.25291270987967368056 -0.18923550991678272926 0.23216228142159903158 0.134338610165007033 -0.065392503828140255417 0.0064548710886599231992 -0.16613914441220081764 0.14396884360073636255 0.16715743488124976124 -0.025864465103075960639 -0.0030494105852928803622 -0.18745375198650104931 0.15235200728564471384 -0.14702908284639881753 0.2680904203335356395 -0.14813167843181207495 -0.15459168469971648618 0.043663846646673318275 0.028391502521182540586 0.061734018630207783407 0.24072650961022429295 0.10373854903293504293 0.24248055930730874619 -0.078862624292362959455 -0.15641228187327307908 0.15833661212335164992 -0.02977797992090544521 -0.21776661344310338508 0.12916867741943219294 -0.17314293285660917188 -0.027982697155383571413 -0.16756361314888246206 -0.29691942658765319019 -0.24730966261307885112 -0.28039881928396664934 0.06887030743592326143 -0.27384882932901166708 -0.097390719457969537887 -0.12372075129738739629 0.20566898498038269083 0.2309436035586074909 0.22827580776776246196 0.054434914280422359856 0.01005182497084354358 0.082385375255497841906 -0.077090693353770875507 0.18464237804396252396 0.2309338345889354327;0.34627643322422918537 0.27073193978828280493 0.10850919175306285303 0.0070666178124411740957 0.2928231088656303438 0.13570469443266489074 -0.2485319725657273715 -0.18342440009608196316 0.14502672654914944284 0.19220300068587961584 0.1426027393629588913 -0.034107985408813421002 0.064265018526464018356 -0.0431539151409207275 -0.073348486358169248667 0.25174784229206959019 0.24704267450703215614 0.28555806565646818518 0.11456651859905768454 0.023033242978956924851 0.19147237082546092468 0.10914075956199731365 0.2828805601824342375 0.18143546549342140506 0.24782566600287159186 0.1749767032626228791 0.087960886965626775003 0.011420322906339068145 -0.074699764685694669542 -0.19436812064604502837 -0.069825497322680701862 0.042604959840223700918 0.32087142467535989532 0.046333056011008108555 0.20947315551537204481 -0.06305672686859181697 -0.08883650602321009615 0.073626960130624072298 -0.083615817579147877492 -0.1375829364101730512 0.084926082620033191417 -0.043340566565470854676 0.27469882152601382552 -0.18015168263639291801 -0.003497538717839411733 0.17450660260712216876 -0.15091058684537497769 -0.16084076439999278607 -0.049738442098311810846 0.39886267373449174611 0.29181902469795045763 0.21374955429490558045 0.055883697373213733761 0.22478144264629557059 0.056679014173632559503 0.17271053810840575338 -0.073330170191452742623 -0.2370207005802466016 -0.066666944739910721784 0.073094055483177253207 0.098556690868108060011 -0.14081732682964567815 -0.12215299995706879743 -0.10430622348951079648 -0.1866198923319703773 0.14899546369338756424 0.12603346037930299173 -0.18952699706189321538 -0.26002745950649797102 0.12335821879752439933 0.16326082465662089538 -0.14287391602660667878 -0.15879908409980786343 0.052188162944741434135 -0.12916776037386831777 -0.25201582409189438039 -0.28143031497403364627 0.055264597105872483029 0.16828329349376078272 0.15693569027349626999 0.007839227971758660346 -0.032194473010950415415 0.052431305192369472012 -0.22975291951828633041 -0.11396014775193420709 -0.11936721814309020351 0.0026688697947472739963 -0.081553488528250520084 -0.11342665245348784731 0.19638556347752292308 -0.062069687300261904006 -0.065885127831311562918 0.086539854314920144907 0.25412304563519938494 0.0079931728599588747208 0.076317570186684141609 -0.11295702157179174363 -0.073846204129915340997;-1.3762954924756820585 -0.4938608883777324543 -0.23491192351160508633 0.028516981462808760339 -0.23153282185487289446 -0.12037906084417090979 -0.032564876241457943462 0.03520353135437279124 -0.13071634561794598373 -0.07829883854279327815 0.037991817383841136602 0.035842709681137924216 -0.039473606453902389257 -0.15114750452870340247 0.034430112946718612055 0.014520692113483738006 0.28957851572434711862 -0.09451248380490455403 0.35771989783432645016 -0.072174647348904275024 0.11294490429068024251 0.3029595577612708146 -0.088030891486206283569 -0.053090388783652901761 0.41529444764565109915 0.40615401043162657757 0.39044770073586798631 0.05922344736014170663 0.27161952738016265085 0.11066413499891550321 0.23672867296487853928 0.18646246826290063803 -0.035682633255664217287 0.084764019257434153332 0.03584077154349556843 -0.055444296365103472313 -0.11555674946744032283 -0.061210020127945762025 -0.0025947562789497809546 -0.026243592245202423952 -0.082637109176074488581 -0.22285980510272443422 -0.24415091669304306299 -0.26328163356353695423 -0.08991302049515997874 0.066507783206001647169 -0.17643682798576204585 -0.20469792478572731986 -0.26623288527474037179 -0.37830060043414998061 0.33904902845748857709 -0.20966428956659433069 -0.2261844965869887758 -0.012933380228963462302 0.096445300162585956283 -0.050724070966992947096 0.077212637433990233271 0.015790338635890490554 0.21535373140506744449 0.23098612473868548878 0.020292032486684551812 0.12981804601456384263 -0.071026960912244072044 0.30382295972582334942 0.19145318327093005517 0.020694005211287572199 0.3202479144240305553 0.26843145236309046142 0.33376279404107361826 0.042289699254724998079 0.020525195958409968994 0.13650585427197176047 0.13354086021765101955 0.043834694795132682354 -0.06151875778171354836 0.044055557148735172146 0.20704979357177488719 0.23238824079415598689 0.16686088071539909028 -0.23646075239614278152 -0.062724776235627208165 0.091785184662820124002 -0.12469159178142290301 0.050445326049210051367 0.084352912040592933907 -0.096402659191686973505 -0.14185745598786803079 -0.042143725330177475574 -0.18116929167253056909 -0.047400502860395467286 -0.052962730557646539586 -0.31730091671557147937 -0.15878997923638049627 0.056131117438593461366 -0.020750625990402917637 -0.13058219816430513549 -0.013076730234779787576 -0.28173386336450917389;0.42803053549936698197 0.15524417794113254399 0.57236918763928490428 0.53447529860258102818 0.28467673730734416315 0.16483988831429483013 0.36776177127028603087 0.21169270448981450383 0.16082948208108641119 0.014669806017360393149 0.01271032186998823435 0.0015204546623513032211 -0.012136994946774153775 0.27868391541539350165 0.2278181095005050727 0.085670609071743730745 0.1942511890705108657 -0.12433021190434348502 0.12492440754208575249 -0.098717187913892695539 0.045013543901795849411 0.037579993127398313157 0.11364177597150990073 -0.19268196072630822124 0.02899711259306554309 -0.14972711772525526541 0.047275122067406645521 -0.064250227219576530602 0.08039389850413014571 -0.077842567720399394315 -0.076615299212271198437 -0.18951639379186274725 -0.087293531401554352867 -0.035560067330450313705 -0.41871698767587850476 -0.32869019088926237915 -0.48033902874690481699 -0.10612981463905357682 -0.2521775983382590347 -0.48903333243609475867 -0.37990550695487596 -0.53657527662395965162 -0.18078515577931153491 -0.21204654269853695503 -0.46258383454990531503 -0.31603135863867859445 -0.43658827393001425898 -0.44748472959867141574 -0.41978473070140137624 0.37201725658814638331 0.2856555163165732103 0.10399114433667255852 -0.042725867001669221024 0.31470009297552603567 0.3496181094174374282 0.30059510667645433779 0.32400018666698682246 -0.021179921248240148046 -0.058085785505856468713 0.25348433432806455334 -0.0052697124254256055148 0.30304110137362677557 0.25517076046127440403 0.21394653759727980114 0.24608010136181998617 -0.16152487596191009156 0.24870981399092281783 -0.0040749162296716441578 0.044070269105574488844 -0.035023929943000187137 0.0078878719145830927112 0.24456298157985659203 0.11567665794465892271 -0.1776974646778675393 0.27954395215764177296 -0.10452301027166839564 -0.066942530375331044112 0.11373415746678489091 -0.10129112568312255427 0.063998904988358529256 -0.16266347443966247543 0.087112163835975350845 -0.22598517016242419819 -0.21358903893490943648 0.12570318918666367747 0.13871254107254246679 -0.091363199451740581547 -0.21092000468491428622 -0.065895573474292035154 0.11429242643142246971 -0.23786640389000332507 -0.10773041989260956353 -0.32376190788532477338 0.11389915058741494069 0.056295909212537048605 -0.23507904114182218147 0.04042055468937241075 0.054536816897174184016;-0.17971072761937142981 0.16201297068270897883 0.2221889429333516186 -0.060310197860598151187 0.048460144427297381642 -0.11120839020507790329 -0.088372181656411363804 -0.10572816782866643892 0.24548107122878914943 0.1478895363464495516 -0.22276569612332461356 -0.10552422764787830478 0.11970506336172911932 -0.063279784191430030194 0.1390423867386974266 0.061423912807673203273 -0.15000713548093635996 0.20369117010911061416 -0.010235653858337133079 0.098567656566849251587 0.044984554096905243759 0.16562998695008779304 -0.17199307237834685069 -0.04048291299299679874 -0.11424812370968799591 -0.23106215521878009644 -0.10323931879953572588 0.085373843383409087071 -0.080708509416254348157 0.16245116790690061759 0.024663371902472783909 -0.010592155116011142332 -0.28534581975115036467 0.12223268575741766395 -0.038575730833525695429 0.11384291165409914093 0.081058788094097874999 0.14043424807546295296 0.0331937669810346489 -0.032111159786527170013 0.21436513587377065138 -0.022007081891632179066 -0.12848530593260071297 -0.18030704490626495162 -0.17030229402203353462 0.095117919580028381654 -0.23640968170847204144 -0.25522590952562651534 -0.041937164684712494034 -0.40719195632265808849 -0.38859606031111826319 0.014946382680626431327 -0.12753590360751745902 -0.1010837059602595206 -0.16835210299030245462 0.16283607036568606419 -0.053014503614286126454 0.21979357199547383539 0.066352576694589632256 0.26135671286797229618 0.130942714991166137 -0.18447541564056907371 -0.078913560612146382844 -0.13323970085506903205 -0.25170446999382267705 0.08794901666943039098 -0.025812408240464282394 -0.17507465038122965728 -0.086749015779172974905 0.15371905380786612949 -0.10882165270606655727 -0.055082950606692882012 -0.23234603110588492036 -0.15206590457585589249 0.079024741269197645854 0.098683288028046628471 -0.045699775087247429539 0.21938072396401997466 0.085064195201703982074 -0.15965092183730969499 -0.068577173948297015516 0.015174672111977090955 0.066444991996948782331 0.14226965217075671077 -0.20175280935380376923 -0.16044500630849922729 -0.088018127744585450412 0.087478412759549109556 0.1221968652735214711 0.19537409785966886044 -0.13997904419452492086 0.055144332331015177839 -0.11715461501643111009 -0.022580289493120620642 -0.029054299094668376013 -0.1301212284979281486 -0.021641421727606462155 0.085309091158279837241;0.43363114378603850874 -0.28813003359868094577 -0.15874024506041312099 -0.26114380901039835337 -0.28227853470403724279 -0.2285859764216401635 -0.19139894976566929063 -0.07343369010126198082 -0.0068088844178084200962 -0.2099515531644433608 -0.21943005416284694364 -0.29984656927752728617 0.14674053979824444593 0.10590445305952134181 0.042025246917698572124 0.27436173964159327188 0.17769851844734180224 -0.20276379820982901037 0.1510684414608053916 -0.057291990452526933564 -0.17500627518007194627 -0.051530259162343855506 0.23080954243384671498 -0.16217342602543691199 0.17710397503148000986 0.32515550379756480437 0.029404810020755959427 0.10309054207367315814 -0.0039396946030662623878 0.34183757732228603476 0.092471420739767176689 -0.098232754356357004921 0.16285276604554038693 0.26017624535458194757 -0.14103026086722794674 -0.058652873734450265697 -0.089816693270468678234 0.13663285318000986668 -0.10375962188496394567 0.11575702935195950061 -0.25011736486445723671 -0.10893276217476510759 0.12915057830018897289 -0.19106455905370028914 -0.17845647358619623479 -0.20887064065104060662 0.0168976943552307593 0.22986336586321676201 0.0093731967051999421497 -0.1245653762272350279 0.21912736314426306539 -0.14336128180309262725 -0.34140336821731348538 -0.14184184986753406443 -0.19874179312323253521 0.21296592169385428206 0.27920063987502041769 0.05220996430530360638 0.066344684077799295774 0.086739674065561656047 -0.045007218278567344416 0.15481347488429023085 -0.035128912736770337433 0.18292535983848859371 0.15937503211152287408 -0.13792754119959341197 -0.17350449443915413883 -0.18493523221225732778 -0.088066596156831336573 -0.18511196740152704998 0.20191837062757550525 0.32443533315497358194 0.26972959035093230229 0.034897491283671457085 0.37219285159422293985 0.11178918059728977508 0.22263917047550285666 0.1114330160532674141 0.34670841234781091256 0.079387499584163107036 0.0035934178991405630113 0.36323837447494894404 0.017771884066205355379 0.31663664168612554173 0.24248919038671903903 -0.080221469170077136512 0.081170173562254380184 -0.091370964484205938194 -0.091363752898546493619 0.23342685405646562691 0.094344044710441346546 0.13525448626092123616 0.22214099728361166863 0.39226464387305115533 0.5480030420721710982 0.40986840704728577656 0.26452340189632228551 0.58199785482707655504;-0.71587756680438652257 -0.15848023036309211165 -0.10806917505107553612 -0.23442656933377103989 0.0065474489074591971788 0.14639948353292783767 0.16204314854868809292 -0.13939483931799567795 -0.035937113317591459771 -0.15416491153271449921 0.060055086795577042325 0.18033487065222938983 -0.29248081724788116409 0.086886013328925454369 -0.029174546176953995713 0.15438894898778862674 -0.089211978695531643502 -0.19822343628669303328 0.10125682055766876966 -0.088734818954760610876 0.11624236856326088108 -0.10140678441653609709 0.079291135187042852128 0.1055586067533174216 -0.16733808461831981007 0.075467641958489567466 -0.12187963267144936996 0.34637474485905250798 0.29827650021610663256 0.11504211357426361029 0.019210448822154474469 -0.03704978000726291687 0.21485391400475600809 0.09467172815019593568 0.12191518581714197444 -0.26193337711319319983 -0.19932320729674837811 -0.11691898457544987189 0.13027034453270611158 -0.082854427205802758105 0.065687949720367899697 -0.05200102632182620338 -0.10061030583516961112 -0.10866460249535610239 -0.17151337699304991524 0.056562683109362896228 -0.01819457432682996742 -0.23368328887016570627 -0.073894642195081433611 0.35716695454909103136 0.43422209743796930104 -0.16435848345671516535 -0.007695477082355847015 -0.22968142320884918361 -0.139224765474592449 -0.0044802284838309537618 -0.019811306547124186983 -0.27018868077994806498 -0.16200705963926570474 -0.086719253320760261716 -0.10437601186003819809 0.13134729624135041415 0.19703510748370134387 0.16969428592088087182 -0.085978607355867681106 0.31775483179248609211 0.26935829612829514934 -0.15565713654130236554 0.11945841370257918868 -0.25633745153572695674 0.041334256062949312205 0.17972751326810360029 0.10496152866332629505 0.17397041695047327226 0.33408616549441266796 0.071431503760413433968 0.091670470214888111204 0.22150878148204139473 0.027841012377136886008 0.14200175782180282646 0.026466618712444350825 -0.14653634665930923009 -0.16271052289220364062 0.05546573746088569179 0.14867148097780141791 0.19383021173734008014 0.19168697632241621376 -0.11715786072784897809 0.063149250891281691334 0.12587216353140465164 0.052871020100080524939 0.04848899290317430083 0.025245023230653418356 -0.14406527480279954223 -0.056761926071426098417 0.19914673267769436582 0.10445540122292945595 -0.1718515923713964666;-0.29472480129740191712 -0.020306536163027303493 0.031308623350214379033 0.04799338935489253638 0.2340894338401749708 0.18908930576952640013 -0.093559166418266531684 -0.022098974816388401721 -0.055101249265826796053 0.053789162171038767957 0.07001930264338523946 0.044374309479914046672 0.14734800169401987557 0.23702989550818517883 0.24624305683060160321 -0.20834731888000806999 0.18218179385828822681 -0.053234077320581427162 -0.17723572401848805558 0.076995267375730813697 0.014262149751171888587 0.045330081774785466187 0.025919462957498938527 -0.21733295645622760506 -0.25898367503167074588 -0.14097036050646874483 0.0923322881632727549 0.15135361399198934973 -0.049278903150691215351 0.071850804913262733553 -0.097468621399582441867 0.19552434497483003883 0.098253900810836986013 -0.067794610206337535541 0.21399887709950413117 0.023763999507361181773 0.10409005406641265445 0.24253779862664251454 0.19843810182705021172 0.15548383650728297978 0.17868499950964747414 -0.1337099806317959827 -0.11356309351334412105 0.14658005956812364401 -0.017833777837021409091 -0.039804139163992946493 0.088315249847324167609 -0.2299522579949419554 -0.2067681316350889198 0.1853327844074924291 -0.016251974741595065499 0.045920832368962848091 -0.2407817635740209794 -0.24369092007423984181 -0.30669845388615896153 -0.0010465420350566018506 -0.015865082463943389751 -0.22989203029793273125 0.14442870596673970662 -0.077597822772686869675 -0.042080438203084435944 0.14525139131874947873 -0.18724346751376563791 0.078451949677735749455 -0.072343731157668594856 0.1724129104196149842 0.057428940342040775413 -0.12385776502172572699 -0.062785882350499172544 0.10415488583490636887 -0.29387973275340895096 -0.056208279168973133977 -0.17660097320016684974 -0.25516826229591826891 0.032585973169953104389 0.19642447778048130469 -0.087414189285830279363 0.072414728963535304751 0.12997581420526257978 -0.14304438099472638335 -0.12351226802239034797 0.21984587841766375926 -0.050854216977383986942 0.19406776151639790196 -0.23720017833017148501 0.116880975658811323 0.12437148514380855224 0.032686249667752145798 0.10316240961666493792 0.10847208446972132767 0.16987625901315414612 0.11030575956528797243 -0.15037121292009603124 0.032041535227630334182 -0.22766588702910126041 -0.17972894281282736362 0.010738719734524466293 0.10965418634804147135;0.18438420462029153635 0.16328371506969502347 -0.081936195975908385214 -0.014461345817528571331 0.20085995648293478166 0.080034686811668781514 0.014938666173012917979 0.06149962431145733488 0.26844007427544391842 0.27853499250609453641 0.27627719262437100411 0.13755381730232549287 0.012260581456814800827 0.25571733474857566426 -0.031341127172958511971 0.18183285906998697401 0.032273132501187587473 -0.018388218864442196221 0.085317049727545099524 0.050806574317309033395 -0.10279843723078546658 0.052565031975433232359 0.35839634005955900431 0.28591974753858712122 -0.021351857141968508258 0.15645557639070811762 -0.16326770538004220512 -0.12049860349498585366 -0.15662957659930160093 0.17350197763280800212 0.13506729699261485478 -0.1986249506693322231 -0.050767668189961000225 -0.14504041078430984779 -0.094114224229661286314 0.037315308852863139644 -0.14670058549753728361 0.020251723051856670987 0.0015283519412674878395 0.042660894914727388871 0.13515625703415379277 0.22032063901403614592 0.0038498444562644366582 0.10736760695613999095 0.099822225840475398151 0.08300338780596054622 -0.069845827612561181552 -0.26492667579716838722 0.064516252084004313549 -0.49069035456248233373 -0.49185606459800262913 -0.20488052724710037467 -0.15737686833750430537 -0.038312228053998156896 -0.062505592767743062277 -0.034467094552950869324 -0.049614033810994384588 0.16011798036184704541 0.13840352301438074711 0.031400897849818004692 0.12936712072146763775 -0.1955816617574782923 0.22431965432488218393 0.041104790627597108388 0.20700342889715261929 -0.052379143281362658402 0.23024273672176631678 0.054650403995427226933 0.1141069822428215641 0.24832380303695494872 -0.11209324009222021434 -0.047812929891827886386 -0.18805696281533096359 0.095602322166790501545 0.09641451799246170129 0.078311607041374020621 0.2020195830988349428 -0.028144928811149910741 0.055416213273603229239 -0.20403355883374424407 0.17052060656132669858 0.18474360331059966334 -0.19708693670266835829 0.15198847900419254486 -0.14487537055964361254 0.21372217469508553167 0.21641214909185513271 -0.12841767290751504582 0.17342159457845060522 0.14247223397301053693 -0.05744579002443374327 -0.12678925891704956319 -0.072192462634363158136 0.10908723359729230462 -0.23081854607294863269 0.2112459492443384268 -0.012227636337714176129 0.20483772534941621646;0.2424579809598370328 -0.085817825280847234715 0.2850121307948410565 0.3077811243939551078 0.19446297153665492718 0.34287777815829384442 0.29571531248526955471 0.50689335800045953739 0.080282779279668231576 0.099477705392241738691 0.34684148028512401529 -0.0056240823135760963786 0.27772623472016277901 0.084335120834887228325 0.15452970654122402672 0.054863366457451184788 0.0071351349345885502207 -0.049100353740591164142 0.33969348277505678757 -0.14099551915913782763 0.29482162396098160473 0.04765042879445607199 0.15112277463520434884 0.013238896154856835685 0.28741049130911039411 0.22187251636027693902 -0.0031958116625452059889 -0.013051019206973263689 0.25955545487459480425 -0.1180120098428594777 0.26667506565748716474 -0.13887252893356971661 0.058620757425231130588 0.054786279093594569822 -0.13721968159417882727 -0.18164674929102520018 0.041626003677107628609 -0.17316464054466793043 -0.2200803200361155787 -0.087845913936529088084 -0.09746935844839338392 0.10416404321774047625 0.029114641820378397291 0.25468595055613529876 0.19046471334809741971 0.054765984933071852614 0.045884728309416471237 0.17561002811350817643 0.32752459693399238461 0.17807768690640848885 0.17903391006969371357 0.05462161105786646903 0.24201970123450186612 -0.084101686351538820774 0.21783316668611887867 -0.06436256998636388782 0.22067574885905194559 -0.017465560296156236453 -0.02889031648957566395 0.2451528729959091546 0.21785761589613131251 0.18258382825097832503 -0.016053505482172700236 0.092221207023460774477 0.24433525160750402261 -0.22248454191133723579 -0.10317047295701815834 -0.11955951448264405534 0.066728847892987747104 0.15509659930567123998 0.19558255511030542273 -0.0011147208312340482067 0.039605914436754048602 -0.1493301359145481344 0.25868543481832118047 0.0114253794734917348 0.25008648285847212556 -0.0075554703029908779413 -0.04442712320679576693 -0.11604889553870111063 -0.0061417504423075678158 -0.061639094936362444355 -0.20098354039829458006 -0.12905037853496259537 -0.008731320908334321701 0.1983452796699288756 -0.02280402736551826598 0.18405050824317861768 -0.059606839926747937075 -0.15730589236790193386 -0.27478053315889039432 -0.12259804458900469548 0.1129943927195968395 -0.26250986663078113015 -0.088097462186866176692 -0.39239308363936648005 -0.18014958039725359473 -0.29357438695886284297;-0.051382978404015997032 -0.025210437160478924024 0.068291616607602370626 0.19348758549782038574 0.29982109353875413538 0.14048254644582777728 -0.14811615161038133026 -0.072963381118381104296 -0.074823118001892729989 0.065919342085925092256 -0.030765500024151872654 -0.24966771917347710397 -0.30322206142144225716 -0.14092853407699063029 -0.099210715857982301191 -0.15592637430296377166 -0.26365433352787837062 -0.34212885765821909878 0.087203783212609048414 -0.36721781972679312656 -0.14665698951822686569 0.086715047297274916449 -0.30672314420355584197 -0.20834297963420569944 0.030455685765469184267 0.022929164389657336054 0.088169627944518158547 -0.26381074849309199548 0.083413935396239952125 -0.04442739520155157551 -0.11066503078872746979 0.039701940220326456532 0.13276246240117006714 0.039803523627747451619 -0.095935031501186249225 0.11270204479490321392 0.054486002516400698636 0.1047882044889124481 -0.25467359396096783675 0.042182469501962333025 -0.13021230766761510145 -0.16409715870213298361 -0.17135597802748059326 -0.094056416085151084427 -0.012529390387063988124 -0.1188022440503759547 0.25739550531750171602 -0.19935759439084535516 -0.055821798075961437391 0.33474896307683887908 0.22468030216415005307 0.12358996412823569644 -0.21798322903000535988 0.11513178150570867186 0.022266858461580229384 -0.21307594101874691161 -0.22249304936299169055 -0.15882605839406890857 -0.25638674691254881299 -0.28071642800796992034 0.031397011706702990241 -0.25386958274259041612 0.18581111397615199254 -0.13951796819785622361 0.25264313240215874323 0.11690117458013819796 0.07919536377538795302 0.20179260863453135633 0.0245518163252542998 0.15077565724505748168 0.036767109397222864919 0.065655851502845030687 0.17629462765645556588 -0.18244102075361781634 0.15508432050588666362 -0.14443177702105727822 0.11102537156387969064 0.12695576529933444432 -0.12192231760798349915 -0.1198900316980216485 -0.21199804860475998658 0.11834835651711422821 -0.21505890320413720285 -0.049952827482621094124 0.18634442466460343635 0.24157518506695443983 -0.015499594168891682108 -0.12902279362246960037 0.10226552684320489028 0.027963284134615754017 -0.0032736372714270026499 0.0084210026976032185952 0.11609921418830716766 0.088457682928920394749 -0.074951528448566673291 0.15983333039965477718 -0.18645155745343916509 -0.24990955054123295542;0.24222675630950796233 0.0355374090058286074 -0.0078264426730369519858 0.10677630200571296137 -0.082849712811221137843 -0.20545337776232763805 0.1627884009972041246 0.2364043171702754631 0.25837566552018542687 -0.21252947996495344385 -0.23688461350265743732 -0.043805014241984359391 -0.15717273726744543372 0.13535550367032006536 -0.20709238785602690491 -0.17690936484120661776 -0.17427776943148742816 0.022451420734642159316 0.16849389979894105474 -0.18235132904948256338 -0.016973371621686446364 -0.23486716961681125548 -0.14758262229350224692 -0.043096417529341846109 -0.27772818794909226447 0.010193684009548998476 -0.11437465997509543847 -0.015331887307975354193 -0.24811115271679748395 0.19365497234172063257 -0.0061221744399489732777 0.11074780830300147427 -0.029832283763390973069 0.057899289058385330908 0.20145355220830823972 0.02238290710972754699 0.19526306111630026274 0.16626623347251040519 -0.013625263914677152033 0.055952005765394920156 -0.15574443939100138246 0.13137587561730179608 0.032603131745429302091 -0.15045235766259851262 0.12675300937069558516 0.11512041173839861197 0.036411142287245970572 -0.022634759416295585632 0.095473006628148116004 0.026328886986793670344 0.13282162873409825155 0.18585647219413778397 0.2250351907501794424 0.1609704481244653429 -0.15297547172326858567 -0.24525338834900600737 -0.00090610319390738418982 0.074776937383219790889 0.011363765623432303675 0.063959403415987090002 0.029904774934416629428 -0.10805971245434056738 0.23632596025486365954 -0.019559099765012723238 0.20546274812363785056 0.083830455241778817355 -0.10734166042718984446 0.24710089746606728189 0.13312151638037658663 -0.062572451347994925697 0.025989913329928900076 -0.036843488421635331442 0.2263068538585414069 -0.028531862741801399669 0.27322325361091748253 -0.11218994930848494307 -0.09256765315195158994 -0.15445072411610877294 0.12681301903706709844 -0.21526949824040275683 0.22199099312285558439 -0.072365803252748273078 0.26704790011317697251 0.12953068525895872209 -0.026752393573642497399 -0.18561969807993611292 -0.084764833397092551048 -0.078403601216927520934 0.13037066445404971171 0.11576577603995168164 0.12442287131132832856 -0.18647921216939850053 -0.11637231993379194839 -0.24942455768193724785 -0.277484846122142359 -0.32629051727486785284 -0.23776493822696415092 -0.025219320114274752787;-1.1308740465667941333 -0.47335245789351709789 -0.24168891121619281992 -0.22558811095741831965 0.13525456409368696864 -0.048141191095955604418 -0.22690439441468632231 -0.02149530581441663063 0.18910483856715545881 0.16629960399908663704 -0.029622481695355525749 -0.080669007273304102479 -0.14118109264888803467 -0.15829008010539874496 0.061642774135315783757 -0.12010865396271440397 0.1489260920452153969 -0.14604609546104693751 -0.22484043689998980953 0.089480186415305251746 -0.061909929949518355263 0.055137513251276380755 0.063275719794566365195 -0.18264387051280672747 0.1103551275182656638 0.10043938514776398763 0.074272443273430369115 -0.18564006658795126348 0.069433364206786724049 -0.028204054162582457149 -0.06378249879577632675 -0.094363580373237651577 0.011989841151717087891 -0.15316078731807547531 0.0090060308609207200686 -0.19651845872347714628 -0.052263153826729469298 -0.18169223351421040502 0.048874299921965826121 -0.14797204115296919147 0.24796096449037224874 -0.12177983729744147612 0.11624994709962338524 0.25511050220160519375 0.33608082373357694994 -0.12452186217679654667 0.13715012805849216559 0.29682132961782536906 0.092535938423674898856 -0.42174251160212666845 0.15325698442547641687 0.38986607749698776182 0.17898405020908442209 -0.018569963585845339349 0.11643750131851043905 -0.092837860686126080778 -0.015714645216708362369 -0.1363502887156395893 0.044776455506004779472 -0.0010102423003742677307 -0.034953578811709129504 -0.00032254032485188981194 0.0052623699679521847988 -0.040927061531460147414 0.11225695431465856911 0.11618847883124748532 -0.078148920653320907981 0.093017260273247151514 0.07076113749911443207 -0.099875566520693168093 0.1754653206178674596 -0.27736190593077930666 0.16625562797579679364 -0.1556850288653716663 0.087827131089945012499 -0.25061000483519058069 0.20551881340837224732 0.24457357870719953485 0.2387426343691789743 -0.094395152282809605127 0.2416340783194476094 0.1569819278884316549 -0.1749450091604810853 -0.1232444069390710023 -0.0034516630011638313978 -0.23619492728640523183 -0.14794979343831099472 -0.035199262610214790414 0.033656568228004613008 -0.21753830356942632784 -0.2276931823877219041 0.13968346125799632751 -0.13600207231924218987 0.17606473302047861984 0.17989473168400291203 0.14366517618618473984 -0.070667988367597578403 0.18401609818103334404;0.081897367869570053545 0.13084897699234149249 -0.22090678131028435027 0.15057820882265915419 -0.24938321607656840917 -0.12233647320563464933 -0.074821472942324510069 -0.0068567794666497313555 0.022139244583522767196 0.092542215163970653613 -0.043972237276583864274 -0.22587837444076058757 -0.18750044709308058555 0.08296879653307898117 0.067239501416640479192 -0.10925959179953524669 0.069394027522713536138 -0.25546421125603385738 -0.10909955159002805714 -0.16795303181257167924 0.22875062697541775902 -0.040951497337273039256 -0.21499755444123277992 0.0083483173680875578937 0.18543802148460741819 0.22427414666831840817 0.2613281180429009587 -0.020303577093842513357 -0.20117380422121708405 -0.10025561128662287269 -0.086849193414140463121 0.18696395751623251513 0.1534081555516141615 0.24944492071146032175 -0.085159505798698742485 0.17906228195854975715 -0.029525651417766744788 0.20035992585183229342 -0.025392524122179158802 0.030866574578443072008 -0.079518870018107604136 -0.1765298070038903433 0.14750930247590601785 0.13048884001603178184 0.17210246016858440909 0.035525603770785861568 0.24695901842559445094 0.25009383468242024628 0.11153743790667287883 -0.068874471231180997566 0.11010242852876978015 -0.051317773016512906181 -0.10393322491819997899 -0.33763185406069173844 0.014829059631428871333 -0.069832884754641819103 -0.13194623020307993944 -0.063904260359605058461 0.11336558206378449798 -0.29332604901653974716 -0.18170342738564154716 -0.057202425524487163222 -0.19810047155547100273 0.049509301262011480571 0.020104456459738722501 0.14431528568780335742 0.15825402355734227711 0.11121049562835572111 -0.11854184311447296674 -0.24682199124879034002 -0.1545116402588893878 0.012295643968956323361 0.10098888525506512226 0.080565983956569470203 0.1397818021672304345 -0.17146284781154344512 -0.096765801627087713599 -0.10869438949216708723 0.011458472449569143126 0.18775850119878545463 0.11711543874502537699 -0.15999510065243932599 -0.23470261405399003851 0.048339420850065810409 0.109031285851965698 -0.26258296330021357878 0.23058841861771203763 -0.21500364557953691169 -0.029660296097969787721 0.1383996501841859017 0.18067078245246967483 0.18192936730719869165 0.21924135007173947698 0.17851810821133243246 0.13142149139903747113 -0.076041848141009726891 0.11960095373817175579 0.087371591980675178402];

% Layer 2
b2 = [0.50211151662970798792;0.44431576641243458736;-0.30310356926084525142;0.53533150452193989377];
LW2_1 = [0.75517705680157998227 0.56861339574977010081 0.87821205104436006472 -0.044750029993756865188 -0.44848542626943965761 -0.35770084898502518822 -0.8654450171302818795 -0.29873519416154287187 0.10114486194709035316 -0.0351506346797109126 -0.15560570967322787106 -0.71779643491027522728 0.41382674894767679241 -0.79297734717828827211 -0.80721247452641298192 -0.4320438089696615469 -0.46405088311817610514 -1.0240442167535499518 -0.37728067926035074864 0.00066189968490100534876;-0.25966170246886349782 1.1267642867809855023 -0.84532602430525671799 -0.5495275962350383292 1.4086522367432805503 0.25168763755915363189 -0.59592112864911239711 0.73763316259234357197 1.6625974002256955764 0.09715686004471087156 1.2624099039197804739 -0.7400253557392014736 0.68050949532252758001 0.6309581428420046878 0.043234513844443211994 0.04930163651552579851 -0.55612833807203310155 -0.096224852191949761249 2.3645212742437302644 0.99245371355493272603;-0.59591778790143912214 -0.51875868549776726901 0.25036645365061060975 -0.0033569320370137071749 0.29663951683913958313 0.64524993377308748066 0.57984854422647469363 0.030616345726911506353 -0.14666716597470652594 -0.07698822539065212911 -0.078842677172845210265 -1.1287851790840601751 -1.2099711001008803812 -0.76793667447638513934 0.76340202001319901193 -0.98666461806648508848 0.44672693245016797947 0.93328987511434802204 -0.019227994790348836712 -0.24584228899762897158;-1.3753973778301749054 -0.34229126267092430114 -0.35681957392556518105 0.41401844907783669214 0.64338578451090733257 1.1892557770192204725 0.083388434348160997422 -0.36922688570652356654 -0.88925389350408001743 1.6562174250806604991 0.46236078367777433407 0.24708953613087977774 0.49616680989681549718 -0.70484875599873297869 0.71294752823208651371 0.48395520196210362052 -0.1513596159828587695 0.40143537909557092114 -0.45534325024859900743 -0.81382899760854010562];

% Output 1
y1_step1.ymin = -1;
y1_step1.gain = [2.00245521242047;2.00110651623773;2.00280723481218;2.00490744517894];
y1_step1.xoffset = [0.000149817115251194;0.000363567786792807;0.000414324544921962;0.000817530655947363];

% ===== SIMULATION ========

% Format Input Arguments
isCellX = iscell(X);
if ~isCellX
    X = {X};
end

% Dimensions
TS = size(X,2); % timesteps
if ~isempty(X)
    Q = size(X{1},2); % samples/series
else
    Q = 0;
end

% Allocate Outputs
Y = cell(1,TS);

% Time loop
for ts=1:TS
    
    % Input 1
    temp = removeconstantrows_apply(X{1,ts},x1_step1);
    Xp1 = mapminmax_apply(temp,x1_step2);
    
    % Layer 1
    a1 = tansig_apply(repmat(b1,1,Q) + IW1_1*Xp1);
    
    % Layer 2
    a2 = repmat(b2,1,Q) + LW2_1*a1;
    
    % Output 1
    Y{1,ts} = mapminmax_reverse(a2,y1_step1);
end

% Final Delay States
Xf = cell(1,0);
Af = cell(2,0);

% Format Output Arguments
if ~isCellX
    Y = cell2mat(Y);
end
end

% ===== MODULE FUNCTIONS ========

% Map Minimum and Maximum Input Processing Function
function y = mapminmax_apply(x,settings)
y = bsxfun(@minus,x,settings.xoffset);
y = bsxfun(@times,y,settings.gain);
y = bsxfun(@plus,y,settings.ymin);
end

% Remove Constants Input Processing Function
function y = removeconstantrows_apply(x,settings)
y = x(settings.keep,:);
end

% Sigmoid Symmetric Transfer Function
function a = tansig_apply(n,~)
a = 2 ./ (1 + exp(-2*n)) - 1;
end

% Map Minimum and Maximum Output Reverse-Processing Function
function x = mapminmax_reverse(y,settings)
x = bsxfun(@minus,y,settings.ymin);
x = bsxfun(@rdivide,x,settings.gain);
x = bsxfun(@plus,x,settings.xoffset);
end
