function [Y,Xf,Af] = myNeuralNetworkFunction_test11(X,~,~)
%MYNEURALNETWORKFUNCTION neural network simulation function.
%
% Generated by Neural Network Toolbox function genFunction, 20-Jan-2019 16:54:32.
%
% [Y] = myNeuralNetworkFunction(X,~,~) takes these arguments:
%
%   X = 1xTS cell, 1 inputs over TS timesteps
%   Each X{1,ts} = 100xQ matrix, input #1 at timestep ts.
%
% and returns:
%   Y = 1xTS cell of 1 outputs over TS timesteps.
%   Each Y{1,ts} = 4xQ matrix, output #1 at timestep ts.
%
% where Q is number of samples (or series) and TS is the number of timesteps.

%#ok<*RPMT0>

% ===== NEURAL NETWORK CONSTANTS =====

% Input 1
x1_step1.keep = [2 3 4 5 6 7 8 9 10 11 12 13 14 15 16 17 18 19 20 21 22 23 24 25 26 27 28 29 30 31 32 33 34 35 36 37 38 39 40 41 42 43 44 45 46 47 48 49 50 52 53 54 55 56 57 58 59 60 61 62 63 64 65 66 67 68 69 70 71 72 73 74 75 76 77 78 79 80 81 82 83 84 85 86 87 88 89 90 91 92 93 94 95 96 97 98 99 100];
x1_step2.xoffset = [1.32506328898971e-06;2.67096278521312e-06;4.01686224954981e-06;5.36276171348154e-06;6.70866117699414e-06;8.05456064010318e-06;9.40046010280822e-06;1.07463595651095e-05;1.20922590270067e-05;1.34381584885001e-05;1.47840579495895e-05;1.61299574102751e-05;1.74758568705567e-05;1.88217563304345e-05;2.01676557899083e-05;2.15135552489783e-05;2.28594547076442e-05;2.42053541659064e-05;2.55512536237645e-05;2.68971530812189e-05;2.82430525382692e-05;2.95889519949157e-05;3.09348514511582e-05;3.2280750906997e-05;3.36266503624317e-05;3.49725498174626e-05;3.63184492720894e-05;3.76643487263125e-05;3.90102481801316e-05;4.03561476335469e-05;4.17020470865581e-05;4.30479465391656e-05;4.4393845991369e-05;4.57397454431687e-05;4.70856448945643e-05;4.84315443455561e-05;4.9777443796144e-05;5.1123343246328e-05;5.2469242696108e-05;5.38151421454842e-05;5.51610415944564e-05;5.65069410430248e-05;5.78528404911891e-05;5.91987399389497e-05;6.05446393863063e-05;6.1890538833259e-05;6.32364382798078e-05;6.45823377259527e-05;6.59282371716936e-05;-0.197183114961507;-5.61983648739647;-6.62929250063194;-2.60285325680894;-3.10935867445352;-5.01047906896977;-4.93423696921965;-3.69965263768212;-4.02814695380586;-6.38591670755616;-7.48148837124404;-7.30097477606985;-6.02714179378053;-3.98751462720849;-3.98270385316853;-5.61203110555548;-6.76203264194506;-7.41634232329422;-7.58809413368177;-7.31621156886204;-6.66062736715466;-5.69679929159332;-4.5099090727403;-3.82966017993566;-3.97344361010981;-4.41541816259844;-4.72294588822913;-4.89608995101648;-4.9382344111483;-4.85581088250651;-4.65796568080225;-4.82301561250494;-4.9000479933716;-4.88199032815173;-4.77421420407528;-4.58347306601417;-4.31770363583615;-3.98581580063106;-3.59747560827363;-3.35864772993797;-3.78992828927335;-4.16686890059971;-4.48883154541261;-4.75569105995115;-4.96781109816779;-5.12601697720057;-5.23156582263445;-5.28611438366596;-5.29168493518357];
x1_step2.gain = [0.211860428246177;0.143520563562277;0.12066742285137;0.110400443416651;0.110671758022748;0.107325837332186;0.0943810644745147;0.0847475498847289;0.077387984203443;0.0715951955697871;0.066927550426478;0.0630950019094473;0.0598991814741895;0.0571998213258472;0.0548949275910282;0.052908554267986;0.0511829826440766;0.0496735591200783;0.0483451936865966;0.0471699275272601;0.0460431791981553;0.045024738379898;0.044108163944744;0.0432797543059004;0.0425293908212202;0.0418471755845085;0.0412259747380312;0.0404619650903241;0.0392201999511015;0.0380814451191904;0.0370339581954113;0.0360676850444669;0.0351739712626611;0.034345330154506;0.0335752548471799;0.032858065129568;0.0321887818292021;0.0315630231658657;0.0309769187693255;0.0304270379740505;0.0299103297274998;0.0294240719922553;0.0289658289542098;0.0285334146775986;0.0281248621123128;0.0277383965626213;0.0273724128924661;0.0270254558717093;0.0266962031741354;0.0403959043416086;0.0364088685629143;0.0357518893295001;0.0385247825166307;0.0381525655152214;0.0368173538279492;0.0368691175167467;0.037727782488129;0.0374840376471365;0.0357995614540243;0.0350611631093763;0.0351488165485558;0.0359452460428878;0.0373141826323639;0.037324774426069;0.0362335238546714;0.0355057056231416;0.0351105354361458;0.0350180912546191;0.0351992027854737;0.0356242449375615;0.0362613386770111;0.0370743840899421;0.0375638909112842;0.0374787048388702;0.0371865901155336;0.0369907517470743;0.036888168696762;0.0368667815589262;0.036922897516833;0.0370582706097738;0.0369453007243634;0.0368928198847699;0.0369051302881502;0.0369786888841398;0.0371095799200122;0.0372935028429585;0.0375257536673533;0.037801205649353;0.0379726320423422;0.0376642393055311;0.0373987786207197;0.0371749841528275;0.0369915145369719;0.0368469694144698;0.0367399007324892;0.0366688197213066;0.0366322003885141;0.0366284802423237];
x1_step2.ymin = -1;

% Layer 1
b1 = [-0.99887508449075435024;1.1690593212201969564;-2.2532651690384115639;-0.84637590808610019266;-2.4167377013759772098;0.48328345943515149674;-0.34101469972574305345;-0.54663552569326878672;-0.24816631681370238116;-0.018233609188506950949;-0.79806682535986239735;-0.0067000469704013437822;0.3237659885620092215;-0.81708666568579635392;-0.4428073194147656988;0.8320842700335423503;0.59308552737956532486;1.0554448808545633387;-1.4052959652891232611;-1.8032259231151746004];
IW1_1 = [-0.40747221390254328988 -0.14926814756411369012 -0.46948127271574907615 -0.28463965016884046344 -0.042041786794770469315 -0.16565110979831065841 -0.21382845360572816373 0.070206258686592359908 -0.060638760929188295634 -0.24334284248298312936 0.20141961942028685506 -0.22673771410420964778 -0.2021670184715637919 -0.18818907640382367963 -0.15144756049461496894 0.19223908944218423556 -0.27779245337060765042 -0.11173670263110045686 -0.023992557805523544862 0.18036899007857853938 -0.1866004512127096282 0.060321680614210025639 0.0023313630276514912647 0.12741086563282175148 0.19369593413224581169 0.16394379703726397191 -0.14380948341223509512 0.23802050298275520546 0.062641875146507985939 -0.09444782807042573225 0.20463897189411733857 0.21783567355549815492 -0.058012248131750217273 -0.13008842477016627215 0.12228421358126462248 0.20896292395862881008 0.17315771048745820515 0.25371340076862886059 0.19855285979011869091 0.18401596796381625154 0.20741282974338362544 0.0018940781605932468113 -0.036785186621542460828 0.14169071565926283363 0.25209180264985370234 0.044244279365450805974 0.31811431848986504445 0.33270715574133491454 0.10901207113143852878 -0.28080095905414675928 0.16276410718392575472 0.011971494504795898717 0.024118864339925896734 -0.2519792142231819243 -0.26310754776092398766 0.075926895636763566677 -0.11750160132776039934 0.11592972749799425325 0.0013871466786472049643 -0.04193854684239365499 0.12335783972758959659 -0.12206178040345354308 -0.29535294040488785372 0.026743455109227189104 0.015108220503801412377 0.012686907643965036549 -0.048156865062218709439 0.16003359057971960899 -0.13761488090518322891 -0.21687255989673434597 -0.14163857826886863678 -0.017803978191807495052 0.11813567191766756459 -0.091964244893586469254 0.17684919566343529351 -0.18629593475457431606 0.1313805632073926366 -0.1554533770711288565 0.15818458479567334973 -0.0096561122199851252834 0.25794602952759948522 -0.0081748610067882837571 0.25743687335999454469 -0.21176517991934851182 0.21714295577558359596 -0.0091966513566264836838 -0.19179711159302845203 -0.054904732073849375762 0.20370593424443242392 -0.061771583779672019354 0.078694773848229024327 0.12560612090870684754 0.13692272921736267643 -0.06393690345418731602 -0.0009571810435003175882 -0.1719580644292466598 -0.15375752663904837525 0.13591300105089526573;-0.11593028979433961378 0.016695219684343117622 -0.027403022290259673038 -0.080183503802509215053 0.031259837330066403416 0.053514877424956856788 0.063943531906252654151 -0.10339729975601309742 -0.037760005896385041846 0.23077543962463306637 0.13073966488150343124 0.15238440886255003037 -0.056193972600950284346 -0.15774402320287039814 -0.20955801470845342172 -0.091365494711959621688 0.10697978025132565127 0.031931136818919632347 -0.2289921524503288619 -0.061992493303224510681 -0.016274701231438509774 0.17013368331804420985 0.16260942856071305962 0.15217092632440448741 0.075221535855612253751 -0.20763921936715473704 -0.1529773716065149225 -0.1682633360552370505 -0.10308937558672509605 0.11325769073764985206 -0.19699639532096713257 0.17234365856439520792 0.12858092138592414067 -0.023089554062516132876 -0.11950345246295573931 -0.11342480860955728161 0.16004703553561924756 0.0030389535764178909026 -0.25363283896633986858 -0.073991221425577805015 0.078747883474153984595 0.1436246570460481542 -0.15861760696944898763 0.15394234649837609807 -0.1023712254849777209 -0.039405856051719451161 -0.2205386747584825724 0.14814253332782231776 0.16074175795735681782 0.066514045784187444954 0.12531981134017738944 0.02749311557397794703 -0.12660094450004316657 -0.1203419570323340515 0.21507352444872593344 -0.10557510846051595954 0.10548862016559139299 -0.19719964742047771389 0.0051200555198313586064 -0.11262176369052792624 0.051105949871781228278 0.17000346175845904018 -0.19189403462226917174 0.088726840105295606831 -0.057753556449544107831 -0.26092205160202430747 -0.29072242274827403419 -0.028318917276702857549 -0.1333110633214887597 -0.033134878621816812871 -0.10251785254946653436 -0.022381260969791861443 -0.15344811742059311088 0.14859504266594456001 -0.089639486621088365625 -0.14906437725459761867 0.1229896434984436987 -0.00346828560321644358 -0.23445983919545734797 -0.13460348290280219063 -0.20329651834455625403 0.18321743486113512001 0.089139854951963332086 0.2075370924883247481 0.22428489571170937 -0.15263616873241234173 -0.093215537634855141769 -0.14460696670553446763 -0.13471801900968538579 -0.016678475959370775428 0.14745197571092183431 0.14537420394515307431 0.22911630421083120646 0.24456135260626341021 -0.24131532791721219122 0.018794324722647096082 -0.11061534775775944128 -0.23524652636916634774;0.64580006743024331861 0.23635172276943305913 0.20396007374995939188 -0.21268010436208154013 -0.33293382024260148588 0.087822324786506547611 -0.076224401976931213665 0.014347075720175459998 0.15127555246865376226 -0.083415084173285747315 -0.1994406485663368922 -0.15175121116890363804 -0.024985862140403727882 -0.030296013049146943569 0.024281564766907275804 0.18391607488169658957 0.069271889663368724221 0.13513811550559062802 0.06707353065473994902 0.046025987337541672539 -0.1973023901393864965 -0.12041945222712618913 0.16806213987260781861 0.14861111579311875319 0.1024594512527011031 0.22033524816254615453 -0.11854165558302294514 0.18069623838284509798 0.18343629598298899497 -0.11190614810819798919 0.24679701918922059001 0.3750736097522762158 -0.02328728077228530563 0.21789665251392373313 0.34391902654033523756 0.014436939916164409289 0.37705038595847928384 0.14665301250945669831 0.0053032975617294184079 0.48654265516413247594 0.18949896588988843216 0.14440474918142351402 0.26754911469341691177 0.56180214522740179461 0.35374144728524392622 0.23732087305455615289 0.11448084478414490006 0.1377904730055860838 0.3825498900814229275 -0.44509971883874666077 -0.37371714099328107173 -0.68065660075520251215 -0.45694306735301493116 0.044980164343061596055 -0.322388543660980742 -0.32565133446028027286 -0.3292246155734134816 -0.20830452826373252462 -0.36809805942556417246 -0.12060013493518564887 -0.45177493033511167964 -0.074167866855673961202 -0.35143064531661594163 -0.071367570730925020128 -0.10072635588832147546 -0.42399889291703646288 -0.3235878797570472809 0.010141327466244935349 -0.42455108606495689516 -0.32166491133224928145 -0.30434781307455738286 -0.16368765176793736993 -0.14020779178120224007 -0.21637539800515834254 -0.24372933168803551096 -0.14015488031473993802 -0.23191098504992938012 -0.21840718427426780712 -0.20674286622079871001 0.043402622274907896871 -0.27568018241342412411 -0.19404663945341668607 -0.079021762947695861623 -0.31861898859424570007 0.13987000830805404461 -0.023102193031777532028 -0.035296393508823339924 0.080908311829824650085 -0.055006218534285028499 -0.18388781537058510041 -0.006033234006724416329 -0.2875980238822553603 -0.18429562430850390808 -0.0082452063755406833356 -0.059881545529933709326 -0.19693217182871239346 0.16273461292177404669 -0.3082637673022597391;-0.00098628190183028957572 0.089524904859675333291 -0.31265859746756585746 -0.26034946592428159784 -0.16649532934685221108 -0.31573475941981565818 -0.025011071985036381626 -0.14505030397469526049 -0.10392854379200019976 0.15698489766057396877 0.052938823569603839225 0.15148520832228087873 0.07219258300218074631 0.12120273573291757974 0.041387514384064461037 0.00011716644328954237131 0.022734440853910194147 0.20483608636166542039 0.12262231840591784893 -0.10707158744808684125 -0.039383573707951452514 0.032779555061078026468 0.31414810866219000651 0.28447013729414433181 0.27393255593489390654 -0.050428474195517956902 0.027861465704157453022 0.298689839382354827 0.055815100752034038645 0.17570930042326746157 -0.0037948058350235134954 0.22377055428538208948 0.19506041183541281137 -0.031817736716400688013 -0.037636210416295910741 -0.16209498933893004557 0.28877464473655661825 0.22891328983505229711 -0.063425960096238215291 0.23527810138359128711 -0.085403927824556441495 -0.005169607154807468602 0.036637897628982216136 -0.031044338146859137145 0.14760663371625473705 -0.15630249121058656381 -0.10432095272365975169 -0.23357836231312736897 0.0031710552541554040684 -0.071284563288816937821 0.12635923057465056618 0.22608775122740693009 -0.15686715779871185372 0.15926678255026988085 0.23224381397929291793 0.28018724894926244628 0.29820677148240731791 0.1579880493245783557 0.18224431396529480742 -0.075952721867301384306 -0.0025708492153273566905 -0.12324100506479862549 -0.018151621797193380481 -0.14222871855676466613 -0.03561059144976096158 -0.0050531852233691026965 0.21785703423459157335 -0.033936185101554043608 0.14741240340002936815 0.096374976214095853244 0.013322186164103440656 -0.016014875440338610657 -0.13049235959974539445 -0.18957247224629367177 -0.31221562768524557807 -0.19846235719318819357 -0.24001435799996723164 -0.24235247624837474856 0.0098568120388757250738 -0.34282179018566238948 0.1168208517120210288 -0.34831423523575927303 -0.32704199086791130302 0.040782306764728964987 0.068452783722559432111 -0.16315855026226092073 0.051765907507388422837 -0.12435869570375684967 -0.036966210893645295998 0.067802077080380898644 -0.08455058421651159839 -0.37893220102508795577 -0.28756179407441190277 -0.30923066077720862133 -0.38489627543557580758 -0.33474084223898376012 -0.18982688160074059902 -0.060376857519180343603;0.31831282474343364219 0.30644787458199124197 0.19190642945764571636 -0.16012084940386570042 0.13201967856377994082 -0.090724059684294477979 0.0079300317026081753452 0.25921429103548687678 -0.10021531892549126463 -0.20419087405934976953 -0.27622423019479491746 0.034178655309883239355 0.19870822936931278879 -0.11059806969783544939 0.01335380477441565697 0.054995390938495591904 -0.13893667803082360157 -0.09914519451542325168 -0.12378411890444993015 -0.056824614732281154839 -0.18112344251912310122 0.043010260991040057121 -0.25694074034235120374 -0.25010598198281563942 -0.22067796016995430697 -0.18794902718788461526 -0.10747501839992645856 -0.39126109486557558714 -0.36366135807116645173 -0.10669430384012310031 -0.21874762860472915516 -0.18963040123398189341 0.08355421668821967629 -0.40418667024511278907 0.075224818407503737938 -0.17710001327373067759 -0.36667706104714953286 -0.19388040296892017356 -0.26820182145924720274 -0.31787905592854515113 0.085370396722615038421 -0.17962734360900856068 -0.40706819528991200485 0.05639976677170748659 -0.26809925099349457556 -0.25734351783617182008 0.069021833031064516728 -0.31797644900535598778 -0.02935960618234668279 0.047532196818673440319 -0.16678053297632794427 -0.16095347469939016993 0.32114330076519653767 0.13531369128844253358 -0.089159331171727959631 0.16530822553483834336 -0.062867785038983228785 0.19861295282460306177 -0.053348474882620448845 0.032479397277659499688 -0.041145884464093424038 -0.10541811583126461938 0.084353454906529054536 0.14291190188312780096 -0.17063223838395380483 0.04669314727655870384 -0.10776487302760390241 -0.3755178877070555199 -0.10851425702892440739 -0.05470999755566775119 -0.092271877716134417802 -0.10810609947436110312 -0.17502461406384212106 0.12585630472820372172 0.12692378376017957042 -0.019544800199864952039 0.082853644654717839568 0.04111223009875376172 0.15583806583066880935 0.18607261521947440763 0.095570763504067179905 0.028877787123798733665 0.24574399492151147162 -0.059785921652392090553 0.30380316136186680254 0.35321314381159124585 0.033498433886825600136 0.29137706452105871513 0.052834155123654774622 0.44010820401473199626 0.2116362313520794014 0.17605766809088199687 0.20781241044759471426 0.21957949419007921632 0.25154426857457812261 0.051037771019400990369 0.11038894126657382289 0.27705393965148084057;0.09674884098176056435 0.10719307903639560542 -0.23128575106593887711 0.10562894996823728178 -0.13711838986594812595 -0.00055169006071734399271 0.061284376400295603737 0.20894332839102516819 0.059859143313605478465 -0.22429665616778851622 -0.0088588525609459237847 0.074843022455056945619 -0.20209086270778275907 0.11334389651132850685 -0.16573782567760236839 -0.075399115809330896631 -0.14540630706398072203 -0.22836128336751754242 0.24912695658183739433 -0.14522825038229764116 0.17449327223329036407 0.17671254556211493658 0.074258112049188043646 -0.056947554593511598431 -0.15968940063477382596 0.0060117860020090637882 -0.087678988052579204249 0.11166163250608446278 -0.06145994733748740696 -0.024014204030089511543 0.18380161795387725543 -0.17691273656489353572 -0.0099274942618168982716 -0.1961301155391256823 0.044207499661088514586 0.17169693159547755323 0.31248755390411508959 0.049858574964612940861 0.029052153126126061683 -0.17828510352211590639 0.093294247431603985476 0.23039136045112207363 0.081175532111736142804 0.14792856773565712936 0.30665119568280763129 0.16113149506651353038 0.10974915279824787318 0.014315471184769777355 0.055923492358359111476 -0.38382993965721950991 -0.15832284695246956474 -0.30601429579450956098 -0.40627376417401067643 -0.14712367561917019665 -0.1468682722510208094 -0.07430374372999784538 -0.32852481224051194308 -0.11927682753309729047 -0.12934355812245632023 0.20721478961826073073 -0.060618511037915719097 -0.040062270931495377879 0.15745130945843718862 0.025144244848485729216 0.09019951812162424476 -0.14956744396964610777 0.13295704416480547128 0.10067154156426541545 -0.27937525706014010307 -0.11941884444610052773 -0.20253648194150183914 0.078986605888635638695 0.22795456946528611097 0.051851273162595717947 0.082043883560419458845 -0.26055958208150675759 0.15443606386597907854 0.083479760232056471336 0.16074797539898508236 -0.23899960990878865719 0.093130180276317878207 -0.10116543283808437925 0.031554519162044880609 -0.18134489233481765336 -0.12754382162458427485 0.25426643061964360193 0.25726491611978596907 -0.1312002632203531638 -0.075784741297430319174 -0.10023417005240548017 0.033485636573291947815 -0.10677872785212520756 0.061908836247629661642 -0.046655124322108595947 -0.047256805342176896878 0.092578123113188970361 0.10075582623135370675 -0.012991496308785040886;-0.1888916214357804213 0.090287833090080107934 -0.18411891739761440667 0.099584625636865278797 -0.26264316800698483956 -0.074679158637565232204 -0.303580394228988526 -0.36877195045594324263 -0.11440307419019758728 0.072278156958323097614 -0.045120103671669777035 -0.19748290621621872321 -0.2286681243307335798 -0.15566106195489734509 0.092425533220376832055 0.0029041967676281823206 -0.28646273837186014832 0.13073944260457989741 0.11411616822101530722 -0.29779451448243898781 -0.2957505933925665409 0.13408206285942472769 -0.063006257374910321079 -0.25464157946154969414 -0.025575053745562230378 -0.057303375681990717516 0.14092244215512936267 -0.20697060915323486907 0.14463136370068271908 -0.049646030255464670966 -0.015463896606609683904 -0.085784568897424695599 0.24267150413482393989 -0.17318244148920558523 -0.10616391462997269712 -0.1538416028595604168 -0.085022206371271072389 -0.073696145467008811192 0.12496245473287889705 0.025067791245958898072 -0.086489087573047268576 0.01792106193437675854 0.12606967582090644608 0.06411201608929371909 -0.058165034939229240396 -0.23579701756178853 -0.03696971809826556099 0.089078588828427007762 -0.02520563180610932083 0.33098894117769206424 0.036384617671766955604 0.43179663922884670146 0.25079759042471921893 0.029370853867824540245 0.23885606763689440357 -0.067533056240588779096 0.1793131844439292133 -0.09740056454985043799 -0.15016720385890555689 0.24599265916981552516 -0.031731408803763357096 0.1937118578949691694 -0.16195919231472952204 -0.018532326532612275471 0.23322828404701953509 0.2953702172173179874 0.030226499831829449494 -0.14644638861773595639 -0.046436381009313097701 -0.086555959428879322703 0.30270830735623271979 -0.050031767572748686579 -0.039286300173360357013 -0.14503205623374840205 0.15403410614611892648 -0.07121258176939720963 0.25340567184487472474 0.15660525947253001178 -0.15771666990925092833 -0.023769681521896172949 0.2170096898024427845 -0.19963573227425701617 -0.1097238524284193939 0.0034743058426847930539 0.15764642127476813371 0.00436605226834149273 -0.011479929325485357244 -0.10162067341675960763 -0.22238715111911791511 0.11405327846821870785 0.04657373617483637207 -0.15312996876332632401 -0.12757149075600610066 -0.066417605582317032487 -0.27481813785184827648 0.024828247771536148675 -0.22974645876414623302 -0.23261079645441370967;0.25319806854942999985 0.12267728283636265829 0.08654937389792044522 0.15559795859587211009 0.058096190794316403261 0.14983456983136461682 -0.082468088426742386376 0.22801567263715583067 0.12362273482706824523 0.19420529295057498143 -0.16819024489768222286 -0.016527339090216117828 0.14906780963824051156 -0.16179019204968655976 0.11909480050227101711 0.047413995556306473556 -0.26556504913099376886 0.046695600746411221327 -0.22372184240929993138 0.24282389497663053879 0.10205691973108975412 0.069894328078653561453 0.079027829149758574423 -0.25033841527049982556 -0.022611446524793247376 -0.1746759736217314285 0.10670675365846543636 -0.14836862810413559144 0.11039853693323262163 0.16748837042821149157 -0.043656217374707928514 0.13614388026369159124 0.025379442923457867787 0.10815998322716399715 0.071690316460702036006 0.028083147160665886122 -0.13352302074651922759 -0.24046480121718488698 -0.032718484684883253344 0.077121170069493039101 0.21086534040132337564 -0.0094955309002832943843 -0.041054708101937439912 0.23828304835710595322 -0.028972401241678165384 0.10620082767447250327 -0.053767078622399266941 0.22748945450535926205 0.027816808583191323517 -0.088493826916229700874 0.15707721863284482278 -0.11892711493887944685 0.16728382287771176307 -0.12028254010951090758 -0.09924141310153514195 -0.11424571712093056775 -0.20397784594873241693 -0.034340455698968298803 0.18956953918869809406 -0.2387813977473975946 0.1952118100937862144 0.25354312476777168817 0.062196399638032383306 -0.045590197395829902549 0.14667341246281162537 -0.037263451472122802177 -0.059254624210827132325 0.20471552588258146166 -0.23241866989818787959 -0.086159701010711117752 0.22681870252597013948 0.18887925374533567902 0.13457110758177959209 -0.22748989979543557394 0.27304111897055849401 0.0025515930388237662539 0.088676033632111225802 0.24682061423175302717 0.2848059735053686814 0.11644859664332299354 0.0055305800447157382749 0.0064830246931071571631 -0.12438443270279152253 0.083339186596247977201 0.31055944963960724348 -0.10329575157922642192 -0.04549265800667624815 0.20536177070101277464 0.083288801564327233362 -0.03311124005661944536 -0.027565543475323125988 0.24344935086436805816 -0.00040358461574045690311 0.27124402368266792296 0.24345543545778317029 -0.027357835704432766077 0.14773855950814465676 0.02803779927848861972;0.92165559804234808983 0.22780494683690033497 -3.5414181197307263715e-05 -0.045171149793495943281 -0.05071723878937754032 0.23019689529338682732 0.10961960635316624069 -0.11126786303335788053 0.19966044283545988924 0.23003246996100584765 -0.21599118134046799145 -0.10134518960210189831 0.23665499635823605828 0.080231189234074379302 0.14449285536831268928 -0.01816166134903796775 -0.13572985378047455751 -0.071172514514231885463 0.051401059055865824798 -0.094967135817278447441 0.14372585213523111913 0.23593356985653321511 -0.14193401019821316744 0.19918717593538237676 -0.21374964503509930047 0.14808921480883821542 -0.16219906432843683719 0.066091001977570257298 0.12978406835246825146 -0.094172859067235742403 0.18377442500384877366 -0.11622491094953497914 -0.17855202890501858937 0.23998589847309698131 0.029181128592075375461 0.089554419396534620801 0.21878755807794914023 0.04074800696062722688 -0.16829490049443407429 0.074801606346668284009 0.19844047379867202352 0.15591033669831863562 -0.01803570839378439844 0.18676521127649309273 0.060848101754479237691 -0.11227158708005105514 0.16655670707383274376 -0.16206833099669543108 -0.08769336141707179122 -0.26664543805842316759 -0.11685607240341028268 -0.52467607025257445574 -0.16524044163767298565 -0.25190766857095869824 -0.043397395494494901691 -0.090886371325761813877 -0.2691504986356625384 -0.02835469768951031852 -0.12877346593327668178 0.026867728513369042165 -0.038980371195851890032 0.085436064712274162325 -0.10115400652599003395 -0.019191355991494244565 -0.17525841613506570882 0.14622996114474615115 -0.23544007521226312241 -0.084810124653915006099 0.10142830993106333182 0.11463473956692091238 0.14820881541345504173 -0.32003722217224106483 -0.19638633715403161495 -0.062541093945435180523 -0.011481222336561746483 -0.090685314893635834976 -0.059849136532372018693 0.15893805067077396154 -0.14243192378339436521 -0.15456449101677083302 0.1520135301387878779 -0.14656445588356339926 0.038134289799605244897 0.0091269411894842004257 -0.13837833902356899696 -0.20469703784153128745 0.12884408734624527848 0.25055853259766486252 0.23324862921538533356 -0.0099050407745310386359 0.180094327569329693 -0.0053905713435106455272 -0.1311208182295182656 -0.13782197530309786559 -0.10237847228758448215 -0.079500647202724650242 0.1891324361935133036 -0.018166414492906814843;-0.62111921224126998009 -0.02262564106932143243 -0.050995702060310690862 -0.10783580827788484535 -0.18294162411585171424 0.040762789739804884681 -0.29947897723140004533 -0.13608252175947088691 0.030605576405243931082 -0.1165601727834264939 0.072264784799957987316 -0.16522520893740538783 -0.17666410647491120889 0.013396359658557012787 0.039529900216556834724 -0.2619918152576067305 0.044112852298113666705 0.09782788548535280293 0.19941854833148714432 0.010268854724193742303 -0.21959368881338045543 -0.067228349868636183562 0.040453687757704255568 0.11152067253356287568 0.043473777817798646417 -0.062960043583388039523 -0.10294511438975345596 -0.17425181009201395899 0.15816333429973514213 0.23701700629222163808 0.0075613765228779222446 0.13995235233287323107 -0.021908061316623289594 0.15019820775342759833 0.15842408337747795888 0.26666095089219815639 -0.10812899611346642181 0.15189046204960915398 0.017200849966097442323 -0.058043234520363792828 0.022729567643394010812 0.28568994475865461258 0.087137925348690803418 0.12520043779218259505 -0.096205619827559846202 0.096156119358223920979 0.083052467413754216263 0.055204103273876752034 0.29499486857132434237 -1.2145396843931481889 0.062702651601451997454 0.20211752162932225541 0.075906523918912241489 0.016537873162671971189 0.098890575790334556139 -0.14485987461909524687 0.11961373884284155766 0.23014130167138155403 0.22768139793967190343 0.046788100886087785613 -0.31012410469096141075 -0.18294668496453395101 0.12265927358514272516 -0.33373157203327391551 0.046683385448044345534 -0.27956295385310331314 -0.23161125835793891503 0.17986576126265294007 -0.1894918135183829011 -0.21969774092915414498 -0.060552255094790889689 0.19931388367255575833 -0.13178433301671793609 0.098416658224217717921 -0.22998574686226597175 -0.24955619672325077274 0.23409506498797610918 0.17268894806814871767 -0.19221598604428608015 -0.078623177594055473905 -0.065292265596098214564 -0.14942911556265944806 0.041263865695725841787 0.17096393702968315509 0.040264445379550255211 -0.013156173379581652741 0.019748336241283602488 -0.15144516830412688146 0.29166959501645761677 0.022379625419805700831 -0.01544642479628862905 0.29142717820335994894 0.36022620608274497078 0.21697554807399152543 0.41715537605239783048 0.020046315330007405398 0.27376784716123958585 0.34744061003725656978;-0.14110174737308284199 0.27566283765057880695 0.017792951575908211304 0.00769370337798554009 -0.10084915469375145547 -0.15062515873919618548 -0.040488714103888684415 0.14462141849313528419 0.20228210592903644871 -0.11186964494770708367 0.068312888921229900085 -0.086003104179808248508 -0.047724449877922708874 -0.023997144667509046068 0.095223647746357276134 0.26038412562700680164 0.267506860542523206 0.24531202184291103774 0.19798308104301937105 -0.014633045558609336645 0.20519517523714489449 0.21303176092199499481 0.17085603269749655153 -0.052894262193380579828 0.18068650896365415215 -0.057651987918660857479 -0.16917084942802573799 -0.11293142156220882522 0.036121075879295742872 -0.19867677908167194478 -0.1493285479727493037 0.08101930634915788243 0.23388349470246797002 -0.015265745343851278015 -0.0012931183785574533983 -0.011791210031917577841 0.13372982919696205228 -0.069443387359954075744 -0.0023311418564483082222 0.1236838595707330235 -0.30407627099364237244 0.14362631667410746816 0.038521411686740239522 -0.2445230513578932896 -0.32755227113787666049 -0.25134771301922642639 -0.0093967067713846327143 0.035360647053380142579 -0.31216583830542232736 -0.82819733423700436781 -0.39867606618552042796 -0.15482101389359939625 0.11776924278788679368 -0.082726599042680759588 -0.15040907656991511776 0.043973571561650180717 -0.095452971470454048286 -0.072361382116015587895 -0.21315302862511911752 0.019608596112507457182 0.18545491371403838299 -0.17821652866818005201 0.25556150410617811675 0.029131246106807510282 -0.13179776493996969711 0.022404748823959357712 -0.094821684041288267775 -0.11923456177003832757 0.098070034263919997342 0.2314622438655191683 0.081239844581852807548 0.24398333461985541315 0.28754772704901543356 0.32759210446697428765 -0.0090145436634350567529 -0.10280514577359857464 -0.058667012928822523388 0.0071220419852954632359 0.016116600816822736209 0.075737167249371559197 -0.10681951475154397024 0.0060072729942182096288 -0.029861355130730869722 0.19998269023429729452 0.22649581840933413757 0.22285027726925993319 -0.12234920450394311253 0.098514545492545402272 -0.29561573321614209586 0.080674036189105124972 -0.27688540298308234044 0.084905333074544980798 0.020073289111054135742 0.024777340412329311448 -0.43029334729202589616 -0.34290430766888618797 -0.18159006746120096021 -0.13452754683067569275;-0.15151345235164903613 -0.076008275443281328454 -0.085105531235012465974 0.067720665483389813621 0.076311229910442993085 0.055813735833364845618 0.20164339454509910832 0.0845794987583955854 0.1904379237919825163 -0.13745808486115040914 0.00055443214886101693101 0.22575209157100728508 -0.2442291270027201755 -0.16916825566026538752 0.2275005345025663539 0.14043301421205683921 -0.12511462183792418368 0.18470239410796993051 0.1120043512687910886 -0.050198733587526779554 0.017182582719199777921 -0.11420982802278524526 -0.14601686330959179339 -0.08705789221310605841 0.23421179556191074056 -0.10454032387866726839 0.1097180573999140818 0.2446341795011097997 0.2226570672669348494 0.012425585067333228678 -0.014788191140339520396 0.19264699406964003181 -0.071905606478524092262 -0.13251405015118422615 -0.19526371162618566535 0.16424027900843293781 -0.25161261509948318338 0.17866716140134769608 -0.097969922628771410889 0.061429642405800601035 -0.20914389331822857976 -0.16954254442624611121 -0.28107484444299685178 0.17820845591087891568 -0.070704383767638975811 0.081879107912508561351 0.1778576593396321015 0.13241666631649709474 -0.27582053655121774316 -0.00066851195619768710721 0.21121311528136474389 -0.19837319911165246511 -0.11066564358135452806 0.14358051136457469776 -0.018726251542373510001 -0.066090437084393105494 0.072189293594286760292 0.076714306247725308485 0.049850870198166079283 0.12153914429758516658 0.14678428313572033925 0.11723537322571665753 -0.086548893241155361311 0.11921097025166052519 0.074251612531676891571 -0.23412795103531713892 -0.044470933134780087082 0.0071641556482557652158 -0.13131588913419481313 -0.20682793181932163096 0.001378938236829260755 0.20010581695753754117 0.029581378130807571558 0.060639556099117072896 -0.065962710769447249759 0.10219780867826787352 -0.18721285971459306063 0.15788975063430399359 -0.1568494120276070769 0.051804670879829574359 -0.16313913826837739274 -0.032936448413209432062 0.18401769642976342767 -0.17265359893263032554 -0.18541476469819972994 0.21352458981608402055 -0.12584917383768187693 0.13539339648813664141 0.20341419986014155907 0.23848363996794197384 -0.17494933752182723063 0.13342943094377973656 -0.11735983822153044087 -0.062348261261849759196 0.2193386138859679535 0.023413748329599175929 0.35499847328879124975 0.26873065866803902413;0.19525485414917967408 -0.14657461391616755098 0.24003399448547349526 -0.0098505260563377938787 0.024533697881685641307 -0.034500262336904320704 0.22759732813059965761 -0.12706801023728153677 0.14754869385396010562 0.038920039297027281266 -0.16207383343435602385 0.10249183836776377954 0.21809906926301753094 -0.1434491723693621934 0.20512234325252129419 0.22467571979997627563 0.095305198081975864288 0.14959441933980530126 -0.218126611475923049 -0.10618402333796990444 0.21270544999586435408 0.27292925219231961576 0.17429206158807611371 0.2565303236532799902 -0.076603872636126377205 -0.14328280014769748107 0.30906825705457413589 0.27279047555413948878 0.026985281316468167495 0.065163676691340072233 0.30649615209840752605 0.021052649826634531327 0.03181107241434386057 0.25411884624840325175 0.036981000472288014236 -0.031462473782445037063 0.24872344370126811541 0.17912992197049024123 0.1347230041314341209 0.31011552590094504378 -0.031430988862864932265 0.12247769956104502531 0.2490949630625182154 0.32276098400244190856 0.011815685475356437623 -0.053462497606787659499 -0.039649697902142413963 0.29946046687039257206 0.065740708494169422527 -0.34657339193847691572 -0.23868660401837241136 -0.28776574526574183466 -0.25771760516847830313 -0.11967088252766353018 -0.09328415866704967141 -0.11328595228931032102 -0.093880904987980878795 -0.37816108151278238214 -0.20278633924030359248 -0.27763810200152938545 -0.030184937343438061202 -0.26237194461979423954 0.026203276501644855168 -0.28483328381979156063 0.054980945348284571139 -0.12389412253253594132 -0.20214019555452494847 0.058874205256118784801 0.066873695422927065257 -0.038764386065424691341 0.15438107913399312654 0.013055801581334729178 -0.034024342846283958663 -0.24226209377326068939 -0.25297345255425685018 0.035578836368136156076 0.063650217936093045346 -0.058975084587352094578 -0.19628060262798754931 0.0042578183465628964555 -0.18130044367992562138 0.069246063944912020216 -0.29542311774461960105 -0.19539488221904768861 -0.21674637948159677925 -0.29240199063383931488 0.088198266736009472977 -0.26877682700167054852 0.16115730767560007552 0.11448722576687909991 0.084359378013628444348 0.104965046193281758 0.17572535411346748568 -0.11360959658449269749 -0.18514449295135870788 -0.1042931922423793456 0.087462728799494307563 0.034672225674933818129;0.15401682065549671119 0.37224801556845787953 0.20142168475508137604 0.026523335048845395057 0.1416414329831871266 0.18439157453366755712 0.085826008589381913572 0.03572906264472729132 -0.01314604787621762548 -0.097891036125994923545 0.066735434382489258742 0.13010545269307990934 0.18865666892348637029 -0.071140260292210807935 -0.17883865600656601025 0.067149788494664228167 0.036757975778596539695 -0.1878399611420956683 0.20685953767289932959 -0.067651716013838542052 0.091198407863765124093 -0.034964570717497943375 0.16407156886913898397 0.026539947506570966962 0.15237597298109767374 -0.20213654707194750326 -0.19670051801243976231 -0.043021281016854512336 -0.028236254797989253362 -0.26709488518473489815 0.20858601898159109811 0.16954917901342184128 -0.032728262624298322392 -0.19707916731020502787 -0.080218122687960274897 -0.04737054343450687599 -0.26610762134614335261 -0.18583907771261240494 -0.25653560091231497609 0.0046465564179574920037 -0.25253557535373888365 -0.28455897490716886011 0.053771445972727406615 0.13980868807687768518 0.025431117096347065354 -0.32008839914941261684 -0.076900887785481694681 -0.079937480956768475204 -0.36440360933118332021 0.33283123392544750052 0.2548233686547066168 0.098162553788934417409 -0.07954596328812389705 -0.074436903973944867907 -0.22190796372251814228 -0.096084716348177626188 0.061790286047085682397 0.29768581890723000427 -0.15296138558826846698 0.32215898789724550788 0.088798942912341555234 -0.16388483696108641086 0.28189933297173075388 0.043629374276868394811 -0.086405290390324587801 -0.092867769818583856267 0.20108753175512011913 -0.037144255156080524527 -0.018811488382759672389 0.13773626166184488318 0.088633569349744659172 -0.16921000724381524138 -0.18683418303418214412 0.030411551140464787579 -0.21224683676327885107 0.034035554467748529994 0.098039605523709091872 0.11232052080001848904 0.10544884483135057163 0.16959865212677222024 0.058398082525670719223 0.17623599130024789061 -0.12295566756186925017 0.042599780578439237766 -0.078800412793940108336 0.097958996709685414173 -0.16654213090655217711 -0.20125096064470157642 -0.080930294838150243497 -0.051432376730300141676 0.16772379231466361116 0.084332538902119558166 0.031088256684191909601 -0.15538386745264187727 0.16324919314116748126 0.032052081169785404113 -0.20757949945729112229 0.093946346982854131435;-0.063679943930691429443 0.10549480334484831467 0.21998817780347637574 0.15802763976924211198 -0.12030657271814573783 0.35424513938119089884 0.34027348961850384379 -0.16632680951526379598 0.18559003452189715144 -0.19362939183793903553 -0.1046667821439594831 -0.090566812357221831986 0.014325261563424639133 -0.18059235395563180693 -0.16300832214574217938 -0.16224205619672762979 0.14822454555682720856 0.065005564079158667523 -0.0043264672007342717258 -0.032794239128803803762 0.097685499335298603407 0.21350427495671778222 -0.26461302710304995811 0.24290361483190570091 -0.026069928849634993462 -0.11921886867332634474 0.12433463682651822724 -0.17471951765213061813 0.23412440736640527383 0.079866531438930701836 0.19371656551795743417 -0.12632390220498626587 -0.13130323575418550996 0.092597011942469067969 -0.15230810376574660525 -0.043841384795710085232 0.068790504768736771002 0.11722592736743332742 0.13459724324765473535 -0.14867018058561093374 0.058585417174761886261 0.23356707071864779568 0.15221371213756501595 0.071645644683043449574 -0.16082914053978514257 -0.13603420950260200484 0.090226231516666685617 0.11899445882379505735 0.013774730579195674715 0.43025846109506721282 0.48579139353204797702 0.14714084807563099222 -0.01048587414230306436 0.14949811133412888031 -0.20614513766138067852 0.0084663433331607796523 -0.29430901738810438806 -0.20809993066580839693 0.029458025651954516944 -0.092057221123146834585 0.0034447334651205472819 -0.23376966986472302867 -0.20387575668125099138 0.21954644014482957437 -0.045263028014025617762 0.014222526903906735143 -0.14062066932927516638 -0.11637032608022548907 -0.10920102406264854678 0.010480261543605439573 -0.2161715822115997665 0.23358713665580815855 0.1529543085005105052 0.18613263171064495238 0.076790776351037939862 -0.18481459262525029574 0.11675470503638028796 0.0011142346042372420264 0.036749155033795027903 0.09524140522195412295 0.022703825188181862849 0.028168204306965330397 -0.24568987496911923185 0.1477992221605505252 -0.080591197291058555563 -0.18073021882992637566 0.10150269853357835048 0.11496761437120325833 -0.039044557621489513199 -0.1865706236032771137 -0.038585547192143625217 -0.19650498603608845816 -0.032509768942113818901 -0.045419955773044737302 0.072369769757910998309 -0.2787867257661057474 0.12004779401816050022 -0.32925403416232756904;0.072586454331977273702 0.12994251149935209799 -0.22365555872338965804 -0.21823204256152800573 0.12959466784925377514 0.17155259433946032366 0.15159519752166727979 0.17685030268383711283 0.082006401545398135977 0.16247695158847072494 -0.025219113475717695738 -0.1404878809064855627 0.02978281877631803326 0.24992706715983009635 0.024713817718317841743 -0.2138595477139658696 0.17162392195030770625 -0.206573155181370538 0.16870989918661849494 -0.033917236870214736988 0.24877584521268084061 -0.087271438928883726671 -0.10007649166508164607 0.047682975461376710113 0.11918442451051348974 0.15266972475315901403 0.0629285547005997703 0.066293527583771397205 0.023351849056459050152 0.11186598770431832595 0.00067848864286375147603 -0.12829939242435109414 0.05364769962874662429 0.061911910163788323735 -0.12307340425347716717 -0.14504291985520145758 -0.079593653730468325036 -0.21886776285317632862 0.10917244554060874517 -0.029313433299338675225 0.062014293309829549017 0.10179547697898470859 0.18763010718050168735 -0.20429674518084570134 0.23374313630086696048 0.23717432365033794261 -0.09612851894553083032 -0.21862224121369461249 -0.19947158502544340419 0.09204352750211867995 0.40404996519447194947 0.038843923875119479305 0.085595484368586369217 0.093521105638079610189 0.18900560428586674067 0.15590811807154383861 0.24870108586330325062 0.30249718961172994414 -0.14002439092436225199 -0.073723915985900154157 -0.18106052353160925761 0.043416702356825216669 -0.046652126341725864977 -0.043644904024724325009 -0.12314723992092663218 -0.15322856549549143668 -0.085193575339353386222 0.039105130915407633474 0.16421611110320791238 -0.11860172580970303191 0.08974623124122435569 -0.16994307630624241878 -0.19360355498155237819 -0.066986307188171445581 -0.33717444672026875008 -0.16698167125385157683 -0.16329899465046121554 0.055383186644331471038 -0.24147683397490857238 -0.20457539187396192593 -0.039230779127017674501 -0.34030439343112334205 -0.36316339834283534183 -0.24405241633863414275 -0.00074284111347390317792 -0.32960279915018431129 -0.089312783557249850186 0.063245695683884869953 -0.18140237026300146117 0.051209080348976122876 -0.030791061562618782937 -0.28948427536351600819 0.033960136727692331882 -0.027224906933511625745 -0.28930459959802362624 0.10508951458078386043 -0.23878403633452241484 0.11041696413067844662;0.50551198523008045171 0.53167938214850241074 0.3856566726030092318 0.2860364679146253919 0.12632460073145218571 0.17220165325456218697 0.031295273659651165477 0.40699897820285335648 0.22461617487523255488 0.12945676764192043384 -0.078279047483489946901 0.15119807192183332134 0.063246507992990336211 -0.09982241952656685513 0.15143030718108912991 0.050049917074928028382 -0.13824017882706271521 -0.094758287573166177786 0.1220505571653199145 -0.19350758576960072621 0.10819820089367875038 0.20534420327798158512 0.22504802396213346993 0.00088770555838478190647 -0.10507712706575299266 0.1618235001640489501 -0.079126742428856144951 0.033156234622603808493 -0.23120382295290109465 0.1324676941791157192 -0.1370384355596833692 -0.25054500337282159528 0.065695950058809654548 -0.05908265506904429587 -0.068548069738562450448 -0.16881528712954138594 -0.33721429684024034623 0.11860662586180722999 -0.17892501595511769996 -0.046369343313792554806 -0.1370190649087734136 -6.5773690545428004084e-06 -0.07979576156997160441 -0.25603823836928513158 -0.30399226963669007118 0.01196450116598970527 -0.16841177099775955783 -0.12614445983861063971 -0.0088322620059378235957 -0.23003130784063929859 -0.19257655933020850769 -0.50461925670460416882 -0.17651309540839479895 -0.42072583931808965607 -0.16341937736518991064 -0.28548740358845053899 0.0032138854095141757006 0.079216538303418321254 -0.062920816286462871725 -0.15969104430198124978 -0.24004845108296940515 -0.27534182483921737505 -0.27725836840237444436 -0.15795628096606442736 -0.15834746317759265666 0.080545754517251835769 0.1729105171925600648 -0.14251617583659259569 0.10996705178474214248 0.18320415441935486434 -0.20737236918898749316 0.25528389512711113785 -0.15890579842626093021 -0.18293299314211730611 -0.17924347823312195005 0.1585102468998031422 -0.12854952519603057848 0.00028428735437581757403 0.21173913637204108684 -0.15254292685499259985 0.13287887207070228635 0.19462618703828846178 0.19326944807002113813 0.081804120446421421664 -0.18679415186894662848 0.25616773412366888873 0.031893851150701375829 0.1663758598780361031 0.23079922893732912614 -0.16881944912361648847 0.2016949697422356913 0.12661525250565661138 -0.066881895509307093262 0.041500499768892952501 -0.068348631651900609851 -0.010863648869309924447 0.049342987966699856928 -0.079337751678151685608;0.008033328642205553663 -0.42970002550632935279 -0.42100472132042299211 -0.28670670608372672561 0.04174698767442855396 -0.23258737249705291328 0.12681587979632052976 -0.068754914069707878665 -0.13181565868856151558 -0.3015307290992666478 0.1515029897649043944 -0.20180632746749890827 -0.21396357112474254092 -0.27434603396834561506 -0.17003036031640392234 -0.25779676296724401974 0.14321481105874506179 0.15861760657293050292 -0.20348629617668265168 0.045331926463431787555 -0.11953350743810899071 -0.093465409261321644174 0.086948996037325185227 0.27425118627176164887 0.01304399739388620999 0.2443671581902561174 -0.0085801509043133099286 0.14581285267653026905 -0.21377343925957659199 -0.074016983437176331329 0.18102421470260288139 0.0039007448957570130949 0.14956100134216526731 0.012873209776655984357 -0.0081242547398145820159 0.05372907193692490202 0.24707083810525493073 -0.060240275900975942536 0.13449432173972350468 0.29323031187979486933 0.033480430502797420278 0.13540244195794981508 0.036743624552624178092 -0.10475647748715163909 -0.09731183132856699447 0.078438753784985867923 0.2032191318192882179 0.061808071593252383868 -0.18613706642811503333 0.77212154969112900549 0.43436315486422927279 -0.18950141079075466521 0.26918066282215563634 0.057107922611809878999 0.014867737777571877339 -0.058067562336817868385 0.15849291010982341499 0.14384291176228977682 0.15771129367805425403 0.19401947235209199283 0.029092606539957377443 -0.14715548196840386175 0.11650232328983370356 0.26577256285187145224 0.27772207141451515922 -0.11705815619127282745 -0.015524775808849630709 0.094757462572666872891 -0.0022228426279813032901 0.18768543634016887633 0.014353777805621583188 -0.20112415874457773013 -0.25958641311762042925 0.010402966354383539477 0.071880119060735547798 -0.018860636247978870145 0.11963554953683820659 0.1234840230604228456 0.0074216824519988885966 -0.067033059815060844211 -0.13542430520375875469 -0.070637354118380499268 0.099924079977388224894 -0.040899770480830065222 0.13630434495995349953 0.005698432738828411448 0.12827153369402949368 -0.18180400933636400862 0.18299241162144050388 0.12088697701081498048 -0.23198286616304561458 0.13403097907384547982 0.20920486282129530098 -0.074833623584871319934 -0.13843974789663307523 0.046986845446682821981 -0.082094252528588401718 -0.2537927676813906408;-0.070592845484469521344 0.15856328755366841388 -0.18934301416046769861 -0.065687848704736817584 -0.048525922661490840382 -0.027543262641946290176 -0.1007205026875224313 -0.17699894971501825558 -0.10564054861283636577 -0.28949816455963539585 -0.23435465160298762921 0.077642320059677569222 0.055839711536439975981 -0.090171230254811454707 0.17855003798681370886 -0.20163750244622766217 -0.23756021349530717646 -0.20055182879223346082 0.20686914783768603487 0.15772853172692793966 0.12126969702733682299 -0.29016086954343611737 0.1822192431124879386 0.035544051879455848542 0.017964732600825764758 0.11212703499054677003 0.08408496631181815173 0.16314337812693152641 -0.23857698589228537589 0.082335218421685049672 -0.067955393205302583315 -0.13163069774940075463 0.090467523577697106507 0.14430388581021105776 -0.0072446655042185063161 -0.070551975628306770605 0.19424426300489108788 0.034553689115309767221 0.17140167820091226081 0.11565403180612804368 0.054654754397495605711 -0.13187813910271456441 0.040683113257484436465 0.074236415457116497474 -0.063049033568113602155 0.025979275677990333604 0.29203502803858977233 0.10291185401445662739 -0.19399935752024721758 -0.21056370171880275932 -0.23345311876498772707 -0.31394710503978368044 -0.079061599801588333669 -0.1201580694484521844 0.064092573459455431939 -0.066404698330487163527 -0.28650860322450877327 -0.20469670112923959993 0.054465997192127732496 -0.26589374300233259429 -0.076003848053387737527 0.1366979446105472118 -0.042835476435013661312 0.15258970862301507454 0.19660135619506183269 -0.14231887248874697249 -0.096080610987184678073 -0.11221944126413350984 0.23060135325802719186 -0.028294256826726506965 -0.16055546017344241028 0.18729111726130354132 0.013388797597492854696 -0.19179508315952772946 0.1525657441832940775 -0.12508927960811794255 -0.13398917305926327792 -0.15501351961668966006 -0.058290431057345867827 -0.20928431541921566073 -0.13153697077726128617 0.037088818189798852809 0.22028839460095039904 0.13541286554026679689 -0.17387574585930332116 -0.040813037126360238172 -0.047797534736222835328 0.12552326249553821813 0.11806536656597983737 -0.042356777371563604506 0.2230578722487039367 0.1999645914551006487 0.21400981795692214371 -0.21087991611861658936 -0.0063527297110483188503 0.29477545803091637078 0.034030086904661208114 0.13310503786897534551;-0.044797608801932835287 -0.27177168045029242993 -0.16732177403555895112 -0.19276402087066912827 -0.29411211831741396194 0.06648928011023512441 -0.0051327566318945874735 -0.20485663377902446625 -0.1759855261818557004 -0.2655868084364942372 -0.41683833131164732544 -0.10313692180674177701 -0.10376380767780475634 -0.24326960009363554627 -0.16247800895754596628 -0.17679094816438037374 -0.017513925487643217105 0.14490071903040460666 -0.26362250224706623714 -0.37556452502401760363 -0.14861359523979253416 -0.10152281203512135421 0.018367331149719924588 0.17431483595461039204 -0.17497639945083764967 -0.17577211295011890835 -0.24374017302277689589 0.22358107912275881901 0.088660700463457239873 -0.023401800738920997685 0.2600192926393523063 -0.16176957273888897815 0.23508231162232859357 0.041416703228851700636 0.21538711813191255273 0.014899586459208406797 -0.016429564002854325083 0.36040078423640703464 0.042752476247490553418 0.23979266255934389429 0.12738987784602298636 0.064206434291118316682 -0.026700760038794669332 0.18617596210095482823 0.22536992973739908286 0.27591185370701948321 0.139709255266383503 0.11611853128492391485 0.49912845817118739467 1.0218393769773961299 -0.13086009293813413712 -0.06905078444423411177 0.15097599114219059646 -0.061765310956178001711 0.16851260750435068103 -0.22457780375774036297 0.1252112017945946898 -0.18579127035493656073 -0.13391406678478362524 -0.017048653307451235028 -0.11397322143922195004 -0.19729522690973269605 -0.20678269568382900978 -0.19848296903777876143 -0.16433673824979619371 -0.27656142591998938984 0.10127395940252516271 -0.20839889764853275489 0.013384932327793631207 0.061261135302345143261 -0.18351436575258531225 -0.015226618388695035283 -0.22895511781813374097 -0.17874869516981373163 -0.0043585354798978161173 -0.17185140430875350814 -0.25923519223288360447 0.058390783430032039414 -0.17346955693176543956 -0.24657933636891718465 0.099120333674497823617 0.13692549559409697424 -0.26829189065679281967 0.16525100990597238471 0.10555121781750982646 0.14827926719817174916 -0.032062591336845747136 -0.01993716081938382706 -0.19562477239464046153 0.14180743925177874409 -0.10329673942822303889 -0.20789982985501265222 -0.060789141993284008525 0.018784782052654630524 0.26848190072928124206 -0.023347327405592858962 0.079492828369686227563 0.037294299499322357272];

% Layer 2
b2 = [-0.26600757629014060157;0.58200685059755985495;-0.81700313386331058219;0.92200606986826039169];
LW2_1 = [-0.55445804078831650852 0.7879379594806248388 1.1484887398951535431 -0.29180481839941185829 0.35542937468353674735 0.15420048363506511091 -0.035404114170925496397 0.073603597358530087336 -0.59557911584527034599 -0.21791362276993475611 0.80424964913280649892 0.29640562780154788847 -0.8243600748996222638 -0.55537963173614057766 0.66454010829202481148 -0.087049142188706546408 -0.83152341778182659038 -0.41161019957048006201 0.21897087686460645073 1.0544971479976208428;0.73758810408753772148 0.38395160039198833468 -0.39791075788990376561 0.40181926921412641773 0.021195245652710224121 -0.76176741806186432093 0.72401358330271037289 0.13253126755568414574 -0.82614411287728917177 1.3774853625814686975 1.3115142953759073574 -0.2583157762231259591 0.091008333218865200553 0.53122170094081544445 1.0914911415215333701 0.51969313928047955464 -0.039254871854084431859 -0.98187081749012938836 0.88725246127627110937 -1.2875057145816837245;-0.10047739910467008706 0.38157421770385957505 0.7788873198905534867 -0.45581426012682302318 -1.3105025556353413485 -0.18278246699070160863 -0.1200646238481763578 0.87469220998115937427 -0.0070418253731057613848 -0.42144535101176611169 -0.077582835027347030188 -1.0463354292776749777 -0.70070740352528404493 -0.30186195443096475177 -0.28922771272138747545 -0.46573638781527171293 0.25178077911439866732 0.66089241912229002018 0.06191351279583463818 -0.79864596983952040876;1.2122621515488394284 -0.881970894649763415 -0.36656727718520892845 0.85906033946205262453 0.40941334327120532111 -0.42954471325627868739 0.39070632185692955041 -0.26462204446022163928 -0.55384900800172209845 -0.76973246281256846313 1.0561760730492264493 -0.49445728719581372168 -0.39261108305879338642 0.62701367923952688876 0.30704976685997936725 -0.62712949610874912931 0.42937537351950832987 0.1296563391102549534 -0.57495935963561706217 -0.18247096642034768554];

% Output 1
y1_step1.ymin = -1;
y1_step1.gain = [2.00073459604739;2.00443095012258;2.00440012375957;2.00921910846359];
y1_step1.xoffset = [0.000356556957734622;0.00140748284908954;0.00166593876504728;0.00272780163611908];

% ===== SIMULATION ========

% Format Input Arguments
isCellX = iscell(X);
if ~isCellX
    X = {X};
end

% Dimensions
TS = size(X,2); % timesteps
if ~isempty(X)
    Q = size(X{1},2); % samples/series
else
    Q = 0;
end

% Allocate Outputs
Y = cell(1,TS);

% Time loop
for ts=1:TS
    
    % Input 1
    temp = removeconstantrows_apply(X{1,ts},x1_step1);
    Xp1 = mapminmax_apply(temp,x1_step2);
    
    % Layer 1
    a1 = tansig_apply(repmat(b1,1,Q) + IW1_1*Xp1);
    
    % Layer 2
    a2 = repmat(b2,1,Q) + LW2_1*a1;
    
    % Output 1
    Y{1,ts} = mapminmax_reverse(a2,y1_step1);
end

% Final Delay States
Xf = cell(1,0);
Af = cell(2,0);

% Format Output Arguments
if ~isCellX
    Y = cell2mat(Y);
end
end

% ===== MODULE FUNCTIONS ========

% Map Minimum and Maximum Input Processing Function
function y = mapminmax_apply(x,settings)
y = bsxfun(@minus,x,settings.xoffset);
y = bsxfun(@times,y,settings.gain);
y = bsxfun(@plus,y,settings.ymin);
end

% Remove Constants Input Processing Function
function y = removeconstantrows_apply(x,settings)
y = x(settings.keep,:);
end

% Sigmoid Symmetric Transfer Function
function a = tansig_apply(n,~)
a = 2 ./ (1 + exp(-2*n)) - 1;
end

% Map Minimum and Maximum Output Reverse-Processing Function
function x = mapminmax_reverse(y,settings)
x = bsxfun(@minus,y,settings.ymin);
x = bsxfun(@rdivide,x,settings.gain);
x = bsxfun(@plus,x,settings.xoffset);
end
