function [Y,Xf,Af] = myNeuralNetworkFunction_test15(X,~,~)
%MYNEURALNETWORKFUNCTION neural network simulation function.
%
% Generated by Neural Network Toolbox function genFunction, 20-Jan-2019 17:55:01.
%
% [Y] = myNeuralNetworkFunction(X,~,~) takes these arguments:
%
%   X = 1xTS cell, 1 inputs over TS timesteps
%   Each X{1,ts} = 100xQ matrix, input #1 at timestep ts.
%
% and returns:
%   Y = 1xTS cell of 1 outputs over TS timesteps.
%   Each Y{1,ts} = 4xQ matrix, output #1 at timestep ts.
%
% where Q is number of samples (or series) and TS is the number of timesteps.

%#ok<*RPMT0>

% ===== NEURAL NETWORK CONSTANTS =====

% Input 1
x1_step1.keep = [2 3 4 5 6 7 8 9 10 11 12 13 14 15 16 17 18 19 20 21 22 23 24 25 26 27 28 29 30 31 32 33 34 35 36 37 38 39 40 41 42 43 44 45 46 47 48 49 50 52 53 54 55 56 57 58 59 60 61 62 63 64 65 66 67 68 69 70 71 72 73 74 75 76 77 78 79 80 81 82 83 84 85 86 87 88 89 90 91 92 93 94 95 96 97 98 99 100];
x1_step2.xoffset = [1.22925491643095e-06;2.46395480693407e-06;3.69865469712224e-06;4.93335458699546e-06;6.16805447655372e-06;7.40275436579702e-06;8.63745425472537e-06;9.87215414333876e-06;1.11068540316372e-05;1.23415539196207e-05;1.35762538072892e-05;1.48109536946428e-05;1.60456535816814e-05;1.7280353468405e-05;1.85150533548138e-05;1.97497532409075e-05;2.09844531266863e-05;2.22191530121501e-05;2.3453852897299e-05;2.46885527821329e-05;2.59232526666519e-05;2.71579525508559e-05;2.8392652434745e-05;2.96273523183191e-05;3.08620522015782e-05;3.20967520845224e-05;3.33314519671517e-05;3.4566151849466e-05;3.58008517314653e-05;3.70355516131497e-05;3.82702514945191e-05;3.95049513755735e-05;4.0739651256313e-05;4.19743511367376e-05;4.32090510168472e-05;4.44437508966418e-05;4.56784507761215e-05;4.69131506552863e-05;4.8147850534136e-05;4.93825504126709e-05;5.06172502908907e-05;5.18519501687956e-05;5.30866500463856e-05;5.43213499236606e-05;5.55560498006206e-05;5.67907496772657e-05;5.80254495535959e-05;5.9260149429611e-05;6.04948493053113e-05;-4.09439747195087;-5.46308060017989;-5.81158956749204;-5.61119288305611;-6.29814101908368;-4.49495929765785;-6.22432192086538;-6.32145799599857;-7.18093143037914;-6.87852899721168;-6.94536967376407;-7.45565734001452;-6.8757706504972;-5.41804444334009;-6.8166006690014;-7.59198104077277;-7.73862408965053;-7.32179310750674;-6.83614868325365;-6.07745992677394;-5.82944083719551;-6.53319938100871;-7.05331407776766;-7.41816008980381;-7.51209953942149;-7.35171518328399;-7.13164256508559;-6.98115240916754;-6.64697457193827;-6.15521390056297;-5.53406216982093;-5.14894223583718;-5.57816896066906;-6.09168077615302;-6.49279140123899;-6.7815642681514;-6.95964892682224;-7.03017673192041;-6.99764089071565;-6.86776336727864;-6.64735119707383;-6.34414478543297;-6.5420527275764;-6.85746295711608;-7.09830761752929;-7.26533362755799;-7.3599277941304;-7.3840790919515;-7.34033696623301];
x1_step2.gain = [0.158457816371007;0.117883640778032;0.107423190629586;0.0872432037401771;0.0779277773573781;0.0677154056993007;0.0614277841595584;0.058045384650311;0.0564464489880142;0.0536578232840175;0.0500715406447565;0.0471172259258747;0.0446459919741146;0.042552254141709;0.0407590510961895;0.0392089580212164;0.0378582549717055;0.0366730665982477;0.03562673722832;0.034698003435951;0.0338696950549648;0.0331277945537473;0.0324607445007519;0.0318589299951327;0.03131428657428;0.0308199994855555;0.0303702704118175;0.0299601346336778;0.0295853163468055;0.0292421131553831;0.0289273030989175;0.0286380692434889;0.0283719380823973;0.0281267288813325;0.027900511762812;0.0276915728181848;0.0274983849081837;0.0273195830968342;0.0271539438814359;0.0270003675498935;0.0268578631280132;0.0267255354823944;0.0266025742258827;0.0264505159229861;0.0260126183945426;0.0255944187782932;0.0251946508803586;0.0248121546702967;0.0244458653814939;0.0371081287251146;0.0361870426366033;0.0359641861019128;0.0360981835605764;0.0356599258159067;0.0368485949916504;0.0357146135695624;0.0356566032096392;0.0351222024428261;0.0353134736022982;0.0352755958917182;0.0349646186559286;0.0353264713962752;0.0362640637142763;0.0353709669157108;0.0348961543086019;0.034810744394049;0.035068848218378;0.0353738086044269;0.0358588113648013;0.0360228873473857;0.0355757959646094;0.0352534144386535;0.0350318394875327;0.0349779719915262;0.0350800612925582;0.0352197284810863;0.0353170634832549;0.0355305056007555;0.0358475081071127;0.0362550563349995;0.0365139495630763;0.0362339828535982;0.0359038684709935;0.0356510022046417;0.0354722078817088;0.0353642774196583;0.0353239779036381;0.0353480407919609;0.0354331374231623;0.0355758443569048;0.0357726016725414;0.0356502339733582;0.0354546937124812;0.0353077032424704;0.0352076186487725;0.035152795211726;0.0351415840664074;0.0351723247596049];
x1_step2.ymin = -1;

% Layer 1
b1 = [0.7263741735862736526;8.6567689847917286272;1.9211457059451795271;0.75978451362952348358;111.42889312054386153;-20.244598825679098297;4.3787911823658847155;2.8380848966522691512;0.92103117624436325883;-8.9743673820209970415;7.770851702043856335;16.821847089123991736;2.198972849993220624;-1.3382900398469237402;24.743742583424410242;-3.4578736953169020296;-13.342622855348789557;-0.1768685785685784051;-14.545847190505911684;-0.50017302178738254348];
IW1_1 = [-2.1121878255570529781 3.7440303651598063617 0.92675401035534832328 -1.950243093737598743 -3.0041378504776736769 -2.7719142964652681016 -2.5295898171634858542 -2.2149421932304362848 -1.526576749639352526 -0.71995847870271267865 0.050264587820252670802 -0.026472248775927870873 0.15164890059013985679 -0.23639687157551653174 -0.34427189499683208407 0.15785075454251529248 0.23363553285501839629 0.40720260492163051769 0.22120562789808298487 0.22805374084602256235 0.50364605023154584984 1.0789111392386723232 1.2521813947583928517 1.1681691460418988093 0.9950103875183803348 0.83687937577044768656 0.72461839785437909267 0.62078680047187528857 0.50608125827694483423 0.33070961011999805423 0.058252498274909782217 0.19002584346273163063 -0.03961413719670930228 -0.14512693137985180347 -0.366051952770938549 -0.69822350392555010412 -0.53913723822911552297 -0.90157137926327857169 -0.63531607366945352933 -0.47358866497498092185 -0.36217697632731232771 -0.18241085392157974088 -0.097637910368978522713 0.0052925583438321530116 0.6547305834405688918 1.0813183843803699791 1.672511978677446054 2.1279266882658514071 2.6836485727036829552 0.84388610061342406166 -3.1911264823122755807 2.2400876531523143953 3.1453019878652872521 1.8862208619903855222 -0.39835843146325483621 -2.1019408297494854843 -2.9340590574211078412 -2.6325879309432504982 -1.962164353736361333 -0.91236620979302718304 -0.17154984394678016169 0.33200795077827888191 0.55954683792662940345 1.4684688903586629039 1.7932550365459858366 1.9141635549805091632 1.8470254155659677764 1.3458567408124626485 1.4628447381214304546 1.4235250648104276205 1.0598860135734238241 1.0714435415400629381 0.58386807036867571785 0.59935213370490680873 0.54956945631018461196 0.19724326388229332374 -0.002275181714338403785 -0.10114394363981650538 -0.28511534890461831537 -0.21317812595423860089 -0.49878119522504921202 -0.89394853632916870811 -0.94894064107530629038 -1.0926966018586861118 -1.5242749333733729422 -1.8878604497581294996 -1.8639877550580710164 -2.1102684376219200679 -2.5685862101024725668 -2.3232083689734284171 -2.6820337249308203731 -2.0569937339721078295 -1.3904984054864368836 -0.31616191822979322623 0.55092497319018873814 2.360091694965945841 4.0781672739312613274 6.5957575111584496597;-3.9916326323530690878 0.23320498359912736341 0.64129986228082858091 1.6354653492186013164 3.4904250632411408795 3.1482066424349395284 2.3317328816931617297 0.18285172224345172531 -0.77062769205685455187 -0.69387069750499730247 -0.21448429042920641452 0.4544540070387750319 0.10197876706420809512 -0.47744579935380848656 -0.86615373178949406352 -0.38500226113922481064 0.1282413336858952424 0.093143403742204033957 0.16768962731431444335 -0.086491897947161749949 -0.4090408728327450949 -0.055364760295665116363 0.23583272021424192544 0.16503279622811789507 0.030969292212675740561 0.060015852669039575218 -0.51225620485785516856 -0.63278776194780539388 -0.69104647523469808768 -0.29488358804382197587 -0.4162565396620246938 -0.36624141356257761126 -0.11352376569834438103 -0.16499206199709007259 0.50967727375466198581 0.66418117880014804211 1.1741160394294813951 1.1134133034219002578 1.5423780145337462333 1.7418739302343353437 1.4623657895848927168 1.7071298871106581618 1.8464372411473601865 0.9776860558414003366 0.31361387588918437919 -0.50662130542320371607 -1.3554843271847043518 -3.2676089912884722644 -4.9338512244554992847 0.012336893928442053958 2.4910887837876329876 1.4791187281121933594 1.6586567022152807205 0.26113000619275322789 1.1165914152393372483 -0.50054964135025137306 -0.481140922348101574 -0.4093832942237634609 0.052973682138026174926 0.1144353779653640435 -0.53805026516483245302 -0.76360102899943382848 -1.4237957376229262163 -0.91380951815831290563 -0.37509518537135810856 -0.23656229647757162637 -0.5512065669896774045 -0.48223554971696203086 -0.3706547541077987451 -0.19695726642554728381 0.1246981964033031659 0.42447349595280381429 0.80384011216925999044 0.73705153904490949834 0.61468013574596647164 0.50960251776037501781 0.56203295915706530383 0.96310980177692762094 0.73025367792344286766 0.67543921604039203199 0.41395118055002599888 0.24447737080746900773 0.34701182812396541566 -0.060476157347521666829 -0.33918867532193081038 -0.35310401473245262016 -0.63071395213862080364 -0.62409218887662043507 -0.9266992605680874906 -1.027179663239059515 -1.0311747767171297596 -1.0173694832357471629 -1.0225758145412155997 -0.59144522914637898126 0.084137181391106069528 0.48816977177601028615 1.1787935085778806776 2.2649073947156770359;-10.713756532057313819 -21.894819789254004405 -4.012179588062870117 1.4097039370867257002 0.071730085879729260645 -2.18817851851638423 -3.1058125262712588111 -3.2238626937586456478 -2.1697502297779132086 -1.3673832809382964193 -0.13886943231985757197 0.58478924951740129945 0.98908211280494973128 1.0195250540013440776 0.86543333478347372889 0.92581614399266465298 0.61226141709299786164 0.47248180619111523892 0.25277762741167592031 0.59089215374065651165 0.57535157780325385524 0.60503691121009939291 0.87221443497903161646 1.1366803346515976791 1.302918311008932184 1.3181122679892514071 1.258755214588053617 1.0915178712156208274 1.1925967749103114635 1.3749781840386114951 1.3508875503706796462 1.3338547928706510071 0.9407533389421287584 1.1218787818468376472 0.97457351211955955961 0.86598379653800905409 1.0722456526191010973 0.69523717047129884872 0.7640369268963547178 0.67563907570381509515 0.9742960185803569706 0.74627139804005937496 0.34299887951760205107 0.25559434371251155138 0.25975392735157271096 -0.30808025456755872007 -0.53569751705607304704 -0.86155556497440122232 -1.5286664088415797824 -3.608921851011387627 -2.9315347218682750174 10.534959361821444546 3.7757734996795822013 -0.67690726983759219593 -1.4332208794360892234 -0.16103446562461370961 1.4036017118552370775 1.9914537999290651271 1.8141991316356582686 1.541485096313169656 1.1832310937669432427 0.74964264445560779837 0.57790644068381225029 1.0335533690288869479 1.4002047758464561955 1.4944007008023485472 2.3671859893996027857 2.4558173045945590474 2.6031248381020728466 2.9308386616497474897 2.8831715380292202155 2.8873361088172582178 2.4005505832082567608 2.1656383112231512023 1.3746475375998392643 1.0893150241443489978 0.86848608323771991913 0.44019122285079970158 0.58216015528785225452 0.51346667636994269834 0.053786521285458875619 0.45942057846947981226 0.46062295675483527768 0.58702789166861635284 1.0202804675373360332 0.59023092551379774395 1.0204373561231190326 0.70570240527658101293 0.4860641513469320385 0.024936775632069359959 -0.37377167559575336098 -0.88058670930857640968 -1.5975079488614891687 -1.9851993067885063127 -2.8276701178068157638 -3.2337938973267532639 -3.7779133026197113665 -3.4521034184237082698;-0.35386485401744421919 0.092354371469269780359 1.1537392477426693382 -0.64767299192608307479 -0.63629493372742940149 0.61730545498888667044 0.70425081580854576035 0.980974583501523556 0.2869704905397079675 -0.20518438034602623499 0.78687901534344018017 0.61470851456631625531 -0.32486730364563981555 -0.63648779329896532087 -0.55723195816343384923 -0.60629452732235644685 -0.85167128769624944606 -0.93693034224447013791 -0.47288819113780422576 0.1304295668461049329 0.43154302042622050273 0.49247330982601283944 -0.11753495797696421332 -0.14681871052092140828 0.012940378798268368718 -0.25094836676420373411 0.36828775548870118506 0.47643599401815051042 0.29572425236104993296 0.29735966449997675021 0.32204942632143224168 0.78031430950370828104 0.5534913882892514847 0.46222638515125957781 0.70596832859617786315 0.31138178368825797371 0.029678561295937697095 0.025787797109041981497 0.39599375983801465839 0.59235745680575924155 0.84790306723625430418 0.6891936111244891805 0.84115366556065551684 0.80418391710372394421 0.27656648065274647141 -0.11980287714679968558 -1.3498257624344218719 -2.8642304691146756035 -3.9844863457012236196 -0.78021560218735497294 1.2714112553221414981 0.56647253442704681436 0.036768405654979047226 -0.27161536208436271034 0.71500917023995169686 -0.018113796135865140036 0.49917868977187979107 -0.17676926402543158279 -0.101614345060130562 -0.16559563307481742211 -1.732382539684933942 -1.947561158983150964 -0.95628925720533863863 -0.4918663297921969102 -0.096073615160036110461 -0.15268382178557701745 -0.090807195432537651802 0.065677161320432664304 0.010158579501435763617 -0.2915183597826672135 -1.0015752390173202624 -1.1810222365396858546 -1.3919482866503107843 -0.97623419469867722675 -0.96487194793063790765 -1.3040208264257635573 -0.78977472360345757352 -0.62041168315536332489 -0.48858457541203081931 -0.023908954948494390291 -0.0081875835527246490497 0.26792694373272007979 0.34101094184026653489 0.48003825679189898734 0.51214679322193934485 0.57711033760222407718 0.8020981273743339468 0.49425184525179172157 0.34607389938517291172 0.71659748604516260162 0.24295539312404579313 0.42936367274996495302 0.081474092586033386443 0.36329854440344655497 0.44090080453752822365 0.92310118771227844814 2.4664665045358424855 3.8208413415609174812;-1.4992689772881262478 -5.12852881853872411 -0.18336240231533507128 -5.3295410823376121456 -2.6527084902751201234 -6.8995279606791175553 -7.5634080501781246753 -5.1221017484621018667 -2.973047939795270711 -3.1700544791768594521 -3.690482813780646687 -4.4694917505971210048 -4.9636963578558237487 -4.3153196495804637678 -3.522436747303006932 -3.0597909255635857839 -2.6483889098522630512 -2.2005159080737115573 -2.5461753228840833252 -2.3345341756909334663 -1.8482059188453758836 -1.9467567932089808735 -1.6405525004791507993 -1.1209363910998906277 -0.90124881462817285627 -0.37351459757383292937 -0.018502303617840484828 -0.064849340540584207715 0.321017227699676444 0.53358997897083293438 0.88632802578753089318 1.0668487494412606242 1.8124799317910194052 2.7036247238423558592 3.6748713572373001846 4.5846722277101754628 5.737228298597492504 7.0117330326128977092 8.2472884365462491019 9.6307579939346563691 11.383803931133561704 12.754337250911570223 14.869033668428986772 16.536712767821143188 16.651356247695531465 17.520102716231352957 17.706858791358598637 18.56049156394900379 19.641791572938405608 0.63576468480885361956 -0.46443460313761325553 -0.21389603965296294374 1.7487902926596856634 1.7374201959333470668 -2.2554531034515359345 0.58806651284699995585 -1.5051895625449076555 -1.0358238324611435122 -0.25320356693795170733 0.12988083438515687917 0.73088216730706034863 -0.097216483591656285834 -2.1813612155074046939 0.67583183623035536502 1.9658331771864252513 2.1534925808009659498 0.76583714345844033922 0.11630809205245469518 -1.3750048703526436267 -1.9211175119694534619 -0.51251897220257158772 1.0055996074876973889 1.7427201266075722508 1.7707345937282774617 1.7534695637594976958 0.84765019023739052173 0.57229186830240252881 0.10340575097556647943 -0.94255795121805041603 -2.4345720700794082347 -3.0842552724160809952 -2.0960807454399681404 -0.76323076272115808472 -0.31994135300912046604 0.42153056777121494791 0.64862949362510469165 0.94329039692604588208 0.63276913906594212111 0.32514978916849385238 -0.23456785637062704808 -0.80407863046499095105 -0.64496833080705551211 -0.079162852941201886092 0.45207601151424869901 0.48574517220234192383 0.83299182443492447714 0.57957448050744564405 0.14622042908577531639;8.4552021713538660919 1.772204020142391645 1.7612856742698785872 -1.2143045184415490745 -3.7232870082024467351 -3.6097444443530597447 -3.3321605358333483693 -3.8406580011846420675 -4.4012294795035833417 -4.0697099777421126277 -3.1775938982388503007 -2.5382806508376463128 -2.1258605114950452908 -1.6554210102130360038 -1.5460725180279266677 -1.5944051469582185554 -1.8998125301800159459 -2.1574747849832411895 -2.2112843344457693284 -1.954406120209000175 -2.0820879073377702717 -2.3018922669819592564 -2.0559458317062024868 -2.4487743242039199387 -2.1999279145389158963 -1.8713007214651411481 -1.9834434472045228137 -1.7667959515136306692 -1.4356269389941662684 -1.3243188506799326021 -1.2308778354504223973 -1.152012034296901799 -0.64513282802106131086 -0.5449445294001104001 -0.058267533753882799763 0.31694324877308860389 0.6849446492108031137 0.78091919144851351664 1.5397046015030657617 1.3891528396658403555 1.890546141923345802 2.1666495803073750892 2.4566466371129189739 3.083057452254951869 3.5130846209891100074 4.2032089384463002801 4.6674743734755699265 5.0608563245062923031 5.3778293945227035877 -0.18751532482710669969 -2.8009054798769947858 8.6354429351315502572 6.0728965218785919689 -1.9100924204899718539 -9.2677374621249839493 -17.06173797091528499 -21.244817613597316353 -24.222173841105345105 -26.10960889681339836 -26.888488282562978071 -26.993377386946008301 -26.754028939595585257 -26.648241445995513033 -25.511571735343469669 -24.435933680160434989 -23.061042124353814842 -21.452453573739578729 -19.513861096404021112 -18.103515458055902343 -15.901357812564210548 -14.220987018457503126 -11.904332369712427919 -10.008266002474533352 -7.8860288294182012692 -5.5926585093045408925 -3.4512030710233672082 -1.041384827126367929 0.90166642732928159454 3.4842800579775246028 5.3935837399837138761 7.8530011142816986691 9.4180686851729440434 10.733749172820290951 12.089730161988422097 13.959105086514986382 15.445278004461590271 16.790075193493137817 18.575603944561137837 20.49723155652554496 22.532560396702617567 24.16707650341736624 25.788547880904491905 27.431154876965351264 29.024947994418752728 30.690671159307523652 32.313453460783783555 33.824581840922284925 35.87410710207271336;2.1175573932179552195 -1.0553582320705388042 -2.8500583713832807753 -0.015696313218953310276 0.30572191082991911903 0.62426477199056251699 -0.57637077978344131157 -1.1556055259029696103 -0.95035702074620798108 0.019290554454914482507 0.31873516517515287916 -0.023354671144806583849 -0.21093427473826747987 -0.56588178312470738263 -0.53353811124211281136 -0.30315331595016947741 -0.1628911266854678741 -0.27115936360068465527 -0.026905095869435152744 0.41652274133929634292 0.34343797506876255765 0.99856283967044867644 0.89932848425318012708 0.98049908799696705586 1.2492398708236440719 1.3761606739224983009 1.3923898000103369643 1.5422789737023707701 1.1449830095870252578 0.80810416104308302465 0.82456017579754803393 0.52371426695903533499 0.41780774837544437661 0.96966694781280982074 0.94174484050745010943 0.65838454082744435336 0.77267755205505062044 0.7778135064127799092 0.8187932886007869282 0.46523871724882098766 0.16170905413339395351 0.18164825391244521224 0.091862358774274954776 -0.27939903230932772171 -0.034548215754790258247 -0.31882331771740513027 -0.12640633133260345544 -0.58922183358865076741 -0.58089650266266235068 -0.78687013555927054487 4.6522507905481518264 0.86524346196712531576 -1.0155654727228180523 -1.2754452608937427716 -0.53409731190313547433 -0.14498978511608687225 0.74353695218433901726 1.0594319075354126092 1.2009548301932462255 0.68451896250138333233 0.43010291414113749342 0.31605592186051334469 0.099319129212210088831 0.59636866786935605056 0.41363472346086299636 0.23507064833287868999 -0.062265718655379560798 -0.17685995547879942991 -0.17735908399483432674 0.014330061734293964015 -0.0018302473280583705234 0.086573519820683481063 0.047939371805786508418 0.1336430175817798216 -0.19991119432929091437 -0.20192582931602809371 -0.51344009619476360662 -1.1513559826665960006 -1.2408154757811977742 -1.1273790691041587486 -1.0682884485581207734 -0.54421764978786280054 -0.35779045776063561624 -0.34295284509517304228 -0.36436907939499135756 -0.4930001671094342286 -0.31406528489232143908 -0.076859639843005436721 -0.15224328013982146857 -0.7353375052633641662 -0.78076290254627422893 -0.82345166522146640009 -0.39458910478639208641 -0.78449810742084113979 -0.61118824388861958674 -1.2649134484892710084 -1.5254054457782206811 -1.9258041726394976578;1.2124527134077929258 -1.1421999631671675424 -0.96088380492953195944 -1.3383824462563593816 1.0887612440987290974 -1.8604013194908353146 -1.1553120588043068739 0.74964664489433352479 -0.64941430167589930811 -1.527229553353101954 -0.58129438092107221792 0.019998765829383889636 -0.13872877408116404685 0.47101669354343783658 0.62051948853312965948 0.2155412839150845361 0.11735055514349757022 -0.18928438868428038022 -0.1592839093055043731 0.11454439421435558266 0.22346137397702181548 0.51927180537731243426 0.59780133347588515491 0.43254198032274182584 0.73439047400961177114 1.0737852742176556831 0.91416477397323270271 0.92877493036857639019 0.48463357135845286372 0.94796545220850991775 1.0001734051495063671 1.0929567051930617616 1.0467112156335771633 0.61448362653061316951 0.47106665437910361094 0.0033615885741396472723 -0.062416413644208787459 0.10963745309165483233 0.44450686313062021116 0.27348094636158765125 0.63018191160373537851 0.58674869267293061625 1.0306845331971585811 1.1004507948041288845 0.87024701374393487185 0.55089299999768270855 -0.080890593395791882125 -0.15497123915051774778 -0.68877136522198489921 -0.08863348066899245925 2.8717689904367449394 1.370103812275307531 0.37194365720292565936 0.79802483085666764406 -1.663404487642812013 0.51782818638094718633 -0.54726163491707546793 -0.1595427623596091804 1.4919796024885552121 1.6369563906732769176 0.40475087942878851255 0.070604860523819645834 -0.05062743261782062798 -0.4897039510188563316 -0.36119040245855638105 0.41084889714024747098 0.67412529651714236945 0.82048906547591571314 1.1697446607974253396 0.7958570205651940288 0.21013254429184508032 0.046762939860649138657 -0.58015276120371495061 -0.52287165225229104148 -0.85783794706204274938 -1.1979747286830912945 -0.7799015580407046011 -0.48949756485499729131 0.16507838208201691677 0.13004425187695936583 -0.1946963171238445256 -0.44276609364013574943 -0.43342519321169081792 -0.66839469725518318999 -0.89663708635197292285 -1.2010668163778224216 -1.2684483740782370731 -1.2674074970131312678 -1.280245404596503711 -1.1335785017494319771 -1.3106374226559116547 -1.2292454525774392238 -1.2234137075846962528 -1.1297962270880055335 -1.4272022262798484959 -1.1232845237229283075 -0.64915888656386111499 -0.018354705957060502702;0.90761373013715784808 -0.93536226793396881618 -0.19997142592120198401 0.26260682470071383676 -0.5713260362646107593 -1.4988182929944027233 -2.3154189564978491234 -2.6512607469494473555 -2.5120936877667512377 -2.0290070651828346904 -1.6331228807062825314 -1.0494670401190298037 -0.074917813090054907743 0.50857488090133640135 0.63835816951749302373 1.1047223700069488395 0.71624619010130585739 0.96537006843087369568 1.0160842500878652928 1.0040069283791119847 0.70779056539444296092 0.73466382948501285366 0.5441216593729979456 0.20481416456905723877 0.17771780683791410516 -0.030577078757011058596 0.16366968168670179007 0.12482700904331255065 0.20947049209560553162 -0.092733148035116591545 0.31158161384977023367 0.26871435314817831985 0.055362462904528869645 0.56965492935232309168 0.40132055800277310897 0.40012853284404004128 0.18272014150600965343 0.44621749114802733427 0.27688241265804552915 0.11319525700597184159 0.066864678566113916469 0.37460407026451475465 0.26036937937055137926 0.57739725702133737339 0.56816123465779100332 0.65252195296107506906 0.25966918927361803959 0.25248787555597285159 0.37113944522424952011 0.62829716715649019942 -2.4936920000237523531 3.0688822460957738691 1.4130197708649046007 0.45404964115455992424 -0.50324127547518793246 -1.0365981471189478214 -1.0089463920767625105 -1.1106786809776509894 -1.4151961044514174137 -1.1567610248864235167 -0.99285951264152105811 -0.95693657181325308958 -0.50453284351035887489 0.086262942385192109551 0.86940571484979634054 1.2421142808244851619 1.6040664935219177689 2.1935692397057775516 2.3900761938424888164 2.4266752277510139635 2.4423979540442868341 1.9486228563855945151 1.7155174837036628599 1.1039813747747211359 0.90232864883658159272 0.058390790530449612761 -0.49237761283482395225 -1.0425460722508030909 -1.7393726068640886773 -2.0686009494246144769 -2.3753101802723324276 -2.8279659607065630311 -2.4696174723815786933 -2.5606005495070220945 -2.3631199129189832675 -1.9425838375263304592 -0.90914717475638606725 -0.35489847277347874588 0.174193758853996572 0.88725984188701001454 1.805554624028952837 2.0458349818950800625 2.3851605237457791375 2.1660153363452909758 1.6506040098904450897 0.96030559116525782137 -0.81073976287383964223 -2.5209852119038158591;-5.0275306176562901683 -3.7074872002119878545 -3.1614644703635721434 -1.1777576086590784143 -0.48486076362190411171 0.26177742099123724184 0.52157090209773393497 0.30055879200149304697 -0.17756634118721961735 -0.39424892576389808374 -0.47155668862609279035 -0.049671726526604939589 -0.1635640129529412623 -0.29315421707088762382 -0.20399114998008721633 -0.035389249870755007388 0.26150296253438742866 0.2836031489881670753 0.59085064648638829787 0.6922315687277529328 0.42979674064423395441 0.74577320312706940619 0.55903534445996905244 0.51522275839607178938 0.91663399866147310391 0.57461049222762816679 0.64652475819547050584 0.861957627945506899 0.9525199333049061412 0.6395382290303260886 0.81339060759907899634 0.65130296418364219679 0.43507222923477456566 0.60928254457926767085 0.52493259961147964443 0.62854801668711079987 0.48303658142967270672 0.31522708508502295111 0.23425141059160337065 -0.14839231900390720265 -0.29221387083586325417 -0.0053088078094009737845 -0.60276724257666658424 -0.61740084110436710407 -1.026166404738381388 -1.1724593490321928435 -1.074237569088244193 -1.2291086422878290119 -1.6960487588331225606 -3.3872912635412055771 5.9721920987770715783 -2.424071584732579332 -4.1960384061284123902 -3.413738145205641672 -2.0247679980057680105 -1.0999956807967496974 0.28890111339521762357 0.87079558554785607694 1.5108390028382141512 1.8060848398408202442 1.9495161118555497382 2.2361225930357768732 2.0054849061685220413 1.7783487262072548152 1.607035065906174065 1.001128096234334075 0.83387499320735281039 0.34358002769412854249 0.30716460464120837193 -0.004320082130987581287 -0.075420063554823793539 -0.61598375196508692309 -0.55558695267662094874 -0.77678786850323477964 -0.9897532903918401237 -0.46710541481530765129 -0.57258181165878607732 -0.11678119114955404223 0.23182801761216903502 0.12851687940135844701 0.68871130512749778596 0.69611154502000649469 0.88944151188180875511 1.103091769940955702 1.7319540489682383466 1.709933400053136765 1.6050466690418840887 1.727173400640618306 1.830232745891479551 1.5970177817231738793 0.99819228607357890493 0.68009584375394660505 -0.31694754998654461886 -1.0280290879741200705 -2.038222884888672759 -3.0282077105116242954 -4.4343704714940974654 -5.9211890361717012254;17.9311195897757365 -4.7236083365541263746 -4.9638160222867879767 -1.3724226282272729005 1.0916839123941133316 0.42588508258749063762 -0.46539277377520310575 -0.46718665411409682209 -0.47443529469392009545 -0.51783826772500118896 -0.33474565613373719053 -0.64627842043336158895 -0.093557524553740889495 0.057356041052622999676 0.093847051754665511414 0.22704104684873308018 0.69922274563399011704 0.3925351991558346243 0.59875010086245517016 0.38660306547120071308 0.58169471240401804391 0.53249077975469338853 -0.01573476390014229287 0.25033747002375150714 -0.092428031654646664039 -0.053088689322449061914 -0.031660890634006663702 -0.34431786531684865915 -0.49285711436574980437 -0.40320001739627120418 -0.35318071792334548853 -0.66599972627913706091 -0.54822806892890518782 -0.30737774524666239273 -0.5370441216234467241 -0.68105812234079832201 -0.68993318854055463163 -0.59242118917021302504 -0.46948749203005385455 -0.17209724619430272208 -0.099299636059856533077 -0.054000582342906465472 0.14707182508524482834 0.54178003054299483932 0.70717935879015603184 0.53801113001769840238 0.80565962988897754649 0.69003813803633484714 1.1469344343924150476 10.160939882240050736 -7.6145912040476240179 0.82200749659764615895 3.1635052520032385104 1.8727066478193505894 0.25623120077933203564 0.24204191390373461235 0.21555041855093864944 -0.061353005283922505686 0.005999874380709598054 -0.13733492761857205022 0.09474092099696249103 -0.083232785212003279618 -0.14042097224761840302 -0.32013112649562758261 -0.16570988214433257646 -0.5662202933734111765 -0.523700273222179713 -0.99097980272837560278 -0.84643094600330759381 -0.87236580290431842144 -0.98149672379908103892 -0.48339258348077629446 -0.36796229280203585077 -0.33639386191668257942 -0.041848767861577096383 -0.12975356513942865044 0.37046753191858788901 0.25008524611368887491 0.082522294114107441754 0.30584877493817924643 0.33149852664559253945 0.15854703413770768194 0.54731696160610032731 0.30167298504390888114 0.50513258169974717404 0.75358783700946441186 0.5902901296587244051 0.7702507286861096647 0.49532652327577542106 0.2260521132156896873 -0.065669010601496408119 -0.22389992645848233455 -0.20272301599759470769 -0.60775134012155740404 -1.1566118667007951881 -1.3500045186908207206 -1.866538253650844581 -2.4348457311842333084;15.719056712692664135 -18.167904979897574691 2.1560344852255139969 6.5585313014747779192 4.3734868220570009001 0.32919159354323290767 -0.55347443679508834258 0.069056774111858662546 1.0524197925473308679 0.047629490597558159226 -0.88264639947888801075 -1.6749567056151193345 -1.1065346124680535134 0.11501181513154751235 0.66606840979051407103 0.51195910678282241513 0.18829213495535840339 0.54054740323430106042 1.2447411206629404035 2.5829665036407862821 3.1840003135359902231 3.117100582010642551 3.2746701698361091459 3.4870370038622193753 3.4198086894001216152 3.441971538028115063 3.2907921463074698565 2.3652599885799938662 1.8738491248999127325 1.4253337584457352882 0.56299540183028229379 0.35327658138726664161 -0.044449099829329707934 -0.80233512873433965318 -1.5024042606014578194 -1.2839876058007553272 -1.4869595247427083162 -1.3626241681127164718 -1.5884589790118288644 -1.1335086652087640324 -1.3299255158800284971 -1.3863827785694464723 -0.92181697140046170436 -0.94232515054687082667 -1.6257554233912705488 -2.1492329347335270562 -2.4387348840078164613 -2.9267978504038381082 -3.6559024714771335418 36.433807776694322911 -3.597212535169266534 15.319400735894783239 4.6359078128161081978 -2.496689145059790782 -4.994223806564074053 -4.0631447016594641752 -3.3354411340034699762 -3.5673318775556981386 -3.8970794631119831664 -4.1345833330256889226 -3.6937643107512481144 -3.6730892766268463667 -4.4603381981912866294 -4.3152482615414227141 -4.3591054910580107062 -4.3644841246190146933 -3.9330481309099396547 -3.8660984398852988875 -4.2672547894978860583 -4.7840544186482292233 -4.5559104836599697563 -4.6898674555586854495 -4.3276459648447254125 -4.1987845480984242741 -4.121634482285685408 -4.5074191679667396926 -4.6468210461038079728 -4.0426605539087701047 -3.676867509001847889 -3.3870336664413147609 -3.1013608101668905803 -2.2289730798637070741 -1.2407205265755294477 -0.2560535887994647708 0.89426054181607350646 1.6971962739959580713 2.5253960650654185827 3.0592460851250642406 3.5358000207044617547 3.6857237060954060048 4.2402965164777315366 4.390407740037394646 4.6062504629170470949 5.2033166556174625939 5.7055892140929476142 6.1371622921107853443 7.3497339632448639435 8.084046644029369233;-21.753904276682742847 1.8707008074851465551 -9.3602006289106558512 -8.8515829589233252506 -4.3344011110718607682 -0.49745401997435406694 1.2456053843677554749 1.5402300842092391253 1.0742535225549485478 0.2072136559286276436 -0.9464164924760255504 -1.3624912300823381894 -1.5051655331685283024 -1.4748333427671316276 -0.74761562701920880603 -0.31899542423552723625 0.15422706288063411928 0.83325061938514888293 1.1309654431749833758 1.7469239136366492282 1.6803640152777037375 1.8474296240825329729 1.9970826591993817711 1.8178280022422934614 1.4353137459188003433 1.0129006327228862183 1.1803377092350122446 0.62767516571741410747 0.3674727425549821902 0.28787587582144169573 0.23992186861115169516 0.23463526853054855748 0.26353124873152100616 0.61570077316877269702 0.49136343628596196309 0.70339288696100321641 0.94367019145124142465 1.1454951430126429912 1.2463304383512257001 1.1788296669480298196 1.2285715512402879401 1.3495337788278169988 0.9232458674943813115 0.76455412636618758082 0.67211724254797344802 -0.20366644409477235866 -0.43648177486662392832 -0.9633856889259437839 -1.9269646317367354893 -7.8819528758744494823 10.407148974350709736 -3.6595792446636297157 1.5089905287335700912 4.1384766526232619199 3.6786246820909411781 1.5285287920933803285 -0.28178392350229675145 -0.63218811803475427613 -0.5643659001481201587 0.23713131213617444359 0.89499161538106319913 1.9692706981450980308 2.3073767916108209874 2.879874120140013094 2.7278492986706308621 2.6673645592262582582 2.5897030122245205952 2.1315100300374707487 2.1190922962366673943 1.8158485290133279388 1.3785715136034146777 1.5894041839249692938 1.5005580925291812644 1.3208309189225539981 1.5153802284816202395 1.6416182290891616624 1.4434728023440019928 1.4786629329232616747 1.4841040189729930443 1.5713447964668625367 1.3648447785892248163 0.87989532328361619307 0.73581355974733952952 0.66675326723620853553 0.46964519047052333267 0.20963483266727506171 -0.087500345215086233752 -0.30987318544051783986 -0.73966417840465303879 -0.62554999485017470651 -0.90939724575602232104 -1.4097062405947125008 -1.3318620542036372356 -1.7932993027396502139 -1.9249528333593644014 -2.7667890012569982261 -3.0309662906459551301 -4.1237806378864236834;1.4825045731372130664 0.013087806199806503379 1.1712105254573712543 1.992372412411886673 1.2043618643494258258 0.88539093905596599754 0.71520795506019685384 0.16045482017012527298 0.042366550034041709771 -0.73808206378127627634 -0.93422219038643805611 -1.2641450511132981127 -1.355369260768731543 -1.6670749354088651994 -1.3770852639704558307 -1.9812278463930474981 -2.0113779761497334597 -1.9384587209834356347 -2.1513692842303799857 -2.280706065588163689 -1.8787109444790208723 -1.7704529653519966992 -1.5240950689858536737 -1.0515156343110225734 -1.2920242496609191107 -1.2137190666583432819 -1.325829366186670244 -1.0982787380982239611 -1.0619154789121749705 -0.63722304718002231727 -0.4733017119113450133 0.36622193976881500799 0.67895611118648979687 0.68124392820530021986 1.2774905289246940576 0.97649169272640601314 1.1505531515790230479 1.1653037215743791144 1.1537917236462189585 1.2506068175947102628 0.99694426105752087519 1.0729687322898269208 1.2793688283135538075 0.97875571956927409634 1.054341129042890346 0.47482953747238676456 0.37657198119297358163 -0.44820554221215080926 -0.80595503372493915162 -0.024383623359588827567 0.97326581549596025145 0.44839418915291845424 -0.59672562388986771786 1.9109014505363246528 3.037564831563810408 2.0365167815328804046 1.780718553688753758 0.96511376249193803201 0.68592348977713191172 0.86080948247023081343 0.58415798820240250055 0.43989356057068623729 0.58018626465753753152 0.43233220603682853689 0.74601170830278684676 0.7600626927245595077 1.0085200478469058538 1.0140547664677908024 1.2926613851700383684 0.86281503167407846977 1.0399096619332197644 0.59968909470817455265 -0.096619016462288820346 -0.51623455801172024593 -0.97535797366185328361 -1.0201247930355115123 -0.78673580844317614336 -0.61220238666308124387 -0.44854004334501207385 -0.34254469379004293117 -0.6262178343568947092 -0.50450445746660577129 -0.76988981557476932061 -0.83246536516197588984 -0.82318821834302680074 -1.0839017322247586073 -1.0362428231773392895 -1.2516384326726426313 -1.080375900644930276 -0.89909013942306992284 -0.71990058049456073785 -0.68929768890918752255 -0.51820778866172712007 -0.13019858940695933081 0.49063503012173137474 1.2684435263375144487 1.7151590222701367239 2.3083106680110021536;4.1144643812247050363 -8.1276004842451285981 2.759903158075633467 2.6157841771281398202 0.73782085815835363185 -1.1996992326260291772 -0.39004359913661734716 0.78078598134589805024 2.2755821676678977816 1.2005157673919466532 -0.61589082097802949622 -1.6338194333208091447 -1.433517363117631449 -0.91669421128005412758 -0.1541684364933929019 -0.03733678990367458872 -0.52564367876338347063 -0.36086237545633925716 0.2955363911541014077 0.67819003789172460639 1.1645041683146295508 0.59040710550443120663 0.11971801351239413913 -0.46927301035318325084 -0.4792976362298287385 0.4188416164506471584 0.68877277309173834396 0.69174075918780164596 0.48634041198559324615 -0.23847377249642506825 -0.43457497304143472006 -0.20274473401440132325 -0.20168649829414464492 -0.66058262065811668151 -0.85190113724391447469 -1.1257508692691804431 -1.0499453801346723125 -1.245430258296517545 -0.75338481174350624414 -0.6642886150784044208 -0.69764517042897056243 -0.34884105992332892221 -0.17595553115011614009 0.33515028271389118997 0.77853319606133486452 0.69041204280745827049 1.0200952985356941394 1.1513095713526309005 1.3397281855717628751 9.6425619445266388396 -4.7804529170600913446 -1.854828904731135264 -0.02002589667544666524 2.2677359889391119907 2.0203193658652507381 2.2567672682737258683 1.3786383535172610504 1.041180036459753433 0.27664420272299861114 -0.073034615351503004432 0.80702158825079217674 0.91056460876157596651 0.61304989520786656865 0.77089498499430075817 0.56595953232985818371 0.63448733344944996393 0.49306053131500288123 0.65144572443036918852 -0.1165591110104405026 -0.57528072319148648717 -0.51959787762692322133 0.036532658808570657449 0.7295631330553044025 1.6344826874180344856 1.653029965876287033 1.3155526618335298128 1.3990565374978027879 0.67505831389554993294 0.66076060372792400077 0.35555613947994541002 0.58353789370051600827 0.45148605112216566582 0.60240878656417817805 1.0179415881920019782 0.96966961870794743383 0.58242067381390716374 0.81481997389272464716 0.61652613327553518197 0.27291148514068774844 -0.25369290813624867376 -0.027981737949733062609 -0.045499258392720759447 0.12902296690243797439 -0.2299160278218257969 0.049169082174961534215 -0.16264598099802515807 -0.40028852018762262066 -0.083720096895235879275;1.0413385256102716259 -2.0926619134246169374 -1.5501727269703822198 -0.062456346363500059304 0.24981806557090902032 0.6392200770879182814 0.49567137918423803677 0.83511794041362552576 0.64660144024029231336 0.57184736501953581378 0.80540158057957955684 0.84124756667316213932 0.68809781894539157054 1.1585391493283798692 0.78415708507003101246 1.0806292529355190357 0.72312541283186715368 0.98359332751863004507 0.80791151261439686504 0.49685972431797864601 0.39473218111779589945 0.37483307734086590557 -0.051594281761696621225 -0.20540177278808707806 -0.26138317509720959686 -0.33299712168947015467 -0.15527706415246300686 -0.40938496327503537398 -0.30653813152624104221 -0.53855022883510927922 -0.50150714513479488499 -0.41524285383355019619 -0.66012608711675913042 -0.36096339065102472921 -0.6975633033020308682 -0.33010175856610707301 -0.28303471300356791707 -0.43247065634723602656 -0.057195591543953691605 0.058438101402419263819 0.088454466924713787135 -0.02663518990012826021 0.46273575526941201908 0.34263923376276206323 0.57992300447686351283 0.93686962282523700285 1.0424395109123349989 1.456272289901679784 1.4418615212756589194 0.24735357113051076317 -1.2123842371949187235 -0.9599533812469660532 -1.8793186853803034442 -2.1723853116083997605 -1.1780709011528849306 -0.16700175221370888723 0.089188194609862450624 0.095113316289405808179 -0.057028325688106479285 -0.34205490194217236244 -0.44070212072007286519 -0.039554937739024451093 0.035173172666429705635 -0.1275077208175627308 -0.23808963500631408206 -0.76994201393826877666 -0.96568724618133183757 -1.0961773364932796415 -1.0703232801758351123 -0.76963519997997520417 -0.76840642255237256997 -0.40987164871959053114 -0.33770144175575461665 -0.21402184959531195263 -0.15083133166349857457 -0.30345786155588311273 -0.2409544967609604238 0.0091758476213037055286 0.33262159834411009207 0.10822076075004609386 0.35657287930424602651 0.56573096792233201757 0.63507558741421588078 0.46105060605138459273 0.38301968524711643704 0.81455779693098240291 0.49080133011346971372 0.71470640285167186256 0.66615843220620551968 0.47608487761061851762 0.34953973083746464612 -0.16845483752594814231 -0.14529449136116270869 -0.80634404697699391118 -1.2784232997804134691 -1.716044039297775603 -2.1819373426325068266 -2.7839027076492999235;-6.2581458021393086 2.4457851020006051712 0.019761881060563646351 -0.13383129209835509243 0.21923390204658163571 1.4743342530356473574 2.145556844241441663 1.9947554487747001239 1.3033407992867953595 0.82537468071840036643 1.1938779203309795029 1.2225997904082759327 0.74686183567002784045 0.61650782797282199788 0.57045100056380337872 0.1275477204243985474 0.032731226598822812934 -0.014112936101737907565 -0.068477870709598695487 0.010332253459397542153 0.32555554985427082038 0.40689309783427518585 0.32332021345745259877 0.15834977773501865417 0.21113776336884246265 0.6067900940520792874 0.69078237391817287616 0.38194967793715861593 0.68692363024324309961 0.20202998972913646658 0.24911880436071118239 0.32210103297165909586 0.121402675368992366 0.14117616558534279436 -0.13254345282986590426 -0.24998429069645874967 -0.66724198766571274355 -0.65225943356617233082 -0.69508311520780141635 -1.1867011971924639191 -1.4591021123432659223 -1.4027269248946492297 -1.9061136693972282607 -2.3285084611302950819 -2.6999220326795683178 -3.0126849457547986155 -3.0869492320278753006 -3.5443880845207655916 -3.87805481112433581 -0.64750849677459187959 1.2043234816048595803 -1.0215591476599126253 0.53347759253739379659 0.8488051890546738365 1.3910746039165151622 0.57457423928796957924 0.47939314032311319824 0.16869766696160948261 0.40872767439216600716 0.56023173936752002078 0.028579089714084321416 0.14180464748531398933 0.91331574934127679466 0.5549548511094536396 0.21255801706057911304 0.33671280973666617431 0.20088390922407189931 0.62574746940953851482 0.994466080484630921 0.64034530795163446815 0.64001116634272192663 0.53752772510908730652 0.45375868967645199836 0.4989578490533618238 0.47700041282878491433 0.57943117362302010154 0.054431057116648300098 0.43751935285043486168 0.29530526943924773065 0.079595552089294224762 0.14847548763505327707 0.18062379742217482548 0.29592067521204573621 -0.0080332680249040368248 -0.24190146043068253001 -0.3521150382812844315 -0.18633370860152601023 -0.18319554738460328003 -0.50019846631192210751 -0.36867563724694785154 -0.83061845468809936133 -0.84669542480255999273 -1.235633758749850708 -1.3452400027791739934 -1.6138996585569518327 -1.7962607506356675913 -1.9130704558009283822 -2.2560040663414380191;0.62414590659159085995 0.44428852368474369694 2.3630998848865170103 0.79650501422907449278 0.70378147058919193757 0.84128904741218379915 1.5392784998972022237 0.31237813448137213834 -0.70389696901152265518 -0.77347176287027030739 -0.60791775038452378066 -0.74345822192944721607 -1.26769856039716311 -1.7810162625818830584 -2.0524939965256474572 -2.0034769335592668149 -2.1167268134484014119 -2.0904813621437554616 -1.4940804316122053841 -1.1508148466390246689 -0.66009643336347012532 -0.85799596603489713953 -0.91653586512014306731 -0.84704070181088297886 -0.79607283524518313023 -0.59605511604465888365 -0.31148400842541495992 0.074767306508236638929 -0.28795093373124830416 -0.5278684083970373031 -0.29750765819738661522 -0.41946373113646423514 -0.81687024718507483811 -0.32335888560405973147 -0.34712531722539330392 -0.1795472063051054834 0.36522367864900412426 0.88178361302999352933 0.84522017488728384826 1.0131606252756277797 0.9720045680535430721 0.66630052944947026905 0.65849068853864856088 0.47603365039489398125 0.098551745713647401215 0.25677392629094469845 0.12617684786500255045 0.79036501056936159237 1.3433871869551414768 0.13372332748092680133 0.022424118311641760837 0.52190456834729426205 2.0287762510677644912 1.0005568023412194645 1.0063535761062194496 1.6497475824543930134 0.4492130776504209555 1.6786438170868316355 1.9823959076623445252 1.0369993958224408281 0.37221143118272825845 -0.19470906832627943306 0.42910522551377849876 0.39636156713987469313 0.65133520176683878944 0.54293173910604852761 0.63987652772969683124 0.28985148173599650789 0.62675117825872650457 0.74352393340210665151 0.5892189728990390174 0.78572877136024465994 0.56305544326255418941 0.7837958399539237675 0.73022472196850063408 0.39959322945291614326 0.21313160555600341173 -0.11138782420733256417 -0.38901089129160121294 -0.55434881484289211251 -0.80484974202989423286 -0.84249715133016978008 -1.1849382502269749651 -1.2731031026112753501 -1.284556142555249858 -1.378577710330759265 -1.4360635662615330865 -1.6850291806393251637 -1.5185371776145102363 -0.92652722318056379702 -0.86821344615359330454 -0.12340715799952413356 0.074829369790188754452 0.78480134874135121237 0.99001955282704090511 1.4294164551321415502 1.4861028862986160881 1.5408964521961308058;2.8037194424910403256 -11.326629142627284708 -3.8647543214067279216 3.7671210777196395547 3.3938920440841862103 1.9603747042919159593 0.40784970209083654114 -0.74723394721257707651 -1.115887379641580468 -1.0152097777583231064 -0.3544107128864166234 0.088842448833762660554 0.1812265308207854364 0.17321346015272690022 0.0116842696319436265 -0.2502110905463074686 -1.0050066607574026367 -1.3082029197996010161 -1.4589343561322969389 -2.0747650882766093261 -2.1577793843458943357 -2.0236187751120477962 -2.3547898200266828006 -2.420432703755940107 -2.2618634998382760593 -2.2302564815142500443 -1.9205771004901519561 -1.8441567367609488226 -1.9691040963492194571 -2.0323900365378952948 -1.9661035135867699353 -1.3546192656668654131 -1.1325306404735666632 -1.1992373537031482122 -0.78257613488286181802 -0.38781454211200366844 -0.51371074433335761622 -0.041052426100143299403 0.27321659509727114212 0.62470460743539435455 0.79833895369466978398 1.3264210344134177433 1.6796034696198196556 1.9885759405114753484 2.8660155562639793025 3.0196178621843334788 3.6592195283894137781 4.5976271264197228206 4.9263218084449693634 -31.207755354889439303 -16.873531863890729454 9.1640388771089238418 -1.8675200254428057089 -4.3710289260072681117 -3.1962064912561491958 -0.36612864076327339413 2.815873151819330289 4.5908469869001438113 6.1884795293405208128 6.7537592675446171953 6.2388356917767424648 5.8559018636365154364 5.772272191944726849 4.6163658907437241652 3.6615255903036474372 3.0417162477074759508 3.2861434149341084421 3.6813030567918354485 3.915188279330763077 4.1403791822975000159 4.1158113274008059079 3.8365990498495774474 3.7159752236494725253 4.2386128366615460905 4.1230047125869742075 4.4726539447254189952 4.4166907607980645523 4.0817583964141839203 3.9772911115378417612 3.6686659506010794729 3.3269414727261508169 2.8086947469289222923 1.7370570100353848186 1.1156853937689774625 0.17048809357563737832 -0.69319806862771393696 -1.8418155823106696634 -2.6730729750074462281 -3.5505982604378218959 -4.4030301836630405532 -5.02764509998261655 -5.489611632544671771 -6.0222414892249584994 -6.495695857224141001 -6.649533316274151673 -6.7579339434969103451 -6.7138868999204905919 -5.8973363925364701288;0.83694837357089235663 -0.89322056753456557932 -0.44392440245573649982 0.83257927547566201731 0.71797352596287578042 -0.61703203251164817633 -1.649484992871358191 -0.72908273877992768597 -1.5508557158813709442 -1.9356030622264195351 -0.52299908187942201199 0.33297798146261037289 1.0585866570024189404 1.4402905443747544556 1.9037135711081718537 1.4954315117716194816 1.1539968207345729923 0.76978640040992707405 0.39320160362408868027 0.14614762063737182785 0.116975828693473477 -0.60778066708944666896 -0.94187374311492089163 -1.3060646605181365221 -1.4837354102526383315 -1.2337422929933827831 -0.62086800662511310023 -0.20610764348246274347 -0.036053400019102163632 -0.16795446617275319734 0.17699539197763711207 0.44123729407190986906 0.42307550445286379315 0.65046842407342453374 0.37689335271392282456 -0.21005933332852289031 -0.52965913295710864706 -0.65768836028439181529 -0.82100664337857398589 -1.1378007657395479146 -1.3066476602891514691 -1.3247118882374651072 -0.87099351957963078164 -0.34583043184489903332 0.22561985962453004473 0.96103871103953442123 1.7346411610586354168 2.380650314074087337 3.527445311066886191 0.95016914677220631891 -1.8495406619309926466 -0.80851952901264434459 1.8906695909891555463 0.34817818744575373957 -0.19660687735172852064 -1.0877701357061897447 -0.7348321240997495174 -1.0780937406830191083 0.35570581096902953444 1.4107066864070856305 0.87973386690780208674 0.95028049903651401475 1.2667864285909065103 0.57047332576514042657 0.26032581553694422727 0.23229360286952030479 0.14851692349433021079 0.44922782279967204966 0.8512262867127344812 0.91193858557352136529 0.34781971500673675157 0.44032342244122008035 0.82045050958089904558 0.61581333186819398051 0.77437061049055666562 0.42029436492203553488 0.25303701138457168618 0.2775306765927733621 0.35568120416986243049 0.33490504913046603708 0.16364043001096734153 -0.36779998106508710043 -0.20019413868693144987 -0.55587892873268718308 -0.28722424888600178727 -0.66465111160606216156 -0.42262924556446412883 -0.37423721879998977924 -0.53344581424383741286 -0.63016768368285924762 -0.98739116371000112959 -0.65367100002524702873 -0.97400134920259540117 -0.80364303599922803922 -1.1364478288186325994 -0.94676408639121822919 -0.82939016010128574496 -0.46638589520416912082];

% Layer 2
b2 = [10.634337896288306169;5.507472721666164972;-14.268378372183233793;3.6022267339387772367];
LW2_1 = [-0.10343533626119778834 -0.26085242908598282874 0.64684305627746807588 -1.2882761482594435876 -0.30398259347533651553 0.0054745940890538746793 0.92092576827353833657 -0.88414045931963747282 0.085614571349482443408 -0.24557420927104584019 -0.082922064888795041226 2.8029608258444005386 -0.55791642991559453613 0.61633611251131192876 -10.946944384902034031 -0.52877423756896302365 -0.026655760124284652579 -1.2700089608592888268 2.9306406036701790896 -1.2542050144812777468;3.2372735107199837046 -1.5161016144052403831 -18.127449814796012362 -0.61773260426829113001 -0.44633882610038555505 -0.018410679064045466086 1.5628203680233891948 -1.3895759894605610452 -3.7186053615763681179 0.20012983129317141184 -0.42819078713025499061 -26.561398925599888798 18.48962042386516913 -0.09309409234889275131 -3.6525598506766394635 -0.28314369433535147014 0.11801379618219680345 -0.27516975636300272656 -26.454976198570044232 -0.54499505217361665643;-0.16521181157253742033 -2.2871626702048160062 0.81888947742229545312 -2.5985383543678319818 18.853399854738476904 -0.60882108116479105586 -0.62710286675265702883 0.73018658902014876855 0.13113925754709837568 0.24927437016516609813 0.12796502960612685107 -2.6234967159442184048 -0.86740096491552687308 -0.87594121419657366978 -2.4791889902983808014 0.54342608132348169114 0.20074071799077256029 1.4253261873597873333 -2.7632262710533148642 -2.5793785259935129162;-8.736657932487370104 -2.4033924996645450456 -4.5414363559061579068 -4.811750613336757354 -8.3935956248513026168 -0.790899211938719926 -4.3671072642294372912 4.2663413320534289142 8.9670042201191080267 0.47496726263556132697 0.29128188519067388373 -1.2338484114192789232 4.6326109839545130953 -2.6327958336166790154 6.167368390185409055 1.0006895827462995996 0.47589824416235393389 3.8201578725719063101 -1.3303769073016724622 -5.0778914715817498049];

% Output 1
y1_step1.ymin = -1;
y1_step1.gain = [2.00074836754406;2.00037480734143;2.00083125449966;2.00020989469681];
y1_step1.xoffset = [0.000347410532073322;0.000111836139844779;0.00030931306170956;2.45297456681337e-05];

% ===== SIMULATION ========

% Format Input Arguments
isCellX = iscell(X);
if ~isCellX
    X = {X};
end

% Dimensions
TS = size(X,2); % timesteps
if ~isempty(X)
    Q = size(X{1},2); % samples/series
else
    Q = 0;
end

% Allocate Outputs
Y = cell(1,TS);

% Time loop
for ts=1:TS
    
    % Input 1
    temp = removeconstantrows_apply(X{1,ts},x1_step1);
    Xp1 = mapminmax_apply(temp,x1_step2);
    
    % Layer 1
    a1 = tansig_apply(repmat(b1,1,Q) + IW1_1*Xp1);
    
    % Layer 2
    a2 = repmat(b2,1,Q) + LW2_1*a1;
    
    % Output 1
    Y{1,ts} = mapminmax_reverse(a2,y1_step1);
end

% Final Delay States
Xf = cell(1,0);
Af = cell(2,0);

% Format Output Arguments
if ~isCellX
    Y = cell2mat(Y);
end
end

% ===== MODULE FUNCTIONS ========

% Map Minimum and Maximum Input Processing Function
function y = mapminmax_apply(x,settings)
y = bsxfun(@minus,x,settings.xoffset);
y = bsxfun(@times,y,settings.gain);
y = bsxfun(@plus,y,settings.ymin);
end

% Remove Constants Input Processing Function
function y = removeconstantrows_apply(x,settings)
y = x(settings.keep,:);
end

% Sigmoid Symmetric Transfer Function
function a = tansig_apply(n,~)
a = 2 ./ (1 + exp(-2*n)) - 1;
end

% Map Minimum and Maximum Output Reverse-Processing Function
function x = mapminmax_reverse(y,settings)
x = bsxfun(@minus,y,settings.ymin);
x = bsxfun(@rdivide,x,settings.gain);
x = bsxfun(@plus,x,settings.xoffset);
end
