function [Y,Xf,Af] = myNeuralNetworkFunction_test8(X,~,~)
%MYNEURALNETWORKFUNCTION neural network simulation function.
%
% Generated by Neural Network Toolbox function genFunction, 20-Jan-2019 15:41:53.
%
% [Y] = myNeuralNetworkFunction(X,~,~) takes these arguments:
%
%   X = 1xTS cell, 1 inputs over TS timesteps
%   Each X{1,ts} = 100xQ matrix, input #1 at timestep ts.
%
% and returns:
%   Y = 1xTS cell of 1 outputs over TS timesteps.
%   Each Y{1,ts} = 4xQ matrix, output #1 at timestep ts.
%
% where Q is number of samples (or series) and TS is the number of timesteps.

%#ok<*RPMT0>

% ===== NEURAL NETWORK CONSTANTS =====

% Input 1
x1_step1.keep = [2 3 4 5 6 7 8 9 10 11 12 13 14 15 16 17 18 19 20 21 22 23 24 25 26 27 28 29 30 31 32 33 34 35 36 37 38 39 40 41 42 43 44 45 46 47 48 49 50 52 53 54 55 56 57 58 59 60 61 62 63 64 65 66 67 68 69 70 71 72 73 74 75 76 77 78 79 80 81 82 83 84 85 86 87 88 89 90 91 92 93 94 95 96 97 98 99 100];
x1_step2.xoffset = [0.000792119509447198;0.00158500453920186;0.00237780597478173;0.00317052703560039;0.00396316759456685;0.00475572774379314;0.00554820740621455;0.00634060667518754;0.00713292547369274;0.00792516389506842;0.00871732186231085;0.00950939946873935;0.0103013966373658;0.0110933134614907;0.0118851498641414;0.0126769059385995;0.0134685816079081;0.0142601769653297;0.015051691933923;0.0158431266069317;0.0166344809074302;0.0174257549286431;0.0182169485936604;0.0190080619956878;0.019799095057831;0.0205900478732767;0.0213809203651463;0.0221717126266076;0.0229624245807973;0.0237530563208646;0.0245436077699618;0.0253340790212191;0.0261244699978044;0.0269147807928289;0.0277050113294763;0.0284951617008388;0.0292852318301157;0.0300752218103802;0.0308651315648473;0.0316549611865715;0.032444710598783;0.0332343798945175;0.0340239689970211;0.0348134779993103;0.0356029068246467;0.0363922555660283;0.0371815241467321;0.037970712659737;0.0387598210283358;-1.11909237183259;-6.75503970183397;-5.95079947809646;-7.69075784969228;-7.0216510863854;-6.77685060468246;-6.22337859126694;-5.5922244524504;-5.64042468498546;-6.83460114734233;-7.57717248100847;-7.04348726568631;-7.74513209323025;-7.85111424658966;-7.80444473085847;-7.03187789614599;-5.70460411966514;-4.27410792732011;-4.88592490784006;-5.39901334475678;-6.5038704180769;-7.28735820908603;-7.7490551368339;-7.89986919154365;-7.76070119486632;-7.36086865302996;-6.73636804455306;-6.70094290337669;-6.71466856198772;-6.55710781117575;-6.24022460072773;-5.77947590183562;-5.3806079835;-4.87550177684073;-4.28116369051775;-4.76269691437206;-5.40899594292357;-5.95529498358742;-6.40184205830531;-6.74996759396801;-7.00200202599614;-7.16118752368207;-7.23158523237045;-7.21797928878451;-7.12577890339777;-6.96091968295409;-6.72976534310452;-6.52625902943737;-6.45305791308824];
x1_step2.gain = [0.176738585225335;0.156929245542784;0.164444403681595;0.147434542201489;0.150086509519561;0.139052400264107;0.140343431897471;0.140390882476141;0.141048815030403;0.140684036063446;0.147328048162957;0.151851230733527;0.148486450024114;0.147869377311087;0.146943342543762;0.148764617024211;0.14861609422317;0.149165181523808;0.151791601783486;0.156546187361481;0.159003584888087;0.161846830918471;0.165005708045183;0.165221484844801;0.17445160339972;0.171895758729074;0.166947295427477;0.162853340205247;0.159530080857239;0.156910332923228;0.154940739932347;0.153579614709617;0.152795273031531;0.152564750265939;0.152872818469886;0.15371124180932;0.155078221541759;0.156977992163296;0.159420536134502;0.162421388721205;0.166001504999461;0.170187160044358;0.171477801254473;0.170539920023471;0.169902436823658;0.169553622879773;0.169483672981075;0.169684492014066;0.170149507793253;0.0514399717707509;0.0413216323564369;0.0426638316534557;0.0440382572587683;0.047421750698249;0.0501337094419871;0.0530483762216845;0.0565530182603978;0.0587711261024107;0.057952221227524;0.0583511011051459;0.0614023077554475;0.0625514417645017;0.0648433892943291;0.065193534062465;0.0674810015459884;0.0716576678401847;0.0770359576947871;0.0770647242968933;0.0776572335396171;0.0767119550582826;0.0769122974048795;0.078241607509955;0.0807488551401879;0.0845529729926379;0.0865598724253937;0.0894444521536303;0.090230974700357;0.0909802159122581;0.0926171312597788;0.0951754749138022;0.0987217021582401;0.102366853837885;0.107045780861188;0.112891597805119;0.112345174067358;0.110907638387607;0.110219655638891;0.110240337242322;0.110950380440262;0.112350091482942;0.114458772440812;0.117315354385517;0.120980314616509;0.1255390721904;0.131107247665755;0.137838438949596;0.145012376633507;0.151453591274925];
x1_step2.ymin = -1;

% Layer 1
b1 = [2.3371377005602074206;0.89676486829004997681;-1.895062427205342015;-3.391057783883999921;-0.301537673872020906;0.37852844128282536751;1.2255588887927533204;-3.4890317048573482595;0.023495803350912600194;0.13738964658500038563;0.14880845876569837039;0.39720731284150878615;1.0220505156197940977;2.5125977884920884797;-0.30907910342217709276;1.7961020213844536286;0.71314222508069813333;-2.8455248345044448222;1.4127841778572307607;1.9259239899511606531];
IW1_1 = [-0.43168121083753130396 -0.17090256783348414804 0.028107734245642425341 -0.12855174355506962525 -0.094750616687202998678 -0.49519226434002455717 -0.097991149624475609725 0.20724708932687846419 -0.20215789187659280457 -0.029723921019999349769 0.027906714237289652336 0.18708780206620317932 0.14504539148341327737 0.23442450443602355636 0.06029905091453101329 0.24669304380291762202 0.28078997413502360114 0.20348595666442384489 0.16757908149045452895 0.33094490894721517726 0.021421649897647339345 0.34616217659792447581 0.14352689450996897191 -0.00874987477399688518 0.26009478130153174114 0.45114252899945717079 0.31920989410204902992 0.070272198361854804061 0.13821697404970098577 -0.028160721035671701373 -0.1223647536824348514 0.093973563581691857416 0.1072691932608914045 0.19486537217339885975 -0.21361129461018607545 -0.054459062593769307081 -0.29564168528701839644 0.11307727459437325046 -0.16842279257148540239 0.022818895418662842739 -0.16040036377379374155 -0.22548344650581131354 -0.07645346217314361037 -0.17792188392875207814 0.0042550554064693015682 -0.11492716816977867345 -0.062413885522773659975 -0.19627490288760415793 -0.025274609788314660042 0.25928923217674904045 0.85242668959062628531 0.024785547564147473315 0.19354095144749941526 0.096122573876347733313 0.191020332424025302 0.1811209410781256246 0.47551064459223452152 0.39768440893079654019 0.44873287364476932559 0.39873009732312120201 -0.0048668758020158752603 0.13010540132167086602 0.17358803715546483604 0.065999184493084811498 -0.0084742123904145618546 0.18161736480186549403 -0.039623530819402785763 -0.07707235631810412102 -0.26074632791968038736 -0.15385522860301908965 0.16705517831902144676 0.0088671466732249872716 0.15429335377878086732 0.23370427115301667387 0.12346829855709494372 -0.01405416384318341691 -0.147909882923406788 -0.23856034357408884006 0.10532464805425932608 -0.33764813444059932346 -0.041541747901071519877 -0.37273030082496166893 -0.35275219320822098767 -0.27435959349672706109 -0.22204574161067586191 -0.025508948236098189649 0.11433319460512082755 0.015134283826588788846 0.13308601974900813314 0.14742507693080500464 0.19109018135447813913 0.12174478591796805693 0.32593296110737918214 0.24691700171619182513 0.014543955598637315837 0.036898976322494156377 0.3502779008113052206 0.098194821400367504616;-0.22772968481565566967 -1.0395484340681393487 -0.91543894773095257911 -0.53385712293313403176 -0.44522741243980346049 0.10241777286152663196 0.1001409744823360537 0.021442371597063060451 -0.10779878740313772467 -0.023727468365484501861 0.45256266375878584363 -0.02737170194205169188 0.096237042940173350702 0.16538125498860889451 -0.065556897242625408739 -0.063561261531518226109 -0.12472397056144145233 0.024389707585208308949 -0.13058657837232712229 -0.14061847050588363595 -0.074191358149715558312 0.16083286309782340862 0.011847595282558655988 -0.076302670406838829509 -0.095244477850234210425 -0.19045058344922216609 -0.17393836006502624847 0.10925905411709173343 0.0610469804885199821 -0.031375873837631594598 0.12890267096529708923 -0.11491580043817348211 0.31826332951823615991 -0.13191328724209930301 0.24981998476382200058 0.044913986630796001731 0.10178093455251968624 0.19507369170874813702 -0.011270979161792583217 -0.30267992285924155693 -0.20759166813889298742 -0.32781188415504525224 0.0079700461498976547803 -0.28888061589250269012 -0.061512263142931483673 -0.017016621516616363408 -0.47448291376064666292 -0.23380755414585449592 -0.25355065088323691658 -0.57567142842304130923 0.78020121959282828783 0.36797473405642255884 0.24064510982978951081 -0.11835404957310741159 -0.15196039430651556157 -0.25210574596338031217 -0.054807542451866461675 -0.32215109300573085971 0.10239961071106414014 -0.094102022524415379623 0.027255202506838986654 0.15237484406942258808 0.027520690713993482823 0.23757992361661803282 0.065462640182785969412 0.0063882734243574657018 0.029122755456940964403 0.27054797186057627512 0.29929234812751970285 0.074299087355172571678 0.22718183008075151785 -0.062078733206926035859 -0.022901248126964483115 -0.19716029338502522039 0.016256950295273069063 -0.063326061618256448971 0.36628197207201174113 0.022828996783260526587 0.16249586579608232828 0.24409261059079986889 0.10212426580595135306 0.22448464379951404979 0.38774356443397839378 0.3258918815300422267 0.1642743748147729721 0.094007368533439661373 0.10886707227527721298 0.15653165422976272891 0.16994701418958682582 0.067544095101516668511 -0.19697216794727598344 0.056281299570165185808 0.20245332566595136692 -0.12913898649205657332 -0.045437162446483443656 0.13426048145854635463 0.25032311345922053647 0.29253800090323212046;-0.17160975506819223235 -0.4039436762479757248 -0.20044286634006677761 -0.13938778892020584066 0.18374209966696575247 0.22960588256973873955 0.33934379671156206237 0.02298545274387198481 -0.3102275337555290835 0.054223141330596892618 0.20332477712006971626 -0.19109136746217703084 -0.057127515550644915321 0.11565472596981263287 0.12495192283525528854 0.075546667951437052047 -0.05365864298630956819 -0.28997657672532034523 -0.087000450826211370159 0.061510403167772446931 -0.12697582233292159515 -0.15585189776328131628 0.18498284144865148604 -0.064382775418470913897 0.29536602462057776064 0.26065166565664216192 0.13439555839765368606 0.012847426649227600831 0.51234023806175998939 0.211638964037655114 0.49275533002924898351 0.22847657472197413497 0.039293626105365096757 -0.076394185565236139013 0.1499608810581733731 -0.016407046732366675768 -0.31965479861003254225 0.14091990437120496815 -0.23545685494639326252 -0.26162659909351448917 0.083692521182007095781 0.060340838885011911785 -0.15360036100139312643 -0.14239413695257840953 -0.36252539825531987505 -0.24476360050019146941 -0.11461011791448923181 -0.085385985169429926001 0.20987588071880561302 -0.5471988951318755845 0.34497349776197955284 -0.08433251924771950625 0.21382520956273654011 0.093545828528804525481 -0.009907002162738522133 0.16292025747640684341 -0.19298051019776610304 0.061623491369322581923 -0.29382233084658126998 -0.42732466899684062867 -0.12043685375790771919 0.029399115803005363562 -0.057896589131230351277 -0.2962178434235053226 -0.3098644302219568103 0.13311033235665570285 0.020361894312123356848 -0.13542744034863710145 0.13908458844117874142 0.15751319615050318745 -0.070269745631823282705 0.18548354485997051166 -0.23635818599281793739 0.044207205331505794454 0.10416942983061240613 -0.10034625332813312815 -0.13575364416694091219 -0.042808455017001589837 0.38066026355268123282 0.1472898358584143752 0.21225011410259661537 -0.068178439119392503232 0.026427479341939268814 -0.48007233920317304854 -0.059191939500857333745 -0.26172763632721152138 -0.33640135205779037042 -0.10154428032748326338 -0.064755417079153554383 -0.35519353770017492167 -0.13329803465801765006 -0.43109114265025688661 0.015629773688282985744 -0.30355001577747336983 -0.28266311709317559764 0.03277459614005154287 -0.15779951170905481828 -0.025596041204990642448;0.76133654689609009392 0.85420885396537038492 0.65636988587078859414 0.56410873720733556436 0.23492918002936885591 0.29348998336209758397 0.10966558220632752207 0.021800145867252072179 0.067965621439944307047 0.15027463652794259552 -0.081619552211155146915 -0.49509932965331321375 -0.26701982002427865348 -0.067228537730294121721 -0.064849701944898238692 -0.22837797613701402155 -0.25653412771519540359 0.022377216755911744778 -0.31154739631656819254 -0.050285258446904068652 -0.015718856719412553635 -0.33156870400578997149 -0.16161611772591696901 0.10736283028213765289 -0.051442901612597610739 0.09921265984742262678 0.0025300582901133933378 0.24444807974324503363 -0.063324342775361502911 0.072162602918028964649 0.080204126099006428641 0.10291951827179660062 -0.026649094452556497392 0.17216357395513201545 0.23142857796758817268 -0.018410089286776384898 -0.1297963537480728291 0.062168857300420848899 0.034995497820077013651 0.12529057874042537346 -0.14558024610933636978 -0.12788306191264131595 -0.1392096223747861794 0.01900541683325375486 0.021461520857743578844 -0.097761015113295463008 0.2379972492185914168 -0.048521242614507180402 0.15564709818327054913 0.23421713813688962991 -0.41002118273802157233 -0.29992893616093585507 -0.10720072315083835346 -0.081782723303202228826 0.042940084395115207805 0.052632349537251703342 0.31107414042266301468 0.25438427095169702241 -0.18787179749602142542 -0.24410739203832215738 0.05460918234067773519 0.07904505437999828632 -0.45251252667819802378 -0.13148454925805275195 -0.24787968882431132833 -0.32268862036112055947 -0.089650085103187213131 -0.40324739564717593243 -0.49094250853054810513 -0.48334014314053080907 -0.43644134227427666683 -0.62988218866427281295 -0.27760519907421443708 -0.69459532237851007164 -0.30843465468288189246 -0.35436075256614990581 -0.3057707975581625548 -0.63023789745357461367 -0.86950871532721440982 -0.46661936501057621474 -0.28142689014001359693 -0.39683002634417241516 -0.45982443495602637329 -0.26286289394793438401 -0.053590646902746910674 -0.29633203795752105503 -0.33969839510011506922 -0.45638859057416120146 -0.20473523727507722536 -0.15121209768210722157 -0.5457481333590112893 -0.3531589424702986646 -0.23395066783166656998 -0.5397757123544018043 -0.71041432672256044079 -0.65050098700321412615 -0.65476506013369417669 -0.88952876445744877287;-0.28172506324685259171 -0.49234183997439479041 -0.37867609081046194053 -0.28682543378005120882 -0.28542951095253016325 -0.29461032408585852149 -0.019280005135939415339 -0.29862549017999134859 -0.21503818612201702765 -0.26389285455233363331 0.2274001621733920675 -0.15539536289133815128 -0.20371460459334259085 -0.132247843846646701 -0.15284889894155614942 0.25049742109150435754 -0.15793868755934686865 0.089846744624738544838 0.017232019949175524098 0.21016197782739756694 0.074376424218766612473 -0.0082719361277275253036 0.043060155211766024119 -0.016593193302194539362 0.1337755389119580085 0.32380851557048401235 0.43258499875301248405 0.022371205609276217929 0.27306346584265894784 0.011963669378927189665 0.25562420033001803654 -0.17665452799162378872 0.017552210118431155889 0.043201995914354814066 -0.21823645615151834876 0.072106062450976948774 0.19171078946239003549 0.093301277183471226229 -0.095154521792007867864 -0.17260746940369839364 -0.075230798487694525156 0.036214729177202399646 -0.0091198699407915514992 0.037434526617805150006 -0.14583644368417900128 -0.36211177283649598202 -0.15640978578987843606 -0.18062497159037688155 -0.47455142802250971368 0.18832161709773068137 0.68051613773956776132 0.45596910883888946975 0.16547517565048977528 0.18874017901450251822 -0.10574662875606186119 0.053891419028144593728 -0.32498026921131273337 -0.42346713099969374161 -0.41544942879725910156 -0.087739891546502135622 -0.053870090089047452386 -0.16837252869748300932 -0.20756523685481764741 0.034829338053205510795 -0.19094526165617550784 -0.10064412163431381286 0.16447582464020191195 -0.090690760481600726783 0.28338010684237407988 0.31608741613594198983 0.17627385167428766266 0.22013539004944118749 0.38925030621425882327 0.028142868201514036064 0.11834828183385562306 0.10448831132103328367 0.38426261319617571743 0.24565488484935324442 0.37824418596060943587 0.01643988765181374212 0.20605614261933341558 0.25620091424583274486 0.085586415829777551245 0.20905611785490391119 0.34245803012280495725 0.16281204520024350479 0.18801646085514675533 0.55304753174985576969 0.53417837742870155626 0.5491592114911554301 0.33351524258198345096 0.47614789417303260421 0.20462880695713525636 0.58154100794122309814 0.29825386909538581515 0.28522699704167592261 0.6180862330512487679 0.27324843751019922689;0.14909655914329605908 -0.038094973743145368883 -0.42320370568122939181 -0.21593349565875402662 -0.37085985484473937834 -0.12629001078734330976 -0.15149406493751313429 -0.28682532090263707092 -0.44221477563483202466 -0.17695262893808236249 -0.30841447414174372188 -0.33409451537460377324 -0.23974983032648225501 0.09733751784707833643 0.21859081280092745869 0.09560702341144820815 0.30165986654521637078 0.15888032364373777527 0.29877964239968890503 -0.097706449301357689574 0.34382463811718660951 0.17570470332848800443 0.28992689811343674844 0.19995618087816613428 -0.093353302043397312637 -0.083647574256916698565 0.28074266489902166555 0.21757213473690004135 0.079718895685964741293 0.27407502568469310766 -0.15544824432704279493 0.17258727896860917572 -0.056251996346898619494 0.30321671663418509057 0.13816315453624550269 0.042011758388443093404 0.28600292221311590657 0.081883228474913333228 0.1007041825019539677 -0.046424789564710265688 0.089692782274890206495 -0.11296836442127884681 0.2049500621998376626 -0.19301405597473653142 0.24911366149786931534 0.21615258237889548032 -0.099115742513872215347 -0.060607592590934650234 0.083187705538922226967 -0.65287210256997318947 -0.33398936837893034024 0.27266373124055209853 0.33117657605905514995 0.18097613761608827287 0.10995658907838913587 -0.01447649619385758292 -0.18591179859614309633 0.12053319886577504305 0.3651249072658996897 0.29363153866923352719 -0.11064067043509223653 0.25759880570472032391 -0.19543464402171076277 -0.069248629501528199959 0.097362096984320842252 0.11322135018166008813 -0.071418617928301286746 -0.13621902397086749215 -0.1139211754342275007 0.17111368292896914078 0.29290902704909393961 0.14903436318015400586 -0.037319402551415567504 -0.084793453392950038361 -0.18052878911199521372 -0.088791812952112109114 0.049617335931523676162 0.08126927464613699359 -0.08537711208766643467 0.10329286809711282769 0.03388121916364959102 -0.19920545748731982583 -0.094777330615032184813 0.27355759315103822527 -0.108339445166034401 -0.068755671545116275878 -0.097238874641383116204 0.039614580474599786486 0.041563382530218635769 0.24051627660891022886 0.038979835866352986751 0.12139984534891122558 0.19214389534784109825 0.28891183735668102273 0.1355420742701519965 0.03485850069271287377 0.00093939099723367423551 -0.11987112016147437321;1.7561753881400121724 -0.39564871665713302606 0.23406415083964510204 -0.1128440780071455346 0.37595754062349306945 0.11686881930395544293 -0.31794982141656785712 -0.19032837761183038494 -0.35675410226417186843 -0.15589018413567592991 0.084431388889728495317 -0.21455127931543543918 0.12822015740146952556 0.052012836198038245317 -0.087042518918228367619 0.15572076247067856425 -0.065905898559929773639 0.24925395976614531102 0.35463625821502947622 0.14490400081030455071 0.073349533479249676149 0.042285153507406178508 0.11716888928258289981 -0.097625336070909424224 0.0079558846665349659821 -0.25803347277309174324 -0.39779267211068874976 -0.2799999445053704128 -0.57993946698624632141 -0.147386132774456724 -0.32888947245651356521 -0.17412643752120987584 -0.13296493336353423786 -0.33803235346653004445 -0.10001161992124101008 -0.010031964672801596539 -0.30872246262143737683 0.21932779833345936171 0.19984947646782288966 -0.0042230823666925647319 -0.10715437471906676115 0.38631080040307319567 0.26925407203473733508 -0.061750933330415744282 0.19717285744496179656 0.30958030069913372584 0.13628674194042059153 0.64700143011713262542 0.57770236662254415005 -0.4123398578988531904 0.20858498619731352663 -0.16610327676339406433 0.11749747810777308454 0.11599595482323310502 0.31331949303063921786 0.55391347081755792914 0.60148675288588493437 -0.037720922652214397552 -0.39231767710739717803 -0.16727762665801737541 -0.29357398151737845726 -0.13468002702507322899 0.069587012041250284611 -0.25551682556865845664 0.058341843636012330476 0.19915165068046641883 0.18619482472128434658 0.17435063403659253889 0.12394687793486815208 -0.054001147593085462029 -0.1238809618067387569 0.13218147677431321685 -0.039297571721922525123 0.13046039290333316663 -0.091287854654957339973 0.20743784546993501716 -0.27703590415766682353 0.080097521564343146516 0.15864084119106217075 0.29604421207815240225 -0.18089049766957057686 0.08674792941108451505 0.1285591364490835109 -0.1659200378256489028 -0.066757095499762997282 -0.069889589975764637719 -0.071275253695447474134 0.14955938599401363831 -0.053509632143018973083 0.037180531367769768802 -0.090300666912018059951 0.27305976986217128655 0.20165934462533044447 -0.016501244073856686373 0.55889287497944017957 0.22809177593754828561 0.44207660012145899575 0.078863966150399034127;-2.6987689605955145211 -1.0834138010611857883 -0.55723242927790606061 -0.52166706241329119376 -0.70255002582652803511 -0.11597920079022963624 -0.44999667698566919727 -0.41953765494509381861 -0.1508061149298787762 -0.08381530039953315192 -0.25971848617189408071 -0.2427911296623380677 -0.32937150168212103729 -0.18726502627611255059 0.043548678350342352739 0.17015704403288639535 0.0022087739462230884108 0.2184342988294687149 0.29829582745190780235 0.34649203210168755263 0.025245252072739254867 0.086418752742016310964 0.24859055539125707313 -0.18936989060617392955 -0.084841877464495951688 0.13522805380079758186 -0.11545944261720285373 0.02737370899530160856 0.11542566369340093169 0.16501924706386589259 0.20397623408446385884 0.1479490824643469038 0.5146134528502704919 0.27843656226533702869 0.13412927339655450476 0.034570506917747413633 0.32130310079545587598 0.0692777548479715094 -0.06145639070545657473 0.083575405545263312113 -0.036414074689117725825 -0.19397541811761137565 -0.1505916361500856393 -0.17288147642327811315 0.052920633134345196336 -0.19972991903979694928 -0.050861081754549536393 0.11572184248604822088 0.024826380279175077476 -1.7349023839127684088 0.2091150028868259958 0.48184846227880112624 -0.15431637880587506517 -0.027130687814921720935 -0.092662137159399179942 0.2441100592376360956 0.47964703953546794502 0.32451944785994912834 0.29493240283544569502 -0.10831062678774393271 0.066817551848259465475 0.10481810151959081168 0.0697074317920033798 0.13660724411184146931 -0.084528197422786263693 0.23929583147551899969 0.26444445595115395609 0.66228007121373222432 0.57899430688156094948 0.18441310897565399429 0.24723312323722096417 0.074550869691196203215 0.14807531452800892779 0.11536230424110564818 0.18271999932349233808 0.032963654707596226623 -0.057812992129555519638 0.11737773582075894385 0.22929658919313963827 -0.0034100865486182590017 0.057633152321268782403 0.39041643042328288971 0.21214394313788123569 0.42843697495047899926 0.30515051556047995129 0.38210536732139577243 0.20291102823216244921 0.042822081776233068828 0.091002461414977836585 -0.012719352597487878359 -0.22577521863247865253 -0.21383070057553385523 -0.15643433693570357734 -0.34600255813477137634 -0.39392709382436646992 -0.46513228278150525741 -0.50918945475213261975 -0.33327211632747782977;-0.74626927778528306945 0.48541553416682209354 0.22468083460799387341 0.10525463440196784759 0.13833674258135902901 0.13960986905815572778 0.13580587053739109904 -0.25561368618476831838 -0.30853133288889506014 -0.066303650141976450128 -0.065709244660134460969 -0.22306922926070735236 0.22242196963453056413 0.035498940938842329929 -0.041300670095323913089 -0.16061535054382974907 -0.10458130327570001883 -0.26798121208343583799 0.10459782125105993034 0.068851303136106697944 -0.12596098130705077334 -0.1314342831159345526 -0.072960868349528903987 0.026646004858785127256 -0.28247017732463458595 -0.17347686496711697823 0.063533347144902996284 0.0061131964706473895452 -0.21305189335167523668 0.00041481490378206860997 -0.15802388500876463073 0.096097927079314068854 -0.17328129321847413058 -0.039257188279710503176 -0.12527232141345107097 0.15632348673968254893 0.13108985520392202329 -0.12317122178759269679 0.17251870817051750961 0.27294159613153146093 0.16014904362809023741 -0.1531450840858031015 0.099303430427289174354 0.13701031859531057067 -0.17287869817217602075 -0.066729811605448510758 0.17908099537450616889 -0.083198420506518655504 0.026218352949122433748 -0.084201384808900520129 -0.26039322641888917875 0.12826825824554957678 -0.12034953433815773205 0.032592038219816571454 -0.09878073684986832248 0.35841406336568587543 0.028008798145778446287 -0.030305965428772039388 0.045464645532334757583 0.1883002092056644261 -0.13283789745675872451 0.36035290178972273489 -0.037760983935240924336 -0.13962245661574740341 -0.23805391223851390947 0.1713559267038250733 -0.17610569585673749304 -0.044408958769711487369 -0.31467367966074544228 0.13889931200708624526 -0.05000313623158002263 0.13112114222271445407 -0.10776387269959437909 0.17497002605030054223 0.10332997133709033444 0.019365228027713527609 -0.10095433814146730078 -0.015036365634376151756 -0.053642915181530012592 0.063791507471087180448 -0.10452047816088484711 0.17810464564824216027 -0.19103456917370187362 -0.027801722428994340985 -0.18560723327981987207 -0.010606870087148046605 -0.086649296146636425875 -0.074678937255326691136 -0.20273981073585611856 0.1477784866817370979 0.25658221942707631902 0.12177828573022173031 0.33401562567582482322 0.35197050973684707031 0.11306145794266810045 0.44586379910693396678 0.5135594209757727846 0.14353695369312483021;0.31378866825549395214 -0.09017308339328383715 0.0049227459562716270602 -0.2746875972767088836 -0.1652315428970198008 0.13460029834093767409 -0.0053798189881589797423 0.16558041785831933979 0.037327190277104849159 0.0032700645222891676876 -0.15914407967289426193 -0.3074512229926728013 0.023494626720641849371 0.10846204751975864478 0.10594493195282492226 0.1428260616812509487 -0.096966466321919200788 0.31324762799657945855 -0.0026528065534953569268 -0.039764076755418868714 0.30055527900123257812 0.0056339800925987075855 0.021893368607607155418 -0.21407624512613693257 0.15412279413904811376 0.11431641289035938958 -0.16175242288907995536 0.10665589748750071986 0.057830674079059736503 -0.060512233880574625711 0.061723638915381455472 0.014383086197745158577 -0.12035446325804316503 0.12938042660957252417 0.14604627759525204422 0.34509857229277307589 -0.042686296898679407241 0.22572663338146445322 -0.04300488369616103923 0.20714598393105318475 0.13597123683534020899 0.21720900231630305144 0.12308826267186430414 -0.18225667054935590361 0.17370657682514215048 -0.19715645554722174837 -0.11502585863633760233 0.12449112573845028118 -0.29828001035225776283 -0.48329498315339580738 0.3456480519385386474 0.09030179105336398615 0.59032906664139550568 0.25518527442708721642 0.10496058686160579521 -0.35768089664784696868 -0.17589875782104602564 0.020572276014432275271 -0.0064574329831570183996 -0.09201532230618117425 0.059636258548251830369 -0.066474737693636737346 -0.2926114100902879045 -0.044696861640771419488 -0.0081881648787161427638 0.13109772029720856423 0.092463485282588242509 0.13131588018388140604 -0.14404823141722641888 0.02422103059532150493 0.016972692651835784294 -0.20794258420362360384 -0.10670774365152520258 -0.088382026569675808947 0.12794193606357878723 0.037134893011464643886 -0.24178918275638977553 0.054913912421619005821 -0.21653943500515551723 0.052046821178291437227 -0.27824470761862141188 0.1589952090427004805 0.23361188172335442537 0.12490241324522080579 0.4093341250694145228 0.027210322821354222811 0.12416425115990166461 -0.057693115486797147407 0.037345542783143538534 0.059121055673450044476 -0.125584169870379736 -0.15883132833357477276 -0.13272989297500298322 -0.020407375951062449448 0.057922090414362366328 0.39382198434941040333 0.09648017492706532916 0.10050808085387744062;-0.79060066710695520165 1.2591601177813926959 0.91518296045913416492 0.78950462273653887468 0.53231220125857103831 0.57505152999793274216 0.29206853874057464582 0.04236013274602424411 -0.02143744463861131655 -0.099054596137041206472 0.23098769628579540747 -0.058968689589229801584 0.21700045463584319294 0.076580732995486594517 0.25938561604029647389 0.0027883225586233396226 -0.11730590912141952709 0.14525580918995770197 0.17995353278288236942 0.15168420547879388205 -0.17745787316667938072 -0.37839818408936259919 0.068267461499617584919 -0.29060036584400522619 -0.11002839071432501949 -0.28072561384705752019 -0.20074531826625929831 0.023320974996906378152 -0.075395336560194897713 0.07877445619843007063 -0.065841351599956576823 -0.20178825101994052327 0.040336063201151947655 0.023718382867167837197 0.0037205484362359923789 -0.19781741677013561787 0.18278583620882860039 -0.0039886488682382929133 -0.14059102304267168115 0.10832484849336657118 0.12063146869326117627 0.055520275200095378643 0.35562644068449722479 0.083349293648475680785 -0.035574191657636436426 0.43533763679756271037 0.099665465288766963425 0.23690724658745149211 0.39335480736577810301 2.0171196642725508497 0.17496515727619832425 -0.28363188523874166558 -0.11173469964583787606 -0.38453100084191127461 -0.29907202716852832047 -0.090635124957748475216 -0.2531992304577787567 -0.0073209023113458586082 -0.20870412680501299052 -0.13062026826103670385 0.017164239996645212077 -0.051962027743735816898 -0.28370309422983330805 -0.51497834231514161285 -0.56219212264628515285 -0.31803780117140861838 -0.5886555900043237699 -0.31227074870712601129 -0.37057725429316085153 -0.1508753828973318778 -0.19298386794539737488 -0.14985330604432933743 0.019980770099082334479 -0.015181528725671807056 -0.13190073517741532361 -0.079565561769070272669 -0.029362721410056847465 -0.1684356108212133607 -0.078338484184894238704 -0.36641171770478675462 -0.089710849813884746551 -0.14279143325815088494 -0.51488879005995669136 -0.19223046347782876686 -0.33490832277696569452 -0.37915499125100460276 0.0011430105007912069737 -0.29803282941049447086 0.23061793532630844861 -0.033242078500396690655 0.3707764829980966792 0.091960398857244690651 0.22574370233978618971 0.34146612088630134973 0.65887473399433804655 0.68416715593857269084 0.51954668248968938205 0.7180850946238244159;0.21450715136683601303 0.11949838677353147309 0.059616724614251034864 0.09691586745164092187 0.15288099298045523811 0.2733522957457177327 0.12681549296878941169 0.083867120879922082977 0.014599952028793015957 0.29041400002215556064 -0.18788948817932757396 0.21605373957110451943 0.057599510191234014334 0.11078837448245325292 0.39732399284409719575 0.017230764495814114567 0.15925346701685658135 0.27386295400772941999 0.1495418144201715871 0.17878890783759776584 -0.031076531208876784912 0.083000501392252706845 0.25295325624981962465 -0.0119052587282355328 0.20655265125936275727 0.054543154178523706177 0.21296612562978137206 -0.10704934590351934676 0.21469224742129630612 0.14923659081374290869 -0.018780696367278144898 0.039373762103207511631 0.2409960545319171088 -6.3709909350183867045e-05 -0.17486893835330730163 -0.32288265232446328179 0.11243712636155699103 -0.059823477054380347351 -0.18060706687011612859 -0.3652101787733411653 -0.24426447204504161959 -0.41873636063583968836 -0.14589812363483248281 -0.21992105159938479808 -0.018583990243777073065 -0.15741641365798952901 -0.22114655047374690011 -0.33816443620421460237 -0.57027973243960872196 -0.33358739776472134952 -0.14857630111003095053 -0.002298454545083311075 0.064220051875486822146 -0.13102096418703845782 0.11297522384436001208 -0.070686578470549960018 -0.10580708681818609684 -0.078999615409002021948 -0.023572651789960652469 -0.00080246903616371448309 0.16768682219028202551 0.013969433160901177648 0.065248587204062610811 0.019295356619800863029 -0.13860422941950101272 0.14816588121633195163 0.059675695798923809876 0.26788366856785295056 0.0069004104543601146871 0.050790532864468974916 0.1182935610496878287 0.035288882432111569332 0.32272875277591678289 0.039939836634246210501 0.14445689346636986228 -0.024968482832161315726 0.072105375264926052647 -0.062300883247363436634 0.26905951471074995851 0.046538053091939882155 -0.087116978505843864489 -0.12092632174902216702 -0.10639607123080263573 0.022366772390499632672 0.33456316525799584261 -0.1407293229479479324 -0.15713390673251542706 0.19476820265075459049 0.19217758685084523895 -0.065243822740956802786 -0.070585517799684860396 -0.25593165721126187595 0.0018729913898439583958 0.024648166781450646379 -0.14797015863019780113 -0.078859930758774343662 -0.29331705859513512724 0.013100726034488724414;0.067370361622663202383 0.2742683468304960015 -0.038858607710754118625 -0.17492497976231677348 0.0064126333583971123833 -0.11696379707726989317 -0.10130785166490757776 -0.1118901912209373517 -0.0090408721546495381116 -0.21365809046406772365 0.030398004859659044641 0.023394835215515517868 -0.17092116145511085379 0.16593637381313694479 0.012966994194930398995 0.014968288971483232133 -0.21660963178343839441 -0.28684001028340205819 0.088993201944914279711 -0.056870616560154609032 0.10219970549921411629 -0.11340363250224934355 0.18084782073915439682 0.18644700688006859979 -0.072618107474886159358 -0.21295282622817310325 -0.107681252991138246 0.020811662813892881779 0.076137566955516822187 0.010169457881167336816 -0.10274386098305424153 -0.01500110613832359753 -0.24336793588344823869 -0.1649415568667772225 0.21779893039798703391 0.026490057407014426516 0.29968221329654509688 0.23624004560584541124 0.06372223533572859977 -0.14764338425071649175 -0.021860525242958527004 -0.052407823938563816157 0.35860532825003699209 0.22165318761677649251 0.55117875464841181721 0.1663512168355706089 0.27925150343302757028 0.47997437369026374476 0.24095381990414957429 -0.24533400048514217295 -0.25722922548423843292 0.043949898408944088057 -0.055502855453193299107 0.038063912555391023196 -0.13226939025693321139 -0.045458948817765187922 0.24830816672600916628 -0.001270815585278308249 0.24853300882052362097 0.25512955755333999175 -0.018008111268802733801 -0.1104949434891983745 0.312488186653828659 0.05865841694592863198 -0.063232012832830378213 0.16943329292748432469 -0.14319550336577308025 -0.040781066206520097395 -0.098916291811300363634 0.047800424437258279275 -0.021631256991737280587 0.20493052953004775585 0.20314527793542272449 -0.09376194665008061313 -0.032138371568820482682 -0.16823575304566290578 0.11408694944994268727 -0.0069215920433015670418 0.16124733961560810958 0.19202620099741621318 -0.20666164387129562496 0.084905888527917153241 0.20428061920630352644 0.10251008580781731383 0.10599446996494778228 -0.010279862572008255719 0.23964205100746208132 -0.11693817532752784349 -0.044980626291177050469 -0.10146715775066617038 0.11403265362714054554 -0.097817114450303985218 0.27872102138721821518 -0.024954833488072751535 0.046035172776760821534 -0.15382355949966483588 -0.13297287108421732005 -0.11207905946258835128;3.1835474648616535198 0.096558575604272472992 0.5896847669305088635 0.38057972596887079675 0.75774847529086752917 0.42485939171763548172 0.33730802382358088254 -0.11203677063060837882 0.069564843343076665505 -0.28996498779159368686 0.055529698605608412976 -0.040864702703841862541 -0.041080729169506335907 -0.21608424840918322163 -0.4108749740255815408 0.072340733121110320503 -0.37166018726232552538 -0.20390821457611357781 -0.083819021100266025148 -0.29523905198819211382 -0.013114678208809203708 -0.25407468315122788693 -0.26522950343317630573 -0.05901840485212699744 0.14105334439145864045 -0.19172964268588213455 -0.088181908003969869392 -0.17434906123673629685 -0.15354351145090575081 -0.13363899284074676199 -0.34338760073800989048 -0.19249829809364721322 -0.21737478233935980665 -0.16930026206149359491 -0.063226133449188912095 0.16790147786841602695 -0.11595152779336505289 -0.20269838045405530469 0.0008963412836866160166 0.19004537131303084196 0.28287467881784728041 0.083213000857041211078 0.21103397067239718088 0.4077200395332825078 0.11248685833824592639 0.037398685122266933645 0.28784579254743697385 0.077083876505363801979 0.028853927912431198005 0.26338747339748547205 -0.38383554044707340891 -0.43842471936944682476 -0.11697573334665407885 -0.10058724992803136367 -0.053260870325084030963 0.016304675154939600457 0.34960743583024311842 0.30958639835511592153 0.28274620483845758212 -0.027474892050457857401 0.12942397288742635286 -0.0013717173246752239341 -0.056729989753125362184 -0.18202981554928920893 0.25778624953442541567 0.0089554632680278623696 -0.18046365154499993677 -0.0034422489584182780833 0.10202963881676355151 -0.20959136442261741551 0.12145334901270778138 0.19043542112464398319 0.001552682650191582539 -0.080084271970318962608 0.23560635166046389743 -0.1682568736409056076 0.086732840232297075955 -0.23965903153431564188 -0.29743197608325733228 -0.33092026012484748732 -0.24755763205281999806 -0.31035636636064356519 -0.11589397865368646079 -0.2019086000756917243 -0.44791060991409026304 -0.038167286616467101246 -0.094690937896821494868 -0.31966873112864696571 0.19722942882739874504 0.037268538638706223687 0.12369294793505600238 -0.11515641689910803558 0.034255183896744950678 0.21990667101693925356 0.20579685982966750002 0.1342072690656820888 0.3233052562336262703 0.56100410920230292522;-0.48514592257638844419 -0.28492396706593270395 -0.21112364909156000614 -0.15663279240696936778 -0.086027860231325872786 -0.12312148871505276815 -0.24010533753815238578 -0.28577098726592753408 -0.095791833422165809098 -0.23587829823469241841 -0.045775693380589045633 0.13017184894383468374 -0.23626219763065092749 -0.0026078609070273543052 -0.065828530367944448898 -0.059666580390739007433 -0.09288808640104302683 -0.012161844179521095685 0.088275516877757614909 0.012916078159614078139 0.018698356102172571797 -0.15284449069008052002 0.12800525701266185497 0.2396090313086733925 0.31864122478527373561 -0.11054565138278184266 -0.09991239155944703354 -0.10206503560194869762 -0.13587874825340934271 -0.057558931425879159005 -0.010095649951780501577 0.23270646828732000078 -0.17260907599241964716 -0.17531334421982083804 -0.21132042763544692243 -0.059402330670934276602 -0.069448108047468704029 -0.085310933476858502589 0.082148543868321918793 0.14853160630863690428 0.18966036154956539272 0.15432851633729799401 -0.026150613523802379579 0.17410029390672687732 -0.10029753060075524695 0.049093456261838190613 -0.12975289700528361281 0.054048788793005904385 0.10514318034493171095 0.67196780770405850625 0.31181812559823385289 0.043691289722534720763 -0.1000857703711557356 0.15790466237984449038 0.31608162688561147746 -0.11846218445311884615 -0.096592058787994899971 0.0039135067131525558617 -0.069478701672346765417 -0.040081333826786448571 0.081424919597687689388 -0.2679454416117414417 -0.22628497309335027232 -0.081614434418946030236 0.17693166766738296913 -0.23614240489736901263 0.10556644270490546378 -0.044866409777488833188 -0.0085589375281735127071 0.19041480823858245031 0.033509088801630115828 0.089979356475118468794 0.15116033361915115485 0.18247296172322263752 0.24514262685433388378 0.041514554674237931498 0.20962338932754343013 0.41521030974356987198 0.21617555121632028858 0.45783030191541057574 0.38208111308207365342 -0.010486428828272678637 0.47230138862117065912 -0.02637021578894858248 0.1151098178526912541 0.10149228987596330132 0.40609073827274788648 0.03647435513781190769 0.52932454507005510802 0.2821101264712779777 0.32742494912605751844 0.38171421365639918166 0.52204686935847355311 0.62459457622675962352 0.63284813030159070557 0.54368757205434536939 0.46208674243564795692 0.60028516597954484357;1.4175005742290593957 0.18449422114526684013 0.24382965216805679853 0.023275512550770066644 -0.23951665542933264774 -0.34935253980019675968 -0.35683930111587425227 -0.33491654601095294241 -0.37280290124588066902 -0.31263154822897298857 -0.20374949946224088504 0.22510660179173752615 -0.0011240219930559675401 0.040237866217152001846 0.12752630752809845927 0.38603201696384947805 0.010603389164789414276 -0.025872928496039573898 0.24153051639827100017 0.34956870553282265446 0.24461707191905263103 0.34602531894930693701 0.25655878332288001298 0.0027799141960134976168 -0.036068419703632483009 -0.096527566899360525698 0.22498105971589019147 0.12893996646342892332 -0.12820275407002931778 -0.027978098538810308726 0.023210881171934885647 0.11707872036598415688 -0.031513705916281463393 -0.23590406224750490316 0.2299841876980173172 -0.10365973219866231325 0.025941693498135146023 -0.071784872407775202063 -0.20360654637754171947 0.15637326750516947205 0.12652128207947610505 0.15732043171222062639 -0.1015542557779491456 0.14078139992839627803 0.05839841885018813572 0.055105847960998988189 0.15241206839574483745 -0.075595908971416436728 0.091047717161293298394 1.2116665137494262439 -0.21069726362488988558 -0.84201152297447467987 -0.35104875357724296681 -0.44351984226277191281 -0.0709110535398126407 -0.0044279602918221444563 -0.090215106878299977655 0.35989937545778949435 -0.021544842728336687648 -0.0017357429518504606178 0.15749889868218433508 -0.17903560540732182949 -0.060625306368300595217 0.29858767317246154294 0.18511183040432749314 0.10386366350554011861 -0.24056110599773322667 0.094310735919074267786 -0.12056864328479782733 -0.34323478964502340816 -0.11452345487286375025 -0.080716225931341797906 0.18799824188760641541 0.13746458100981107098 0.26532322746026637539 -0.078039888732382989289 0.027494483770512730125 0.20223060620371516305 0.23415965259567658729 0.15204902136315701089 0.19053779932862502378 -0.025969917733166928558 0.11057134208824939692 -0.111530295954857403 -0.3513914910470784525 -0.21500670453958642403 -0.37518851336595526735 -0.25708159744334241337 -0.16696645984834906917 0.085125094071260537509 -0.030512101329458647669 -0.19013922153291973327 -0.23242357371820918099 -0.22118107885518117905 -0.055946682460235021284 0.31399583287592514047 0.28078851652928121796 0.22655158958082097231;-0.56274256725484039787 -1.4659939826515793193 -1.2395971873101701011 -0.39138984412261296209 -0.25806414112728354171 -0.35056235803352009395 0.12348192968716453777 -0.25855569225192631677 -0.1817802721647272246 0.13875216058825334819 0.16781363063636703381 0.0021888146423552782074 -0.10371932115066795355 0.088013992552532616109 -0.1785269699296425927 0.20132287054846192964 0.11049369160607848406 0.028285263825208170618 0.20300607087948946416 -0.11474609668264934559 0.041980427282160517888 -0.36435286900321484094 -0.35943377766838058296 -0.3534553086115375109 -0.22158654836574256941 -0.37509293616431821361 -0.48377760758374122041 -0.48516708062374713784 -0.12370321215072263565 0.0037179785008941822894 -0.12602025556219820235 -0.22629297665989700494 -0.21492545891112721512 0.23235924965160598132 0.1602729661214002399 -0.28857996925415252409 -0.22244530055187816675 -0.047652940748901362333 -0.2718736034601982321 -0.18163635824094084836 -0.054133696102574117848 -0.23917601032948246353 0.031858188222028786807 0.15508326912488587523 0.039577915564207699628 -0.12773466925722271048 -0.060390845332749507057 0.22458058348022391648 0.057113685475080215592 -0.66175616346599908102 0.41918194731750485493 0.43205411329853027347 0.47569061416869157233 0.25702919744558488935 0.2943691828091760665 0.23968724119968609632 0.34749792814682833875 0.25159602812928222315 -0.006665155068790216443 0.17668217189280824297 -0.006048287026324193974 -0.079166553611513118538 -0.081171215359160150959 -0.013707741265734190578 -0.0069425402637364949654 0.044343258056229545305 -0.12861743243758874677 0.1400043843475662908 -0.075949169813804062734 -0.30632892060694233427 -0.18365928174985593491 0.13158170375930761109 0.067283826453259157341 0.058350117724352265625 -0.071754848589895961486 -0.066316212362284729376 0.043952223094886395949 0.27785143035244258547 -0.11171515373816684469 0.011708756657093144504 -0.0066694847811950000102 0.22494786290589727229 0.30485420126414020103 0.0020883161595902869495 -0.019579473038274092245 0.21029374069464901176 0.35280419229002202286 0.067051145303699571931 -0.0085791950202527330477 -0.0041357294244334982108 0.033881450358542029855 0.061313510229132318907 0.17764816305990549505 0.15625177274027202134 -0.21122901595755122495 0.030544506672744737436 -0.35298451258790441987 -0.21945214887536065862;0.42849141855934202994 0.13669469191598723756 -0.16849945606204588811 0.14611071085038365713 0.046925267198076096864 -0.21083273848340067236 0.018819295030707783312 -0.060467284815648517093 0.090251690194611849938 0.301827573437428609 0.2602516732657028653 -0.057567108721743615041 0.23672207638488843018 0.056009748087947605621 0.34719249373073857168 0.27522521713584446879 0.31667643509080678488 0.068888788016614660448 0.30671312486686896914 0.35828552037942690278 0.12141789345211233264 0.1622277987174246261 0.25917651194383828361 -0.15276959782864116266 -0.1954572503411040052 -0.09569738959775635212 0.12003828153697390646 0.11933026996309431533 -0.045484228066418760927 0.15179643674329523773 0.1050486943463679046 -0.16772048072994935608 -0.10760602023929168036 -0.2699233658632744226 0.0045326983671079837043 -0.18220514673264373573 -0.13368465963395720353 -0.035966290234906314605 -0.16868024144549881305 -0.2433781045460162995 -0.19068127923614150432 -0.10103879066774465456 -0.13944292226939117296 -0.44382225210573533758 -0.0044788984382392827907 -0.30097408124925606465 0.02820441840696296526 -0.27248983727699693791 -0.10618884352547763861 -0.60028463043911539643 -1.3061203432395123158 -0.7014732717051023192 -0.56409845439685557533 -0.51866019665043971987 -0.096041494629512128012 -0.17312269437792493498 -0.13090074007383936672 -0.045170578118812032553 -0.12840256524640936142 -0.16578224256317353191 0.14336672620980842052 -0.2208040067045199395 -0.19433437543396625546 -0.0019550445765891366449 0.13523722108547783782 -0.12122666271943566274 0.21827947002404168853 0.18830058156860174368 0.078177779088678525654 -0.18749018334861958235 -0.20147026243358129305 -0.054597094213028170284 -0.12958039497161891185 -0.17807878992177034183 -0.1189793974838659063 -0.13285031248829454187 -0.11073146874126334194 -0.029656446019615881338 0.044140558373560206951 -0.19172526507957310393 0.20182806229973215828 0.0056194574488294731646 0.036941398403503855619 -0.015736349236308087851 0.27065621782068127743 -0.040572432515253581409 0.058168923765104393886 0.1455642280529124144 -0.00054455777957848898636 0.025625181417704444298 0.036350089457879632138 -0.06935866426098116766 0.20604990761946936906 0.16725413141318842825 -0.29011697760169447013 -0.18546718064637318646 -0.13457749354107789719 -0.35321797759184997423;-0.11920478702474411603 -0.26378169178082722102 -0.19875369876002652036 0.028310987716942750958 -0.36140513844034427571 0.052488127980524032501 -0.038804607688139675092 -0.28575103834346665677 -0.0458772108620827887 0.12321308662125478317 0.050072392298273461775 0.17070686902811491037 -0.0035586906052117849714 -0.19781751551759843566 -0.0089504121582292452824 0.139736733669001717 0.092173275434597648492 0.047278905930733076957 -0.16089250537930044338 -0.16775945240203427034 0.26357886400370883484 0.021601526278278923576 -0.18978011786621112877 -0.046252571788510637996 0.080664231612582404374 0.012587061303162484782 0.26421805757917271595 -0.15480483070479825192 0.19583593105320507011 0.17130100385258292817 0.032245816890249683062 -0.16378004258676046034 0.15942272625436890165 0.15210455190059929409 0.18106308914737739846 0.068315197788845746785 0.13259737512093855427 0.17568750699576460295 0.095283565299496691958 -0.084788614205519002853 -0.11440321753997166609 0.21100099637089539395 -0.040097367642489119277 -0.11338524654640584621 0.038390167587015501527 0.11479654958285444299 -0.15525004744680498403 0.085190315428580673518 -0.00045838633451585585055 -0.31236677155672665229 -0.29675700712931618597 -0.18180204435330943324 -0.12824065138709372924 0.036458444314214376314 0.17972209394435598173 0.017213485345407345678 -0.15762504331155249848 0.015798717033316592856 -0.0026413646138386120965 -0.12938973555490401735 -0.14154207690191414337 -0.0075300919742362585479 -0.065283202088870076474 0.03840921487060754147 -0.060436312755843026034 -0.22375082908572818674 0.12664130122501532361 -0.15676268330310191845 0.17410020593937336475 -0.20774346552024738899 -0.15821535501650718647 -0.13583357181317309847 0.17649902350875859569 0.16575641080782099746 -0.25451044268830019801 0.10561373617731478758 -0.057951828607370366175 0.067160449945482411649 -0.28455367280781695971 -0.14938412479861556958 0.19892730946613040866 -0.15057919088580534739 0.095962744636746241667 -0.26618744091293511378 -0.18802135570991793112 0.10022490546429782543 0.091100992828361537779 -0.061756464167457343628 -0.26584458246086195565 0.17344385158978875561 -0.12306741914171800967 0.22102205714423162064 -0.2932638154744551251 -0.24016966902351150059 -0.11369602469262904409 0.021778547615561416606 -0.22604183015373202625 0.078714897048334786511;-0.55953365538999311202 -0.35406995967562454597 -0.50604661103787340615 -0.64571432326907207688 -0.69653869153663416913 -0.69809676786967167494 -0.37877386773728960456 -0.20633889897139454095 -0.19568838009693426128 -0.55197346760165066915 -0.3104260539466140445 -0.30540746757215375684 -0.42394914740011269139 -0.14705032347689622751 -0.010500570431098508323 -0.057082120776341699342 -0.13709055756422736105 0.076309815438761446904 -0.15664915471401907876 0.16239020170353457573 0.14313869286544703141 -0.15093743937470069372 -0.083824380532000378197 0.10776365115351145552 0.0051692676421918274526 0.24799580167242613049 0.38029736733646635205 0.18777805042381667811 0.023496929859300699772 0.42002339699954843732 0.036344024005485107975 0.10958571513162790323 0.20255166278352634834 0.53528607243545844874 0.089980130900290389295 0.17463697400723077191 0.22777047457189594781 0.58505821394488322085 0.33346383093279768906 0.48326802444221755861 0.66728762334359281727 0.82556347199673063564 0.45698139248351987707 0.86880400299528393049 0.46211088603033734223 0.58653878838534634355 0.64474345853202208456 0.81845409777285749175 1.0663344585300238432 -0.77591515793237342269 -0.20412499554658697365 -0.11955635211512979921 -0.38525828791500882353 -0.19006880229319514375 -0.077596697494416499996 -0.22422702896298632447 0.028106447424884786757 -0.065349021507416421573 -0.1057921043620749374 -0.10709276689383977199 -0.11581082774545120584 0.10011179059653155243 0.052536763010692925924 0.10740397249167531191 -0.10139279627408398499 -0.34666851546344656931 -0.088989033390808380819 -0.14610486208793463381 -0.37188974954142978158 -0.23033952025179685319 -0.22251901306000629321 -0.25944659735178282611 -0.26997411127707515721 -0.15703795152063301788 0.0311023444452447409 -0.020401136666217310756 0.019135831319202954715 -0.0051178238659073307243 -0.11661019392549469564 0.18054186661237967004 0.10436457811483787483 -0.27469306320271263955 -0.097958193947492763765 -0.25338310715060097245 -0.11813611544506606721 -0.055962454077367662642 -0.19891975235523740029 0.1710787243353716347 0.11034487561623160246 -0.051000579577948693122 0.069033540862159320506 0.14101183982548759488 0.37944654195312665923 0.065147804285520152789 0.066246833006812583244 0.34701740016453119786 0.14895067453567936711 0.13473459873305565493];

% Layer 2
b2 = [-0.20320279032822335941;1.1216331494012070635;-0.43907942179421360906;1.037406330349556205];
LW2_1 = [0.1226419412597833658 0.82919442781309826707 0.12609540869699581433 1.6097620734592967828 -0.37468980795342721191 1.0211407711443161173 -0.52531352881592396908 -0.14360566158684393012 0.38014914171665792342 -0.56683455919838454662 -0.14659437771466923839 -1.2598082081356758444 -0.77181179083248130368 -0.33630067322773971039 0.34316035584944304393 -0.21219218505149189946 -0.026544397378510498076 0.94706507293147823567 -0.083900870173102659599 -0.1399431884230660228;-2.1339810758707460359 -1.9741534457622973431 -1.3634745002003632042 0.30456926163897773963 -0.004802709429688339221 1.2233549862160193467 -1.6414936244962450296 3.91921361747046193 0.86633012931998076844 -1.3477321713177161655 3.6543375247065510436 -0.18278647407762441124 -0.08371051447633587328 -4.2014111292894149585 -0.15194073763399670862 -2.3493402015199835731 -1.799430634858038891 0.65685725313546472481 1.6517586432096544868 0.48775441928216545229;0.22895123888305707327 -0.89595828957573986351 -1.6918157028637297312 1.271914102399104074 1.5431955687676537359 0.72922411687919619361 -1.4741867028529893613 -0.29571215844354081792 -0.68310464807579174273 0.7857053214015742304 -0.64640466558057663171 0.39089259529223607803 1.2184874931372708939 0.27293402600678495773 -1.0837902455707495442 -1.2035273635819077054 1.4049015927039902873 0.17872141645373532115 -0.62102608411213755524 0.49124544066284248078;0.32551613112583444032 -0.44765217720616568009 -0.59380559655696818488 -1.8440407951549140364 1.0639900051252597635 -0.1553962692664719869 0.61554906662276676066 -0.15080205782561026395 -0.6749350133656811801 -0.085637990837287278345 -0.14973059635218177732 1.1727655251593314123 -0.21735638624842518185 0.19576510744285086085 -1.0169689765410090398 -0.10547840833982882747 -0.57765796718458450876 -1.4334452890477589193 0.28230287393566400045 -1.9076374091237702224];

% Output 1
y1_step1.ymin = -1;
y1_step1.gain = [2.00087110188028;2.00518320445287;2.0031561944056;2.00250526511533];
y1_step1.xoffset = [8.81941434118794e-05;0.000352432056340057;0.000245930698326013;0.000908227895756286];

% ===== SIMULATION ========

% Format Input Arguments
isCellX = iscell(X);
if ~isCellX
    X = {X};
end

% Dimensions
TS = size(X,2); % timesteps
if ~isempty(X)
    Q = size(X{1},2); % samples/series
else
    Q = 0;
end

% Allocate Outputs
Y = cell(1,TS);

% Time loop
for ts=1:TS
    
    % Input 1
    temp = removeconstantrows_apply(X{1,ts},x1_step1);
    Xp1 = mapminmax_apply(temp,x1_step2);
    
    % Layer 1
    a1 = tansig_apply(repmat(b1,1,Q) + IW1_1*Xp1);
    
    % Layer 2
    a2 = repmat(b2,1,Q) + LW2_1*a1;
    
    % Output 1
    Y{1,ts} = mapminmax_reverse(a2,y1_step1);
end

% Final Delay States
Xf = cell(1,0);
Af = cell(2,0);

% Format Output Arguments
if ~isCellX
    Y = cell2mat(Y);
end
end

% ===== MODULE FUNCTIONS ========

% Map Minimum and Maximum Input Processing Function
function y = mapminmax_apply(x,settings)
y = bsxfun(@minus,x,settings.xoffset);
y = bsxfun(@times,y,settings.gain);
y = bsxfun(@plus,y,settings.ymin);
end

% Remove Constants Input Processing Function
function y = removeconstantrows_apply(x,settings)
y = x(settings.keep,:);
end

% Sigmoid Symmetric Transfer Function
function a = tansig_apply(n,~)
a = 2 ./ (1 + exp(-2*n)) - 1;
end

% Map Minimum and Maximum Output Reverse-Processing Function
function x = mapminmax_reverse(y,settings)
x = bsxfun(@minus,y,settings.ymin);
x = bsxfun(@rdivide,x,settings.gain);
x = bsxfun(@plus,x,settings.xoffset);
end
