function [Y,Xf,Af] = myNeuralNetworkFunction_test10(X,~,~)
%MYNEURALNETWORKFUNCTION neural network simulation function.
%
% Generated by Neural Network Toolbox function genFunction, 20-Jan-2019 16:03:54.
%
% [Y] = myNeuralNetworkFunction(X,~,~) takes these arguments:
%
%   X = 1xTS cell, 1 inputs over TS timesteps
%   Each X{1,ts} = 100xQ matrix, input #1 at timestep ts.
%
% and returns:
%   Y = 1xTS cell of 1 outputs over TS timesteps.
%   Each Y{1,ts} = 4xQ matrix, output #1 at timestep ts.
%
% where Q is number of samples (or series) and TS is the number of timesteps.

%#ok<*RPMT0>

% ===== NEURAL NETWORK CONSTANTS =====

% Input 1
x1_step1.keep = [2 3 4 5 6 7 8 9 10 11 12 13 14 15 16 17 18 19 20 21 22 23 24 25 26 27 28 29 30 31 32 33 34 35 36 37 38 39 40 41 42 43 44 45 46 47 48 49 50 52 53 54 55 56 57 58 59 60 61 62 63 64 65 66 67 68 69 70 71 72 73 74 75 76 77 78 79 80 81 82 83 84 85 86 87 88 89 90 91 92 93 94 95 96 97 98 99 100];
x1_step2.xoffset = [0.00727920817219614;0.0145694797620607;0.0218536141088859;0.0291309645946532;0.0364015169000395;0.0436652777531397;0.0509222534287309;0.0581724503819435;0.0654158747191711;0.0726525330035946;0.0798824315179461;0.087105576153425;0.0943219738277359;0.101531630659728;0.108734552462346;0.115930745975167;0.123120217516455;0.130302973424735;0.137479019919677;0.14464836276853;0.151811008667995;0.158966963889372;0.166116234566739;0.173258827036613;0.180394747818327;0.187524002942002;0.194646598084233;0.201762539936945;0.208871834851432;0.215974488965662;0.223070508171246;0.230159898842137;0.237242667238933;0.244318819573692;0.251388361912511;0.258451300540965;0.265507641556391;0.272557391235276;0.27960055552557;0.286637140705374;0.293667152936344;0.300690598647112;0.307707483765634;0.314717813865483;0.321721595560102;0.328718834991163;0.335709538135545;0.342693711238358;0.349671360250292;-6.35079601368362;-4.86727200307348;-3.88674503621019;-7.1488102190247;-6.566238983242;-5.27685588895354;-3.20458742757725;-2.12460601205491;-1.41723252576569;-1.85740919733359;-2.20920427563421;-2.56580154844385;-2.01121438981702;-0.728547771010881;-0.630193398286107;-0.477903314264664;-0.62642874000165;-1.00230572320006;-0.990155014749815;-0.735924633216936;-0.346968394861733;-0.121860220392286;-0.119960170081567;-0.252405669731468;-0.454448438831362;-0.363030832295324;-0.259328613259746;-0.155103431660426;-0.070687235030046;-0.0754064622394858;-0.105165063710762;-0.195628155123853;-0.125006027766745;-0.0880738597128311;-0.0684689197780887;-0.078334451059145;-0.0453518597257717;-0.0587867827514679;-0.0804382451816811;-0.0393621915954177;-0.0287494503025477;-0.0595531727959755;-0.0508922575600315;-0.0372668971089909;-0.040237046859547;-0.0349395849335395;-0.0572414281394711;-0.0309655230950922;-0.024089395627233];
x1_step2.gain = [0.148916327106033;0.16788355552682;0.159896260020023;0.165622859794998;0.193133349748831;0.216590868456893;0.216527419085925;0.215337984942105;0.224028021754157;0.203392786790795;0.215790576392708;0.232709094898102;0.244087417584849;0.241590184741491;0.251488974928032;0.242713462868011;0.233261161670219;0.24376834472079;0.248770121397162;0.255600358701872;0.258323853885859;0.256509356422686;0.252050000361018;0.250107268348422;0.25627293464781;0.257430324767642;0.261428653136593;0.261862128067849;0.261027835728949;0.258528340104377;0.258821659811438;0.261896463007289;0.262135534110985;0.263081987364124;0.263445105882613;0.263784019034555;0.262802542442562;0.263487116982315;0.264496728223279;0.264466981565299;0.265048866662082;0.265403398798023;0.26573951603508;0.265779839138629;0.266165674746658;0.26630114354906;0.266239812632035;0.266722570981835;0.267578081851116;0.0674276101002541;0.0909122918464113;0.121475263311029;0.138767327165288;0.162481356836162;0.205828004753348;0.291779416939766;0.330146475800567;0.379420799167884;0.483065994298802;0.470209674742346;0.454921615911984;0.545134447594241;0.871472657715971;0.851473039279905;1.06568883937519;1.02653855584521;0.88831467628059;0.921410004545901;1.08025256335914;1.42267235967084;1.75861847391946;1.82865840680839;1.68606445465198;1.48156176344314;1.63696833576564;1.84699960914322;2.11679130964507;2.41542874776674;2.49482590681072;2.49494133967046;2.31612346870158;2.61271020454679;2.84786845603252;3.00831234746737;3.02194161574281;3.24539880692622;3.2395117581958;3.18989911246821;3.48363129454526;3.62341355274848;3.49966611123386;3.62463804395029;3.79255309695905;3.84802027898582;3.96741335279206;3.87380563916183;4.16571126227247;4.31457280544348];
x1_step2.ymin = -1;

% Layer 1
b1 = [1.3603579847313098661;-1.3431365986901189213;-1.1822062413735352493;-1.5157240192853960181;-1.2681269116208102599;-0.92107415911584655799;-0.16886175624564381259;-0.52353613766199291746;0.2952326591072014228;-0.17859218214082928089;-0.035195674384626396414;-0.31596922590614506809;-0.42609189971434180411;-0.54450161624823167905;-0.90615967787494855479;0.72085801427518036988;-1.0857765140004396187;-1.4563870093575033149;1.4475902900259456363;-1.439936437387728807];
IW1_1 = [0.2588062015111132208 0.34342513212220843188 0.25435759100419030876 0.0037253668518238752458 -0.090235943901081791529 0.2958834411471904513 0.1898152556492930243 0.16234522155936648158 -0.04526333609511371675 0.17880650868733632963 0.19499198591377928103 0.21776882095603480871 0.067267465615667126899 -0.091115303679002696002 -0.14148971173630886522 -0.047811014373189998639 0.042073649195224584185 -0.025202498262528811451 -0.21138856009116191448 -0.21182311863303621147 -0.25169039507590795779 0.052906421137799676535 0.17375796804183957223 0.023731433828038307754 0.16694040562694645313 -0.24118671722051326922 0.21634820493386228146 -0.13743994648465196473 0.0015714258613257411912 -0.11613680329699917204 0.14297953876746530288 -0.21712630041857103325 0.12563281984861573992 -0.057764440103585466824 0.23712112911501054269 0.16485964758932802887 0.15416935885763718983 0.025438630190423149741 -0.22511473024616485139 -0.21096406086011465497 -0.097678821448103414493 -0.1805967912065102321 -0.11243465823397891246 -0.027553242461212448799 -0.11723148233935756779 -0.045846291369277945849 0.13866986105023779152 -0.049967638168467796989 0.16334167315678901899 -0.31530699363809616687 -0.10144231548444532232 -0.0090702251078956398073 0.14774001394629721062 -0.12223599147455321834 0.11717253781194909845 -0.17628840039792151306 -0.081433712135896854645 0.060520594438249988856 0.1270450237005588956 0.023984338063840534433 0.13254998098695414122 -0.2493601351723788162 0.053699203855442509403 -0.12243209972367834204 0.18106775534866992317 0.17575848964661722196 0.28996926022983560145 0.12742728320495505523 0.26515571501214618699 0.18762201803326525318 0.13632679466153871384 -0.0094631471357703375591 0.05644099934195399848 -0.018850748872049353372 -0.14830714193442603999 0.018638402217443984787 -0.11782231060607301076 0.29226263202923979945 0.13204198902735742038 -0.058557764063882737637 0.093801014047060676804 0.13170431674377544584 0.020565611864549276921 -0.18306482717734601229 -0.10249347696316152279 -0.15289402925412473588 -0.06978939570909997725 0.069215685076949612364 -0.07617607391751569923 0.18362539584463824505 -0.10764853657656754671 0.12194440996344539652 -0.056204873361886203975 -0.2412935754061554805 -0.30606444900078327853 0.18532832241887839397 0.15906717026781133639 0.21397072044713166816;-0.055032623915291560557 0.074745445742973495862 0.28261655656773304601 0.204219208572548383 -0.022021616272444633627 0.10690086441650688276 -0.084557390853499628247 -0.17021896082052498378 -0.10696066380827114195 0.077694934185116887315 0.039996548301410660142 0.076982672643994859429 -0.15275186225084383396 -0.1992375393171050002 -0.23386663804327428862 -0.053164278384583728287 0.2173725888626360514 0.094657691987332023831 0.13802549215983306308 -0.14321353720800078513 0.18819768020742316805 -0.15497624880406421499 -0.083400973486499177523 -0.20983191021948219279 0.19847735454857892701 -0.093730058220270778824 -0.12248913356278132158 0.034279705872629490093 0.19901943848464770381 0.1423460224901298421 0.21995406206982728858 0.18306885655923113565 0.15350662182192686966 -0.0021004607804154173598 0.10384648375880450866 0.19222218988188183308 0.22288937897238450536 -0.16416448489208423922 -0.01729053827692475509 -0.17886310962859136575 -0.068680940123510045292 0.16448060055642074739 -0.2246068889234003052 -0.11874866871739060692 -0.045684617099178564947 0.0024840545698439336214 0.15844368918032372684 0.21849104431520019465 -0.15358544723031250512 -0.39457442437331663454 -0.31083761364909845426 -0.18044547107303737787 -0.26780373776575888689 0.19705245818901795385 0.088697124341635791289 0.013986292886207868369 0.03538603987147154184 -0.040156547636760381303 0.094290843129163359748 0.033135986670423944744 0.15967580568597164459 0.04428344368914534368 0.019388328035350340522 -0.018321286727866280264 0.33520906257347704571 0.096129494999696987745 0.075154517455350219879 0.28200257704150416549 0.29091809347710190226 0.1949226983169060623 0.15454031737630913312 0.1096276606460114128 -0.30521897883544807373 0.17371045858519434946 -0.26582267776729834319 0.029608043476197151711 0.098847340315807136202 0.133105278910990249 0.3175206780441847676 -0.29552464706376097014 -0.088139505937591788864 -0.03535040165458445266 0.31138234724310787094 0.17568800083097471654 0.13382618479692048874 -0.093120986167178107507 0.032155850960996552879 0.01882989358753834816 0.049402965960329593698 0.18282397873189923376 0.020720838907022566533 -0.2768504864184598846 -0.046678283368136438969 -0.31433606288807963702 -0.22055071193280717523 -0.2674890291694173583 -0.20367936110021070406 -0.091035080109391416925;0.080591774987651909612 0.087629214270520311425 -0.1196545336561546935 0.1129169731557887052 -0.19681615451468018052 -0.12761981122320714688 0.20318526236818368336 0.1977395938324807978 0.02836917910413334909 0.11399178057705301736 -0.056627137562249060809 -0.12838426581176143326 0.08947491111275018838 0.13954109309865694866 -0.20774269101081258015 0.054353458448013966531 0.16863442038369960696 0.073902997445801588139 -0.04135755769961500794 0.18090297517178519082 -0.19173860710428808352 -0.047217495574749183962 0.20083997480749518627 0.043123708838601872151 0.039827863331614303533 -0.062840379251032404961 0.023840811976202431338 0.065286810097224715066 -0.16083804848585356306 0.18126979595079853458 -0.15169283011183073984 -0.2958134594313889254 0.18395753298917610907 0.057358578819286423767 0.01665466963599730385 0.024371719860328114327 -0.24134305861539617766 -0.26525879195992374537 -0.28038228908548573637 -0.041892216390036693396 -0.31900895474812451802 0.053892382164074215112 -0.17246941654304906444 -0.37713167240134071179 -0.35617450223009905486 -0.067433051133399674049 -0.2566997490988482955 -0.24117656385767149985 -0.13103659975180798059 0.28286120118220653419 -0.13881593084909013558 0.0093637527428777917599 -0.001936816935473985226 -0.14947246392568797058 0.14748052395656371938 -0.19035970420848799534 0.018914199276142931033 0.13949342714029491774 0.2760111804713754613 0.072460837142481804296 -0.22831658315389008473 -0.039671523701423370978 -0.031056435485137950936 -0.022919302323464393195 0.30144615956870840501 -0.12549682713977075577 -0.073482532948496756542 0.22055028094126929994 0.052705422748800113963 0.16727192819406414004 0.20320023987338650673 0.19495519039793174354 0.11167110994149100078 -0.14899227435749348714 0.08981607653438544725 -0.041775656958759850579 -0.028276072677509610231 0.29312597018641550761 -0.05196665632337235663 -0.18324405655310538332 0.13090490810100482988 0.14421916136409068665 0.099860072597522595017 0.1271904741964827168 -0.18299689261789139905 0.024574622758324650429 0.2654042167906862093 0.027623873320256314701 -0.11965767605186006239 0.16606638652565125502 0.087302804023117075438 0.18865760247616614187 0.15706630990532002845 -0.20165832308158779251 -0.1168540224908434233 -0.2132530218464878391 0.066961486829723915193 -0.088306056413716527143;0.67897855580792954022 0.025968866292705637677 -0.14961958313496304118 -0.25200145403954526957 0.17645046068638620129 -0.19263334949227622905 0.084365463152928088508 0.025023036760470473289 -0.23856924634916121253 0.2422710529702489235 0.18298967663658236016 0.039910943777598524573 -0.15761399460391908867 0.23125411435731393905 -0.18302435589527879523 -0.095062861814388166515 0.083466983523658735966 0.27986294755230184395 -9.9999006281807785966e-05 0.16472681810166156513 0.23587068341314940123 -0.11123382558630465211 -0.12029353394372307995 -0.020747420438790326047 -0.11747864043938247014 -0.11815782474428690452 -0.11254727562009278485 -0.0069577491485746699798 -0.15436498551631908094 -0.035789152265859595914 0.23638430334037985325 -0.089046950965681048729 0.096757855726146896336 0.073922345814748213755 0.022172559397688959559 0.22059692685130682932 -0.24154227634683800297 -0.16458652590194358667 -0.12594752235218209524 0.25548602305675099933 -0.073072619636783395225 -0.14525442312473149653 -0.17819627299502421858 -0.12588557890323082145 0.26186448493078146038 -0.18489065257567272038 -0.10681917278603707266 -0.027980088961784856799 0.24491022906467380116 -1.2374069415672355188 -0.3696299382396073252 -0.5542101143666127161 -0.5165165223109204895 -0.2277162968884274552 -0.17749594367890894619 -0.41995092196818084584 -0.1854276578099915973 -0.32246860360068202445 -0.38090624903385972289 -0.70929235256820732936 -0.70370950102951534966 -0.39263026676441920015 -0.31564972884292652466 -0.45672667839068070705 -0.26912748790691060075 -0.53765253570463678034 -0.37570827977241694207 -0.15182385134087555967 -0.2001410605180215796 0.076949227704030759289 -0.023478402989402968187 -0.08042212250324563827 -0.077007488038351987192 -0.10481246914125860736 0.23160343293333304771 -0.10377945823993081631 0.1325962566090151673 -0.049226952528890866034 0.16201469071861854254 -0.13991728130826253107 0.10230472218242481208 -0.32370623106918416934 -0.42156622252885644908 -0.15294342198865598648 -0.18661070139871685503 -0.28339297920009981491 0.0059611591849918340799 0.098819431778203667416 -0.14551753066469147457 -0.093856704937712281955 0.20271478737552844906 -0.014440175358650433543 0.46037166776550098035 -0.15653576851311570839 0.036421087343879048059 0.46575395271575409373 0.24942121469212294449 0.19763615311424881371;-0.058125746869330516264 -0.10842293529144568509 0.10930016024339192504 -0.07805534347674732143 -0.060879962775294726995 0.17752333472845294171 -0.25807612227548548667 0.27560707485808133566 0.34130110732219653968 0.27565529805149385778 0.28527870398683335962 0.2235127309811396068 0.30441093777033717549 0.18649656911657533365 0.12744270037384977656 -0.2282376734624236847 0.27573901718990329046 -0.11240852909094262158 -0.090250440871147571964 -0.0015254631076448549581 -0.20531465567865800348 -0.24733293494184044325 -0.10638027636771345275 0.23212007597857464702 -0.18011109392314808564 0.027599704552644391264 0.13580553627522928828 -0.028544777965121573282 -0.15522286163140414095 0.12852923973888674691 0.23307088280643004086 -0.064653483471284009521 -0.0083339378352625323454 0.1620774307030096173 -0.13063896185623685708 0.19826087374119627516 -0.24208370537020826307 -0.00033910818089281848531 0.029396361668692170405 -0.054175149178061370037 -0.02111958234548377833 0.024488476797675309826 0.074977752301080113906 -0.3178081037765025374 -0.014143632878137442702 -0.17675378019178172861 0.093313482376518874783 -0.16125442545268273142 -0.062535057598935600565 -0.041760808622481340735 0.11485216008167514756 0.67595035905626821293 -0.41586097780644676325 0.40217467727058275884 -0.086556590556783288837 0.38609608884656182459 -0.19883420281846275746 -0.14447459495564682341 0.052188234570590921746 0.21731589277231477819 -0.068989815078045024777 -0.14055456939093563529 0.1212086549826975751 -0.09600123042517921812 0.27627163205670585144 0.13338642100305014848 0.015963968645377274447 0.1462067507488984397 0.078207582790576185561 0.10209807204824862537 -0.11533363579223690487 -0.21296880214599264725 -0.041317692210065551373 -0.20776308357479764122 -0.45885713719826282109 -0.08068723979828983095 0.078045384832725592239 -0.3522548374863970766 0.47428644122103075231 -0.18503086253059858324 -0.16260688565911102232 0.22249036821710746481 0.0026153275835605243119 -0.0066405320769735379921 -0.23355127976351924834 -0.24763273909312624732 -0.19623297014653526271 -0.14585762981510896896 0.059158338476700406128 0.12714341864124747983 -0.25342403929176243738 -0.080521851949890171918 -0.094927882459396206727 0.19899171689513497907 0.42485269272166376053 -0.34365728837961284636 -0.0062116915686960382653 -0.23336413968056687884;0.10024417128920808107 -0.072881957519111778554 0.12943345122154825688 -0.34816548176720091279 0.23487258922170117792 -0.33435495635685325011 0.015827632014986100367 0.27966531653247705957 0.31815935689796420727 0.10373709831012646598 -0.019740779723542156709 0.11425975189058169834 0.12621128238808221322 0.2280816810863748878 -0.15704642245371042142 -0.095046495606883496521 -0.089069685430304204599 0.023757585965233619929 0.14052876920369986036 -0.19343389991693185626 0.017125562519717127397 0.078338706428521143188 0.16294781147474027283 -0.056375774687475378733 -0.27035434184625256604 -0.075067229987421060788 0.13975915685094664198 -0.051492512806567351802 -0.025226829806734945433 0.22904719708357335062 -0.031587732379353646028 0.029101761502139462251 -0.23570989154821628264 0.13484545798247740689 -0.22050783605616577909 0.23864560956266886449 0.14424121350816901388 -0.11695040672615991673 -0.097733820687862071885 0.29404744175753522173 0.018696447052785423321 -0.0017206353621809994739 -0.12094071757751423402 -0.077542483054278688037 -0.078219897305196239845 -0.0086203934587338083839 0.31100464029447266734 0.032872319020708300197 -0.056739330963680931208 0.50198549139421877463 0.49003878509026271848 0.4436607621694052539 -0.20877338957549973486 0.15514578391541264391 -0.094198251522424877868 0.1649148344458756521 0.024793358332600167609 0.31639873051227185297 0.18205210988493311652 -0.1033081128321797354 -0.29431968241492167948 0.1382678083978704231 -0.13638684216887936307 0.35938198168386858988 -0.10918646495098206783 0.13412972057486624577 -0.22884805876718211648 -0.025453169767106251231 0.0041021462992249079632 0.20396527776125084053 0.036767810010311742508 -0.016282603463016947359 -0.52851700259865996845 0.20760544529500327138 0.18168372057006096365 -0.014775976095571952823 0.16926525486929502873 0.010676809961366565127 0.04891857440548578323 -0.072971710162625894047 -0.20809177044702498183 0.16162078404749161131 0.19481334954202272902 -0.064852874123604978274 -0.18159539175971645131 0.19891827954029109304 0.114006036470923236 0.091938629029359550393 0.31988637351233378814 0.4795921921297914281 -0.4048198635112634225 -0.14578835882624685549 -0.3776065894101612308 -0.36097881817567500917 -0.53493370161531395013 -0.6191075907403099654 -0.2591122243892898247 -0.27811358199277458336;-1.3208549037653183333 -0.66780956011450665066 -0.31867587426194166067 -0.43764364973253050417 0.038099597609906721285 -0.38190574716404673827 0.10667029835446692476 0.0091389195269111541536 -0.042534249087913561516 0.14841318097963820954 -0.010984225670200560218 -0.17655762833596883032 -0.095872876476555735081 -0.19160191416101468587 -0.038078043322819027372 -0.056737219265533392343 0.051834441961824601064 -0.15351442037714144173 -0.097202630455693883604 -0.088976124318936644642 -0.085822418804360756095 0.16859982669122139387 0.21662160117734083342 -0.018577332001998847488 -0.14421957637613366798 0.25143254931937325525 0.064593865988253770793 -0.10826795834291678966 0.0036107827351428778764 0.01517786069059417868 -0.057069045262793001438 0.14919997049691735569 0.24555318459627889505 0.2556412245354435786 -0.11070800315512023537 0.14517136821687287584 0.10653014502599912616 0.21301550306448671646 -0.040102414890656315483 0.21880230241040413142 0.23722621887403291807 0.0028170537333272981095 0.034530112669093247779 0.31876051000531357982 -0.098218200917120718207 -0.034403238403184176197 -0.078940391356366171327 0.024190758856404731558 -0.096924063980447089373 0.41685620713423027217 0.56236999661896724945 0.33565888758743206433 0.35137669823225065047 0.3179107044743786914 0.30991388392475438529 0.24682634684898532851 0.034252385626973212707 0.13461386914011000404 0.13425457277233948661 -0.074927642252855447547 -0.16649854887629408906 -0.057377764268159894834 -0.22878287546836481581 -0.15117527774189595813 0.16862339276243087927 -0.11118907592330062872 0.18850064642272884585 -0.092316954691240959985 0.11061408515301826561 0.035280951723890598137 0.038049083678791284502 0.37507991300938775536 -0.30991449405522847327 0.3091939091094140224 0.39088519928493981048 0.042782396221444862761 0.068220121265221270179 0.036473379472176679916 0.099172842241967568144 -0.21961213581153429808 0.19957162173312065212 -0.22181899173173133533 -0.034577929962396031227 -0.14914707455733899888 -0.24311570117312264472 -0.16718214116349741638 0.037659286855402714089 0.0087714811778949221266 -0.012125721836092593492 -0.23529840162844517515 -0.024880064939386346834 0.16913667002303406361 0.45244306630359465426 -0.076449976068716840594 -0.53396427947402780312 -0.39350465593276839904 0.14584258318410980859 -0.22563715419843111132;0.093055572120449944751 -0.18711017415246186668 -0.15453661778715560571 0.061147260824134241908 0.010329486519965739438 -0.097069950118140291284 -0.27584446544833807202 -0.27584554961094021053 0.11486349905750528611 0.15278633158181351148 -0.039941133813994042501 -0.0030000602021545558218 -0.075236215475886686344 -0.15065125524249112221 -0.15812876521667126872 0.10891375262912138255 -0.092948553942891240509 -0.033863147971144078041 -0.17399713673914163348 -0.024007504818222797499 -0.00093796658340535889187 0.16083635075836497097 -0.23859063439599140222 0.14128077397821819927 -0.18634114548137398204 0.19299640586426630717 0.17067164942076037959 -0.066027681738760099495 -0.12644435695129979669 -0.053121089173319119281 0.026549776545854979898 0.15503904261469736436 -0.0058953750563596569664 -0.19624146853546714508 0.10757767877529783584 0.081132075433157091471 -0.06158107716392594716 0.16726228419387603741 0.15701620307802233167 -0.21031764748201020598 -0.21695336609432760988 -0.035710524208697129456 -0.073521282579817173741 0.10413987988208853186 0.22979802935696005961 0.24984304727755637932 0.12467190633607100336 0.173867508525362785 0.15630510518746776327 -0.1079059480797588122 -0.38558838147654561634 0.13145471379630593867 -0.20940265399488469655 -0.11493406855088955654 0.15582433330426775919 0.16945581575182316891 0.021360960816138922086 -0.22880359135819980376 -0.11333203930671403858 0.14864153655821527034 -0.18127658258632892152 0.062915295448399743972 -0.078928697429290956 0.18587680986008023321 -0.11923873476811353012 -0.1143468685122221995 0.11348015883786867486 0.02812381911369550222 0.10637472047463317204 0.18286093026212532631 0.26703275465622849927 -0.020475770826734358832 0.20046091723520412242 0.17775936701681263608 0.16432020222107734941 -0.18988084971302246484 0.092691954072807503096 0.23726587372045448987 -0.12927056307469472762 0.029016874159105168068 -0.10143710632504168712 0.22581831430700199936 0.22823774777974684125 0.081891908168319399453 -0.16180099936337549726 -0.12920085830994351705 -0.025796433286343928293 -0.0082951435406612861884 -0.12383024654632604489 0.14269728405704723562 -0.20789424254516938873 -0.10911643673395240994 0.13421915723552252375 0.067602644596421235246 0.098188011378980186161 -0.14629954616855223026 0.28004572226278406921 0.11568586040238057477;-0.040493607046853383191 0.059912588940571484541 0.27681233863419918428 -0.063149977426244202627 0.024072769514405942259 -0.21239773527435357181 -0.094710561018931854749 -0.033163643136579393222 0.15209219883219274316 0.0086223776882632142959 -0.22323914738126574009 -0.15711729816599856457 0.15882399613259826077 -0.051579368085092426599 0.17029179289204102177 -0.32773108505416326253 -0.10636791501896157575 0.0096237583257538557996 -0.16715037557890882747 0.12665518986054738471 -0.029555147247094019219 -0.21081457538258435713 -0.16673122671016218921 -0.011275787173464070154 -0.24801366525233672911 -0.21932101448926483167 0.11758779858230221371 -0.10157522129620781548 0.0068251518546166810297 0.16121497432029208152 0.042525876396710439453 0.189641294328545984 -0.16205437273275560828 -0.009846387186958524898 -0.18158300168759686222 0.039538968808541428979 -0.0060993068694646813271 -0.23075343166246495286 -0.093668479903705692546 -0.27168183465951833977 -0.060037736500743524304 -0.18194797905946463734 -0.17020439485459284978 0.12858312104438357482 0.064250025336678701082 -0.18665552923155107057 -0.013878495310602336626 0.048614057461075291244 -0.03595750202988105132 -0.16748070350298735476 0.044332809492838409771 0.13940650018975905833 0.094134895999923445808 0.17021410474202208762 -0.19000479506261824802 0.055779581550082821262 -0.18565933158156988636 0.12317320695076701409 0.16289593830135590258 -0.12386175553903107371 -0.024501622955845438201 -0.15110292072011838327 -0.065218298401068547365 0.0088708831506393425598 -0.0090631297811214622806 -0.25487227228321746031 0.069317726159111733852 -0.024987632754354390657 -0.24288150522981238888 0.032192954128374612344 0.011760022613237344768 0.23526086390893982681 0.17119553982470342435 0.11830882580386686831 0.17421443808511785645 0.28082124473499930906 -0.026782898952753816241 -0.041070868444857300261 -0.0064595822503571856746 -0.26439750603382355942 0.16651800845030775844 0.036140107775981249183 0.19686688962700410466 0.27897245643940399296 -0.1900824837248466237 -0.015227046283241294292 -0.12694632057467478137 -0.13780631642001131554 -0.056347690619240109466 0.2901784226116443377 -0.14550551689637988839 0.24525439655439074116 -0.065337618560778992771 0.075663912480863876331 -0.13979472302359846614 0.035208273884187298031 -0.24369043818885516295 0.012647349408977969984;0.29589570755531358071 -0.22739772164013979938 -0.12455093101083720974 -0.42344272023640788793 -0.33104727889635471305 -0.12362108076889807839 0.081037919235885449987 -0.13595938372239055325 -0.20055704941778212946 0.21321779181938418923 0.022119009465009407955 0.1852959999685585557 -0.014852215821269484919 -0.13205327813087558431 -0.050323213398461845436 0.16877089157441899081 -0.14758877523640354101 -0.19809608950247292736 -0.074291408788835666677 0.14275832477781694174 0.20785440534770077692 -0.23199614718508571043 -0.14627275528683317263 -0.25370281668864802516 0.23685017083738729715 -0.03322934866308394769 -0.00033125727050748116423 -0.11134068730597150576 0.17616675108732476884 0.023002853696309426973 -0.041265967522161564607 0.030133002231319566677 -0.0038610015179976787947 0.096139338937811139041 -0.1967953107348570374 -0.20908369866594128661 -0.12752085091575346421 0.19416987876298533178 0.13758451120490614028 -0.011992836741495345801 0.25793415074227166173 -0.067676769499619246484 0.083926601173676243506 -0.1623516399191908266 -0.087345669282461388394 -0.12108645028745729233 -0.19525357677623497721 0.052649822358583044102 0.15484706000366460499 0.13991664193025971086 0.30098575147311057432 0.11728259760399309397 0.16934609633934039064 0.081232107832454117369 0.081195856725354551009 0.018435916517483143251 0.051460209546947903447 0.29512403794273411872 0.023056330850438525037 0.29025143261652663895 0.23439850953426616398 0.3078579085031102891 0.049088021251080228569 0.10052245575735671568 -0.059349742452100652523 0.011938406357469719121 -0.088997977085052151769 0.15714259687746706673 0.27846179575884905111 0.13498094940339278036 0.078815214205137720804 0.062049039131834182736 0.020575547655518840184 -0.044144525847199481139 0.07392822131536901098 -0.045429226273907961919 0.10543111088617454496 -0.0091501879804638617394 0.17087656035047479874 -0.20085942556994171304 -0.20677759353189315017 0.24858780703350288888 0.1663356197293557881 -0.013919401748175554145 0.041942749151797194263 -0.044878347897238254904 -0.093186398238089440671 -0.31415609012196205052 -0.20242317017691766057 -0.079117318216437429457 -0.24997553619181936413 -0.095585437173777237918 -0.1422732345494799322 0.042510311583495385968 -0.29224466275068733401 -0.2973080392666933025 -0.34480826558542898574 -0.43086858056652971305;0.061150112670297664119 -0.19099405280505241111 -0.052432009903744164481 0.061949345483331190454 0.27240489979019394395 0.33838656000998507123 -0.11535092146918674016 0.080573659007710074498 -0.050922274382343875321 0.27065349081757839045 0.25011405561276883747 0.24368032333608685702 0.2559398619083019244 0.28220572206191318898 0.27502441655804737985 0.13367126933074419126 0.19836882431663652171 -0.0077534541728760111509 0.10945965947834759846 -0.055733618397677535394 0.045954535862342681118 -0.0039981939514584837608 0.22828875730514627818 0.10724518852896554322 -0.041625945937248241824 -0.093433970001262675598 -0.029376087757196842065 -0.05189289366510110163 -0.22099387830288907963 -0.12455743964318422012 -0.19343390296683660168 0.13058896143820120095 -0.075633576355236847855 -0.16111740768518681421 -0.08964964166841490889 -0.094501754558860742716 0.14346717960614610576 -0.028215442796586429064 -0.15293016364530448437 -0.28459934717785928537 0.16434129445544912174 0.15609534859371124171 -0.11907978135275006093 0.14215043958671488844 -0.11026976700554573518 0.18854997001786391597 -0.14178049650026122719 -0.1104325356011511966 0.17946309101649815521 0.22147382803595910827 0.20862580628178450937 -0.10994573064569158893 -0.059328070934977474027 -0.015125053455060738505 0.19750647674324584013 0.050204503739255147698 -0.13824788283127259492 0.14096714684312849908 -0.064567934713521762946 0.25434623753455831707 0.14534167313097606788 -0.10834471622744476504 -0.12829648343131688781 0.033143179980155569597 0.041672598775593233666 -0.19772449600089578303 -0.22971453981074335671 -0.067775218667020561969 0.18246850474632014816 0.27080277321573265059 -0.075191191137372173636 -0.15314262943565018493 -0.0049851614218236767889 0.21317717076041481361 -0.18442426248242133058 -0.074167651412908638942 -0.19962615379017353834 0.15972433406652741805 -0.12892163398101721961 -0.11895563866485354965 -0.074395115292050423283 0.094611542940881199204 0.10847590180358639145 -0.14056025487554751896 -0.21879506154228667292 -0.22442027961879401632 0.0915700805115879507 -0.23668153304039826756 -0.0023767386875754824282 -0.10498396218963308713 -0.19340588248547274652 -0.025464919559601315729 -0.046412767908671416495 0.095368873346588514672 -0.20967133910777091543 0.15795109045470703824 -0.0046089200102368017148 0.056266982057941436479;-0.14745144765829285016 0.39393233426287366239 -0.093571995039841621145 0.082040275609540413981 -0.22171904300754533002 -0.011045326188758260166 0.058387143196893261099 -0.23217783783672721332 -0.15334793425987738869 0.093786501513459200052 0.095042160829219693441 0.0087279398073182457712 0.042956067945065581903 -0.091388415811077594597 0.057875491953894693531 -0.16061805368478135336 -0.090442765747716161173 -0.16457600213844725268 0.11161566691031446497 -0.08978190878709063627 0.12818675827558090319 0.18736663329819100432 -0.12402205245619520035 0.21819654655337122895 -0.18219758556884427247 -0.20754787998154664019 0.20137908986040264914 -0.1280931372451477035 0.099116525352710177499 -0.17776494296435829678 0.050972970492671756948 0.14802108114115400395 -0.19819010023151389932 -0.023654602186455653268 0.25528809359863796624 -0.12646933423721701262 0.0095139457183567761878 -0.1840636978562292525 -0.20160259161752583368 0.26471849668882690976 0.11333867911960450459 0.2965070697270546507 -0.046644565426627794535 -0.054718096153645451318 -0.16845245276746589891 -0.036576653884739011857 0.10698397748922035266 -0.11907939922302875069 0.17407935345698094531 0.065689066206102791901 0.09493193222265410014 0.065768694381961242956 -0.050974757584204076488 0.21826040964470455608 0.034123279012149537737 0.22794813868412794333 0.0874724416955454942 0.1659179804985688178 -0.19209892782828813518 0.050637518297053908667 -0.23525899862189608713 -0.052298412347285182233 -0.089729303930389428534 0.11513135479635265568 0.10582684450302833057 -0.23311595309721566682 -0.25925610955139599678 -0.09306474206684542394 -0.2980745720618699357 0.070862668261157668592 -0.17124817177456116979 -0.110448641795391031 0.014785404979813803264 -0.07624747750306563876 0.094507558400057353754 -0.03138866959761964226 0.11453971468852007509 0.11119900355588056839 0.16274047842362160399 0.084982391026266410061 -0.038559823197761355917 0.15240022254531179757 -0.038807699044640417418 0.043057874540795383622 0.11050130260026183593 -0.18906921850722741008 0.098379658702829900219 0.24350348969982593683 0.081858826571520937332 -0.036302651898541489495 -0.1680252604285671636 -0.154644305351791439 -0.061684254989144531034 -0.019367262400354252894 0.01918409896044839108 0.015035110436411196211 0.15371808175620416126 -0.13770785253052186814;-0.057956443987894415426 0.18623259424335006362 -0.024281667305282726016 0.2437702964610755918 0.2169924565399875549 0.034796865500086558709 0.050910765949768614635 0.18977276637629475475 0.24389356198722986213 0.043856151903978561613 -0.12040384762324643497 0.25782765865509194025 -0.020408412189563206185 0.2404181809913993606 -0.10532745025568646113 -0.15703466906418034332 0.1303628123770320113 -0.19454981425777395643 0.22207901894068604598 0.092692181205708115699 0.10629351437281171766 0.17480055015096940263 -0.17295659232248569714 0.014376237222550781666 -0.10050569592922982409 0.058270497849105644395 -0.13163629078717045684 0.088156160103319544663 0.20366368231537651523 -0.22602158407368974635 -0.051405018230738896978 0.16337867159865857025 -0.10968703844912355838 -0.24452688606010219985 -0.23221597817678626963 0.033692158826561263707 0.12087262748172751536 0.030674793118569958217 0.13776936942705181322 -0.017044424861821189793 -0.24768082927861942433 0.051062420187125728832 -0.13755286686820838993 0.04629068901121542734 -0.18157132029857658839 -0.29052649536948577103 0.10241062389706996616 -0.018646411460135101784 -0.21992298929244005756 -0.019343140708442646547 0.22928879263607887529 0.05346501659259776662 -0.019208613587071623335 0.12524362205850195218 0.054033886008760169395 0.011132480869694802439 0.29832912630617697269 0.15157869237019500064 0.3281884371529378841 0.12466513404816070842 0.26481980972562191301 0.20583099883166744437 0.16724364936167931961 0.37940566706069678293 0.1482986589553620671 0.33410906115124378024 -0.069341893011734989649 -0.068537574397922171321 0.23679683113774865899 0.096190483013586583483 -0.066223454414396989987 0.34971752801834032898 0.26127079768596311871 0.28068005956615449392 -0.0045261753198457717329 -0.14017883997047664302 0.27621293717755102115 0.0036237470977975149572 0.22734968064245308916 -0.07734180636906774764 0.22366293366815745425 0.13250632390456248966 0.11353887053028560716 0.013155896117120991981 -0.039158526821654285333 -0.1696602887255002079 0.1766259213543612816 0.071715178922295230723 0.14481367767475195052 0.0032018630834519589898 0.081504374390364064951 -0.089251866547312444511 -0.11622635509538023491 0.12587619496008456421 0.071361688089401756341 -0.20528267769480043614 -0.064272496566262687923 0.1444579599946059778;-0.427582243415481289 -0.40956660082968532333 -0.11705981363535865325 0.12623754465420614079 -0.0071351409239493266551 0.15323070533646401814 -0.091080587525199763199 -0.094452600837865260952 -0.24127870796176092982 -0.22160449244094226895 -0.15696914386833896171 -0.15498722416526783396 -0.016880934338699093294 -0.10359373358446097302 0.18710778998676666496 0.22219190792019472003 -0.23574667354601125391 -0.22769460255590237563 0.10772991557525626871 -0.027326325631152181134 -0.17878738316073666814 -0.20211310209367105983 0.017348262636671721998 0.25184667641067987054 -0.10094485497455371603 0.17980284987811723241 0.17067543277742977526 0.24838646610339329412 0.14397259355644079215 -0.14945056121149496997 -0.21425107408956195476 -0.083582315196030876336 -0.22655745306292918162 0.067809970042567904724 0.084906237127401140707 -0.096514270914961008963 0.20975258326041335 0.097568566197740069779 -0.20693226404904743743 0.0013677861922401575619 -0.030382896034511525096 0.067851543128772298652 0.077287502929307722033 -0.15454169786414392873 -0.005443164307377502259 -0.17510695407489682007 0.037692379335199956147 0.17432597670613689256 0.23498145116657945253 -0.11261734793130684373 0.060874646566763418454 -0.04064828895987398355 -0.087327612110275634749 -0.2597076249598402331 -0.18652223104588114277 -0.25697194531501560411 0.050070257271408735722 -0.33519931845061379239 -0.23177836816243274631 -0.2433447630874721046 0.037245912511417102186 -0.26596616589390054131 -0.19870457340243985467 0.068345299133685366577 -0.34434134326646037572 -0.064431909246920229806 -0.19275111146118265038 0.08239624783914439865 -0.23661522579941443589 -0.18068527590246455383 -0.077503511562883903308 0.21619785919133199803 -0.026113030943941236556 0.043221338002061349126 0.064224493856962647231 0.12813547151701226712 -0.19244263284849383311 0.15133837516044285065 0.011190692153156931929 -0.02522973665335406443 -0.09157761685615992131 -0.096941596752480291288 0.12495423959003672254 0.15814553072344747497 -0.17471000448382809078 -0.062447740193283259036 -0.13372370674367237142 -0.035647996690030804567 0.028551799739954666218 0.085075145788519185297 0.28136127534018939844 -0.13381613085675755914 0.32921137935740113489 -0.094074942787522930487 0.12923399201772922673 0.068694556695895622744 -0.021680998578266247323 0.0080244763058344419776;0.26940319426588993368 0.35822329828605425917 -0.02497633960649126364 -0.21664775765973970367 -0.18342868881473403664 0.21223358451743701281 -0.30923024019254047312 -0.013433002135588206771 0.3968991383268007378 -0.1927151468558305214 -0.069626400676454369698 0.24518223938908415005 0.23474371413403952169 0.25218001982539006711 0.068434398112478006526 -0.15783934219763109952 0.11972882343745056 0.026405597975214363526 -0.15035534168200248573 -0.074500801682584077978 -0.076143013195057590581 -0.13341344228801788052 -0.19803245162061056117 -0.096773494982346566773 -0.064553649366008047927 -0.070254698486024558246 0.094570300174081051159 -0.096911509892684016831 -0.19893679981487519259 0.15525763618334476046 0.14393508398969762085 0.083072911374912433713 -0.14139829005547352447 0.14866940350165760987 0.17712667386720831741 -0.28286104776701337382 -0.03007907016011027862 0.041460664930997030708 -0.044909285412753172095 -0.035064241387931689709 -0.033425817982106045823 -0.23290180799317980465 0.02647909080957276326 0.055973035273328274053 0.048261099828901095343 0.15020565829450935325 0.097704528907501128621 0.11568431224965743109 -0.073876163744774125952 0.062159648569001371698 -0.31554301450756883085 0.25189436888591482111 -0.052859521142294980944 0.10452097211775515651 0.0033242400631919681586 0.25048968004882410376 -0.032269186824023486648 -0.21858158793147791643 -0.16448059342607235234 -0.0081787884094656135292 -0.012236037214382896807 0.139559694230616399 0.1160848093686788346 0.032180600675815025646 -0.064073223157699130126 -0.0077821645787861121885 0.19309261934616198109 -0.10604359954062926585 -0.2691526411646270045 0.25831518530119412791 0.073959463845747613897 0.15831226387471658557 -0.152162802339857961 -0.15172024029210576246 -0.16649525046393132133 0.14964506352374265519 -0.12677603737146686536 -0.26187613507100448995 0.12964463098261386209 0.22508148943373643136 -0.03152230077514704687 -0.047577591962468898656 0.063349535427994332903 -0.046575910896575194176 -0.0047374318738109422872 -0.10120724763216541742 -0.38074889487061308602 -0.2768664110449936544 -0.018506136912256991589 -0.092828715923642168839 0.16425803695974172669 0.33176024770062745306 -0.085351170667242126644 -0.094447292021630199765 0.11959194557828263517 -0.46892676357531959397 -0.06981581273397488574 -0.13336812789519705835;-0.13400522602056566535 0.071572922492407514694 -0.22966618713294306708 -0.17241429742379893453 0.019142863428124472919 0.23235048689978207714 -0.34941771542539346029 -0.059625987834380972386 0.30715955983190140755 0.082743911772513861758 -0.25736621816190696777 0.13392115000708179617 -0.24101677850843253315 0.23706868723708768298 -0.077752914899966857343 0.18520567112337590898 0.29464936031601235422 0.23679357720803226317 -0.033399461973633061407 0.1301918135042903768 -0.14770127026160645434 0.076264848790111125498 0.16027384324792476322 -0.18251662909112376099 -0.17571078229610653798 0.1888936969881908623 0.075607211599168402949 0.033728160723735009507 -0.18903989055725184398 -0.059543269685326583041 0.12839515852472430102 -0.18278178210296858186 -0.1440827746987114466 -0.092330274581284607627 0.1195697756112809873 0.076194465150217757787 -0.12578908535255700629 0.098986700271130309559 0.093000379582793682443 -0.25194153754196718653 -0.17617799888989701951 -0.14014942181374806518 -0.1059541194838919953 -0.057745487394939648551 -0.28939572027203241955 -0.018218654767845666315 0.085131286907615816295 -0.1824294651453718108 -0.19870752766998975303 0.19685793694890857397 -0.057316688437131814438 -0.16839861467557962205 -0.48272395343742813267 -0.11376169631093331625 -0.44910393457467412404 0.018377659540626648665 -0.21966087881104418011 0.30562750725778758953 0.052163860439015823089 0.17884779312451043465 0.045648989025309595624 -0.26411090108945728394 0.143538348943908739 0.08246291526748551759 0.21114323644749405373 0.18194283961462986987 0.020579556074759749323 0.047218582325493418939 0.10009797718433094404 0.056081006765243281154 -0.13468356903235589872 0.2432140952550669033 0.072736331138749082958 0.10602060252149078656 -0.28899612822881726171 -0.1419692329614248294 -0.12199983098799239978 -0.077927794283711396273 0.21113436305381175218 0.048325761365324432228 -0.24938865695074108331 0.013620298023916219132 0.00038914759009224097336 -0.045504513570511190279 -0.14343073814280243861 -0.26479972562806181058 -0.3303114872896006915 -0.18847870521396134502 -0.13929949420980103358 -0.24528797883177902439 0.047948634976819212716 0.35597227436423906077 0.11319529424801502704 0.18313173452991621248 0.31837370455913394096 -0.25744672864527151646 -0.21837309768501333984 -0.035894861861908676504;-1.1521546507323940922 -0.097464524929379764417 0.25966467913500423936 0.16582031884583767201 0.3695598802142296968 0.13018165466066303204 0.26863646840956645345 0.34974769192225552139 -0.047766012069839054732 0.10415461631996758562 0.016750879499410058215 -0.22190168666875523251 -0.16346992488143047284 -0.02910985388122497991 -0.0082537187753927154787 -0.11626380208601282129 0.16626701106843153055 0.10013912066005341284 -0.23641609760135720575 -0.11521556373074788582 0.19436047326528921309 -0.14867427065071708858 -0.076739737210330144501 0.13785670347586304052 -0.060334906051661293946 -0.10105152133675220083 0.2271495062010203958 0.095231959193381218731 0.16080379505759015424 -0.1524786308691044312 0.13936013564354834959 0.22233176292824088915 -0.094958125223102068935 0.13907174647567280279 0.12454426829421516576 0.21674624325796162938 0.18986147268241887476 0.21378548744711739493 -0.21742255407642030463 -0.16551461590356858489 0.025635200046343259439 0.06165332246787566528 0.22505908199270727166 -0.23662956570144882962 -0.1148233045877166264 0.12940707279528115836 -0.14382850725973134187 -0.22909331957744763497 0.14400476812558918316 0.090739765871581973267 0.12531165709624381144 -0.2123578075673465404 -0.074322363028012247699 -0.0016056735232359608048 0.078104496415248608754 0.048274657353480319999 -0.063401485502734000743 -0.19557602084521427677 -0.008678883235963774645 0.20996515512131852521 -0.11318375301442375191 0.030624601381898590435 0.22130279556449450329 0.20790334610850372266 0.16759873272431990987 -0.060987054730536296998 -0.13712076730355757248 -0.056001113774942587464 0.02714024894703195509 0.043698606077250193302 -0.13395141103553551143 0.14814058612257294256 -0.16715264343434288463 -0.27100161797468563796 -0.10809177139667326684 -0.091856510715390124466 -0.018793021617177489702 0.1083061117577557575 -0.25917582659742738338 0.26082122873257868045 -0.27367303876448667577 -0.068954723343595814011 0.13141966338512733881 0.22207838167977500543 -0.10978482886750877412 -0.042877010353277761334 -0.061124946729577925297 0.18792237950211582165 -0.045607186616489471531 0.05482982645509221209 0.26989491827545769587 -0.0093750114895124504744 -0.098337614217595584187 0.31274215245190573054 0.37292952137575563487 0.0044624145878618412878 0.027175207864734238911 -0.21779051432357229845;-0.71901526969824192115 -0.55989264203547584042 -0.3641096526796335775 -0.16059294140779803439 -0.20396210193977867831 0.0094171924200892546258 -0.26747764208945967734 0.044971852069327036827 -0.16804173092979604598 0.027962701302908912759 0.12160423621600673083 -0.045050462878185149052 -0.22219439952408201466 -0.042870399417264087871 0.09649202879749840811 0.077283631848177228307 0.11855210685138990734 0.11192951384914312518 0.30723097398545345937 -0.03276535838913255394 0.28010813744192042396 -0.040270246231477777044 0.0052185524296217778231 0.18414953243903503521 -0.063885101575679600905 -0.13359630077586448493 -0.15383411647574579684 0.022566687358587321499 -0.039449280007410353344 0.069934820470608671794 -0.20125695920610278677 -0.14719460181322061021 0.04287246631050813106 -0.21660051743778624411 0.2327919166776992177 0.17130431298324805267 -0.16886403408610409227 0.044753726876627687725 0.10663348375467518458 -0.058246922555572365476 0.040510870435052817595 -0.036372280195241607492 -0.0065556286965114084209 -0.090602581829984638051 -0.23908061579220477033 0.15717825248137576311 -0.14481146773560615859 -0.088819014639215876361 -0.093092561410659135923 0.14215844918698944399 0.15270348959334401062 0.40144448628825396552 0.058841170556942171133 -0.19716556077645788769 -0.094608738772010328444 0.21512073457325950332 0.052188649140823460681 0.27291619789686943909 0.10827404445826362134 0.18490064744742837344 0.040340497965569155348 0.15996254254995370681 -0.013430563001569861825 0.01800791934433304195 0.24794810898241670394 0.031450081309677010988 -0.33496211767245248625 -0.1589819881615678332 -0.012604705003523525991 0.16012982142834430999 -0.057839467038985223346 0.14302310525559669419 -0.15649308498072142526 0.13093869645736591623 0.14588727890455488456 0.048681365075498701789 -0.11618618506173787608 0.19249062969932939637 -0.26526784444329487567 -0.1249274507251386529 -0.18597283500778816201 0.050093525060918284164 0.015052521327769163503 0.12944285314146766752 0.18388579566796953157 -0.29838382753880243747 0.13650534581649323429 -0.28580551366027751037 -0.026961103210667320546 0.035734683842344426574 -0.069645307799610395305 -0.21068997788404492111 0.080130156740531977011 0.044883409046015398935 -0.17336077583106410116 -0.040807255718500100306 -0.29201405337795788286 0.1463461813808492884;0.23056599979264341682 0.30808017708659324319 -0.35127828456404142088 -0.20021627765086361106 -0.036621116843120936346 -0.024484228035094826592 -0.25650011104595682454 -0.09718354838462914258 0.31727798230135462187 0.30875052251722123753 -0.2710188289826713226 -0.11304422753894877163 0.11339648150696721163 -0.15870944748454612894 -0.11455385003533088972 -0.088801052780493300309 -0.14445777924613370513 -0.16190033748097093502 -0.2909299352711046116 0.089273584389169532982 -0.21914705641372966838 -0.23571804540728302779 -0.24707720880783393125 -0.26354030173550407889 -0.34652072668056599358 -0.36879446663244197513 -0.17929975155246183349 -0.20365381129341025845 -0.34459563351141142551 0.076126124250306501096 1.2900436537816029059e-05 0.050835277232981958273 0.071784378122674019629 -0.036914038919847208531 -0.061013402891275513029 -0.22218757050765203243 0.13818828615396866466 -0.25908566827207113459 -0.2448601575399978747 0.0077943166525923073679 -0.25280684576343964709 0.033813052855049874346 -0.17496291001411401478 0.17722101513441038123 -0.019126142459515400179 -0.2144911682465031888 0.063325469515971899437 0.25249126162597751444 0.11487005171556032013 -0.25964261900219443024 -0.44037258061500256234 -0.16437462941217698131 -0.41327956177373798008 -0.043243971179779600034 -0.30669434264808304036 0.2858394136296089072 -0.22672438304262823583 0.0076061398056526717884 -0.048758966838599183957 0.12096945482894488899 -0.16055044449477753887 -0.041690644990512559787 -0.098698107520575881213 -0.1027416894632189881 0.11421495828834399289 -0.16106418696972651938 -0.17176117759149120423 -0.11604089800463968096 -0.18768003395886515006 0.30367541492694521965 -0.284207213449966134 -0.005408983778053147104 -0.15722876112917963387 0.22248728457758257249 -0.087976992737689857504 0.20589373199920424362 -0.087639419988363109759 -0.026054340091282893188 -0.17168588259142769648 -0.21590385817968729687 -0.17446821402062656636 -0.065270155428401477327 0.11136588745623607344 0.11357254987043853556 -0.3313582189054617988 0.034834124549063039122 0.18750943587680851676 -0.3775705090911491979 0.28389586907505803826 0.36689210703406699432 -0.27316832179875910613 -0.12717126925943539328 -0.028899162759313926779 -0.28476179457674855033 -0.079333468551319827333 -0.47202343377030175908 -0.28087088890542183384 -0.30767466484733457799;-0.72724083478076895215 0.65915115909747779011 -0.24968289495389114907 0.38780714615921180188 -0.10652019917687816086 0.13131923715371279782 0.079896057644636586659 0.32053761887540938025 0.15167313129144466277 0.29953920944747558508 -0.084830901745634804123 0.12212822274402504452 -0.1334012558370801238 0.2077919192491229361 0.30847564507894542629 0.20448057738662014926 -0.11084744591775949618 0.3055472633920452985 -0.13903337950253694122 0.24534431253782978954 -0.10039334674069928799 0.2221043425396048987 0.22195816620869807112 -0.048211746044006159595 -0.055986626914509812769 -0.089277785458539052343 0.062638673523058241432 -0.12932823772873375257 -0.15423183308872345787 0.059786808290103542196 -0.06225053794646338845 0.040994387619882437235 -0.1507262374050114262 -0.017485509039242921187 0.068940248177154009324 0.2999696537257893203 -0.11441379605029622368 0.02972696997120994819 -0.07576621076673456523 0.02396795836385240408 0.088351532924213896369 -0.10542625222244836336 -0.039754862886834566038 0.079233144392256996125 -0.099709118327675816396 0.1047613674512062748 -8.6681219562933392066e-05 0.19581281115709406326 0.12756643770804351745 0.40859942032390583755 -0.29611678961629872564 -0.28108673953827684189 0.017403799393974451332 0.095007762133595213827 -0.037064909365798606733 -0.059607146570102569061 -0.17403515595237309399 0.13347049577255534758 0.086288337842212542439 -0.20431543131547241776 -0.10543687750929062186 -0.031245860926726664458 0.073645652087417426412 -0.17971167281481909006 0.015972524217351857095 -0.1226349672674671154 -0.2577255898539730361 -0.0045904155114368620783 -0.16323270883577539747 0.016195659989479832541 -0.10350473898624260038 0.016545946166371245517 -0.033981659873009099904 -0.068147823237725071999 -0.13958232246018875689 0.23525127025319297891 -0.22764265995981317059 0.22017568626014596966 -0.052676178249831492884 4.6487750716809196194e-05 0.083757417539142606233 -0.051956620532408334667 0.11459562460186931143 0.19070151155232054063 -0.20288717890661059351 -0.0016482759375737252982 -0.014799916691516840084 0.21011927868789220808 -0.039858108496425626033 -0.15901311669058093567 0.060291159337400694607 0.10418511151715900698 0.20600241703133057025 0.14152071223554135715 0.12443805657739968884 0.17474040054098444186 0.43160474334643211813 0.16536124029563284421];

% Layer 2
b2 = [-0.7981581892967413161;0.88560149251189956843;0.93298415853431926337;-0.83727943772339707973];
LW2_1 = [0.77035965166554865036 -1.0976217784209827411 -0.026409448747245895667 0.9017549215140084895 -0.49081807453745357472 -0.94551945541587922861 1.0018348887340380315 0.96212176667511517536 -0.53815290396738779677 0.21485911010691868817 0.76789776239817109094 0.66727093916540003438 0.019311335092129192081 0.5124297039342980975 0.92796214889087447197 0.39777150398944505216 0.39124535747054967061 0.60790356584517590832 -0.4505111565068803392 -0.27719285979357033423;-0.48553731073214251301 -0.60294844086170129582 -0.77783524226474043406 -0.22925811416514332852 -1.4413137252256071896 -1.1926686014924523516 -2.1024568777331871239 -0.80111461467688893645 -0.41455872416416572612 -0.85422596001480610717 -0.050761299309351276543 0.013358844706670402677 -1.0094411499256241704 0.48759708892169500993 -0.83436583048304724386 -0.60487664089489612262 1.4437021596959245251 1.3374903901418655483 -1.3863422916572112342 0.73340477131214854012;0.098420281688896979477 0.13343528722336769898 0.28115971905237652217 -0.79776067614289203345 1.1880250023388749803 -0.34913133372938265353 -0.75244980643115966235 0.40014323741031038173 -0.43405204561235122274 -0.072138728619067254977 -0.18324556977341321939 -0.52860219722719170576 0.64895297205804447493 0.058328730902408573722 1.0167251768160296965 1.2484820728041492455 0.84857406353600928206 0.076182154404628998901 0.70556244535855561217 -0.85575329800054800167;1.0691407324508181986 -0.39501777721557290723 0.66972163677373475199 -1.3817284097280078115 -0.91053385843740342054 0.97805560955647818933 -0.21365399441479085429 -1.0405620526977779061 0.25275908312412731505 0.51789268750436878719 -0.82393429643807492013 0.34175908117027514743 0.33692749674228605894 -0.54589011056094827179 0.22605043529456353424 -0.40658364791132384219 0.60981035995309018638 -0.22644880292462207794 0.67898189829654409522 -0.85332999385077512589];

% Output 1
y1_step1.ymin = -1;
y1_step1.gain = [2.01416453153914;2.00250435239287;2.00238265164141;2.00114400865187];
y1_step1.xoffset = [0.00278838852434538;0.00034886762585451;0.000812285066350005;0.000138704221658736];

% ===== SIMULATION ========

% Format Input Arguments
isCellX = iscell(X);
if ~isCellX
    X = {X};
end

% Dimensions
TS = size(X,2); % timesteps
if ~isempty(X)
    Q = size(X{1},2); % samples/series
else
    Q = 0;
end

% Allocate Outputs
Y = cell(1,TS);

% Time loop
for ts=1:TS
    
    % Input 1
    temp = removeconstantrows_apply(X{1,ts},x1_step1);
    Xp1 = mapminmax_apply(temp,x1_step2);
    
    % Layer 1
    a1 = tansig_apply(repmat(b1,1,Q) + IW1_1*Xp1);
    
    % Layer 2
    a2 = repmat(b2,1,Q) + LW2_1*a1;
    
    % Output 1
    Y{1,ts} = mapminmax_reverse(a2,y1_step1);
end

% Final Delay States
Xf = cell(1,0);
Af = cell(2,0);

% Format Output Arguments
if ~isCellX
    Y = cell2mat(Y);
end
end

% ===== MODULE FUNCTIONS ========

% Map Minimum and Maximum Input Processing Function
function y = mapminmax_apply(x,settings)
y = bsxfun(@minus,x,settings.xoffset);
y = bsxfun(@times,y,settings.gain);
y = bsxfun(@plus,y,settings.ymin);
end

% Remove Constants Input Processing Function
function y = removeconstantrows_apply(x,settings)
y = x(settings.keep,:);
end

% Sigmoid Symmetric Transfer Function
function a = tansig_apply(n,~)
a = 2 ./ (1 + exp(-2*n)) - 1;
end

% Map Minimum and Maximum Output Reverse-Processing Function
function x = mapminmax_reverse(y,settings)
x = bsxfun(@minus,y,settings.ymin);
x = bsxfun(@rdivide,x,settings.gain);
x = bsxfun(@plus,x,settings.xoffset);
end
